-426.559 
-2444.23 
2540.58 
-1272.13 
962.893 
2672.47 
925.163 
-53.9274 
-1660.44 
1327.39 
1804.09 
-1835.86 
2727.85 
3840.75 
661.491 
4115.66 
3470.4 
1820.57 
1855.51 
1934.92 
-1192.91 
-1954.34 
-3354.26 
4771.07 
1313.46 
-964.425 
790.584 
1190.01 
-1361.41 
4338.21 
1001.62 
804.081 
-2331.19 
6494.63 
-5.15046 
-748.811 
-111.8 
777.292 
-689.519 
-2133.52 
-605.214 
-1719.86 
68.5945 
-2262.73 
913.828 
2748.1 
-445.893 
-2249.71 
1389.41 
262.823 
-1264.07 
698.213 
3453.56 
1050.21 
1020.87 
-1762.33 
2051.96 
-3288.96 
-2439.84 
5646.33 
-668.181 
-141.732 
-2365.1 
-1632.6 
-1719.54 
3718.64 
4592.49 
962.963 
-637.945 
1350.66 
3449.87 
3259.4 
-1982.09 
-357.25 
1194.19 
4532.83 
6652.32 
372.196 
-1880.24 
975.883 
2362.56 
876.742 
217.835 
128.924 
-739.661 
1927.32 
1155.07 
-954.272 
411.444 
-1002.16 
-3900.83 
1910.11 
-3466.39 
-1575.45 
2226.68 
3669.41 
5117.33 
1030.76 
-3008.02 
2032.41 
-196.537 
2850.66 
-287.137 
-1276.75 
-1503.05 
131.317 
-2794.7 
3476.36 
-1097.49 
1796.53 
1585.62 
1624.86 
-1206.9 
2516.41 
-2948.6 
2035.83 
-320.613 
1421.68 
2915.69 
925.279 
2698.46 
-2302.84 
9.61667 
920.98 
2065.98 
