4.63711e-310 
6.93418e-310 
0 
0 
-135.153 
1589.04 
798.426 
-69.1878 
1230.02 
-799.483 
-1180.34 
-613.091 
3100.03 
1789.27 
-2083.12 
-407.365 
1779.76 
355.836 
820.479 
1849.68 
748.32 
1073.64 
-489.539 
1727.72 
2099.72 
1510.53 
-935.627 
781.928 
2411.29 
939.999 
1688.71 
681.466 
177.359 
1125.68 
1200.18 
1913.72 
1549.94 
472.045 
1646.77 
1790.65 
1083.72 
2828.29 
1181.27 
-853.525 
3141.57 
1368.07 
-484.536 
1944.52 
-712.362 
-30.1443 
-120.688 
2030.27 
1290.78 
-304.4 
991.727 
-132.33 
1088.41 
-554.592 
35.9065 
2057.86 
702.295 
2421.89 
1088.67 
480.143 
564.238 
-484.521 
1852.37 
1566.17 
-1309.03 
601.45 
1937.38 
661.991 
2082.83 
-314.124 
1374.67 
1482.59 
540.121 
-951.332 
-378.512 
-171.054 
1471.83 
-550.754 
592.069 
-32.2218 
2943.81 
-731.623 
65.3825 
739.886 
1545.04 
205.873 
-1170.6 
1044.09 
2385.45 
2451.88 
-19.5704 
1372.35 
-234.498 
25.4014 
697.723 
2151.86 
1246.51 
1513.39 
1376.02 
662.698 
2327.12 
1320.04 
517.887 
2352.17 
988.692 
-99.7399 
-478.824 
2462.82 
2417.69 
311.28 
43.3251 
2143.7 
1054.95 
214.308 
-63.8928 
1813.11 
1445.54 
919.294 
1050.94 
454.545 
2533.14 
2930.95 
-232.878 
976.257 
4331.76 
1008.43 
1119.79 
2750.01 
-34.2182 
2523.71 
2832.89 
981.949 
22.1692 
2789.51 
440.766 
465.368 
852.632 
-71.5488 
-324.047 
764.801 
1001 
2203.78 
-557.908 
520.086 
-188.243 
-814.288 
347.208 
-1421.42 
713.519 
593.232 
1690.52 
316.977 
794.044 
2706.38 
2734.95 
-1070.12 
1531.23 
1414.58 
0.235994 
-331.746 
-518.966 
934.101 
1387.52 
-915.643 
140.958 
283.051 
405.149 
271.249 
643.762 
1183.53 
410.478 
464.21 
1095.85 
1274.63 
605.009 
2051.29 
1911.01 
971.026 
67.9984 
91.6179 
1127.5 
1349.54 
673.443 
2408.12 
236.619 
1259.83 
-825.383 
524.328 
114.598 
538.036 
-302.39 
1327.57 
1637.5 
2516.73 
2485.38 
599.874 
188.742 
2128.06 
205.064 
-243.394 
1664.45 
829.077 
2534 
1041.96 
1522.51 
2265.33 
-1072.45 
3052.12 
-705.055 
374.565 
-1845.55 
2043.66 
638.266 
750.491 
2234.73 
1286.31 
2545.28 
1305.68 
1185.47 
-387.847 
352.066 
1230.01 
13.802 
409.565 
1940.42 
3868.72 
1712.56 
3287.09 
1564.2 
1965.74 
-173.51 
1863.97 
1436.43 
1533.84 
170.163 
1224.87 
1588.59 
582.469 
705.997 
-367.434 
564.486 
1147.51 
1788.77 
1435.02 
478.276 
1173.8 
724.262 
1844.46 
975.202 
361.801 
1123.77 
1290.14 
3853 
-952.023 
-2180.46 
152.344 
2256.62 
2150.84 
-735.964 
2789.41 
889.9 
1675.94 
425.811 
1084.02 
-100.949 
614.743 
3387.05 
1390.68 
2162.12 
932.484 
691.349 
2169.51 
962.762 
219.091 
1055.05 
-1044.41 
1193.58 
19.6277 
547.694 
-307.289 
1006.99 
2037.28 
-215.979 
1706.02 
947.891 
1977.42 
513.857 
-11.5408 
-987.353 
2232.67 
2380.14 
349.712 
805.427 
1487.6 
569.678 
-246.32 
2426.18 
982.202 
270.493 
3521.21 
1007.28 
1556.15 
972.882 
-130.7 
1133.4 
-931.601 
2289.49 
-585.271 
891.031 
113.423 
2094.7 
1111.66 
3872.05 
1540.23 
-343.658 
609.28 
1082.99 
2467.78 
-120.989 
474.046 
-669.927 
1339.4 
-95.2189 
853.137 
2550.48 
-665.098 
72.0479 
541.829 
250.557 
676.162 
717.894 
2384.05 
-472.57 
2011.61 
168.265 
2450.95 
1030.53 
-605.371 
1802.19 
281.289 
-1165.05 
-12.1149 
-175.603 
-1056.67 
2561.97 
2633.55 
678.208 
2033.36 
1112.84 
2246.51 
-471.723 
675.836 
913.021 
2560.7 
39.4325 
737.181 
1000.92 
1649.01 
655.047 
1892.78 
2144.5 
1132.11 
343.367 
1169.88 
2724.47 
1652.13 
-205.745 
1673.31 
1500.94 
2880.5 
-84.3278 
-644.625 
2208.64 
745.978 
1320.67 
3298.33 
1502.27 
1876.9 
2477.96 
1147.96 
1684.02 
1091.52 
2071.26 
452.396 
1159.93 
2455.68 
1925.82 
1195.48 
1216 
-591.704 
1822.45 
976.46 
-1587.94 
700.732 
-183.32 
-964.033 
1084.05 
295.062 
-305.626 
2096.24 
2018.04 
814.902 
2076.32 
1789.68 
2206.37 
2336.97 
1000.51 
436.101 
2941.04 
-658.451 
1648.18 
1633.84 
1613.73 
1493.63 
145.413 
986.897 
1523.75 
2251.03 
-1170.56 
1919.76 
2704.09 
1808.15 
-183.71 
-561.699 
3248.63 
-282.424 
1415.02 
1543.8 
2330.2 
412.589 
263.48 
1016.37 
2697.25 
-937.274 
1601.5 
307.739 
1540.28 
183.207 
-1105.47 
452.881 
2148.18 
726.255 
350.052 
314.525 
2229.89 
2377.03 
3009.45 
20.9017 
-313.969 
2213.2 
3619.92 
294.451 
-218.711 
534.946 
574.177 
1126.97 
1017.41 
144.049 
1340.67 
804.819 
609.41 
723.532 
1760.74 
-626.984 
410.514 
465.604 
764.513 
2396.06 
713.426 
405.294 
1768.57 
-40.2079 
-50.853 
1331.88 
-490.522 
1424.13 
-1616.58 
1064.77 
574.211 
1260.4 
375.973 
1850.74 
854.925 
1936.71 
416.837 
601.887 
2739.3 
2182.32 
3299.9 
1045.75 
2167.41 
2339.26 
1193.96 
491.354 
1284.44 
2828.35 
1441.06 
1739.79 
369.446 
755.234 
1341.98 
1285.36 
1853.73 
943.096 
-375.654 
1213.51 
224.637 
1513.39 
526.194 
1526.39 
-640.091 
1906.94 
297.543 
-341.946 
-1038.08 
485.212 
-2655.55 
959.548 
-169.544 
205.244 
2279.44 
619.407 
-259.389 
1069.56 
1086.43 
384.563 
2666.87 
804.124 
377.233 
-1422.27 
718.539 
1026 
2924.51 
2353.28 
350.248 
1697.33 
28.6489 
-41.5603 
1669.37 
-1386.37 
521.784 
1436.71 
925.105 
-556.348 
883.583 
1576.06 
-8.92929 
448.683 
936.54 
1350.41 
1331.87 
2149.82 
-712.266 
2111.46 
1187.41 
2013.21 
-2221.22 
-549.888 
634.397 
403.092 
1450.45 
195.261 
1482.41 
259.253 
-915.491 
1311.28 
2181.91 
1308.21 
1339.24 
-132.142 
-1680.45 
936.639 
-190.111 
420.189 
1506.46 
-1392.88 
1167.08 
317.554 
2601.78 
1636.91 
651.291 
667.448 
2439.99 
2800.49 
403.639 
2049.62 
-1503.59 
1711.21 
-1428.42 
1004.77 
1209.04 
-752.453 
1979.86 
1168.66 
23.347 
1347.82 
2006.77 
2894.15 
619.476 
-550.721 
-752.17 
-613.044 
524.705 
1391.49 
-2208.2 
1437.33 
358.337 
565.161 
541.134 
809.552 
-402.614 
-587.505 
3002.18 
-170.026 
1791.72 
1252.39 
-1102.69 
20.863 
2660.09 
1921.86 
1287.84 
46.6832 
1925.91 
937.644 
2038.43 
-684.014 
1370.02 
1420.35 
685.688 
2119.15 
1549.11 
1592.45 
-821.855 
2223.25 
358.152 
-1401.14 
729.501 
3765.88 
-76.7836 
-944.099 
871.015 
964.169 
2519.88 
-763.86 
552.147 
-461.326 
-15.9825 
-1126.87 
-275.356 
-220.257 
-169.921 
166.229 
1323.31 
862.789 
900.726 
1102.26 
946.175 
3775.24 
-78.3725 
1931.34 
-746.778 
159.602 
2389.56 
952.954 
1041.29 
2095.48 
-996.519 
199.122 
2036.7 
2366.25 
1454.96 
2294.94 
1702.4 
952.274 
-88.1905 
3524.95 
2279.6 
-1341.14 
876.359 
1378.74 
323.484 
988.097 
1467.98 
445.701 
1204.31 
3784.62 
306.189 
1728.13 
1690.35 
-626.973 
1790.19 
-639.567 
1261.56 
3013.9 
34.962 
550.309 
356.461 
1432.02 
59.0812 
1431.44 
2298.98 
-211.563 
1962.18 
-1076.24 
452.085 
677.39 
1175.49 
-419.068 
1761.19 
700.29 
779.774 
765.669 
2477.55 
403.942 
2012.04 
1121.8 
-345.414 
542.258 
1206.67 
1962.09 
406.756 
971.985 
2232.77 
398.126 
1526.48 
331.739 
-683.481 
867.463 
938.414 
1516.29 
1880.5 
348.464 
2196.2 
1048.81 
-771.806 
-1146.25 
1370.8 
-1539.02 
2498.52 
2476.82 
177.273 
-289.67 
2616.22 
-791.428 
573.792 
1730.07 
1419.75 
817.164 
3050.92 
1447.99 
642.448 
39.6083 
-604.669 
-86.116 
-345.98 
-1005.01 
2194.82 
1724.88 
2903.36 
2617.44 
-360.671 
1645.63 
-2164.04 
-1244.03 
-654.676 
1540.56 
728.158 
958.562 
1616.63 
2710.44 
2397.22 
790.527 
861.867 
1519.18 
-309.439 
-750.336 
-373.301 
1519.18 
1368.2 
2641.29 
-447.01 
-486.2 
-833.694 
-2.40724 
298.92 
321.071 
1976.9 
1337.79 
1443.79 
2517.15 
995.372 
-752.484 
261.293 
-793.932 
698.223 
-1044.06 
