0 
-9.80236 
-9.13986 
-8.81737 
-5.96232 
-5.11883 
7.4154 
2.65577 
-7.12976 
-5.03429 

4.63712e-310 
6.93418e-310 
0 
0 
8.53387 
7.54164 
8.51123 
-3.00163 
-9.75392 
4.53716 

4.63711e-310 
6.93418e-310 
0 
0 
5.54925 
-1.97708 
7.29492 
4.4397 
-7.70552 
-1.10975 

4.63711e-310 
6.93418e-310 
0 
0 
4.63471 
7.5136 
-6.03516 
3.62895 
-6.82561 
-2.14636 

4.63711e-310 
6.93418e-310 
0 
0 
-0.10554 
2.77382 
5.48778 
-1.05218 
2.70226 
-1.13759 

4.63711e-310 
6.93418e-310 
0 
0 
-0.0547575 
-2.11333 
-6.94998 
-2.1983 
-5.91266 
6.43265 

4.63711e-310 
6.93418e-310 
0 
0 
-1.94164 
-2.92527 
1.76727 
-4.66523 
2.58451 
5.40908 

4.63711e-310 
6.93418e-310 
0 
0 
3.74957 
7.49765 
1.64013 
-6.61269 
8.49001 
-5.00735 

4.63711e-310 
6.93418e-310 
0 
0 
-6.83591 
0.826656 
-8.73893 
7.43581 
0.833819 
6.5469 

4.63711e-310 
6.93418e-310 
0 
0 
-2.95818 
-2.934 
7.38018 
8.39756 
-5.79996 
-6.83805 

4.63711e-310 
6.93418e-310 
0 
0 
5.65373 
3.85898 
2.70542 
-1.9504 
6.64247 
-5.89952 

4.63711e-310 
6.93418e-310 
0 
0 
2.7514 
5.56534 
0.938211 
3.62626 
4.55247 
3.69822 

4.63711e-310 
6.93418e-310 
0 
0 
-8.6839 
-4.02811 
-8.78828 
8.59223 
-5.1724 
-5.12375 

4.63711e-310 
6.93418e-310 
0 
0 
5.47792 
-7.85801 
-1.86352 
-1.18311 
-0.18544 
6.54339 

4.63711e-310 
6.93418e-310 
0 
0 
5.697 
1.0607 
4.61045 
8.45811 
7.58116 
-0.0689293 

4.63711e-310 
6.93418e-310 
0 
0 
4.60828 
-3.85255 
-0.118999 
-1.98376 
6.62498 
5.56782 

4.63711e-310 
6.93418e-310 
0 
0 
3.80909 
-4.85503 
-8.78558 
3.60637 
-4.04455 
-5.9391 

4.63711e-310 
6.93418e-310 
0 
0 
-0.0963111 
-2.00812 
1.53396 
-4.77896 
-2.92445 
-0.188441 

4.63711e-310 
6.93418e-310 
0 
0 
6.40731 
0.765233 
6.3174 
-2.08218 
-9.6049 
4.28521 

4.63711e-310 
6.93418e-310 
0 
0 
-4.91818 
2.65812 
-0.260714 
7.33285 
-3.07494 
-1.96181 

4.63711e-310 
6.93418e-310 
0 
0 
8.38816 
-8.8793 
4.45219 
0.816869 
-3.92779 
-6.94194 

4.63711e-310 
6.93418e-310 
0 
0 
6.54293 
-4.78576 
-8.61632 
-3.89294 
2.622 
2.6718 

4.63711e-310 
6.93418e-310 
0 
0 
3.73066 
5.84192 
-4.8347 
5.5201 
3.69142 
1.69262 

4.63711e-310 
6.93418e-310 
0 
0 
-5.83966 
-8.86984 
-1.19183 
8.31145 
-4.9279 
-2.0121 

4.63711e-310 
6.93418e-310 
0 
0 
-1.02124 
-7.78576 
-9.8295 
-7.80934 
-1.31476 
-5.05063 

4.63711e-310 
6.93418e-310 
0 
0 
4.63076 
-8.68339 
4.52039 
1.61414 
-0.166203 
-8.59174 

4.63711e-310 
6.93418e-310 
0 
0 
-3.9652 
3.71408 
2.66868 
-1.85081 
3.67028 
7.40891 

4.63711e-310 
6.93418e-310 
0 
0 
-6.57926 
-0.151858 
-1.92858 
4.48301 
1.53911 
6.66526 

4.63711e-310 
6.93418e-310 
0 
0 
8.50397 
7.65953 
-8.80908 
3.71254 
0.779263 
-6.87113 

4.63711e-310 
6.93418e-310 
0 
0 
-3.09162 
-9.7561 
2.61096 
1.71273 
-9.7571 
8.46771 

4.63711e-310 
6.93418e-310 
0 
0 
2.80732 
3.61799 
2.65235 
-8.75522 
-9.04665 
7.3686 

4.63711e-310 
6.93418e-310 
0 
0 
-8.61752 
-0.125995 
-5.83277 
3.7909 
5.55082 
4.66199 

4.63711e-310 
6.93418e-310 
0 
0 
-6.66677 
4.63253 
-6.78029 
5.467 
-3.0339 
4.46851 

4.63711e-310 
6.93418e-310 
0 
0 
-4.81378 
-9.63811 
-5.02482 
8.48301 
3.78234 
-3.87626 

4.63711e-310 
6.93418e-310 
0 
0 
-0.269583 
-7.82149 
-1.20468 
4.53458 
-2.08143 
-3.94767 

4.63711e-310 
6.93418e-310 
0 
0 
-1.18089 
2.66724 
-5.16161 
-5.68262 
-8.89009 
1.63807 

4.63711e-310 
6.93418e-310 
0 
0 
8.57423 
1.69364 
-4.1329 
5.48738 
-6.88791 
-9.76754 

4.63711e-310 
6.93418e-310 
0 
0 
0.751333 
8.65619 
6.43751 
2.62171 
-4.06189 
-4.93248 

4.63711e-310 
6.93418e-310 
0 
0 
8.53567 
1.92514 
-3.09047 
5.48015 
5.54876 
-9.75669 

4.63711e-310 
6.93418e-310 
0 
0 
2.57989 
1.74807 
8.50101 
-9.6029 
-2.20343 
-7.86248 

4.63711e-310 
6.93418e-310 
0 
0 
-4.83915 
6.7401 
-8.7448 
3.66334 
-0.196847 
8.34654 

4.63711e-310 
6.93418e-310 
0 
0 
-6.83947 
0.885618 
-9.67671 
-0.193249 
-3.2637 
-2.2025 

4.63711e-310 
6.93418e-310 
0 
0 
4.5503 
-1.11454 
-3.10945 
3.59475 
-8.73133 
-3.10508 

4.63711e-310 
6.93418e-310 
0 
0 
4.75482 
-2.93277 
8.28461 
5.45253 
3.73248 
-0.104106 

4.63711e-310 
6.93418e-310 
0 
0 
-8.60289 
-4.05077 
-9.71647 
-8.60357 
-2.36036 
-3.18073 

4.63711e-310 
6.93418e-310 
0 
0 
-4.03007 
-7.89892 
8.46248 
-3.7596 
5.47659 
-8.68055 

4.63711e-310 
6.93418e-310 
0 
0 
7.55664 
-0.116176 
4.75525 
7.45117 
8.47152 
-0.924254 

4.63711e-310 
6.93418e-310 
0 
0 
-3.08171 
-2.19038 
-8.00067 
8.5002 
-7.93536 
-0.348506 

4.63711e-310 
6.93418e-310 
0 
0 
3.82259 
1.84407 
-0.931363 
2.52716 
-0.0958628 
6.55569 

4.63711e-310 
6.93418e-310 
0 
0 
-6.92772 
1.69299 
5.51685 
0.047242 
-7.83027 
4.37935 

4.63711e-310 
6.93418e-310 
0 
0 
-0.122809 
2.75242 
-3.99892 
1.74369 
2.71958 
-2.05035 

4.63711e-310 
6.93418e-310 
0 
0 
-0.184819 
-0.17134 
-9.66515 
8.39403 
-5.93212 
-7.96411 

4.63711e-310 
6.93418e-310 
0 
0 
5.63089 
1.74429 
-3.09445 
1.67313 
-7.80457 
-0.177704 

4.63711e-310 
6.93418e-310 
0 
0 
0.952475 
-3.85923 
-0.105468 
-0.234879 
7.38904 
-6.68205 

4.63711e-310 
6.93418e-310 
0 
0 
2.802 
7.49627 
-5.05039 
-4.95902 
-1.1797 
-8.87399 

4.63711e-310 
6.93418e-310 
0 
0 
2.78374 
1.86543 
-1.0776 
-8.57966 
5.60495 
-6.93133 

4.63711e-310 
6.93418e-310 
0 
0 
1.67128 
-9.8741 
7.43696 
-7.74663 
-8.02096 
-2.09591 

4.63711e-310 
6.93418e-310 
0 
0 
-9.59219 
-3.79814 
4.507 
6.41878 
0.77505 
-4.84776 

4.63711e-310 
6.93418e-310 
0 
0 
-2.91341 
-1.14189 
0.716661 
5.49059 
-7.67581 
8.37013 

4.63711e-310 
6.93418e-310 
0 
0 
5.63109 
-0.200172 
-8.87831 
-4.10949 
-5.84731 
-6.9304 

4.63711e-310 
6.93418e-310 
0 
0 
-9.65333 
-9.73788 
4.74714 
-2.96655 
7.52356 
7.6445 

4.63711e-310 
6.93418e-310 
0 
0 
-9.58793 
5.64195 
-8.77394 
-6.86277 
1.55484 
4.59492 

4.63711e-310 
6.93418e-310 
0 
0 
1.79554 
-2.03158 
7.45632 
2.76851 
4.60652 
-7.71779 

4.63711e-310 
6.93418e-310 
0 
0 
-0.00922289 
-1.02066 
-1.00948 
-5.01256 
-2.03811 
8.35545 

4.63711e-310 
6.93418e-310 
0 
0 
-4.84111 
1.80885 
-8.73623 
7.452 
4.55314 
-4.97467 

4.63711e-310 
6.93418e-310 
0 
0 
6.65927 
1.73328 
-4.80554 
-2.91186 
6.51036 
1.79515 

4.63711e-310 
6.93418e-310 
0 
0 
-2.98665 
6.66002 
-9.69039 
5.59339 
3.53156 
-2.16333 

4.63711e-310 
6.93418e-310 
0 
0 
4.66146 
-0.100318 
2.51673 
-2.15616 
-2.17869 
-9.68779 

4.63711e-310 
6.93418e-310 
0 
0 
-0.00109319 
8.59618 
7.49575 
-1.95986 
8.41264 
5.61837 

4.63711e-310 
6.93418e-310 
0 
0 
1.84379 
-8.66806 
5.62332 
-5.79382 
6.48353 
-7.68725 

4.63711e-310 
6.93418e-310 
0 
0 
-3.95109 
-9.78436 
-2.17804 
0.69232 
-8.82196 
-1.20008 

4.63711e-310 
6.93418e-310 
0 
0 
1.83127 
6.47195 
-5.08032 
0.914272 
-4.89754 
-5.95022 

4.63711e-310 
6.93418e-310 
0 
0 
-9.57186 
-1.07474 
-7.73244 
-2.175 
-5.0727 
8.35714 

4.63711e-310 
6.93418e-310 
0 
0 
8.57576 
4.65955 
5.57977 
-9.67787 
-4.03364 
6.45155 

4.63711e-310 
6.93418e-310 
0 
0 
4.76344 
-2.08063 
1.77115 
-9.51339 
8.4684 
-1.13701 

4.63711e-310 
6.93418e-310 
0 
0 
-3.00648 
0.733842 
3.53452 
-8.54726 
-9.80008 
8.29218 

4.63711e-310 
6.93418e-310 
0 
0 
-2.89334 
-9.69047 
6.49372 
4.58514 
1.73532 
4.63187 

4.63711e-310 
6.93418e-310 
0 
0 
-1.94592 
0.862518 
6.46931 
2.73447 
-6.72399 
6.42135 

4.63711e-310 
6.93418e-310 
0 
0 
1.92568 
-6.71423 
-1.11755 
-3.81962 
5.5008 
-8.83632 

4.63711e-310 
6.93418e-310 
0 
0 
0.811499 
0.876175 
7.33798 
-2.03061 
-3.95559 
-0.115788 

4.63711e-310 
6.93418e-310 
0 
0 
-9.66286 
-6.84014 
-6.72146 
-0.162073 
-2.18863 
8.47266 

4.63711e-310 
6.93418e-310 
0 
0 
1.77552 
-6.77604 
6.45386 
2.7193 
-1.10027 
-3.93456 

4.63711e-310 
6.93418e-310 
0 
0 
-4.83565 
-2.96304 
-8.83982 
4.53238 
-3.0072 
-2.16123 

4.63711e-310 
6.93418e-310 
0 
0 
-6.68911 
1.78533 
-3.07992 
7.3266 
-7.813 
-2.21048 

4.63711e-310 
6.93418e-310 
0 
0 
4.54675 
-3.07706 
-7.05272 
-5.03851 
-8.81512 
1.66525 

4.63711e-310 
6.93418e-310 
0 
0 
7.46483 
-1.99174 
-4.74601 
8.31059 
4.72299 
2.80861 

4.63711e-310 
6.93418e-310 
0 
0 
-5.89428 
0.814236 
-6.95376 
-5.90575 
-8.74088 
6.40482 

4.63711e-310 
6.93418e-310 
0 
0 
0.891355 
-4.85859 
-4.04008 
3.61277 
-7.77234 
-3.22327 

4.63711e-310 
6.93418e-310 
0 
0 
-5.71208 
-4.91805 
-0.371572 
-1.22645 
-5.91586 
-3.98223 

4.63711e-310 
6.93418e-310 
0 
0 
4.74286 
-3.03882 
2.79179 
-0.189689 
0.771026 
4.64603 

4.63711e-310 
6.93418e-310 
0 
0 
-7.61851 
-1.06842 
3.75789 
-1.85618 
4.57124 
6.51959 

4.63711e-310 
6.93418e-310 
0 
0 
4.45201 
-4.07063 
1.5811 
-3.89934 
-2.05233 
-2.04587 

4.63711e-310 
6.93418e-310 
0 
0 
6.56534 
0.756848 
-8.84074 
-7.6676 
-8.84509 
1.49117 

4.63711e-310 
6.93418e-310 
0 
0 
-1.08729 
-8.66954 
-2.22258 
5.43786 
-0.203688 
-6.7977 

4.63711e-310 
6.93418e-310 
0 
0 
6.36392 
1.92445 
-3.9557 
-1.09315 
-0.122742 
-3.94115 

4.63711e-310 
6.93418e-310 
0 
0 
-1.14241 
-1.27539 
6.30763 
-0.18129 
-5.89128 
0.802913 

4.63711e-310 
6.93418e-310 
0 
0 
2.76325 
2.69593 
5.44827 
-8.64468 
-1.14311 
7.45628 

4.63711e-310 
6.93418e-310 
0 
0 
2.60285 
-5.04342 
7.2824 
8.3954 
-3.90403 
-1.17996 

4.63711e-310 
6.93418e-310 
0 
0 
-8.68393 
-5.9256 
0.729939 
0.701756 
-3.13279 
4.51826 

4.63711e-310 
6.93418e-310 
0 
0 
5.54149 
-7.75326 
-0.210526 
-5.87757 
4.316 
0.907411 

4.63711e-310 
6.93418e-310 
0 
0 
3.70116 
0.832315 
4.56346 
-4.90538 
-7.91149 
2.67535 

4.63711e-310 
6.93418e-310 
0 
0 
-7.78788 
-7.5653 
-3.91474 
2.5516 
2.66224 
2.75387 

4.63711e-310 
6.93418e-310 
0 
0 
-4.87181 
4.5458 
1.58995 
-2.99457 
-9.73571 
-3.25223 

4.63711e-310 
6.93418e-310 
0 
0 
-4.86188 
-4.03411 
8.50851 
1.7749 
0.801715 
3.77461 

4.63711e-310 
6.93418e-310 
0 
0 
-2.89129 
-1.9728 
-8.55056 
2.69738 
2.51436 
-3.17614 

4.63711e-310 
6.93418e-310 
0 
0 
1.88862 
8.71954 
-9.59572 
-5.74578 
8.33534 
1.65836 

4.63711e-310 
6.93418e-310 
0 
0 
7.48937 
1.89719 
-7.9538 
7.53239 
-5.92975 
3.45591 

4.63711e-310 
6.93418e-310 
0 
0 
-1.23983 
7.47399 
-0.397608 
-6.79063 
-7.02622 
-6.97532 

4.63711e-310 
6.93418e-310 
0 
0 
-3.88417 
-0.223782 
5.37697 
-2.92899 
-3.13688 
4.40079 

4.63711e-310 
6.93418e-310 
0 
0 
-2.93276 
-6.73031 
7.45602 
-1.17269 
2.69345 
4.62977 

4.63711e-310 
6.93418e-310 
0 
0 
8.49539 
8.73671 
6.40039 
-8.7293 
3.74103 
-8.78581 

4.63711e-310 
6.93418e-310 
0 
0 
-2.24322 
-1.13808 
2.64732 
5.58262 
5.50675 
-9.55061 

4.63711e-310 
6.93418e-310 
0 
0 
3.59141 
-0.230286 
-5.87141 
-5.72675 
1.58752 
-1.22717 

4.63711e-310 
6.93418e-310 
0 
0 
-3.83014 
-0.071185 
-9.60646 
-5.84573 
1.71178 
3.61589 

4.63711e-310 
6.93418e-310 
0 
0 
1.94819 
7.63697 
5.42698 
-4.85525 
-3.09477 
-5.99875 

4.63711e-310 
6.93418e-310 
0 
0 
0.759117 
-3.98137 
-5.92547 
-3.08253 
-7.91694 
5.34689 

4.63711e-310 
6.93418e-310 
0 
0 
-6.84848 
-7.83296 
7.54279 
-6.92056 
7.43816 
-7.82163 

4.63711e-310 
6.93418e-310 
0 
0 
-0.0184175 
0.807589 
6.41448 
8.21338 
-2.00084 
-5.97678 

4.63711e-310 
6.93418e-310 
0 
0 
-1.99391 
7.45604 
2.75645 
1.78704 
-4.88817 
5.44378 

4.63711e-310 
6.93418e-310 
0 
0 
-8.81791 
2.74203 
-1.16917 
8.61378 
-2.17367 
-3.03113 

4.63711e-310 
6.93418e-310 
0 
0 
5.4556 
-4.97844 
4.51287 
-5.03094 
-5.89892 
4.57778 

4.63711e-310 
6.93418e-310 
0 
0 
4.60025 
-0.0985299 
4.55788 
-9.5825 
3.66261 
-9.77359 

4.63711e-310 
6.93418e-310 
0 
0 
-8.77975 
3.71922 
-6.96146 
-6.69004 
-5.06168 
0.630167 

4.63711e-310 
6.93418e-310 
0 
0 
-7.84059 
5.51151 
7.42752 
6.60552 
-7.80132 
3.5585 

4.63711e-310 
6.93418e-310 
0 
0 
-8.64437 
-9.65852 
-1.18094 
5.41022 
-8.92269 
-6.92551 

4.63711e-310 
6.93418e-310 
0 
0 
-9.62449 
-7.69372 
-2.16382 
-6.88534 
-5.24937 
2.6157 

4.63711e-310 
6.93418e-310 
0 
0 
2.75505 
3.65857 
5.40194 
0.753714 
-5.69486 
-0.243405 

4.63711e-310 
6.93418e-310 
0 
0 
-1.95849 
-2.97875 
-7.04446 
6.39199 
-6.9247 
-5.9339 

4.63711e-310 
6.93418e-310 
0 
0 
-5.9885 
-5.00212 
-7.053 
1.7798 
-1.37426 
-8.79241 

4.63711e-310 
6.93418e-310 
0 
0 
-6.84708 
-7.88475 
-2.11868 
8.36825 
-4.94077 
1.64356 

4.63711e-310 
6.93418e-310 
0 
0 
-5.89121 
-8.72307 
-7.64107 
-3.01291 
7.41248 
6.70453 

4.63711e-310 
6.93418e-310 
0 
0 
0.701175 
-4.97952 
-4.01422 
-2.97451 
-1.35817 
-3.08033 

4.63711e-310 
6.93418e-310 
0 
0 
-8.86663 
8.4029 
0.818074 
-0.0245635 
-0.250644 
5.54538 

4.63711e-310 
6.93418e-310 
0 
0 
4.66872 
3.60273 
-8.92186 
-0.212397 
-7.88492 
-9.86165 

4.63711e-310 
6.93418e-310 
0 
0 
-3.9629 
-4.02353 
-4.88329 
2.54042 
-5.10395 
-4.11766 

4.63711e-310 
6.93418e-310 
0 
0 
-7.78406 
-3.11569 
4.58089 
2.9601 
6.53353 
-4.89831 

4.63711e-310 
6.93418e-310 
0 
0 
1.8782 
-4.82706 
-4.80194 
2.77355 
4.62922 
8.46727 

4.63711e-310 
6.93418e-310 
0 
0 
-7.64969 
-6.80296 
-4.05701 
-3.05049 
-2.44916 
0.754928 

4.63711e-310 
6.93418e-310 
0 
0 
-1.02599 
7.58356 
8.49703 
5.48572 
-6.82908 
-1.17866 

4.63711e-310 
6.93418e-310 
0 
0 
4.72943 
-4.917 
-1.92221 
1.64094 
7.54778 
4.66841 

4.63711e-310 
6.93418e-310 
0 
0 
5.51151 
1.81808 
-5.92247 
3.59357 
0.760268 
-4.93336 

4.63711e-310 
6.93418e-310 
0 
0 
6.57952 
-2.99701 
-6.8704 
-1.17975 
-6.7454 
7.35955 

4.63711e-310 
6.93418e-310 
0 
0 
8.43704 
-1.07883 
5.5561 
8.38477 
2.87397 
-3.83273 

4.63711e-310 
6.93418e-310 
0 
0 
7.38948 
-0.0942143 
-2.11316 
4.51754 
-5.84712 
0.767861 

4.63711e-310 
6.93418e-310 
0 
0 
-3.9356 
-3.93387 
6.60224 
-1.02977 
4.53573 
1.85556 

4.63711e-310 
6.93418e-310 
0 
0 
5.5542 
1.80159 
-7.66923 
1.54016 
0.759835 
5.61857 

4.63711e-310 
6.93418e-310 
0 
0 
-3.8906 
-5.81898 
5.51923 
-4.01814 
8.47143 
-9.72814 

4.63711e-310 
6.93418e-310 
0 
0 
-1.12904 
-9.77404 
-5.04019 
7.40584 
-7.78205 
1.69318 

4.63711e-310 
6.93418e-310 
0 
0 
-6.71337 
3.79174 
3.69778 
6.56896 
8.39756 
-3.79804 

4.63711e-310 
6.93418e-310 
0 
0 
-6.77424 
3.64254 
4.58687 
8.39335 
-9.64494 
3.62256 

4.63711e-310 
6.93418e-310 
0 
0 
5.53485 
3.65734 
-0.260106 
-8.57544 
-5.83968 
1.55089 

4.63711e-310 
6.93418e-310 
0 
0 
5.51928 
-0.999049 
7.43009 
0.780649 
-3.84492 
6.42524 

4.63711e-310 
6.93418e-310 
0 
0 
-6.85456 
-7.77328 
0.625157 
7.4552 
3.82591 
-6.80277 

4.63711e-310 
6.93418e-310 
0 
0 
5.73051 
-2.04356 
-6.80275 
-3.91234 
-1.0671 
8.33478 

4.63711e-310 
6.93418e-310 
0 
0 
-4.00216 
-8.78899 
3.58351 
-5.99992 
1.64184 
-9.71009 

4.63711e-310 
6.93418e-310 
0 
0 
-0.102191 
4.70229 
4.38187 
2.63772 
-4.92462 
-1.08731 

4.63711e-310 
6.93418e-310 
0 
0 
-3.95363 
4.67875 
6.31202 
-8.63187 
-8.95549 
-3.18753 

4.63711e-310 
6.93418e-310 
0 
0 
6.45145 
-9.75519 
-3.08486 
-6.74715 
6.42119 
0.814659 

4.63711e-310 
6.93418e-310 
0 
0 
-6.86036 
-3.23884 
5.37976 
-0.153115 
-8.96554 
-8.8102 

4.63711e-310 
6.93418e-310 
0 
0 
7.55565 
-1.11163 
2.52063 
5.50896 
-6.61871 
-3.9238 

4.63711e-310 
6.93418e-310 
0 
0 
-8.63903 
-9.75936 
-1.156 
-2.18145 
-5.97528 
7.43113 

4.63711e-310 
6.93418e-310 
0 
0 
-2.01434 
5.54969 
-5.86429 
-5.779 
-4.05846 
6.45458 

4.63711e-310 
6.93418e-310 
0 
0 
4.57465 
2.84424 
-0.347921 
-9.52379 
-8.83942 
2.4225 

4.63711e-310 
6.93418e-310 
0 
0 
-4.67867 
-0.0315773 
-0.231125 
-3.86683 
-0.285602 
-4.0035 

4.63711e-310 
6.93418e-310 
0 
0 
-0.0462165 
3.68211 
3.77229 
3.57215 
0.862118 
1.84961 

4.63711e-310 
6.93418e-310 
0 
0 
-0.119353 
5.62317 
-7.70454 
-9.46167 
-2.15813 
4.43913 

4.63711e-310 
6.93418e-310 
0 
0 
-1.90214 
-1.89529 
2.47609 
-0.386879 
-3.14342 
-6.78263 

4.63711e-310 
6.93418e-310 
0 
0 
3.8134 
-3.97224 
-1.99766 
-2.08554 
1.8471 
8.46991 

4.63711e-310 
6.93418e-310 
0 
0 
2.76494 
7.5372 
-1.02855 
-3.04358 
0.780852 
6.32277 

4.63711e-310 
6.93418e-310 
0 
0 
-9.61709 
4.78813 
4.72339 
2.76868 
6.50792 
3.72201 

4.63711e-310 
6.93418e-310 
0 
0 
8.46079 
1.94072 
-6.72174 
-2.04896 
1.70042 
4.48838 

4.63711e-310 
6.93418e-310 
0 
0 
-1.0354 
5.68224 
7.35361 
7.47796 
-6.92007 
-8.94943 

4.63711e-310 
6.93418e-310 
0 
0 
-4.87495 
-3.9151 
-0.25672 
1.81434 
0.575498 
-3.10156 

4.63711e-310 
6.93418e-310 
0 
0 
5.6536 
-5.8836 
-9.80043 
8.44981 
-5.86021 
-6.01179 

4.63711e-310 
6.93418e-310 
0 
0 
-5.79582 
-8.65849 
2.75774 
3.76867 
8.41665 
-0.882797 

4.63711e-310 
6.93418e-310 
0 
0 
1.80653 
-5.88681 
2.53077 
-7.80461 
-2.30617 
-5.96507 

4.63711e-310 
6.93418e-310 
0 
0 
3.70259 
-5.78181 
-6.79874 
-3.83934 
4.60353 
-2.04302 

4.63711e-310 
6.93418e-310 
0 
0 
0.856603 
-2.08767 
4.58339 
-5.81422 
3.44678 
-3.87405 

4.63711e-310 
6.93418e-310 
0 
0 
6.50591 
6.56938 
-1.05211 
-0.191725 
0.901675 
7.51364 

4.63711e-310 
6.93418e-310 
0 
0 
-5.8984 
8.58123 
7.30981 
-9.61266 
-5.18612 
-5.13238 

4.63711e-310 
6.93418e-310 
0 
0 
-7.67927 
-0.175126 
-5.81682 
-0.110494 
-4.21624 
7.41008 

4.63711e-310 
6.93418e-310 
0 
0 
-4.91564 
-0.180067 
-0.122905 
3.55936 
1.63669 
2.78836 

4.63711e-310 
6.93418e-310 
0 
0 
2.85322 
4.77315 
-9.71729 
-6.75341 
4.54811 
6.36343 

4.63711e-310 
6.93418e-310 
0 
0 
0.940336 
1.62768 
-0.109845 
4.39315 
-7.75404 
5.4035 

4.63711e-310 
6.93418e-310 
0 
0 
0.883188 
-4.93644 
-8.85742 
-8.61841 
1.69803 
2.52099 

4.63711e-310 
6.93418e-310 
0 
0 
6.5115 
-2.12723 
-8.87652 
6.43699 
-5.87283 
-1.13407 

4.63711e-310 
6.93418e-310 
0 
0 
-4.96723 
-9.74646 
5.61697 
4.48456 
-3.06199 
7.58566 

4.63711e-310 
6.93418e-310 
0 
0 
-5.92107 
-9.73577 
-5.10454 
6.44022 
-7.97615 
-1.11823 

4.63711e-310 
6.93418e-310 
0 
0 
4.69823 
-6.81135 
3.69353 
-2.0076 
2.61539 
7.44447 

4.63711e-310 
6.93418e-310 
0 
0 
-5.84416 
-9.7625 
7.50474 
2.60353 
4.59475 
-4.83881 

4.63711e-310 
6.93418e-310 
0 
0 
0.752312 
4.56517 
2.64511 
-1.72307 
2.66286 
-3.01055 

4.63711e-310 
6.93418e-310 
0 
0 
-8.62284 
-6.7246 
-3.08855 
-2.02893 
0.626 
1.6608 

4.63711e-310 
6.93418e-310 
0 
0 
8.55292 
-1.07016 
-4.06347 
6.53356 
-7.73787 
-7.96343 

4.63711e-310 
6.93418e-310 
0 
0 
7.56727 
-5.76264 
2.74047 
0.753686 
1.82397 
7.62346 

4.63711e-310 
6.93418e-310 
0 
0 
3.73729 
-2.90257 
-1.14533 
3.52152 
-2.93709 
1.78112 

4.63711e-310 
6.93418e-310 
0 
0 
-6.91759 
5.60369 
-2.22067 
-0.0576741 
-5.01564 
-7.96253 

4.63711e-310 
6.93418e-310 
0 
0 
-4.87945 
-4.94831 
-8.76334 
7.49902 
5.56472 
2.85013 

4.63711e-310 
6.93418e-310 
0 
0 
1.68445 
7.54103 
-8.88478 
2.65457 
-6.03839 
-2.23552 

4.63711e-310 
6.93418e-310 
0 
0 
-7.78313 
-8.80642 
-9.72838 
-7.75997 
0.510003 
-5.06871 

4.63711e-310 
6.93418e-310 
0 
0 
1.76961 
-6.73577 
-1.14557 
-4.72522 
2.70213 
6.46323 

4.63711e-310 
6.93418e-310 
0 
0 
5.68546 
-2.11184 
2.77541 
-1.27413 
-7.88349 
6.50783 

4.63711e-310 
6.93418e-310 
0 
0 
-6.8627 
-7.80553 
-3.06953 
-6.95174 
5.56249 
7.6479 

4.63711e-310 
6.93418e-310 
0 
0 
5.64408 
-1.08781 
2.83181 
-4.62243 
3.66267 
8.45549 

4.63711e-310 
6.93418e-310 
0 
0 
-3.01818 
-1.04882 
8.46519 
-9.54828 
7.46747 
2.76738 

4.63711e-310 
6.93418e-310 
0 
0 
2.80579 
-2.07807 
-4.98449 
2.56775 
-5.9566 
-8.72 

4.63711e-310 
6.93418e-310 
0 
0 
-6.73968 
-0.246414 
-0.0498305 
6.63977 
-3.11235 
6.3652 

4.63711e-310 
6.93418e-310 
0 
0 
-9.64533 
-1.06744 
-0.324306 
0.828325 
-0.488912 
-9.70061 

4.63711e-310 
6.93418e-310 
0 
0 
-0.00382743 
1.86765 
-8.69364 
4.53879 
6.55083 
-4.90807 

4.63711e-310 
6.93418e-310 
0 
0 
-0.203409 
-3.84969 
-4.76607 
1.66757 
4.48755 
1.74193 

4.63711e-310 
6.93418e-310 
0 
0 
-5.92124 
-4.84868 
-8.78117 
-3.74714 
5.36957 
-6.75502 

4.63711e-310 
6.93418e-310 
0 
0 
6.64281 
-4.94469 
-8.71876 
8.55496 
2.84734 
8.47695 

4.63711e-310 
6.93418e-310 
0 
0 
6.46993 
-7.91197 
-5.18637 
3.65457 
-4.17127 
-9.73061 

4.63711e-310 
6.93418e-310 
0 
0 
8.49435 
8.66596 
-4.88625 
-9.4433 
6.64886 
2.73883 

4.63711e-310 
6.93418e-310 
0 
0 
-5.73477 
4.76468 
-2.37617 
-4.86042 
-4.10542 
-8.9752 

4.63711e-310 
6.93418e-310 
0 
0 
0.0673523 
-5.82345 
0.0283702 
4.60214 
7.6303 
6.60518 

4.63711e-310 
6.93418e-310 
0 
0 
4.5564 
-5.96091 
2.63312 
-9.61821 
6.48965 
-0.10119 

4.63711e-310 
6.93418e-310 
0 
0 
-6.85327 
-8.64029 
-6.68318 
0.927916 
7.40065 
-0.108971 

4.63711e-310 
6.93418e-310 
0 
0 
-6.82055 
-6.78635 
4.53704 
3.82091 
-0.252963 
-4.99439 

4.63711e-310 
6.93418e-310 
0 
0 
8.39228 
-2.0961 
1.73939 
-5.8304 
-8.86229 
-1.21209 

4.63711e-310 
6.93418e-310 
0 
0 
-6.83971 
6.53143 
5.44288 
-4.03398 
-2.21103 
3.61534 

4.63711e-310 
6.93418e-310 
0 
0 
4.52971 
-4.9871 
-5.88184 
-0.296046 
0.680423 
-4.00547 

4.63711e-310 
6.93418e-310 
0 
0 
3.60187 
3.75833 
-2.0857 
7.49159 
7.43392 
-0.95625 

4.63711e-310 
6.93418e-310 
0 
0 
-3.00016 
0.731737 
0.826458 
-6.61283 
-0.398664 
0.853671 

4.63711e-310 
6.93418e-310 
0 
0 
-9.67042 
-0.142161 
5.5588 
5.60148 
-9.80117 
8.38238 

4.63711e-310 
6.93418e-310 
0 
0 
8.54037 
8.4954 
2.70262 
-2.86902 
-0.19725 
-7.01889 

4.63711e-310 
6.93418e-310 
0 
0 
-5.82466 
-3.08343 
6.24672 
-2.93 
-6.94254 
-3.07329 

4.63711e-310 
6.93418e-310 
0 
0 
-5.67901 
6.64569 
-6.81186 
-8.62044 
-4.03466 
4.40026 

4.63711e-310 
6.93418e-310 
0 
0 
8.5235 
-4.95459 
-1.13677 
-5.87219 
-5.76581 
8.36359 

4.63711e-310 
6.93418e-310 
0 
0 
8.18752 
-4.97204 
-3.08166 
-2.12531 
-5.93842 
-0.305111 

4.63711e-310 
6.93418e-310 
0 
0 
-3.10459 
-2.10573 
3.51898 
-7.80996 
-9.09717 
-9.82766 

4.63711e-310 
6.93418e-310 
0 
0 
-6.81049 
-9.72192 
-9.79985 
2.75856 
6.60875 
6.58488 

4.63711e-310 
6.93418e-310 
0 
0 
-5.00978 
-8.77007 
-6.83267 
1.58801 
-8.88469 
-2.23984 

4.63711e-310 
6.93418e-310 
0 
0 
-4.78869 
-0.167117 
-3.95726 
8.33925 
1.77063 
-3.0436 

4.63711e-310 
6.93418e-310 
0 
0 
-4.89066 
5.59418 
-5.9494 
7.35863 
-1.23677 
-8.79013 

4.63711e-310 
6.93418e-310 
0 
0 
1.82202 
-6.69738 
8.27601 
4.51252 
-1.93129 
-9.52457 

4.63711e-310 
6.93418e-310 
0 
0 
-1.22488 
-4.1875 
5.51508 
5.73277 
6.54634 
-9.62562 

4.63711e-310 
6.93418e-310 
0 
0 
-5.80441 
-9.76283 
6.67861 
-9.76922 
7.49717 
7.65433 

4.63711e-310 
6.93418e-310 
0 
0 
3.72304 
5.70761 
-9.669 
2.60857 
1.67881 
-2.07719 

4.63711e-310 
6.93418e-310 
0 
0 
2.73121 
-9.67024 
6.60199 
-8.62968 
5.54358 
3.67223 

4.63711e-310 
6.93418e-310 
0 
0 
1.68967 
-7.80137 
5.45398 
-1.10053 
-7.80974 
-3.98103 

4.63711e-310 
6.93418e-310 
0 
0 
2.77267 
7.4693 
-8.79774 
2.65574 
-6.8142 
2.54422 

4.63711e-310 
6.93418e-310 
0 
0 
-1.91953 
7.58439 
-5.72534 
6.65238 
0.709612 
2.60134 

4.63711e-310 
6.93418e-310 
0 
0 
-7.6132 
-1.0903 
0.692914 
0.057862 
0.601316 
-3.80871 

4.63711e-310 
6.93418e-310 
0 
0 
-6.71855 
8.57177 
0.00548475 
5.54853 
1.71729 
3.64036 

4.63711e-310 
6.93418e-310 
0 
0 
-1.12536 
5.59767 
1.66704 
3.79103 
2.67849 
-6.89369 

4.63711e-310 
6.93418e-310 
0 
0 
-3.97991 
-6.77987 
-4.63441 
-0.0366887 
2.61831 
5.5018 

4.63711e-310 
6.93418e-310 
0 
0 
-6.80611 
-6.82045 
-7.7963 
2.71137 
8.41357 
-3.94264 

4.63711e-310 
6.93418e-310 
0 
0 
-3.0779 
-8.87507 
8.45571 
8.39658 
4.66329 
-5.60395 

4.63711e-310 
6.93418e-310 
0 
0 
7.51935 
-1.99337 
-0.157315 
-5.915 
7.45456 
-5.86826 

4.63711e-310 
6.93418e-310 
0 
0 
-9.49429 
-1.09327 
-3.04418 
-7.75441 
4.46931 
7.53011 

4.63711e-310 
6.93418e-310 
0 
0 
-1.02627 
7.59516 
3.50891 
-9.37709 
-1.2739 
-7.78135 

4.63711e-310 
6.93418e-310 
0 
0 
0.795405 
-3.00055 
-4.13161 
-7.65681 
-7.10024 
-6.12027 

4.63711e-310 
6.93418e-310 
0 
0 
8.50394 
-6.84002 
-3.95034 
-4.06717 
6.54686 
2.90016 

4.63711e-310 
6.93418e-310 
0 
0 
-6.75839 
6.52209 
-2.98459 
0.0861564 
-1.19451 
5.36581 

4.63711e-310 
6.93418e-310 
0 
0 
-8.71981 
5.72058 
8.34806 
-3.05858 
-0.321408 
-7.72159 

4.63711e-310 
6.93418e-310 
0 
0 
1.68978 
-8.73782 
2.46592 
-0.0568242 
-2.05067 
-6.8056 

4.63711e-310 
6.93418e-310 
0 
0 
2.73114 
6.58079 
-9.76588 
-9.70957 
-3.28703 
-1.26346 

4.63711e-310 
6.93418e-310 
0 
0 
0.85944 
-1.05067 
-1.0217 
0.897068 
-1.93282 
8.21124 

4.63711e-310 
6.93418e-310 
0 
0 
-6.63726 
1.93009 
6.53692 
5.76664 
3.63055 
6.63064 

4.63711e-310 
6.93418e-310 
0 
0 
2.73065 
8.50316 
-7.77529 
2.7717 
1.80943 
-1.26553 

4.63711e-310 
6.93418e-310 
0 
0 
3.63601 
0.88982 
0.682503 
5.37285 
3.64834 
-9.61414 

4.63711e-310 
6.93418e-310 
0 
0 
4.6132 
-3.0448 
0.764146 
-5.81741 
5.53131 
-4.92996 

4.63711e-310 
6.93418e-310 
0 
0 
-5.80317 
-2.01105 
8.36766 
-3.80125 
2.5127 
0.792291 

4.63711e-310 
6.93418e-310 
0 
0 
-7.74729 
7.57469 
0.674554 
-3.98715 
-4.17689 
-5.03701 

4.63711e-310 
6.93418e-310 
0 
0 
-8.73473 
2.75583 
-0.225267 
1.79548 
6.47582 
7.47951 

4.63711e-310 
6.93418e-310 
0 
0 
-0.209583 
3.59541 
-4.93901 
-1.17499 
-9.7077 
0.483217 

4.63711e-310 
6.93418e-310 
0 
0 
-2.9298 
-4.905 
-2.94293 
7.38223 
0.888569 
2.75219 

4.63711e-310 
6.93418e-310 
0 
0 
1.69094 
-9.81255 
3.73593 
3.64751 
-5.94094 
1.70011 

4.63711e-310 
6.93418e-310 
0 
0 
0.832154 
6.73119 
-3.01867 
5.63753 
8.53907 
-9.69339 

4.63711e-310 
6.93418e-310 
0 
0 
-2.0004 
8.5947 
-2.03481 
4.67394 
7.45539 
0.797704 

4.63711e-310 
6.93418e-310 
0 
0 
-3.10181 
-5.03081 
-9.68643 
-7.70298 
8.48306 
6.54782 

4.63711e-310 
6.93418e-310 
0 
0 
-2.02729 
-7.65877 
-0.0787983 
-2.14469 
-0.239191 
-0.997027 

4.63711e-310 
6.93418e-310 
0 
0 
1.71937 
-8.86047 
8.52367 
-9.66001 
5.46285 
-1.13859 

4.63711e-310 
6.93418e-310 
0 
0 
-1.93422 
-6.74102 
-0.039501 
-8.55722 
6.38136 
-1.19738 

4.63711e-310 
6.93418e-310 
0 
0 
-1.97458 
1.81922 
-6.87599 
7.3362 
1.83406 
2.70397 

4.63711e-310 
6.93418e-310 
0 
0 
1.74078 
-2.11735 
3.53228 
-5.76678 
-2.20447 
-7.82113 

4.63711e-310 
6.93418e-310 
0 
0 
6.42001 
0.837514 
5.51871 
-2.90656 
1.68624 
-5.06594 

4.63711e-310 
6.93418e-310 
0 
0 
0.830166 
-2.10575 
6.48527 
3.7503 
7.55394 
-0.950724 

4.63711e-310 
6.93418e-310 
0 
0 
-6.87881 
-3.88805 
-6.87626 
6.53558 
-0.299019 
-7.03786 

4.63711e-310 
6.93418e-310 
0 
0 
-0.985463 
-4.75186 
-4.92171 
6.51098 
2.88029 
6.49536 

4.63711e-310 
6.93418e-310 
0 
0 
-3.93811 
-0.150636 
-0.176625 
4.68977 
-5.99753 
-2.29864 

4.63711e-310 
6.93418e-310 
0 
0 
-0.0292897 
-7.68312 
-4.91066 
2.62485 
1.82531 
-2.95124 

4.63711e-310 
6.93418e-310 
0 
0 
-0.96345 
-5.77419 
-7.80564 
-3.85316 
2.62195 
-3.06434 

4.63711e-310 
6.93418e-310 
0 
0 
-1.10804 
8.56149 
5.62689 
0.87769 
3.7657 
1.79646 

4.63711e-310 
6.93418e-310 
0 
0 
-8.68083 
7.55007 
-4.93136 
7.36722 
-6.01357 
-1.26156 

4.63711e-310 
6.93418e-310 
0 
0 
-0.33734 
-4.00041 
6.39164 
-5.8614 
-5.10688 
0.595474 

4.63711e-310 
6.93418e-310 
0 
0 
8.60704 
-9.68946 
-5.77516 
4.52599 
0.926249 
7.4866 

4.63711e-310 
6.93418e-310 
0 
0 
-3.98906 
-8.78868 
3.67996 
-5.95593 
8.44241 
-0.0856276 

4.63711e-310 
6.93418e-310 
0 
0 
7.41806 
-4.88925 
-1.22472 
-3.02017 
-7.72391 
3.52232 

4.63711e-310 
6.93418e-310 
0 
0 
0.824984 
-4.91298 
-8.62573 
4.55583 
2.59912 
1.58702 

4.63711e-310 
6.93418e-310 
0 
0 
-1.07793 
-4.03286 
8.28757 
4.61413 
-0.258273 
-0.169337 

4.63711e-310 
6.93418e-310 
0 
0 
-3.93176 
-5.01118 
8.36718 
4.45343 
-4.94618 
2.81857 

4.63711e-310 
6.93418e-310 
0 
0 
5.76011 
-7.68715 
-4.93376 
6.55598 
6.61846 
7.44582 

4.63711e-310 
6.93418e-310 
0 
0 
0.681934 
1.84024 
-2.05011 
-0.170494 
-9.93728 
8.30925 

4.63711e-310 
6.93418e-310 
0 
0 
0.736645 
-8.74539 
-4.04059 
-7.79753 
6.34805 
-6.85591 

4.63711e-310 
6.93418e-310 
0 
0 
-3.87807 
-2.92273 
-9.72664 
-5.7697 
5.44184 
-1.1989 

4.63711e-310 
6.93418e-310 
0 
0 
-9.85229 
4.81345 
-7.8146 
-8.58183 
6.51541 
3.5934 

4.63711e-310 
6.93418e-310 
0 
0 
0.748335 
5.59688 
-2.05355 
-0.996924 
-0.14814 
6.38062 

4.63711e-310 
6.93418e-310 
0 
0 
-1.82884 
3.76916 
-1.19764 
-1.13392 
-0.257094 
-4.01327 

4.63711e-310 
6.93418e-310 
0 
0 
-6.75583 
-1.00807 
-8.75966 
6.44558 
-0.108987 
7.54626 

4.63711e-310 
6.93418e-310 
0 
0 
-0.996932 
-6.01376 
-6.02225 
-1.24363 
-4.96538 
-3.16526 

4.63711e-310 
6.93418e-310 
0 
0 
0.839279 
-4.91685 
-8.8569 
2.64841 
-3.96224 
-5.87809 

4.63711e-310 
6.93418e-310 
0 
0 
0.903032 
-5.90905 
5.44397 
1.63791 
-8.75806 
7.51103 

4.63711e-310 
6.93418e-310 
0 
0 
-7.90754 
-8.9603 
8.42432 
-4.05891 
-7.24223 
-5.98833 

4.63711e-310 
6.93418e-310 
0 
0 
-1.00103 
6.57945 
-2.08085 
-7.82162 
-7.94778 
3.44866 

4.63711e-310 
6.93418e-310 
0 
0 
-9.55814 
3.72471 
0.635302 
-0.979568 
-4.17133 
-5.04731 

4.63711e-310 
6.93418e-310 
0 
0 
-5.95482 
-9.66358 
2.7414 
-5.76654 
8.30741 
5.60359 

4.63711e-310 
6.93418e-310 
0 
0 
4.63059 
0.794937 
4.75075 
4.62601 
3.6666 
6.49744 

4.63711e-310 
6.93418e-310 
0 
0 
-9.66649 
-0.0578677 
8.50291 
0.948488 
8.35459 
-3.85444 

4.63711e-310 
6.93418e-310 
0 
0 
8.54385 
0.851734 
8.33095 
-5.89564 
-2.95541 
7.50195 

4.63711e-310 
6.93418e-310 
0 
0 
7.66074 
7.53073 
4.44342 
2.76009 
-5.05456 
-1.11128 

4.63711e-310 
6.93418e-310 
0 
0 
0.824489 
2.83242 
3.66081 
0.857465 
6.5207 
-3.84624 

4.63711e-310 
6.93418e-310 
0 
0 
-5.94357 
5.51604 
8.36791 
-5.8372 
-9.89223 
8.42463 

4.63711e-310 
6.93418e-310 
0 
0 
-1.01577 
-1.16235 
8.22947 
-5.76264 
-7.88464 
-6.01393 

4.63711e-310 
6.93418e-310 
0 
0 
5.57236 
-7.92149 
1.53735 
-7.83578 
-5.01788 
-8.8398 

4.63711e-310 
6.93418e-310 
0 
0 
-0.186974 
0.710639 
2.42374 
-0.178057 
-3.11988 
-4.06495 

4.63711e-310 
6.93418e-310 
0 
0 
-6.93995 
-9.77328 
-8.88912 
3.64699 
-6.22939 
-7.02659 

4.63711e-310 
6.93418e-310 
0 
0 
-9.694 
-2.96538 
-5.99777 
1.75215 
-1.22599 
-7.86429 

4.63711e-310 
6.93418e-310 
0 
0 
4.60938 
-3.08188 
3.66491 
-0.986984 
-1.05839 
2.64755 

4.63711e-310 
6.93418e-310 
0 
0 
-7.79256 
-7.80269 
8.4024 
4.74963 
5.57849 
-6.76567 

4.63711e-310 
6.93418e-310 
0 
0 
-1.11797 
6.49832 
-5.99498 
3.57855 
-8.71647 
-5.1119 

4.63711e-310 
6.93418e-310 
0 
0 
6.43768 
-6.91798 
-6.97083 
-5.95595 
-6.05211 
-5.90806 

4.63711e-310 
6.93418e-310 
0 
0 
-1.04395 
-9.66461 
7.35225 
-2.05118 
4.67973 
-2.94047 

4.63711e-310 
6.93418e-310 
0 
0 
-7.88367 
-5.84059 
7.46525 
7.56275 
-0.223868 
8.45871 

4.63711e-310 
6.93418e-310 
0 
0 
3.76822 
-3.89443 
-7.86593 
7.58497 
-0.0411389 
7.4396 

4.63711e-310 
6.93418e-310 
0 
0 
5.70984 
8.579 
-1.04864 
-2.83177 
8.44128 
-4.98371 

4.63711e-310 
6.93418e-310 
0 
0 
-2.05315 
2.8045 
5.66618 
7.41172 
0.797744 
7.33679 

4.63711e-310 
6.93418e-310 
0 
0 
-2.87501 
0.89791 
2.48044 
-8.70284 
-8.93805 
-6.88955 

4.63711e-310 
6.93418e-310 
0 
0 
-5.89674 
1.67299 
1.66236 
3.78334 
0.701988 
1.69239 

4.63711e-310 
6.93418e-310 
0 
0 
-1.00503 
-2.09996 
3.71703 
7.39354 
-3.9395 
7.48046 

4.63711e-310 
6.93418e-310 
0 
0 
-7.79432 
-5.8473 
5.46781 
4.58924 
7.4511 
-0.985114 

4.63711e-310 
6.93418e-310 
0 
0 
0.766912 
6.53515 
7.27713 
-5.79906 
-6.91892 
-8.8692 

4.63711e-310 
6.93418e-310 
0 
0 
4.71487 
-9.67346 
-2.9369 
-7.68781 
7.46644 
3.61605 

4.63711e-310 
6.93418e-310 
0 
0 
0.789507 
-5.88688 
3.63073 
8.36 
1.79739 
-5.86299 

4.63711e-310 
6.93418e-310 
0 
0 
-0.983573 
6.65726 
-0.0223879 
-1.97095 
2.59916 
2.68998 

4.63711e-310 
6.93418e-310 
0 
0 
-8.74036 
3.72172 
1.72981 
-1.91534 
5.52498 
-7.86353 

4.63711e-310 
6.93418e-310 
0 
0 
7.42101 
1.88766 
2.65564 
1.70525 
0.966123 
-4.9238 

4.63711e-310 
6.93418e-310 
0 
0 
2.70107 
-1.09275 
0.675022 
-6.8196 
-1.2753 
-4.87806 

4.63711e-310 
6.93418e-310 
0 
0 
-6.80241 
8.5192 
-1.36775 
-2.9398 
-9.72588 
-4.1415 

4.63711e-310 
6.93418e-310 
0 
0 
-6.77442 
-5.85297 
-8.48928 
-2.15878 
-2.16624 
2.62568 

4.63711e-310 
6.93418e-310 
0 
0 
-0.284989 
7.475 
3.4128 
-7.74884 
-8.88363 
-6.02836 

4.63711e-310 
6.93418e-310 
0 
0 
-5.803 
-0.019109 
-1.15084 
2.78551 
6.53052 
-8.80851 

4.63711e-310 
6.93418e-310 
0 
0 
-2.86476 
-7.71992 
-3.96217 
-8.60853 
-0.37819 
4.51396 

4.63711e-310 
6.93418e-310 
0 
0 
-9.63226 
3.6819 
-1.19327 
4.61714 
-2.08777 
-0.236537 

4.63711e-310 
6.93418e-310 
0 
0 
5.65724 
4.76514 
5.5666 
-4.9836 
-1.9982 
2.65881 

4.63711e-310 
6.93418e-310 
0 
0 
-7.66364 
-0.051921 
-2.0578 
-1.99235 
0.697907 
8.35657 

4.63711e-310 
6.93418e-310 
0 
0 
-2.06537 
-3.02844 
-5.03565 
6.53995 
3.82007 
-4.92747 

4.63711e-310 
6.93418e-310 
0 
0 
0.942572 
-9.61125 
2.80361 
8.46918 
7.6516 
3.75391 

4.63711e-310 
6.93418e-310 
0 
0 
-7.99929 
-9.89375 
6.45156 
-6.88434 
-9.99452 
-1.17803 

4.63711e-310 
6.93418e-310 
0 
0 
-3.04473 
-3.09915 
-3.23034 
-5.90793 
-6.12847 
-8.91588 

4.63711e-310 
6.93418e-310 
0 
0 
3.50231 
-1.03081 
2.57133 
-2.09951 
-1.96295 
0.790803 

4.63711e-310 
6.93418e-310 
0 
0 
8.33914 
-7.79258 
1.69566 
-1.14771 
-5.05213 
1.65663 

4.63711e-310 
6.93418e-310 
0 
0 
-9.63455 
-2.9717 
-3.10258 
8.4048 
0.661242 
-5.93742 

4.63711e-310 
6.93418e-310 
0 
0 
2.73938 
3.70952 
-8.89992 
8.4616 
-7.8765 
-8.77039 

4.63711e-310 
6.93418e-310 
0 
0 
5.6192 
-4.80545 
2.81756 
-2.05132 
3.76869 
7.28907 

4.63711e-310 
6.93418e-310 
0 
0 
-4.80572 
-0.171694 
-8.79541 
1.78941 
-1.14971 
1.66131 

4.63711e-310 
6.93418e-310 
0 
0 
-3.84486 
7.54104 
-6.92031 
8.36301 
-1.11232 
-5.03096 

4.63711e-310 
6.93418e-310 
0 
0 
-7.69686 
-0.107107 
-5.88605 
4.60775 
0.615181 
-0.174854 

4.63711e-310 
6.93418e-310 
0 
0 
6.48994 
-5.85789 
7.43024 
7.46297 
5.70628 
-2.81529 

4.63711e-310 
6.93418e-310 
0 
0 
2.75197 
-9.76492 
7.46075 
5.40821 
0.810183 
-1.94867 

4.63711e-310 
6.93418e-310 
0 
0 
-0.200988 
-7.79835 
-0.206253 
3.5902 
-0.192908 
2.73646 

4.63711e-310 
6.93418e-310 
0 
0 
-6.0022 
8.47275 
-2.99899 
-7.56736 
-1.41358 
5.46636 

4.63711e-310 
6.93418e-310 
0 
0 
-9.59579 
7.62399 
-3.03366 
0.801682 
-3.19375 
7.33306 

4.63711e-310 
6.93418e-310 
0 
0 
-8.63547 
1.72461 
-4.90405 
-6.75742 
-4.20879 
4.54926 

4.63711e-310 
6.93418e-310 
0 
0 
7.48933 
8.6156 
-5.1029 
-5.0264 
-8.83208 
-3.16622 

4.63711e-310 
6.93418e-310 
0 
0 
-0.156722 
1.77866 
-5.07682 
7.37801 
-6.72414 
-5.92511 

4.63711e-310 
6.93418e-310 
0 
0 
6.5771 
7.58985 
-0.313701 
-7.87406 
-8.78495 
-2.22993 

4.63711e-310 
6.93418e-310 
0 
0 
6.48034 
-8.71775 
-5.04221 
3.52599 
7.51756 
-3.94145 

4.63711e-310 
6.93418e-310 
0 
0 
7.48588 
1.69023 
-5.01078 
4.55496 
-7.95162 
-9.89119 

4.63711e-310 
6.93418e-310 
0 
0 
-8.76542 
-6.80252 
-4.12366 
-6.8134 
-5.13887 
-2.01783 

4.63711e-310 
6.93418e-310 
0 
0 
2.84913 
-2.98187 
-1.98588 
7.37262 
3.67426 
-3.93682 

4.63711e-310 
6.93418e-310 
0 
0 
-9.83408 
-1.06185 
-7.87201 
-4.7684 
5.43936 
-5.97232 

4.63711e-310 
6.93418e-310 
0 
0 
-5.69521 
-3.00094 
-3.93761 
0.87766 
0.587298 
-5.73638 

4.63711e-310 
6.93418e-310 
0 
0 
-7.89458 
-5.84079 
-1.29243 
-7.67856 
-7.97393 
-7.02052 

4.63711e-310 
6.93418e-310 
0 
0 
-1.11088 
0.77743 
1.45867 
0.930255 
-2.03273 
-2.00969 

4.63711e-310 
6.93418e-310 
0 
0 
6.64488 
2.8183 
-1.02213 
5.46817 
5.57889 
1.81114 

4.63711e-310 
6.93418e-310 
0 
0 
-9.70895 
-1.15888 
-2.16484 
-0.883328 
0.635709 
-7.9829 

4.63711e-310 
6.93418e-310 
0 
0 
-7.63707 
-7.71653 
-0.0645291 
3.66654 
2.56176 
7.45332 

4.63711e-310 
6.93418e-310 
0 
0 
3.60284 
3.72671 
5.47938 
4.47258 
-0.16911 
-5.77388 

4.63711e-310 
6.93418e-310 
0 
0 
-8.83251 
-6.04492 
-6.99642 
-8.63896 
-5.1674 
-4.07138 

4.63711e-310 
6.93418e-310 
0 
0 
-0.961723 
1.88561 
-9.75492 
8.4884 
-4.08988 
-4.99115 

4.63711e-310 
6.93418e-310 
0 
0 
6.4661 
-9.69983 
-9.82565 
-4.98292 
-3.12609 
-0.30013 

4.63711e-310 
6.93418e-310 
0 
0 
-2.11357 
2.68581 
-8.80643 
-6.67419 
4.50031 
8.44488 

4.63711e-310 
6.93418e-310 
0 
0 
-2.08831 
-7.77674 
-0.192432 
-2.02809 
2.60657 
-1.12043 

4.63711e-310 
6.93418e-310 
0 
0 
-2.03407 
0.849222 
-5.80295 
-2.18247 
-1.23047 
0.74145 

4.63711e-310 
6.93418e-310 
0 
0 
5.43772 
-5.01145 
5.34461 
-0.309518 
-9.74531 
-6.83952 

4.63711e-310 
6.93418e-310 
0 
0 
0.776112 
-7.80116 
-5.92073 
-7.83138 
-6.95989 
6.42069 

4.63711e-310 
6.93418e-310 
0 
0 
-1.09505 
-9.69267 
-1.04875 
-4.82755 
-2.28799 
-0.357048 

4.63711e-310 
6.93418e-310 
0 
0 
-1.09495 
-1.08678 
-0.130674 
-4.92073 
8.48104 
-7.75846 

4.63711e-310 
6.93418e-310 
0 
0 
-0.257138 
3.66561 
6.50299 
3.56493 
-2.20688 
-9.67582 

4.63711e-310 
6.93418e-310 
0 
0 
-8.79805 
-0.0770306 
4.5833 
-7.62497 
4.48001 
-6.89188 

4.63711e-310 
6.93418e-310 
0 
0 
5.43549 
1.74093 
3.5538 
-3.96017 
-1.12505 
-3.94646 

4.63711e-310 
6.93418e-310 
0 
0 
-5.86194 
-1.08758 
-1.15587 
2.63352 
4.48537 
-0.151675 

4.63711e-310 
6.93418e-310 
0 
0 
3.77951 
-3.93931 
5.37961 
-1.0736 
-2.05087 
0.767167 

4.63711e-310 
6.93418e-310 
0 
0 
6.5372 
-7.82116 
0.653113 
-5.77886 
-2.31251 
-9.77226 

4.63711e-310 
6.93418e-310 
0 
0 
-6.91626 
8.45763 
6.48963 
2.67043 
1.75967 
-4.91518 

4.63711e-310 
6.93418e-310 
0 
0 
5.72989 
-0.0755141 
4.61406 
2.4419 
0.933856 
4.51198 

4.63711e-310 
6.93418e-310 
0 
0 
3.72089 
6.43535 
2.6572 
6.49752 
-8.62515 
3.41566 

4.63711e-310 
6.93418e-310 
0 
0 
1.7489 
7.69697 
0.790823 
-8.90944 
-6.93606 
5.46116 

4.63711e-310 
6.93418e-310 
0 
0 
7.61004 
3.69077 
5.49685 
-4.86766 
-3.0723 
-3.13172 

4.63711e-310 
6.93418e-310 
0 
0 
4.66119 
-8.90609 
7.58638 
-9.70501 
8.47897 
1.81858 

4.63711e-310 
6.93418e-310 
0 
0 
2.79621 
-3.03014 
8.22737 
6.44797 
-8.65423 
-7.78713 

4.63711e-310 
6.93418e-310 
0 
0 
3.58798 
-7.70202 
6.30708 
-0.142336 
-2.05955 
-4.89711 

4.63711e-310 
6.93418e-310 
0 
0 
3.71205 
5.60984 
-0.179227 
-5.9076 
-2.17126 
-8.86945 

4.63711e-310 
6.93418e-310 
0 
0 
-5.87743 
5.6876 
-6.92346 
-6.91854 
2.51436 
-6.00497 

4.63711e-310 
6.93418e-310 
0 
0 
-8.74209 
-0.260136 
0.604239 
7.46801 
-9.71656 
0.714182 

4.63711e-310 
6.93418e-310 
0 
0 
0.712949 
-0.158336 
1.72823 
-7.63002 
4.62897 
2.76745 

4.63711e-310 
6.93418e-310 
0 
0 
-2.99848 
1.77133 
-7.67696 
0.803553 
-3.17018 
4.4421 

4.63711e-310 
6.93418e-310 
0 
0 
-4.79619 
-4.05352 
2.53411 
-2.22509 
-6.02927 
-3.94521 

4.63711e-310 
6.93418e-310 
0 
0 
5.62406 
-9.79173 
-2.96389 
-8.65364 
3.59476 
3.73961 

4.63711e-310 
6.93418e-310 
0 
0 
4.61566 
6.49099 
3.35385 
-1.1863 
-9.64123 
-8.74718 

4.63711e-310 
6.93418e-310 
0 
0 
0.877061 
-7.78352 
-2.96097 
5.52482 
-0.028833 
1.72956 

4.63711e-310 
6.93418e-310 
0 
0 
0.78767 
-9.77444 
-6.88117 
7.39505 
-8.91728 
6.39186 

4.63711e-310 
6.93418e-310 
0 
0 
6.59193 
3.87932 
-7.65921 
0.879894 
4.73028 
3.46538 

4.63711e-310 
6.93418e-310 
0 
0 
-4.8308 
6.5489 
-6.82539 
2.70091 
2.53587 
-4.03141 

4.63711e-310 
6.93418e-310 
0 
0 
8.54828 
0.844916 
-8.92423 
3.61396 
-8.80845 
4.6386 

4.63711e-310 
6.93418e-310 
0 
0 
0.800886 
-2.06389 
4.51922 
-4.87355 
0.598343 
-6.87218 

4.63711e-310 
6.93418e-310 
0 
0 
6.53036 
-9.77738 
-6.92146 
2.6246 
-4.88302 
5.48691 

4.63711e-310 
6.93418e-310 
0 
0 
4.74485 
4.79128 
-6.78936 
6.51957 
-1.01265 
5.62999 

4.63711e-310 
6.93418e-310 
0 
0 
3.67914 
6.65952 
-7.82527 
-8.78862 
-7.89213 
-4.16206 

4.63711e-310 
6.93418e-310 
0 
0 
-9.60044 
0.807158 
-5.99421 
4.5634 
-5.9922 
-1.33681 

4.63711e-310 
6.93418e-310 
0 
0 
-3.14872 
8.59174 
5.43377 
-7.69322 
-2.23362 
-5.16707 

4.63711e-310 
6.93418e-310 
0 
0 
8.48293 
5.74237 
2.7965 
2.55768 
-1.03996 
5.48863 

4.63711e-310 
6.93418e-310 
0 
0 
-1.04125 
4.67734 
-5.05741 
-5.06128 
-0.267914 
-1.17062 

4.63711e-310 
6.93418e-310 
0 
0 
-2.93292 
-5.89376 
-7.85121 
4.51824 
-4.11352 
-6.90364 

4.63711e-310 
6.93418e-310 
0 
0 
-8.81271 
-3.95683 
-0.246264 
3.52397 
-9.79281 
1.58528 

4.63711e-310 
6.93418e-310 
0 
0 
-4.84727 
8.46227 
1.73823 
0.0120085 
-5.04573 
3.43679 

4.63711e-310 
6.93418e-310 
0 
0 
4.72914 
-9.78164 
-9.64424 
-1.0955 
4.72597 
7.46941 

4.63711e-310 
6.93418e-310 
0 
0 
-7.78339 
5.59515 
-7.90937 
-5.7732 
-8.20171 
-8.12433 

4.63711e-310 
6.93418e-310 
0 
0 
3.63834 
0.912183 
-3.97244 
7.467 
2.76536 
-6.85686 

4.63711e-310 
6.93418e-310 
0 
0 
-8.62931 
-7.93703 
-1.08527 
2.67492 
-6.83053 
5.56022 

4.63711e-310 
6.93418e-310 
0 
0 
-5.82378 
7.5018 
4.46814 
-3.82179 
-7.91306 
-1.27969 

4.63711e-310 
6.93418e-310 
0 
0 
-4.93536 
1.80728 
-0.384014 
-6.66186 
-0.381563 
-6.94617 

4.63711e-310 
6.93418e-310 
0 
0 
-5.91605 
-9.63068 
4.58235 
3.65777 
3.65046 
0.7724 

4.63711e-310 
6.93418e-310 
0 
0 
-4.78267 
4.59755 
-5.9993 
1.7567 
-8.84839 
8.21095 

4.63711e-310 
6.93418e-310 
0 
0 
-1.06174 
4.68409 
-5.78497 
8.34061 
0.873415 
4.65564 

4.63711e-310 
6.93418e-310 
0 
0 
0.676502 
-4.11147 
-8.02896 
7.51941 
-9.93092 
5.45035 

4.63711e-310 
6.93418e-310 
0 
0 
6.60089 
1.01768 
4.74722 
3.64331 
4.70778 
6.5663 

4.63711e-310 
6.93418e-310 
0 
0 
-8.7398 
-8.86923 
-7.86639 
-4.93097 
-9.7907 
2.63804 

4.63711e-310 
6.93418e-310 
0 
0 
-1.03442 
-7.77975 
2.49002 
0.763114 
-9.65155 
2.54844 

4.63711e-310 
6.93418e-310 
0 
0 
-7.81508 
-4.02009 
7.57628 
7.54775 
1.68159 
-4.97115 

4.63711e-310 
6.93418e-310 
0 
0 
1.75167 
-2.87154 
-3.05317 
3.63151 
2.70838 
-9.74935 

4.63711e-310 
6.93418e-310 
0 
0 
1.72496 
5.68165 
2.65744 
6.62254 
8.53156 
-4.82316 

4.63711e-310 
6.93418e-310 
0 
0 
-3.90506 
-7.91291 
6.32064 
5.46598 
-9.59668 
-1.11335 

4.63711e-310 
6.93418e-310 
0 
0 
2.6943 
7.49547 
4.43187 
2.72268 
-5.92771 
-9.78737 

4.63711e-310 
6.93418e-310 
0 
0 
-6.72686 
-7.78154 
-9.62109 
-1.9895 
8.41261 
8.50922 

4.63711e-310 
6.93418e-310 
0 
0 
-9.58758 
-4.89514 
4.59169 
-0.988976 
2.6485 
-2.96522 

4.63711e-310 
6.93418e-310 
0 
0 
-7.72267 
1.85462 
3.66062 
-0.120789 
-4.90758 
8.29254 

4.63711e-310 
6.93418e-310 
0 
0 
3.56751 
-2.96766 
-0.235185 
-3.95056 
4.47697 
-8.60472 

4.63711e-310 
6.93418e-310 
0 
0 
-3.08712 
4.59578 
2.45968 
-7.80598 
-5.11439 
-4.12206 

4.63711e-310 
6.93418e-310 
0 
0 
-9.75087 
4.67401 
-9.76863 
-3.87253 
6.52169 
6.48329 

4.63711e-310 
6.93418e-310 
0 
0 
-1.92103 
-4.75427 
-2.06579 
0.762295 
0.688365 
4.6275 

4.63711e-310 
6.93418e-310 
0 
0 
-4.81699 
5.62305 
0.778763 
8.19902 
-0.0812132 
-2.06369 

4.63711e-310 
6.93418e-310 
0 
0 
2.56024 
-6.94516 
-4.11547 
2.77137 
-7.88815 
-6.91734 

4.63711e-310 
6.93418e-310 
0 
0 
-9.83664 
1.74054 
-9.94321 
-9.62498 
-7.29879 
-7.1169 

4.63711e-310 
6.93418e-310 
0 
0 
-6.7315 
7.55902 
2.38895 
-3.69218 
-1.20099 
-6.91755 

4.63711e-310 
6.93418e-310 
0 
0 
6.57298 
-8.74626 
2.77439 
4.50914 
-3.96925 
4.58773 

4.63711e-310 
6.93418e-310 
0 
0 
-5.86702 
8.60042 
-4.04613 
5.53456 
0.7515 
-8.78169 

4.63711e-310 
6.93418e-310 
0 
0 
-1.93831 
0.961117 
-7.86487 
-8.69323 
6.40002 
-6.9853 

4.63711e-310 
6.93418e-310 
0 
0 
2.76213 
7.63008 
-4.02205 
-4.06629 
2.68306 
1.885 

4.63711e-310 
6.93418e-310 
0 
0 
7.4777 
-0.0809491 
-0.352718 
-5.82548 
-3.94372 
-7.71778 

4.63711e-310 
6.93418e-310 
0 
0 
-8.6948 
-7.78717 
6.365 
4.57637 
-6.87225 
-4.06365 

4.63711e-310 
6.93418e-310 
0 
0 
6.58249 
-6.96076 
-0.226507 
4.49854 
-8.80855 
-5.98491 

4.63711e-310 
6.93418e-310 
0 
0 
6.54678 
7.6026 
5.68264 
-1.8336 
3.61865 
3.77395 

4.63711e-310 
6.93418e-310 
0 
0 
5.52096 
-5.0424 
6.37414 
2.79967 
-9.68962 
2.60131 

4.63711e-310 
6.93418e-310 
0 
0 
-6.73766 
4.48285 
6.44244 
2.67731 
-0.196032 
-0.250712 

4.63711e-310 
6.93418e-310 
0 
0 
5.4588 
-4.90618 
8.32615 
-5.87318 
-5.09821 
-4.96164 

4.63711e-310 
6.93418e-310 
0 
0 
4.50253 
-4.80769 
4.56512 
1.78047 
-0.133566 
-2.92936 

4.63711e-310 
6.93418e-310 
0 
0 
5.70911 
2.90111 
-0.12336 
-5.00919 
8.49855 
-9.66013 

4.63711e-310 
6.93418e-310 
0 
0 
-0.0693798 
0.813669 
2.75876 
-8.55148 
5.54562 
7.6166 

4.63711e-310 
6.93418e-310 
0 
0 
5.65964 
-4.81053 
-5.93181 
-6.8518 
-1.26326 
-3.05164 

4.63711e-310 
6.93418e-310 
0 
0 
-7.807 
7.5411 
-3.20851 
-5.81239 
4.48639 
-4.10971 

4.63711e-310 
6.93418e-310 
0 
0 
7.46741 
-2.10889 
0.947637 
-6.77663 
-0.173218 
8.45931 

4.63711e-310 
6.93418e-310 
0 
0 
-1.8624 
3.643 
-1.10555 
2.65776 
6.35464 
-0.177097 

4.63711e-310 
6.93418e-310 
0 
0 
-4.12972 
-7.00926 
0.860374 
2.70731 
-3.18441 
8.46479 

4.63711e-310 
6.93418e-310 
0 
0 
-6.69392 
1.77854 
-3.84246 
-3.91216 
5.53375 
5.63468 

4.63711e-310 
6.93418e-310 
0 
0 
-3.83198 
-4.73861 
6.46213 
4.51555 
-0.207668 
-3.85131 

4.63711e-310 
6.93418e-310 
0 
0 
-5.74657 
-4.77296 
-7.80212 
-3.00449 
-0.266851 
-0.162399 

4.63711e-310 
6.93418e-310 
0 
0 
7.65786 
-0.950864 
6.39449 
5.48892 
-2.01341 
-4.84016 

4.63711e-310 
6.93418e-310 
0 
0 
-2.05216 
2.60074 
8.35245 
6.50915 
-9.7013 
-1.17775 

4.63711e-310 
6.93418e-310 
0 
0 
5.71221 
-2.04951 
1.78578 
8.22379 
-2.84905 
3.73362 

4.63711e-310 
6.93418e-310 
0 
0 
-0.231212 
-4.87213 
5.36977 
-2.88516 
-7.72619 
-5.83172 

4.63711e-310 
6.93418e-310 
0 
0 
-9.7358 
-0.204233 
1.67723 
8.453 
-9.77359 
1.69108 

4.63711e-310 
6.93418e-310 
0 
0 
-6.93089 
7.59695 
1.55757 
4.6341 
-1.21111 
-9.74831 

4.63711e-310 
6.93418e-310 
0 
0 
-4.85367 
-1.94579 
2.71119 
3.91914 
5.48116 
-3.02151 

4.63711e-310 
6.93418e-310 
0 
0 
-9.66298 
3.70275 
0.712131 
-5.93996 
-5.16909 
0.865205 

4.63711e-310 
6.93418e-310 
0 
0 
7.56973 
-7.72999 
-8.74276 
-0.198302 
-1.08886 
0.766152 

4.63711e-310 
6.93418e-310 
0 
0 
7.61435 
8.45457 
-1.10135 
-6.72625 
2.67985 
6.55218 

4.63711e-310 
6.93418e-310 
0 
0 
-5.63889 
6.61671 
-6.75636 
-2.86309 
3.6312 
-2.00797 

4.63711e-310 
6.93418e-310 
0 
0 
3.71684 
-6.80743 
0.857553 
4.43096 
-3.88596 
1.71058 

4.63711e-310 
6.93418e-310 
0 
0 
-1.17098 
-9.79174 
0.631631 
-0.317627 
-7.01252 
-5.8759 

4.63711e-310 
6.93418e-310 
0 
0 
-6.80631 
-6.81122 
3.52307 
-3.97516 
-0.353927 
-1.98863 

4.63711e-310 
6.93418e-310 
0 
0 
-8.83638 
6.59837 
4.47538 
-6.01796 
-6.14141 
-8.89153 

4.63711e-310 
6.93418e-310 
0 
0 
4.67922 
-6.92465 
-0.0904676 
-3.98915 
2.69576 
-3.97127 

4.63711e-310 
6.93418e-310 
0 
0 
-2.11677 
5.70971 
-4.93341 
-7.56581 
3.44921 
-3.15001 

4.63711e-310 
6.93418e-310 
0 
0 
2.68341 
2.76737 
-7.68194 
-2.09989 
7.52074 
8.61942 

4.63711e-310 
6.93418e-310 
0 
0 
-4.91704 
-1.12108 
8.37697 
-2.8818 
-3.08041 
1.64082 

4.63711e-310 
6.93418e-310 
0 
0 
-7.74263 
-5.76789 
3.52369 
8.29461 
-2.97626 
-2.0017 

4.63711e-310 
6.93418e-310 
0 
0 
-2.97472 
3.83185 
1.72437 
-8.717 
4.6209 
-7.79819 

4.63711e-310 
6.93418e-310 
0 
0 
-4.99138 
3.64112 
-6.78099 
-5.65497 
2.53888 
-0.295275 

4.63711e-310 
6.93418e-310 
0 
0 
-4.91982 
3.5913 
-2.06239 
8.30827 
-4.89895 
-3.16659 

4.63711e-310 
6.93418e-310 
0 
0 
-6.78429 
-2.0303 
4.43648 
-2.20891 
-1.47276 
-7.83211 

4.63711e-310 
6.93418e-310 
0 
0 
-5.74904 
5.60574 
6.48107 
-1.93158 
1.56061 
0.728446 

4.63711e-310 
6.93418e-310 
0 
0 
-5.82916 
4.6821 
5.51943 
2.66468 
3.54343 
2.85745 

4.63711e-310 
6.93418e-310 
0 
0 
-3.93386 
2.63581 
-1.15281 
3.85037 
-8.84085 
8.25704 

4.63711e-310 
6.93418e-310 
0 
0 
-3.08876 
-4.91605 
5.41673 
6.4938 
-5.00403 
-1.15467 

4.63711e-310 
6.93418e-310 
0 
0 
-0.287698 
-3.94503 
-4.89367 
7.56998 
0.834052 
0.644501 

4.63711e-310 
6.93418e-310 
0 
0 
-4.84584 
-6.72063 
-6.66247 
-3.87692 
6.39436 
5.66812 

4.63711e-310 
6.93418e-310 
0 
0 
-4.84603 
1.86418 
5.45362 
3.62372 
-8.69194 
2.75229 

4.63711e-310 
6.93418e-310 
0 
0 
0.689642 
0.827577 
3.69236 
-2.1447 
-1.14762 
-4.87349 

4.63711e-310 
6.93418e-310 
0 
0 
-0.00533175 
3.81646 
-0.144433 
-4.9248 
1.80834 
-3.00156 

4.63711e-310 
6.93418e-310 
0 
0 
-9.72329 
-0.207614 
-0.198965 
5.73764 
5.55284 
0.74811 

4.63711e-310 
6.93418e-310 
0 
0 
-9.6407 
4.67986 
4.53047 
3.79228 
4.58736 
5.54329 

4.63711e-310 
6.93418e-310 
0 
0 
-7.75082 
-9.79243 
4.50495 
1.87771 
-5.15306 
-3.18987 

4.63711e-310 
6.93418e-310 
0 
0 
-3.83393 
-0.00631293 
0.710491 
5.46496 
7.50148 
-2.03569 

4.63711e-310 
6.93418e-310 
0 
0 
5.48859 
0.714137 
-9.74966 
-6.65278 
-4.08972 
4.475 

4.63711e-310 
6.93418e-310 
0 
0 
-3.03681 
5.6401 
-1.35686 
3.61714 
-2.0027 
-3.99578 

4.63711e-310 
6.93418e-310 
0 
0 
-8.63395 
-5.89108 
-4.87033 
2.79293 
1.7805 
4.51439 

4.63711e-310 
6.93418e-310 
0 
0 
6.56722 
5.65981 
5.63781 
-1.02116 
8.43334 
3.77901 

4.63711e-310 
6.93418e-310 
0 
0 
8.47525 
8.59298 
-4.1512 
-9.70366 
-4.91141 
-3.23719 

4.63711e-310 
6.93418e-310 
0 
0 
2.98466 
2.80901 
2.79734 
-0.0309837 
7.69283 
6.58647 

4.63711e-310 
6.93418e-310 
0 
0 
-2.99636 
8.48041 
3.52757 
-6.8262 
-9.91913 
-5.1609 

4.63711e-310 
6.93418e-310 
0 
0 
8.5911 
-3.01208 
-9.63979 
-4.94434 
8.62947 
6.49066 

4.63711e-310 
6.93418e-310 
0 
0 
-3.08117 
-8.7848 
-1.1825 
-9.59665 
-5.95866 
8.33006 

4.63711e-310 
6.93418e-310 
0 
0 
1.76048 
-1.03524 
0.648141 
-4.11892 
2.62315 
-6.72468 

4.63711e-310 
6.93418e-310 
0 
0 
-5.78467 
-0.0635822 
-1.04959 
5.61592 
5.54771 
-1.13424 

4.63711e-310 
6.93418e-310 
0 
0 
5.75276 
-2.91115 
-6.7321 
6.4611 
8.60575 
8.62477 

4.63711e-310 
6.93418e-310 
0 
0 
-1.0529 
-5.00899 
-9.86875 
1.76294 
-6.86433 
-5.05069 

4.63711e-310 
6.93418e-310 
0 
0 
6.41591 
-6.83296 
6.46139 
-4.02236 
-9.66177 
2.68034 

4.63711e-310 
6.93418e-310 
0 
0 
5.56394 
-7.67858 
3.66566 
0.773907 
1.688 
2.6595 

4.63711e-310 
6.93418e-310 
0 
0 
0.796037 
-5.93728 
-7.81609 
0.676959 
6.54319 
-4.84488 

4.63711e-310 
6.93418e-310 
0 
0 
0.742206 
-8.70639 
0.63485 
-0.987135 
-2.99626 
0.706913 

4.63711e-310 
6.93418e-310 
0 
0 
3.75817 
2.76382 
4.6183 
-2.08858 
-5.89109 
8.30626 

4.63711e-310 
6.93418e-310 
0 
0 
1.8244 
0.0941628 
2.65949 
3.59043 
2.77015 
-0.146107 

4.63711e-310 
6.93418e-310 
0 
0 
-0.896093 
7.61671 
-5.89924 
1.75113 
-3.0275 
1.78402 

4.63711e-310 
6.93418e-310 
0 
0 
3.77203 
2.77955 
2.74243 
-8.68445 
2.57272 
6.5284 

4.63711e-310 
6.93418e-310 
0 
0 
-3.1604 
-1.26162 
-8.06018 
-9.41802 
-7.10679 
-3.29161 

4.63711e-310 
6.93418e-310 
0 
0 
7.34843 
-7.80039 
-3.96663 
-7.69997 
3.60981 
2.6554 

4.63711e-310 
6.93418e-310 
0 
0 
-1.0342 
2.81243 
-7.58127 
3.75754 
3.57861 
4.60378 

4.63711e-310 
6.93418e-310 
0 
0 
-4.9495 
-8.82364 
-1.03135 
8.45424 
2.5273 
1.83304 

4.63711e-310 
6.93418e-310 
0 
0 
4.70187 
6.69916 
-0.248019 
-7.56209 
0.734601 
-6.08764 

4.63711e-310 
6.93418e-310 
0 
0 
-2.93179 
3.70563 
8.16169 
-0.105949 
-2.04152 
-4.92714 

4.63711e-310 
6.93418e-310 
0 
0 
-5.7131 
-1.14217 
-5.80899 
2.57199 
-2.08771 
-1.05217 

4.63711e-310 
6.93418e-310 
0 
0 
4.8012 
1.86022 
-3.82311 
6.34599 
3.80528 
-0.996984 

4.63711e-310 
6.93418e-310 
0 
0 
-2.01674 
8.52554 
1.87034 
8.54945 
-1.16376 
1.80846 

4.63711e-310 
6.93418e-310 
0 
0 
-0.160435 
-9.67639 
-4.87986 
-3.91871 
2.52188 
-4.01343 

4.63711e-310 
6.93418e-310 
0 
0 
-9.74653 
-8.80749 
5.76127 
7.53493 
7.42535 
0.0435597 

4.63711e-310 
6.93418e-310 
0 
0 
7.41279 
1.80206 
7.546 
-6.76485 
0.886785 
8.37841 

4.63711e-310 
6.93418e-310 
0 
0 
-4.89415 
-2.06396 
0.826263 
-7.64164 
-4.07021 
6.3383 

4.63711e-310 
6.93418e-310 
0 
0 
8.31651 
2.68805 
4.48769 
-2.854 
0.748334 
-4.98471 

4.63711e-310 
6.93418e-310 
0 
0 
-6.8788 
-1.97158 
7.34065 
-8.74867 
0.742942 
-8.74533 

4.63711e-310 
6.93418e-310 
0 
0 
7.54771 
-3.04998 
8.43329 
-1.16258 
-8.81394 
6.51138 

4.63711e-310 
6.93418e-310 
0 
0 
-2.01258 
-6.85564 
1.73434 
4.57554 
-7.74569 
4.61535 

4.63711e-310 
6.93418e-310 
0 
0 
-3.88993 
-7.79215 
-3.97578 
-5.68342 
-7.03937 
6.53809 

4.63711e-310 
6.93418e-310 
0 
0 
4.59499 
-8.79904 
4.61641 
-4.00077 
-6.93631 
5.49757 

4.63711e-310 
6.93418e-310 
0 
0 
-9.55802 
-4.0185 
0.822084 
-5.76837 
2.44031 
-4.96001 

4.63711e-310 
6.93418e-310 
0 
0 
1.73502 
-5.86763 
2.728 
7.58177 
-0.953606 
5.49235 

4.63711e-310 
6.93418e-310 
0 
0 
4.6077 
-9.71205 
-5.92521 
-7.81096 
-3.05745 
-3.09507 

4.63711e-310 
6.93418e-310 
0 
0 
8.52316 
2.79576 
-3.22917 
-7.86683 
6.61014 
-8.80185 

4.63711e-310 
6.93418e-310 
0 
0 
-1.97713 
8.52335 
-7.99355 
-8.53567 
-1.30717 
-7.03611 

4.63711e-310 
6.93418e-310 
0 
0 
7.52729 
6.68229 
4.69696 
3.65945 
8.52452 
3.67871 

4.63711e-310 
6.93418e-310 
0 
0 
-0.0656449 
5.64871 
-2.77326 
0.0652689 
7.43075 
5.61066 

4.63711e-310 
6.93418e-310 
0 
0 
4.53757 
-4.05962 
-1.19481 
6.55496 
-9.6061 
7.38605 

4.63711e-310 
6.93418e-310 
0 
0 
6.46282 
5.54797 
8.38876 
1.79547 
0.878265 
-0.159485 

4.63711e-310 
6.93418e-310 
0 
0 
-0.0486999 
-7.77143 
2.69763 
-1.25473 
1.55837 
0.941778 

4.63711e-310 
6.93418e-310 
0 
0 
-4.85521 
6.46322 
7.48853 
-3.84844 
3.52306 
7.43061 

4.63711e-310 
6.93418e-310 
0 
0 
6.49882 
6.54332 
0.630615 
6.47274 
-7.73352 
-7.94801 

4.63711e-310 
6.93418e-310 
0 
0 
6.68438 
-8.7038 
3.70004 
-0.265532 
-0.120754 
-3.88241 

4.63711e-310 
6.93418e-310 
0 
0 
-9.60492 
0.986433 
-5.82045 
0.950505 
7.57774 
8.4092 

4.63711e-310 
6.93418e-310 
0 
0 
-1.12917 
-6.82169 
8.34685 
-9.69636 
1.58008 
2.63405 

4.63711e-310 
6.93418e-310 
0 
0 
0.890266 
5.69375 
-4.95766 
-5.09397 
-4.15715 
-2.1701 

4.63711e-310 
6.93418e-310 
0 
0 
-9.67746 
6.64997 
-8.78568 
-5.80856 
-2.22163 
8.24328 

4.63711e-310 
6.93418e-310 
0 
0 
0.87067 
-6.77423 
-4.83458 
-6.66996 
4.341 
-1.11177 

4.63711e-310 
6.93418e-310 
0 
0 
2.66136 
2.83718 
0.842012 
8.30623 
0.0215031 
-1.03524 

4.63711e-310 
6.93418e-310 
0 
0 
5.7952 
3.7018 
1.83926 
7.39336 
0.0820208 
1.75937 

4.63711e-310 
6.93418e-310 
0 
0 
8.3219 
-4.9974 
7.62849 
5.49955 
-2.08973 
2.72422 

4.63711e-310 
6.93418e-310 
0 
0 
1.82037 
-2.02714 
1.80865 
4.68154 
8.32885 
-6.71802 

4.63711e-310 
6.93418e-310 
0 
0 
2.72551 
7.56075 
-5.87331 
7.62035 
-2.04381 
4.57153 

4.63711e-310 
6.93418e-310 
0 
0 
2.60191 
-6.1142 
-0.369169 
0.791262 
-8.78071 
-0.378138 

4.63711e-310 
6.93418e-310 
0 
0 
-3.84516 
-6.76741 
0.836623 
0.845006 
7.42769 
-0.0181771 

4.63711e-310 
6.93418e-310 
0 
0 
2.64972 
-4.02243 
6.38969 
-0.0427468 
5.51858 
-4.83278 

4.63711e-310 
6.93418e-310 
0 
0 
-6.78833 
5.74158 
-3.96821 
-4.90456 
8.52842 
8.57949 

4.63711e-310 
6.93418e-310 
0 
0 
-9.55374 
-1.24939 
-0.318132 
-6.82535 
-9.91077 
-1.3572 

4.63711e-310 
6.93418e-310 
0 
0 
-4.80449 
-1.06928 
1.56463 
-6.7028 
0.609637 
-2.03333 

4.63711e-310 
6.93418e-310 
0 
0 
-0.133471 
-7.73711 
8.41576 
-1.09125 
8.41451 
1.04146 

4.63711e-310 
6.93418e-310 
0 
0 
2.93581 
1.00804 
-9.5746 
5.62457 
4.58854 
1.68432 

4.63711e-310 
6.93418e-310 
0 
0 
-2.96596 
-6.84795 
-7.77012 
1.68558 
-4.16167 
3.66008 

4.63711e-310 
6.93418e-310 
0 
0 
-0.341397 
-5.09102 
2.60089 
-7.70381 
-4.17447 
-5.96225 

4.63711e-310 
6.93418e-310 
0 
0 
-1.13748 
5.65735 
5.48594 
-8.67468 
1.54812 
-6.7893 

4.63711e-310 
6.93418e-310 
0 
0 
-0.265973 
0.833131 
-3.169 
2.41762 
-6.84222 
-4.9111 

4.63711e-310 
6.93418e-310 
0 
0 
-2.80948 
4.69423 
-0.159303 
2.80083 
6.56823 
-1.94249 

4.63711e-310 
6.93418e-310 
0 
0 
7.49697 
-2.10744 
6.31664 
-4.1137 
-0.150773 
-8.70969 

4.63711e-310 
6.93418e-310 
0 
0 
8.42093 
2.85065 
6.39854 
-3.74447 
7.57914 
1.74685 

4.63711e-310 
6.93418e-310 
0 
0 
0.721392 
-2.05889 
-6.71351 
2.83896 
2.56041 
1.67031 

4.63711e-310 
6.93418e-310 
0 
0 
0.863752 
5.67977 
6.57908 
-9.70047 
-7.09384 
8.43404 

4.63711e-310 
6.93418e-310 
0 
0 
7.59808 
3.7325 
7.44922 
4.74609 
1.84915 
5.60473 

4.63711e-310 
6.93418e-310 
0 
0 
4.53486 
-1.22886 
5.31664 
-0.217332 
-7.87417 
-8.62662 

4.63711e-310 
6.93418e-310 
0 
0 
-4.84303 
3.80043 
-1.19086 
4.54517 
-4.01478 
1.76894 

4.63711e-310 
6.93418e-310 
0 
0 
-5.82235 
3.8185 
4.7589 
-7.73164 
-1.20664 
8.51184 

4.63711e-310 
6.93418e-310 
0 
0 
6.59092 
-7.6759 
-4.12382 
-4.94736 
-4.92559 
-2.24409 

4.63711e-310 
6.93418e-310 
0 
0 
1.67962 
-0.29122 
-5.92719 
-8.50802 
-5.04245 
-0.411222 

4.63711e-310 
6.93418e-310 
0 
0 
2.66151 
-3.11147 
-2.2145 
-1.21447 
-8.85697 
-1.32128 

4.63711e-310 
6.93418e-310 
0 
0 
-0.942763 
4.72687 
-7.73927 
-2.84356 
1.67641 
-3.26383 

4.63711e-310 
6.93418e-310 
0 
0 
-2.02943 
-0.0167726 
4.57557 
-5.68247 
0.796893 
2.59527 

4.63711e-310 
6.93418e-310 
0 
0 
-0.0470042 
7.69152 
5.63632 
7.49431 
8.49197 
6.63096 

4.63711e-310 
6.93418e-310 
0 
0 
8.66627 
0.986954 
-4.92508 
-8.89681 
8.57803 
7.68464 

4.63711e-310 
6.93418e-310 
0 
0 
1.68615 
5.49329 
-1.13775 
-2.95916 
1.68295 
2.63018 

4.63711e-310 
6.93418e-310 
0 
0 
-2.23334 
0.848069 
-2.09341 
5.65676 
-8.73608 
8.34318 

4.63711e-310 
6.93418e-310 
0 
0 
1.021 
8.58487 
8.56894 
5.67446 
1.93423 
7.56091 

4.63711e-310 
6.93418e-310 
0 
0 
-9.62773 
-1.16451 
0.683038 
-8.66944 
-2.40726 
-6.05306 

4.63711e-310 
6.93418e-310 
0 
0 
7.57433 
-6.81848 
8.54977 
7.49516 
8.61289 
-8.61002 

4.63711e-310 
6.93418e-310 
0 
0 
1.8498 
-4.86696 
-2.18372 
0.676337 
-8.74101 
2.69725 

4.63711e-310 
6.93418e-310 
0 
0 
-6.88099 
7.62799 
8.57073 
3.81805 
8.4356 
-2.92402 

4.63711e-310 
6.93418e-310 
0 
0 
-7.72166 
8.54469 
-2.1717 
-8.44027 
6.31821 
-3.0677 

4.63711e-310 
6.93418e-310 
0 
0 
6.49241 
5.64958 
2.72609 
6.37599 
8.57332 
-2.92624 

4.63711e-310 
6.93418e-310 
0 
0 
-7.69079 
-0.0821624 
3.70933 
2.86388 
5.4779 
3.66047 

4.63711e-310 
6.93418e-310 
0 
0 
-9.82034 
-7.90228 
1.57999 
-1.11067 
-7.0494 
-8.83937 

4.63711e-310 
6.93418e-310 
0 
0 
7.57622 
7.563 
1.78649 
-5.75508 
4.61652 
0.667102 

4.63711e-310 
6.93418e-310 
0 
0 
3.632 
-1.16108 
-9.70302 
-1.09348 
-7.85897 
5.36459 

4.63711e-310 
6.93418e-310 
0 
0 
-9.65483 
5.5629 
-1.27748 
-5.85217 
6.46717 
-5.87205 

4.63711e-310 
6.93418e-310 
0 
0 
-7.67222 
2.69539 
5.33612 
3.6431 
-1.06291 
-5.91839 

4.63711e-310 
6.93418e-310 
0 
0 
-7.7418 
5.66906 
-6.782 
3.63401 
-4.90417 
6.39262 

4.63711e-310 
6.93418e-310 
0 
0 
-3.1433 
5.55007 
3.45343 
-1.98732 
-9.82901 
-6.99095 

4.63711e-310 
6.93418e-310 
0 
0 
5.45319 
-7.75819 
1.67427 
-5.084 
-1.26031 
-8.68413 

4.63711e-310 
6.93418e-310 
0 
0 
-5.8156 
-3.1421 
-3.21336 
-3.00332 
-8.94684 
-5.06096 

4.63711e-310 
6.93418e-310 
0 
0 
-7.68444 
6.64991 
-0.339122 
-2.17893 
-4.95421 
-0.275083 

4.63711e-310 
6.93418e-310 
0 
0 
-0.237353 
-1.06429 
-4.15484 
-7.58099 
3.45978 
-3.01165 

4.63711e-310 
6.93418e-310 
0 
0 
-3.98919 
-0.21167 
6.42838 
-4.87742 
-0.319152 
-0.335591 

4.63711e-310 
6.93418e-310 
0 
0 
1.76843 
-1.95454 
-1.09536 
-7.64601 
5.43171 
-3.96213 

4.63711e-310 
6.93418e-310 
0 
0 
-6.68519 
-2.96809 
3.4658 
-1.02153 
-1.14517 
-2.13832 

4.63711e-310 
6.93418e-310 
0 
0 
4.7651 
-8.78287 
-5.99656 
-5.95832 
8.52415 
-3.87467 

4.63711e-310 
6.93418e-310 
0 
0 
2.78948 
7.62078 
-1.26806 
-7.96422 
-9.82881 
7.4514 

4.63711e-310 
6.93418e-310 
0 
0 
8.46311 
-9.74948 
-4.95031 
2.70934 
-8.75286 
-4.11608 

4.63711e-310 
6.93418e-310 
0 
0 
-6.89998 
8.6354 
-7.06436 
-9.64522 
4.52425 
-7.89512 

4.63711e-310 
6.93418e-310 
0 
0 
-0.164368 
6.48884 
-0.134194 
-9.43879 
0.739805 
-0.305371 

4.63711e-310 
6.93418e-310 
0 
0 
-0.0841763 
-2.799 
-9.53519 
-3.00482 
1.57989 
2.72121 

4.63711e-310 
6.93418e-310 
0 
0 
-2.08847 
7.60585 
-1.10118 
0.914096 
7.63469 
5.58898 

4.63711e-310 
6.93418e-310 
0 
0 
-1.11644 
5.66689 
-1.20822 
8.37531 
5.52616 
-8.72491 

4.63711e-310 
6.93418e-310 
0 
0 
6.60899 
-5.86765 
5.46391 
6.59492 
0.844857 
-8.95243 

4.63711e-310 
6.93418e-310 
0 
0 
-2.88623 
8.64016 
5.54745 
-1.97722 
-0.119377 
4.54537 

4.63711e-310 
6.93418e-310 
0 
0 
-2.05288 
-8.7433 
7.4275 
6.44377 
1.69985 
-3.88986 

4.63711e-310 
6.93418e-310 
0 
0 
-2.99502 
-8.73218 
-9.81753 
-6.95308 
0.551699 
-6.84281 

4.63711e-310 
6.93418e-310 
0 
0 
1.79627 
-9.77006 
4.58768 
-2.03954 
-1.08646 
7.58736 

4.63711e-310 
6.93418e-310 
0 
0 
-2.80729 
-4.79857 
1.73113 
-4.7683 
4.56932 
5.68843 

4.63711e-310 
6.93418e-310 
0 
0 
2.66069 
-1.16501 
6.28095 
2.71716 
-5.92768 
-9.71684 

4.63711e-310 
6.93418e-310 
0 
0 
-1.0442 
7.60266 
-7.76326 
5.50559 
7.51329 
-6.7569 

4.63711e-310 
6.93418e-310 
0 
0 
-4.85235 
5.47822 
-8.86429 
7.44762 
-8.01254 
-2.27428 

4.63711e-310 
6.93418e-310 
0 
0 
-8.5323 
0.967152 
6.66713 
-0.0737566 
6.38804 
3.74205 

4.63711e-310 
6.93418e-310 
0 
0 
-1.96805 
-2.15287 
3.60443 
-0.205725 
-5.83252 
1.61461 

4.63711e-310 
6.93418e-310 
0 
0 
8.44307 
5.73896 
0.809767 
1.67666 
3.67353 
-4.85094 

4.63711e-310 
6.93418e-310 
0 
0 
-1.04978 
-5.81608 
3.75308 
7.37517 
3.68482 
0.981795 

4.63711e-310 
6.93418e-310 
0 
0 
1.83031 
-1.0587 
8.22821 
7.46412 
1.89761 
-5.76301 

4.63711e-310 
6.93418e-310 
0 
0 
2.64989 
-0.0442669 
-1.14727 
5.6207 
-7.81916 
4.54803 

4.63711e-310 
6.93418e-310 
0 
0 
7.52246 
5.66615 
-8.68986 
-4.90675 
4.71528 
-3.09493 

4.63711e-310 
6.93418e-310 
0 
0 
8.67787 
-3.05165 
-2.96426 
7.41239 
-4.78495 
8.47026 

4.63711e-310 
6.93418e-310 
0 
0 
-9.61579 
-7.81258 
4.72888 
-1.03195 
8.42535 
-0.0596171 

4.63711e-310 
6.93418e-310 
0 
0 
-0.117891 
5.54273 
-2.27529 
-6.80042 
-8.93382 
-7.07729 

4.63711e-310 
6.93418e-310 
0 
0 
8.47316 
3.73261 
1.71419 
-3.19577 
-5.94691 
6.42089 

4.63711e-310 
6.93418e-310 
0 
0 
5.56755 
-4.88689 
-0.27629 
1.74153 
-4.06606 
-8.77615 

4.63711e-310 
6.93418e-310 
0 
0 
4.59718 
5.72391 
-3.15541 
-6.68364 
0.692896 
-9.72228 

4.63711e-310 
6.93418e-310 
0 
0 
7.64367 
2.76161 
-2.09323 
-0.230328 
1.7528 
1.89797 

4.63711e-310 
6.93418e-310 
0 
0 
0.757925 
-9.78725 
-8.78088 
-8.73245 
-6.10402 
-3.23445 

4.63711e-310 
6.93418e-310 
0 
0 
6.52849 
-4.96909 
7.43349 
6.55207 
-1.01448 
-1.13774 

4.63711e-310 
6.93418e-310 
0 
0 
-7.73158 
-8.84335 
6.52477 
-0.293688 
1.61931 
-1.02036 

4.63711e-310 
6.93418e-310 
0 
0 
-2.88549 
-6.69485 
-0.00406599 
-1.92477 
6.41713 
3.75702 

4.63711e-310 
6.93418e-310 
0 
0 
-8.64552 
-8.79685 
1.70946 
8.47442 
-0.216245 
2.82023 

4.63711e-310 
6.93418e-310 
0 
0 
4.59407 
4.72472 
-4.93055 
-5.7278 
6.40501 
-1.21087 

4.63711e-310 
6.93418e-310 
0 
0 
2.71081 
-9.71305 
3.69166 
-6.72642 
-1.16475 
0.853042 

4.63711e-310 
6.93418e-310 
0 
0 
-6.80226 
5.52213 
-2.93507 
4.58377 
-2.0051 
6.39238 

4.63711e-310 
6.93418e-310 
0 
0 
-4.87527 
6.60574 
-2.12443 
-7.61804 
2.5229 
6.54777 

4.63711e-310 
6.93418e-310 
0 
0 
7.43537 
3.73975 
6.56074 
1.87688 
7.72458 
-3.94472 

4.63711e-310 
6.93418e-310 
0 
0 
2.91911 
-2.93023 
-3.93997 
-9.56903 
3.61437 
3.59838 

4.63711e-310 
6.93418e-310 
0 
0 
5.55671 
-9.76814 
-9.80602 
-5.00555 
-6.98446 
2.65806 

4.63711e-310 
6.93418e-310 
0 
0 
-5.91609 
-6.8558 
-0.232608 
-8.55401 
4.47032 
-9.81354 

4.63711e-310 
6.93418e-310 
0 
0 
1.84541 
1.7014 
-7.82981 
7.58496 
-5.94808 
-1.19712 

4.63711e-310 
6.93418e-310 
0 
0 
-4.91707 
-9.7235 
-8.71084 
-5.0365 
6.50351 
5.35973 

4.63711e-310 
6.93418e-310 
0 
0 
-2.96686 
-3.15397 
-4.06814 
6.33826 
-9.69099 
2.61257 

4.63711e-310 
6.93418e-310 
0 
0 
5.75823 
-3.02267 
-8.87484 
-0.25425 
-3.92877 
-4.01648 

4.63711e-310 
6.93418e-310 
0 
0 
0.892185 
6.56735 
-2.20171 
-5.62686 
3.58334 
-4.87347 

4.63711e-310 
6.93418e-310 
0 
0 
-2.06962 
6.60149 
-7.91797 
-3.88636 
-4.25922 
-7.09205 

4.63711e-310 
6.93418e-310 
0 
0 
-5.03647 
-6.8302 
-3.202 
-3.80833 
-4.22083 
-4.96705 

4.63711e-310 
6.93418e-310 
0 
0 
2.7999 
8.57696 
-4.72359 
2.81667 
5.71295 
8.28019 

4.63711e-310 
6.93418e-310 
0 
0 
1.78472 
-5.99939 
6.3264 
-4.05537 
-7.83979 
-6.87038 

4.63711e-310 
6.93418e-310 
0 
0 
3.83984 
5.58454 
-9.7481 
-8.7748 
-6.9329 
-4.2205 

4.63711e-310 
6.93418e-310 
0 
0 
5.64331 
-8.75165 
-5.04541 
2.67614 
3.60359 
-8.82872 

4.63711e-310 
6.93418e-310 
0 
0 
-5.92419 
3.679 
6.54038 
2.68289 
-9.83426 
8.29577 

4.63711e-310 
6.93418e-310 
0 
0 
8.59348 
-9.82538 
6.3114 
0.666893 
-8.77659 
-9.71273 

4.63711e-310 
6.93418e-310 
0 
0 
2.83018 
-3.00552 
-3.27135 
-0.0980496 
-8.82397 
-8.88589 

4.63711e-310 
6.93418e-310 
0 
0 
-3.00391 
-7.73723 
-2.21424 
-5.89395 
4.54064 
-9.61892 

4.63711e-310 
6.93418e-310 
0 
0 
-5.00908 
2.69015 
-8.8885 
-7.90051 
-5.19182 
-8.08265 

4.63711e-310 
6.93418e-310 
0 
0 
-8.56058 
-3.88404 
-4.85884 
-1.99354 
6.43065 
7.46121 

4.63711e-310 
6.93418e-310 
0 
0 
-2.8953 
-6.83617 
1.72308 
4.70213 
8.42532 
-9.64046 

4.63711e-310 
6.93418e-310 
0 
0 
-2.18082 
-8.64126 
4.50844 
-8.66084 
4.43418 
-9.61174 

4.63711e-310 
6.93418e-310 
0 
0 
-2.88594 
-1.83937 
5.43401 
1.72268 
5.4255 
-4.70033 

4.63711e-310 
6.93418e-310 
0 
0 
-9.47094 
-4.89412 
-8.7256 
-5.75238 
1.4501 
1.64007 

4.63711e-310 
6.93418e-310 
0 
0 
-8.61375 
7.65638 
3.55697 
6.67394 
1.76433 
-7.78372 

4.63711e-310 
6.93418e-310 
0 
0 
6.40972 
-0.0840017 
2.4121 
-4.91618 
-7.81836 
-7.74462 

4.63711e-310 
6.93418e-310 
0 
0 
-0.247893 
-6.859 
6.48549 
-6.80898 
-10.0093 
-1.23567 

4.63711e-310 
6.93418e-310 
0 
0 
-1.10247 
-0.0466422 
-2.07255 
5.74794 
8.47253 
-9.69118 

4.63711e-310 
6.93418e-310 
0 
0 
3.7054 
-4.03492 
1.58333 
-3.08217 
-6.85137 
3.51652 

4.63711e-310 
6.93418e-310 
0 
0 
7.63451 
-8.6922 
-2.07507 
5.50933 
-4.89217 
-2.13208 

4.63711e-310 
6.93418e-310 
0 
0 
-7.60655 
-3.91798 
-1.09735 
0.83354 
3.51518 
-2.14179 

4.63711e-310 
6.93418e-310 
0 
0 
3.57154 
0.815208 
7.59766 
-3.98157 
8.47397 
2.75593 

4.63711e-310 
6.93418e-310 
0 
0 
-4.79234 
-0.101333 
-5.16904 
3.69637 
-4.07261 
-7.82585 

4.63711e-310 
6.93418e-310 
0 
0 
-7.75388 
-1.13603 
-0.302431 
0.744567 
-9.83585 
-6.0398 

4.63711e-310 
6.93418e-310 
0 
0 
-6.65758 
-6.75602 
-9.75004 
2.66855 
-1.06075 
8.54166 

4.63711e-310 
6.93418e-310 
0 
0 
-4.95424 
6.52623 
-2.10201 
-0.152467 
0.746937 
-3.96553 

4.63711e-310 
6.93418e-310 
0 
0 
-1.11079 
5.47292 
8.48729 
0.867253 
-2.81181 
8.43295 

4.63711e-310 
6.93418e-310 
0 
0 
-3.03831 
7.59376 
-2.11989 
-2.00653 
1.66064 
-1.07676 

4.63711e-310 
6.93418e-310 
0 
0 
-1.04754 
8.52533 
-1.08853 
-0.195275 
-8.73127 
1.52256 

4.63711e-310 
6.93418e-310 
0 
0 
-5.98227 
-9.78513 
7.47166 
4.48775 
-6.85398 
6.42234 

4.63711e-310 
6.93418e-310 
0 
0 
5.43245 
-2.92881 
-2.17698 
5.45957 
-2.91677 
1.7597 

4.63711e-310 
6.93418e-310 
0 
0 
7.55572 
-4.93099 
8.49148 
8.48415 
4.66964 
-8.66472 

4.63711e-310 
6.93418e-310 
0 
0 
-0.0660218 
-7.79803 
3.70167 
-9.67923 
7.4372 
7.51832 

4.63711e-310 
6.93418e-310 
0 
0 
4.68461 
-4.03695 
-5.07084 
4.70594 
-7.82902 
-5.02839 

4.63711e-310 
6.93418e-310 
0 
0 
1.79366 
-7.70248 
-1.87171 
0.685082 
3.62904 
4.69151 

4.63711e-310 
6.93418e-310 
0 
0 
-9.65336 
-8.75635 
-4.99598 
4.66839 
2.54425 
-6.74512 

4.63711e-310 
6.93418e-310 
0 
0 
-8.66263 
4.81382 
-9.60265 
8.39958 
0.715019 
4.56306 

4.63711e-310 
6.93418e-310 
0 
0 
3.64151 
8.42884 
-7.8525 
-6.74126 
-7.9791 
5.32701 

4.63711e-310 
6.93418e-310 
0 
0 
-0.0926388 
-6.8313 
-7.69386 
4.49178 
-0.233604 
5.57202 

4.63711e-310 
6.93418e-310 
0 
0 
-1.10668 
2.87727 
-3.01179 
-7.54308 
1.60059 
-0.181108 

4.63711e-310 
6.93418e-310 
0 
0 
5.56856 
4.6862 
-3.01546 
7.33439 
-0.0210563 
-1.15495 

4.63711e-310 
6.93418e-310 
0 
0 
-0.13986 
7.44617 
-5.96675 
-4.73082 
-4.08472 
-4.08617 

4.63711e-310 
6.93418e-310 
0 
0 
-2.11324 
0.771648 
-4.98119 
-2.82332 
2.59929 
-1.24998 

4.63711e-310 
6.93418e-310 
0 
0 
-0.0583706 
-4.95078 
7.51551 
6.37634 
-5.7821 
-2.10242 

4.63711e-310 
6.93418e-310 
0 
0 
1.81438 
-9.64421 
6.3382 
-1.2657 
-5.03384 
-6.71392 

4.63711e-310 
6.93418e-310 
0 
0 
-7.90815 
-8.92662 
-9.97057 
-9.72659 
-9.92555 
-5.17641 

4.63711e-310 
6.93418e-310 
0 
0 
1.91671 
-1.01657 
-6.01631 
-7.64985 
7.60347 
-9.81608 

4.63711e-310 
6.93418e-310 
0 
0 
4.5575 
-2.03209 
-6.04539 
2.81434 
6.58811 
-8.88311 

4.63711e-310 
6.93418e-310 
0 
0 
-8.58454 
3.82713 
-7.73801 
-8.5616 
3.4405 
3.55246 

4.63711e-310 
6.93418e-310 
0 
0 
3.81721 
-1.02218 
-3.99883 
0.737305 
0.878336 
5.43383 

4.63711e-310 
6.93418e-310 
0 
0 
0.807107 
-2.02669 
4.54911 
4.55515 
2.59363 
-5.66111 

4.63711e-310 
6.93418e-310 
0 
0 
8.50497 
-0.123702 
-7.76058 
2.55496 
-6.78178 
-2.19189 

4.63711e-310 
6.93418e-310 
0 
0 
8.60074 
-0.18936 
2.73319 
7.27539 
-8.74313 
5.45898 

4.63711e-310 
6.93418e-310 
0 
0 
-5.90328 
3.5658 
1.49538 
0.759643 
-8.76481 
-5.11285 

4.63711e-310 
6.93418e-310 
0 
0 
8.51061 
-3.86001 
-5.09083 
2.77391 
0.932962 
-8.76867 

4.63711e-310 
6.93418e-310 
0 
0 
-6.93639 
3.63547 
-9.80386 
-1.85755 
-5.95702 
3.44495 

4.63711e-310 
6.93418e-310 
0 
0 
-7.68083 
4.59598 
-4.96 
3.75331 
-4.06625 
-3.10107 

4.63711e-310 
6.93418e-310 
0 
0 
-1.82759 
5.60839 
-3.8357 
3.67951 
-0.106749 
6.34044 

4.63711e-310 
6.93418e-310 
0 
0 
3.72593 
0.848747 
5.62346 
3.68728 
8.52517 
2.81706 

4.63711e-310 
6.93418e-310 
0 
0 
4.56387 
7.64976 
-4.1611 
-8.58048 
-5.0017 
-6.09826 

4.63711e-310 
6.93418e-310 
0 
0 
5.57154 
7.55454 
3.62613 
3.81027 
1.92882 
5.51696 

4.63711e-310 
6.93418e-310 
0 
0 
-8.77533 
-4.03602 
1.5889 
-1.08664 
-9.8397 
-6.98667 

4.63711e-310 
6.93418e-310 
0 
0 
-9.70336 
8.57913 
-1.33709 
-2.86597 
-9.99097 
-4.18868 

4.63711e-310 
6.93418e-310 
0 
0 
-1.03577 
-6.86192 
8.38572 
4.54363 
7.47251 
-6.69474 

4.63711e-310 
6.93418e-310 
0 
0 
-0.0734304 
-2.78615 
-8.57664 
3.67396 
5.70525 
3.6386 

4.63711e-310 
6.93418e-310 
0 
0 
-8.56135 
-3.0078 
-9.91916 
-7.76114 
-4.33723 
1.46228 

4.63711e-310 
6.93418e-310 
0 
0 
0.804392 
3.70128 
8.35353 
-0.0965326 
-1.04016 
6.41897 

4.63711e-310 
6.93418e-310 
0 
0 
-2.0089 
-8.81358 
-4.07035 
-7.75303 
-2.20426 
3.55303 

4.63711e-310 
6.93418e-310 
0 
0 
0.720405 
8.55752 
-7.99948 
-6.06333 
-8.87609 
-1.38552 

4.63711e-310 
6.93418e-310 
0 
0 
6.50373 
-0.103596 
8.23057 
-2.12263 
-9.80656 
-9.80711 

4.63711e-310 
6.93418e-310 
0 
0 
-5.80871 
3.74546 
7.45531 
-0.121945 
5.38148 
-3.87982 

4.63711e-310 
6.93418e-310 
0 
0 
8.45998 
-2.90331 
-8.68008 
-8.78006 
0.638946 
3.63204 

4.63711e-310 
6.93418e-310 
0 
0 
2.74203 
-3.93052 
0.949907 
1.77829 
3.49839 
0.924404 

4.63711e-310 
6.93418e-310 
0 
0 
-2.06825 
-9.67133 
1.64728 
-3.8422 
-0.265539 
-9.71479 

4.63711e-310 
6.93418e-310 
0 
0 
-1.05939 
-3.09484 
5.53791 
-0.205533 
-9.75617 
8.2596 

4.63711e-310 
6.93418e-310 
0 
0 
-5.74684 
1.88189 
0.815673 
5.54892 
-5.86992 
6.54179 

4.63711e-310 
6.93418e-310 
0 
0 
8.39112 
7.57599 
-2.02169 
-6.60086 
5.62078 
0.802394 

4.63711e-310 
6.93418e-310 
0 
0 
-1.10251 
-3.01758 
7.51908 
6.49532 
-1.10377 
-0.185177 

4.63711e-310 
6.93418e-310 
0 
0 
-7.61579 
7.5942 
-1.27206 
2.79766 
3.73651 
-4.8739 

4.63711e-310 
6.93418e-310 
0 
0 
-8.79152 
-4.91171 
-0.259203 
-0.0806789 
-2.25286 
-3.05949 

4.63711e-310 
6.93418e-310 
0 
0 
-3.82127 
-1.14352 
-0.0578443 
5.52077 
-3.01284 
0.777289 

4.63711e-310 
6.93418e-310 
0 
0 
-9.75558 
0.72368 
-0.300945 
-8.72959 
-6.16059 
5.39642 

4.63711e-310 
6.93418e-310 
0 
0 
-9.73238 
-6.83453 
-6.93315 
-0.317626 
-5.02992 
0.826955 

4.63711e-310 
6.93418e-310 
0 
0 
-1.09671 
2.75711 
8.305 
8.37834 
-0.0833694 
-3.85186 

4.63711e-310 
6.93418e-310 
0 
0 
-1.10328 
-7.88852 
-7.79812 
-9.54239 
5.39257 
7.44907 

4.63711e-310 
6.93418e-310 
0 
0 
1.86918 
7.56338 
3.703 
4.59188 
-9.69578 
8.38843 

4.63711e-310 
6.93418e-310 
0 
0 
8.65835 
8.62423 
8.36398 
-0.241775 
0.898799 
-8.80854 

4.63711e-310 
6.93418e-310 
0 
0 
-5.89886 
-1.9672 
2.55822 
7.46059 
-9.70048 
-1.18165 

4.63711e-310 
6.93418e-310 
0 
0 
-2.91044 
-2.03671 
-5.06175 
-8.66003 
-6.16873 
-5.23944 

4.63711e-310 
6.93418e-310 
0 
0 
-8.73223 
8.57684 
-7.74345 
1.80271 
-1.19281 
2.422 

4.63711e-310 
6.93418e-310 
0 
0 
5.59375 
-6.97747 
1.58975 
-1.19737 
-8.73788 
-5.89796 

4.63711e-310 
6.93418e-310 
0 
0 
-1.10556 
-9.60522 
-2.98966 
-3.9777 
2.62756 
0.788628 

4.63711e-310 
6.93418e-310 
0 
0 
-2.05399 
8.6025 
-7.70509 
-0.0301041 
0.640783 
-6.12445 

4.63711e-310 
6.93418e-310 
0 
0 
-0.106532 
7.45034 
-5.91469 
3.65052 
-9.68338 
7.29164 

4.63711e-310 
6.93418e-310 
0 
0 
-1.05359 
-7.92869 
-5.89699 
5.57199 
-2.05562 
6.57078 

4.63711e-310 
6.93418e-310 
0 
0 
-2.01392 
-7.74327 
5.55327 
-7.73399 
1.65392 
-3.03246 

4.63711e-310 
6.93418e-310 
0 
0 
6.54612 
4.69479 
-3.18044 
-8.49941 
-1.20293 
-3.15303 

4.63711e-310 
6.93418e-310 
0 
0 
-5.72247 
7.5192 
3.74246 
-2.15938 
3.6045 
3.76347 

4.63711e-310 
6.93418e-310 
0 
0 
-0.174321 
8.56963 
3.63811 
-3.91265 
-8.76018 
8.21325 

4.63711e-310 
6.93418e-310 
0 
0 
5.65301 
-6.86077 
7.5554 
4.52214 
-4.69174 
8.3415 

4.63711e-310 
6.93418e-310 
0 
0 
-9.74718 
5.56607 
-7.97529 
3.66316 
6.51434 
-1.23452 

4.63711e-310 
6.93418e-310 
0 
0 
7.52319 
-5.00428 
0.565421 
-4.86461 
-6.96094 
-6.06524 

4.63711e-310 
6.93418e-310 
0 
0 
1.64933 
-8.79493 
-4.1445 
-0.080653 
-2.20348 
-6.80789 

4.63711e-310 
6.93418e-310 
0 
0 
8.58433 
1.78857 
7.60456 
2.69267 
-3.86006 
4.65614 

4.63711e-310 
6.93418e-310 
0 
0 
0.712072 
1.83719 
3.73045 
3.81871 
6.59897 
6.54324 

4.63711e-310 
6.93418e-310 
0 
0 
5.65616 
0.943811 
-2.00362 
-7.65413 
3.65308 
-1.10215 

4.63711e-310 
6.93418e-310 
0 
0 
7.52222 
0.916623 
-2.02264 
5.61177 
5.53621 
-2.87566 

4.63711e-310 
6.93418e-310 
0 
0 
-2.01572 
-7.79782 
7.45156 
-7.69961 
5.39475 
-2.10846 

4.63711e-310 
6.93418e-310 
0 
0 
-3.00903 
-1.10069 
3.54798 
4.70411 
0.787748 
-2.10642 

4.63711e-310 
6.93418e-310 
-5.87281 
-1.96484 
-4.88419 
3.55925 
0.693883 
-4.70704 
-0.395619 
-2.23419 

4.63711e-310 
6.93418e-310 
8.40229 
-6.71968 
1.76954 
-3.06281 
-5.03816 
0.760919 
-8.8302 
2.42103 

4.63711e-310 
6.93418e-310 
2.65137 
-6.00134 
4.4932 
-9.76666 
3.44444 
-8.6868 
-3.10687 
-4.88744 

4.63711e-310 
6.93418e-310 
-4.09671 
-4.76154 
-5.90933 
0.721399 
8.25273 
5.52801 
-2.20366 
-8.78271 

4.63711e-310 
6.93418e-310 
-2.27923 
4.57928 
-2.03435 
-9.78179 
-7.78102 
2.5838 
-6.77546 
4.489 

4.63711e-310 
6.93418e-310 
8.46506 
0.714556 
8.5818 
3.90084 
-6.83721 
-4.912 
4.67132 
-6.87672 

4.63711e-310 
6.93418e-310 
8.482 
-2.15153 
2.80991 
-6.77102 
0.656897 
-5.8454 
8.4276 
-9.61994 

4.63711e-310 
6.93418e-310 
-4.86715 
-3.95787 
-0.0466588 
2.73128 
7.54602 
-5.78625 
7.50512 
3.68926 

4.63711e-310 
6.93418e-310 
-9.85768 
0.888424 
-9.68509 
8.5231 
-4.99256 
4.69636 
5.59696 
2.59418 

4.63711e-310 
6.93418e-310 
-8.84182 
6.62862 
-2.91418 
4.59411 
2.57268 
8.47777 
0.944412 
1.8627 

