-7 
-4 
7 
5 
3 
5 
-4 
2 
-1 
-9 
-8 
-3 
0 
9 
-7 
-4 
-10 
-4 
2 
6 
1 
-2 
-3 
-1 
-8 
0 
-8 
-7 
-3 
5 
-1 
-8 
-8 
8 
-1 
-3 
3 
6 
1 
-8 
-1 
3 
-9 
9 
-6 
7 
8 
-6 
5 
0 
3 
-4 
1 
-10 
6 
3 
-8 
0 
6 
-9 
-5 
-5 
-6 
-3 
6 
-5 
-4 
-1 
3 
7 
-6 
5 
-8 
-5 
4 
-3 
4 
-6 
-7 
0 
-3 
-2 
6 
8 
-2 
-6 
-7 
1 
4 
9 
2 
-10 
6 
-2 
9 
2 
-4 
-4 
4 
9 
5 
0 
4 
8 
-3 
-9 
7 
-8 
7 
2 
2 
6 
-9 
-10 
-4 
-9 
-5 
-1 
-6 
9 
-10 
-1 
1 
7 
7 

1 
-9 
5 
-1 
-3 
-3 
6 
7 
3 
-4 
-5 
-4 
-7 
9 
-6 
-2 
1 
2 
-1 
-7 
9 
0 
-2 
-2 
5 
-10 
-1 
6 
-7 
8 
-5 
-4 
1 
-9 
5 
9 
-2 
-6 
-2 
-9 
0 
3 
-10 
4 
-6 
-6 
4 
-3 
6 
-7 
1 
-3 
-5 
9 
6 
2 
1 
7 
-2 
5 
-3 
4 
-9 
8 
5 
-1 
7 
5 
3 
8 
-2 
-7 
1 
-2 
-1 
6 
-6 
-7 
-7 
3 
8 
-4 
-10 
-6 
8 
-2 
-2 
-1 
7 
7 
6 
-6 
-7 
0 
-7 
0 
9 
2 
-5 
-6 
0 
-5 
9 
4 
-4 
-1 
-8 
-8 
-6 
7 
-3 
5 
-6 
-2 
1 
-8 
-2 
9 
-7 
-4 
-2 
-10 
-8 
1 
0 

-5 
-9 
-9 
0 
8 
-5 
-10 
6 
-6 
-4 
-8 
-5 
-2 
6 
-8 
8 
-6 
7 
-8 
-6 
-10 
6 
2 
9 
9 
0 
-2 
1 
3 
1 
-9 
0 
3 
4 
-10 
-7 
9 
-9 
9 
6 
9 
3 
3 
-2 
0 
5 
-4 
-4 
-6 
-10 
0 
-6 
6 
-8 
6 
-3 
-5 
6 
9 
8 
-3 
2 
-2 
2 
9 
-1 
6 
0 
-8 
-3 
-4 
-9 
3 
2 
-9 
5 
9 
9 
-9 
-6 
9 
1 
-10 
-3 
-5 
-2 
-3 
0 
-6 
8 
-10 
-6 
-8 
-1 
6 
-9 
0 
-6 
2 
2 
2 
0 
-5 
-5 
-8 
9 
-10 
-8 
8 
3 
8 
0 
-6 
0 
-1 
-9 
9 
6 
2 
5 
4 
-6 
9 
-1 
3 

6 
0 
5 
-10 
-8 
9 
-6 
3 
-5 
-9 
-3 
-6 
3 
-9 
4 
-4 
9 
-6 
-8 
-8 
-4 
-6 
-9 
-8 
-2 
-2 
-1 
2 
-2 
8 
8 
6 
-2 
3 
-2 
-7 
3 
3 
-2 
0 
4 
-3 
-4 
-2 
-1 
-10 
-4 
-2 
7 
-1 
0 
-7 
3 
-7 
7 
3 
2 
-4 
-5 
2 
6 
5 
-2 
7 
-1 
6 
-10 
4 
-9 
-10 
-6 
-2 
-3 
0 
-2 
6 
-8 
4 
7 
9 
-7 
9 
-8 
-2 
-7 
-10 
-9 
-3 
8 
9 
1 
5 
4 
9 
2 
5 
-3 
-6 
-1 
-1 
-6 
-5 
-1 
-7 
5 
7 
-10 
8 
1 
-1 
-1 
-3 
-2 
2 
5 
-7 
-6 
-1 
0 
-8 
-10 
-9 
-1 
-4 
2 

-9 
-8 
-10 
7 
-7 
-9 
-9 
-1 
0 
-5 
6 
-3 
7 
4 
0 
-4 
-6 
7 
4 
-2 
-5 
8 
2 
-4 
-10 
-4 
-4 
4 
6 
2 
8 
-1 
-4 
0 
-3 
0 
1 
-10 
1 
3 
7 
-3 
2 
-4 
4 
5 
2 
0 
2 
9 
0 
-1 
-1 
4 
5 
-9 
-10 
3 
-3 
-2 
8 
-4 
0 
-6 
6 
7 
-4 
-10 
-1 
7 
-5 
9 
7 
8 
-5 
-7 
3 
8 
3 
7 
-1 
-7 
-3 
8 
7 
4 
1 
-1 
-10 
9 
8 
8 
-5 
-2 
4 
3 
7 
-9 
3 
8 
0 
9 
7 
9 
-1 
-7 
-8 
4 
3 
-3 
1 
-8 
-8 
0 
2 
1 
7 
5 
-9 
7 
4 
1 
-3 
1 
1 

-9 
7 
-10 
4 
0 
8 
-5 
-9 
6 
6 
-8 
1 
9 
6 
-6 
8 
-10 
8 
-9 
0 
-8 
2 
9 
7 
-5 
6 
-6 
6 
-7 
-3 
9 
7 
-6 
9 
1 
-3 
0 
6 
-10 
8 
-5 
-7 
-1 
-6 
1 
-5 
4 
1 
5 
5 
4 
-1 
-2 
3 
8 
-5 
-8 
-8 
-8 
7 
0 
3 
4 
-4 
3 
-4 
3 
-7 
4 
4 
3 
9 
7 
-8 
5 
-2 
9 
0 
2 
4 
7 
-4 
5 
7 
1 
3 
-7 
3 
-2 
-5 
1 
0 
8 
7 
6 
-7 
5 
0 
8 
0 
-6 
1 
-9 
3 
-5 
-1 
3 
-6 
1 
-5 
0 
-2 
-7 
-5 
-4 
5 
9 
-1 
-10 
-3 
-4 
-7 
7 
6 
-9 

-5 
-10 
6 
5 
0 
8 
1 
-8 
2 
6 
9 
-9 
0 
-6 
2 
-3 
4 
-10 
-7 
2 
8 
0 
-7 
-3 
0 
0 
3 
4 
9 
-8 
-3 
-6 
-8 
5 
2 
-6 
4 
-7 
8 
-4 
-10 
8 
9 
-8 
-8 
-7 
-9 
-2 
-7 
-6 
2 
-8 
4 
5 
-9 
7 
-5 
-3 
1 
6 
-1 
8 
-9 
-7 
3 
3 
-3 
9 
-2 
-4 
7 
-10 
-6 
-2 
4 
8 
1 
6 
8 
5 
2 
1 
-1 
9 
-4 
0 
6 
-6 
-1 
9 
-10 
8 
-1 
3 
-9 
4 
8 
-1 
-4 
-3 
-3 
-7 
-3 
1 
2 
-8 
-9 
5 
0 
9 
0 
4 
0 
1 
3 
7 
4 
-9 
-9 
-7 
-10 
3 
-8 
-9 
-3 

5 
6 
-5 
-6 
-8 
2 
1 
7 
2 
4 
-9 
-4 
5 
7 
-2 
5 
9 
-8 
7 
-7 
6 
4 
7 
-1 
-3 
2 
-8 
-9 
-4 
-7 
-10 
-8 
1 
-5 
-4 
-5 
0 
0 
-7 
4 
6 
6 
-10 
2 
-5 
-2 
9 
-5 
0 
6 
-10 
8 
-7 
7 
-2 
-8 
-9 
0 
5 
-2 
-5 
5 
0 
7 
3 
-2 
-8 
-7 
0 
7 
7 
-3 
-4 
-1 
1 
1 
-1 
0 
-2 
9 
8 
-2 
0 
3 
7 
0 
6 
9 
2 
1 
-3 
7 
9 
7 
-4 
2 
7 
-9 
5 
-2 
8 
-6 
5 
6 
-5 
-4 
-2 
4 
-2 
-2 
3 
8 
7 
5 
2 
4 
-5 
-10 
-5 
7 
-7 
2 
-3 
-8 
-9 

3 
4 
9 
4 
-9 
9 
-5 
7 
4 
-9 
-8 
2 
-9 
6 
2 
0 
-8 
-8 
9 
7 
4 
3 
5 
-4 
1 
-6 
0 
-7 
1 
2 
7 
7 
9 
-2 
1 
-10 
-3 
6 
0 
-9 
0 
2 
-5 
1 
-1 
7 
-9 
-7 
1 
2 
-10 
-4 
8 
-3 
-6 
-1 
2 
4 
-6 
5 
9 
-9 
2 
8 
-1 
6 
0 
6 
-6 
-10 
-1 
4 
-5 
4 
-4 
-4 
-7 
9 
-1 
5 
2 
-9 
3 
0 
-1 
-1 
1 
3 
-6 
5 
-2 
5 
7 
3 
3 
8 
-1 
5 
5 
3 
-2 
6 
-10 
3 
-7 
-4 
1 
8 
7 
-10 
-5 
-9 
-9 
0 
-7 
0 
-10 
4 
5 
-6 
-8 
-6 
9 
9 
-1 

-6 
-1 
8 
1 
6 
-7 
9 
3 
-7 
-6 
6 
-9 
5 
-4 
1 
-3 
2 
2 
-1 
-8 
-2 
1 
-8 
4 
-3 
8 
6 
-7 
7 
-3 
2 
3 
7 
-8 
-5 
3 
7 
6 
8 
-9 
3 
-4 
4 
-10 
3 
-5 
-2 
-5 
0 
-1 
9 
8 
-10 
-8 
-6 
9 
-10 
-9 
-8 
0 
-10 
-4 
-7 
-1 
-10 
-2 
-7 
8 
7 
3 
1 
0 
-10 
-5 
0 
3 
1 
8 
0 
-9 
-3 
-1 
1 
-10 
-7 
5 
9 
-6 
-2 
4 
-4 
-1 
2 
-1 
0 
3 
0 
3 
-7 
-3 
9 
4 
-1 
9 
1 
9 
-6 
-8 
0 
-4 
5 
-1 
5 
-4 
-9 
1 
4 
3 
-3 
-8 
-3 
3 
-7 
9 
-8 

4 
-6 
-6 
9 
9 
-7 
8 
3 
2 
-1 
-5 
-6 
3 
9 
4 
9 
5 
5 
-3 
3 
-1 
0 
-3 
-8 
7 
-8 
-1 
0 
-5 
-10 
-6 
1 
7 
-1 
-7 
6 
2 
-9 
-8 
-5 
-7 
9 
-9 
-2 
8 
-3 
-10 
-5 
-8 
-3 
9 
1 
-1 
-4 
3 
-4 
-2 
4 
6 
-4 
-3 
2 
7 
-6 
-9 
-10 
-10 
-4 
4 
4 
-7 
7 
3 
-6 
7 
2 
1 
7 
-1 
-5 
6 
-2 
-1 
-5 
5 
-8 
1 
5 
-1 
9 
-9 
6 
2 
1 
-10 
-5 
-7 
2 
1 
-1 
-3 
-4 
8 
2 
0 
6 
-6 
3 
3 
-4 
9 
0 
4 
-2 
5 
-9 
-8 
9 
7 
-7 
8 
0 
9 
-8 
3 

1 
-2 
7 
-6 
1 
-4 
-7 
8 
-5 
5 
-10 
-9 
2 
-4 
4 
8 
-5 
6 
2 
-5 
2 
-4 
9 
1 
-7 
-7 
-9 
-5 
-8 
6 
9 
4 
-6 
6 
0 
-3 
4 
3 
7 
9 
-10 
0 
2 
2 
6 
9 
0 
3 
5 
5 
8 
-3 
-9 
7 
0 
6 
-10 
-6 
-9 
-7 
-10 
2 
-1 
6 
-10 
9 
-7 
5 
-6 
3 
-4 
-6 
-7 
1 
-1 
1 
0 
9 
-6 
-5 
-4 
-8 
-5 
9 
1 
-3 
-3 
-6 
1 
-9 
9 
1 
3 
-2 
-3 
4 
9 
-7 
-9 
-7 
-2 
-3 
9 
-7 
8 
-2 
4 
-10 
-10 
8 
-4 
8 
2 
-7 
8 
5 
0 
-5 
9 
-8 
-4 
8 
-5 
2 
8 

3 
-4 
7 
-2 
-3 
2 
6 
-4 
2 
9 
7 
-10 
3 
7 
2 
-7 
5 
1 
-3 
8 
-1 
4 
-9 
-4 
4 
-7 
-5 
-6 
-2 
7 
-7 
3 
5 
-10 
-9 
4 
-5 
7 
-10 
7 
-2 
-1 
-1 
3 
9 
4 
6 
4 
-5 
5 
-5 
-4 
0 
-4 
2 
6 
-1 
-1 
2 
-1 
-4 
5 
5 
3 
-2 
6 
-3 
3 
-4 
-10 
-8 
-4 
-1 
-7 
-10 
-2 
7 
6 
5 
-8 
-6 
-10 
-10 
-4 
8 
-5 
4 
9 
4 
-4 
-2 
3 
-8 
-7 
-4 
-8 
2 
4 
-3 
0 
4 
-1 
6 
5 
-6 
6 
-6 
-8 
-5 
1 
6 
-9 
-7 
7 
-3 
-9 
-8 
-9 
-10 
-2 
9 
-10 
-9 
3 
-6 

-2 
5 
-2 
-8 
-8 
0 
6 
-7 
-4 
1 
-10 
5 
-3 
4 
2 
0 
0 
3 
3 
9 
-10 
4 
3 
3 
4 
-8 
-6 
5 
-7 
8 
1 
1 
3 
1 
-5 
-2 
-9 
3 
-7 
9 
7 
5 
4 
-6 
-1 
-4 
-3 
2 
1 
-10 
1 
-7 
-3 
7 
6 
3 
9 
-9 
-10 
4 
1 
1 
8 
6 
4 
-7 
-6 
-3 
7 
-10 
-3 
4 
5 
3 
0 
7 
2 
-1 
-1 
-7 
0 
2 
-3 
-1 
-1 
5 
-8 
-10 
-2 
-7 
5 
9 
-4 
-5 
6 
3 
-10 
2 
-10 
7 
-6 
-3 
-7 
-10 
-9 
-4 
7 
-5 
-3 
8 
-2 
-1 
0 
-3 
8 
-10 
-7 
-9 
-10 
-7 
6 
-3 
-7 
-8 
2 

1 
5 
3 
-7 
-2 
-8 
-2 
5 
8 
-10 
-2 
6 
-1 
3 
-7 
-3 
4 
3 
7 
-9 
-7 
-1 
6 
-6 
-8 
-10 
2 
-1 
5 
-3 
4 
-4 
4 
9 
-9 
-8 
3 
-9 
8 
1 
3 
8 
9 
-8 
-6 
5 
-9 
0 
-10 
1 
-7 
-7 
-10 
-10 
-10 
-8 
2 
2 
-6 
-3 
9 
8 
-5 
4 
7 
8 
6 
0 
-10 
-4 
4 
3 
7 
-5 
-2 
-9 
-10 
-1 
-7 
-10 
2 
-4 
-6 
3 
8 
6 
-3 
0 
-2 
1 
-1 
-2 
-9 
-4 
4 
8 
-5 
0 
-9 
-5 
-1 
-3 
0 
-4 
2 
8 
9 
-5 
-10 
-8 
7 
2 
-2 
-9 
7 
-3 
-1 
7 
-1 
8 
-2 
9 
8 
0 
-5 

2 
-10 
-8 
4 
3 
-3 
-7 
-10 
0 
-9 
-5 
-2 
-10 
0 
-10 
4 
-3 
-5 
-7 
-9 
4 
-8 
0 
1 
-7 
-10 
-10 
4 
8 
-8 
2 
0 
-8 
4 
-5 
-2 
4 
-10 
-2 
-6 
-8 
-5 
-6 
-8 
-3 
-5 
7 
5 
-8 
2 
-2 
6 
-4 
0 
-10 
-1 
1 
2 
6 
-1 
4 
-2 
2 
-2 
-8 
7 
-2 
6 
7 
7 
-10 
9 
4 
-5 
4 
-8 
-8 
-7 
-1 
6 
5 
7 
-6 
3 
9 
-6 
4 
0 
6 
0 
2 
-8 
8 
-6 
-7 
-9 
-9 
1 
-1 
0 
-10 
0 
-8 
5 
-3 
6 
-1 
-9 
9 
8 
7 
-4 
5 
-9 
1 
4 
8 
-5 
7 
-4 
6 
-1 
-9 
4 
3 

6 
-3 
-4 
9 
7 
6 
-10 
9 
0 
-3 
-4 
-4 
-2 
-3 
7 
-4 
6 
5 
3 
7 
-4 
9 
-3 
2 
6 
4 
-10 
7 
5 
4 
0 
1 
-8 
-2 
0 
1 
-5 
-8 
0 
-3 
-9 
6 
4 
-1 
5 
-7 
5 
1 
1 
-10 
-10 
7 
-10 
-2 
-9 
6 
4 
-9 
4 
-1 
-2 
6 
2 
-8 
-5 
-8 
3 
-8 
7 
-7 
-1 
0 
1 
5 
-10 
-4 
9 
-3 
-1 
-8 
-2 
-1 
9 
-2 
-1 
3 
6 
-7 
-4 
0 
-6 
4 
9 
6 
6 
-6 
1 
-1 
8 
-10 
-6 
9 
0 
5 
5 
0 
-9 
-4 
0 
-8 
-2 
8 
-6 
9 
8 
3 
-6 
4 
-1 
1 
7 
-5 
7 
6 
-8 

4 
2 
-5 
5 
0 
-5 
2 
-1 
-3 
-3 
6 
8 
-9 
-8 
-10 
-7 
-8 
8 
-3 
4 
6 
3 
8 
0 
4 
-1 
-3 
9 
-3 
5 
-9 
3 
-3 
8 
-10 
-1 
5 
2 
1 
-7 
2 
-3 
3 
3 
-8 
3 
-2 
6 
1 
6 
0 
9 
-9 
-1 
-9 
5 
0 
-1 
4 
-1 
6 
-2 
-8 
-6 
-4 
5 
3 
4 
-3 
-6 
7 
1 
-6 
0 
-6 
8 
-7 
3 
4 
-4 
-9 
-5 
-5 
4 
-4 
-4 
-1 
6 
-3 
5 
-4 
-6 
-7 
-10 
-10 
-8 
5 
3 
-2 
5 
0 
-5 
-4 
-4 
-3 
-7 
-6 
0 
-2 
0 
-2 
-9 
5 
3 
5 
-9 
1 
-6 
0 
1 
1 
-2 
5 
-3 
-2 

5 
-9 
6 
-10 
-1 
1 
-8 
4 
-1 
-10 
-9 
-6 
-6 
-7 
2 
5 
1 
3 
-8 
6 
-10 
6 
9 
6 
8 
0 
-2 
-4 
7 
5 
4 
-6 
6 
0 
-5 
-5 
3 
9 
1 
5 
-10 
-6 
9 
6 
-3 
-6 
-7 
0 
-1 
-4 
-4 
0 
4 
-5 
8 
2 
-2 
-4 
8 
-5 
3 
-6 
0 
-9 
-3 
-3 
8 
-10 
8 
-1 
-3 
8 
3 
9 
-3 
2 
5 
0 
-8 
-6 
-2 
-10 
-4 
-8 
-4 
-5 
-4 
-4 
-7 
-6 
1 
7 
-9 
3 
0 
-2 
2 
-1 
-10 
1 
0 
-2 
-9 
6 
-3 
-2 
-2 
-8 
1 
-7 
8 
9 
-7 
-5 
4 
-9 
-8 
2 
-3 
7 
-1 
1 
4 
0 
-6 

7 
8 
7 
-4 
8 
-10 
-2 
-4 
-9 
-6 
-5 
-8 
-5 
9 
3 
-2 
8 
-6 
-7 
5 
0 
-5 
-1 
-7 
-6 
-4 
2 
5 
3 
-8 
-10 
0 
-10 
-1 
-2 
0 
-1 
6 
7 
-8 
-9 
4 
-6 
8 
4 
-1 
8 
-6 
4 
-9 
9 
6 
8 
-10 
9 
-7 
-4 
-7 
8 
9 
-5 
0 
-9 
7 
1 
-1 
-2 
2 
-4 
7 
5 
9 
-7 
9 
-1 
7 
-1 
-3 
3 
5 
-10 
-6 
1 
9 
-6 
1 
4 
-7 
-4 
-6 
-8 
2 
-3 
6 
-9 
8 
-5 
-9 
1 
-7 
0 
-4 
4 
4 
7 
5 
-7 
8 
-8 
7 
3 
5 
3 
7 
4 
8 
-10 
-10 
-9 
-4 
-6 
5 
8 
-7 
1 

2 
-8 
-1 
-5 
-5 
-6 
6 
-7 
1 
-8 
-10 
-4 
-5 
1 
-1 
4 
-6 
6 
-2 
-9 
0 
8 
-9 
-8 
9 
-2 
8 
-4 
8 
-8 
0 
-8 
-6 
9 
-2 
-9 
5 
6 
-6 
-4 
8 
6 
3 
5 
-3 
4 
-8 
-6 
0 
-8 
7 
2 
-10 
1 
-4 
1 
9 
-6 
-1 
-1 
-4 
9 
-6 
-8 
0 
2 
-7 
-4 
-2 
9 
2 
8 
6 
7 
3 
5 
-7 
5 
9 
-5 
-1 
7 
-1 
-1 
-10 
5 
2 
1 
-10 
-8 
-10 
-4 
3 
6 
-1 
-6 
-2 
-6 
0 
-2 
-6 
4 
8 
2 
-6 
2 
-3 
-3 
9 
9 
3 
-1 
-2 
4 
0 
-2 
0 
5 
9 
0 
-1 
1 
-2 
-8 
-2 

7 
-4 
-2 
4 
-2 
-1 
8 
-7 
-3 
0 
-3 
1 
-1 
-4 
-7 
-10 
1 
-6 
-2 
-4 
-4 
6 
6 
-9 
-3 
8 
-8 
9 
-4 
-5 
9 
-6 
-7 
-3 
8 
2 
-2 
-2 
-3 
6 
0 
4 
9 
1 
2 
-8 
2 
-6 
-4 
-10 
-8 
3 
-1 
8 
-4 
-2 
6 
-1 
-3 
-8 
-4 
8 
8 
-1 
8 
-2 
-9 
-4 
-2 
-10 
4 
8 
4 
4 
-8 
9 
6 
4 
5 
5 
4 
7 
-10 
5 
-3 
-4 
-6 
-7 
5 
-7 
7 
3 
-8 
-2 
-7 
-10 
-2 
6 
-4 
-1 
7 
-9 
9 
-7 
-3 
-9 
-8 
-7 
5 
7 
0 
-8 
-4 
0 
7 
3 
7 
-9 
-2 
-6 
7 
-4 
8 
9 
-4 

3 
9 
-4 
-1 
7 
5 
-4 
0 
5 
-8 
7 
6 
6 
3 
2 
4 
-7 
-4 
-10 
4 
-7 
-4 
-7 
7 
4 
9 
4 
2 
-1 
3 
8 
-8 
-6 
-5 
-6 
3 
2 
-8 
-6 
-3 
-6 
-9 
6 
-9 
-4 
-2 
-3 
0 
4 
9 
6 
-1 
-5 
1 
-4 
-10 
-8 
2 
2 
2 
7 
-7 
-4 
-9 
-10 
0 
-3 
2 
3 
1 
-10 
7 
-6 
-2 
0 
1 
-2 
7 
3 
4 
7 
-9 
-7 
4 
-6 
-8 
4 
-4 
4 
9 
8 
-6 
-8 
-5 
7 
-8 
-3 
-6 
4 
-10 
5 
-4 
0 
-10 
4 
-10 
-7 
-8 
0 
-2 
6 
9 
-1 
2 
3 
-5 
4 
-2 
1 
-10 
-3 
-8 
-6 
-1 
9 

-8 
-7 
-4 
-4 
7 
-3 
4 
6 
-1 
-4 
0 
-1 
-1 
-5 
1 
7 
3 
0 
8 
-5 
-6 
-7 
9 
-6 
-4 
2 
-7 
-2 
6 
2 
-3 
0 
-3 
-4 
7 
-6 
3 
1 
2 
4 
7 
5 
5 
8 
-10 
-3 
-3 
3 
7 
7 
9 
3 
2 
0 
7 
8 
-8 
-10 
-3 
1 
-6 
-4 
-9 
1 
2 
8 
-2 
7 
-9 
-10 
1 
0 
-3 
9 
-10 
-3 
-4 
9 
3 
-7 
6 
-6 
-1 
-2 
4 
-4 
9 
-1 
-3 
8 
-10 
1 
-6 
3 
5 
-1 
-6 
-7 
8 
-5 
5 
-8 
-2 
-7 
-9 
-2 
-8 
-3 
-10 
5 
-8 
6 
1 
1 
7 
8 
8 
6 
-3 
7 
4 
9 
-10 
0 
2 

-3 
1 
6 
-8 
0 
4 
8 
2 
-8 
3 
3 
-8 
-3 
2 
4 
5 
4 
1 
-4 
8 
-10 
-6 
-2 
-2 
-7 
-5 
-8 
4 
7 
-6 
-3 
-5 
6 
5 
-3 
-4 
-1 
7 
0 
-7 
-8 
-7 
8 
0 
5 
2 
-5 
-9 
5 
1 
1 
5 
-2 
9 
-7 
-7 
6 
7 
8 
-4 
-8 
-5 
1 
0 
-10 
0 
-2 
-8 
-2 
8 
7 
0 
-9 
5 
-10 
-2 
-10 
7 
-9 
5 
-9 
3 
-7 
-1 
-6 
8 
2 
3 
6 
0 
9 
0 
-3 
0 
2 
-10 
-10 
-10 
4 
-10 
8 
1 
1 
9 
9 
-7 
9 
9 
-9 
2 
-4 
4 
7 
-1 
-7 
-8 
-2 
-3 
5 
6 
0 
4 
-4 
-1 
6 

8 
-1 
6 
8 
5 
-1 
-2 
-3 
-10 
-3 
8 
5 
8 
7 
-2 
0 
5 
-8 
-2 
-5 
7 
-8 
-5 
7 
-1 
-9 
-3 
-7 
9 
6 
9 
-1 
8 
-3 
-3 
3 
6 
5 
2 
-2 
4 
0 
6 
-6 
9 
6 
-4 
5 
9 
-4 
2 
-2 
-2 
7 
-5 
7 
0 
2 
2 
-1 
-9 
-7 
8 
1 
-7 
7 
6 
1 
-6 
-1 
2 
0 
1 
-2 
-4 
-7 
-6 
2 
0 
5 
9 
4 
-6 
9 
1 
-1 
-1 
3 
4 
-9 
-8 
5 
7 
2 
-4 
-10 
-9 
4 
1 
-5 
-7 
5 
-3 
-3 
-7 
3 
-8 
-10 
7 
-6 
-3 
6 
8 
1 
-2 
-1 
3 
7 
-8 
-3 
0 
6 
4 
-3 
-10 

2 
9 
-9 
-4 
-7 
8 
-8 
8 
-5 
-1 
-8 
0 
-7 
4 
-3 
-3 
-9 
6 
-5 
-5 
-6 
-4 
8 
-9 
-10 
-5 
1 
-2 
9 
1 
-2 
1 
0 
-1 
7 
3 
9 
1 
2 
6 
2 
-4 
-4 
5 
-10 
-5 
4 
3 
-9 
9 
8 
7 
7 
6 
8 
7 
3 
-8 
-5 
-6 
3 
-5 
-3 
5 
-4 
-5 
-1 
-5 
-2 
3 
3 
-9 
9 
9 
6 
1 
7 
1 
-6 
0 
-8 
5 
-2 
-10 
1 
-4 
-1 
7 
-10 
5 
-9 
3 
2 
-1 
-1 
9 
-4 
0 
6 
4 
-7 
0 
5 
4 
-9 
-6 
-5 
8 
5 
-9 
-1 
-1 
6 
7 
-1 
-10 
5 
9 
7 
6 
-4 
8 
-9 
8 
9 

-8 
-1 
-5 
-6 
-4 
2 
-3 
6 
-3 
-9 
7 
1 
8 
6 
8 
-10 
7 
-2 
6 
-4 
-1 
6 
-9 
-2 
-5 
-1 
-4 
6 
1 
7 
5 
-5 
-4 
3 
0 
2 
-5 
-1 
-2 
2 
-7 
8 
6 
-9 
-4 
-4 
-9 
-7 
4 
0 
-1 
6 
8 
-8 
6 
-6 
2 
-7 
-10 
5 
-10 
-3 
2 
8 
-10 
-8 
-7 
-5 
-6 
-7 
0 
-3 
-9 
8 
-2 
-3 
-6 
-8 
-8 
1 
2 
1 
-3 
-8 
-4 
-7 
-4 
0 
8 
8 
7 
0 
8 
-1 
-1 
8 
-6 
2 
6 
-2 
-3 
8 
5 
-1 
-2 
-7 
6 
-6 
7 
1 
5 
-1 
4 
4 
2 
-10 
0 
0 
0 
-2 
-9 
-3 
1 
9 
-1 

-10 
-1 
3 
-6 
7 
3 
1 
-3 
-2 
2 
5 
-7 
-9 
2 
-9 
2 
9 
-8 
-4 
4 
-4 
9 
6 
-1 
-1 
-6 
0 
-1 
5 
-9 
0 
-3 
-8 
-7 
-7 
2 
-2 
-3 
1 
6 
1 
9 
1 
2 
1 
-6 
6 
0 
-3 
-7 
6 
-5 
-8 
2 
4 
-7 
-1 
6 
-6 
6 
7 
4 
6 
2 
-1 
9 
6 
7 
8 
-3 
-5 
-8 
-4 
7 
4 
7 
-9 
1 
-2 
-10 
-4 
6 
-4 
-10 
-1 
-10 
5 
8 
7 
-10 
4 
-4 
-4 
0 
0 
6 
-8 
-4 
-5 
2 
4 
1 
4 
2 
-10 
-9 
0 
3 
-6 
0 
4 
0 
-4 
2 
-8 
-3 
2 
7 
-5 
-9 
-1 
-10 
-10 
6 
-8 

0 
2 
-6 
-1 
-1 
-1 
5 
-10 
-7 
-3 
-10 
-6 
-1 
4 
-2 
9 
-10 
0 
8 
2 
2 
-5 
6 
-8 
1 
8 
1 
-7 
0 
-3 
7 
2 
1 
4 
-9 
-9 
-7 
6 
3 
8 
6 
-4 
-7 
-5 
2 
-7 
7 
2 
-4 
5 
6 
8 
-10 
2 
2 
-7 
-8 
-6 
8 
2 
-7 
-2 
-5 
-3 
-8 
8 
-2 
7 
-3 
3 
5 
-7 
9 
0 
-2 
1 
-4 
-5 
5 
2 
2 
1 
-8 
-5 
6 
5 
-2 
8 
9 
9 
-7 
4 
-3 
-10 
-9 
-9 
0 
-9 
8 
7 
5 
3 
-10 
-4 
6 
-9 
8 
-8 
8 
-5 
4 
-7 
-1 
6 
-2 
-5 
1 
-2 
5 
-8 
9 
0 
7 
-4 
0 

0 
-3 
3 
2 
7 
0 
-3 
1 
-7 
3 
-3 
6 
-7 
-1 
-4 
-1 
5 
-1 
8 
1 
7 
5 
-7 
8 
0 
7 
7 
3 
4 
6 
5 
-5 
5 
-2 
-1 
3 
9 
6 
6 
4 
-9 
5 
0 
7 
6 
6 
8 
1 
-4 
-2 
-8 
5 
-7 
7 
3 
-5 
5 
1 
8 
-9 
-3 
-4 
8 
-8 
4 
-3 
-3 
3 
-7 
-7 
-3 
7 
8 
-1 
-4 
4 
-4 
-6 
-5 
-6 
2 
-10 
9 
-3 
7 
-5 
-6 
-6 
6 
5 
-4 
5 
-9 
-6 
-1 
5 
2 
7 
-9 
-3 
-10 
-10 
6 
1 
0 
-8 
-5 
-2 
-4 
-7 
2 
0 
-7 
1 
-1 
2 
6 
-4 
7 
-6 
-9 
-7 
1 
4 
9 

-9 
-9 
1 
0 
-8 
1 
-8 
5 
-3 
3 
-5 
0 
1 
-5 
-2 
-4 
7 
1 
-1 
-10 
2 
3 
-1 
8 
0 
3 
1 
-5 
7 
7 
7 
0 
9 
-2 
-10 
3 
1 
4 
-2 
9 
-10 
-5 
-9 
-7 
0 
-9 
-1 
9 
2 
0 
-10 
7 
-7 
-1 
-3 
-4 
4 
9 
-7 
-7 
-2 
-10 
3 
-3 
-9 
-5 
-9 
2 
2 
-9 
-7 
2 
-3 
-6 
5 
-1 
-4 
-6 
-1 
0 
4 
-9 
-3 
-1 
0 
5 
5 
6 
-4 
1 
-10 
4 
1 
-5 
-8 
-6 
-7 
5 
7 
5 
6 
2 
-3 
5 
7 
4 
-5 
-7 
8 
-4 
3 
-6 
-3 
-9 
3 
-1 
-2 
-9 
7 
4 
2 
-1 
-2 
5 
5 

-8 
2 
0 
7 
-9 
-5 
-4 
3 
2 
-9 
0 
8 
8 
-5 
6 
-6 
9 
2 
-7 
2 
7 
2 
2 
8 
-8 
-4 
-8 
1 
-4 
0 
8 
-1 
-8 
-2 
8 
5 
-5 
-6 
-2 
-1 
8 
9 
-3 
6 
-6 
5 
3 
5 
-3 
6 
9 
-5 
-9 
1 
5 
5 
-1 
0 
-4 
6 
2 
7 
7 
-4 
7 
5 
-9 
-7 
2 
-1 
2 
0 
-10 
-10 
8 
7 
5 
1 
-6 
5 
-10 
-6 
-10 
3 
-3 
-3 
-2 
7 
7 
4 
3 
-9 
-7 
0 
-3 
-9 
7 
-2 
6 
-9 
0 
-2 
-7 
0 
-10 
-8 
9 
6 
-5 
-6 
-7 
7 
-10 
5 
0 
-3 
-8 
8 
-6 
2 
-5 
7 
3 
-2 
9 

-9 
-9 
-1 
-1 
7 
0 
9 
-4 
-4 
-8 
8 
-2 
-9 
-4 
-5 
7 
-1 
-7 
7 
-6 
-5 
-5 
-3 
-6 
-1 
1 
-1 
9 
-6 
-1 
0 
-5 
1 
1 
-3 
-2 
-8 
8 
-4 
-2 
-10 
-5 
-2 
4 
1 
-5 
1 
-9 
-10 
-1 
-5 
-4 
-4 
-6 
-8 
5 
5 
1 
-4 
-10 
-10 
-1 
7 
-7 
-10 
6 
2 
4 
5 
0 
-8 
-3 
5 
-8 
3 
9 
-10 
7 
-10 
-10 
-4 
7 
8 
-6 
4 
-10 
1 
-1 
1 
8 
-9 
-6 
9 
1 
-3 
9 
-3 
1 
4 
4 
-8 
-2 
4 
-1 
-7 
9 
-2 
-7 
6 
-10 
5 
4 
0 
4 
8 
-6 
4 
0 
3 
8 
-10 
-3 
4 
9 
8 

3 
8 
7 
-5 
-6 
-6 
9 
3 
8 
-2 
-2 
7 
-1 
1 
-4 
-1 
8 
-10 
9 
2 
9 
-7 
9 
-1 
-1 
7 
-1 
6 
-7 
-10 
-4 
6 
8 
-7 
3 
5 
-3 
2 
-10 
7 
3 
-2 
-3 
-8 
1 
3 
-7 
-1 
-5 
-7 
-8 
-6 
8 
3 
-5 
9 
-8 
-4 
-3 
-5 
-4 
3 
-9 
7 
-1 
5 
2 
-2 
9 
2 
8 
2 
-10 
-5 
4 
1 
0 
0 
2 
5 
3 
-4 
2 
-7 
9 
7 
5 
-9 
-6 
-8 
8 
-8 
-2 
2 
9 
-1 
9 
1 
-1 
8 
5 
-3 
-7 
5 
-6 
-1 
8 
4 
9 
-7 
-8 
-6 
-1 
4 
-2 
-1 
-7 
-7 
-8 
9 
7 
3 
-8 
-5 
-5 

3 
-4 
-6 
7 
6 
4 
2 
-7 
7 
-10 
-10 
-3 
0 
-4 
-4 
3 
-2 
1 
-7 
4 
1 
-6 
8 
-4 
8 
7 
5 
1 
9 
3 
-2 
3 
9 
-6 
-8 
5 
9 
4 
1 
-2 
4 
1 
-3 
7 
-1 
4 
0 
8 
7 
-5 
-6 
-10 
-1 
-8 
8 
-10 
-10 
3 
1 
1 
-4 
2 
6 
-4 
6 
8 
3 
-3 
-5 
-6 
6 
1 
-3 
-7 
-2 
-1 
-1 
9 
9 
8 
6 
-7 
8 
8 
-4 
6 
8 
8 
-8 
-9 
-9 
-2 
3 
8 
-4 
0 
-2 
-10 
7 
3 
6 
-5 
-5 
6 
-1 
3 
-5 
0 
-6 
-6 
-1 
3 
-3 
-3 
1 
-5 
6 
-1 
-7 
8 
0 
7 
8 
6 
5 

-5 
8 
-7 
-5 
-3 
-1 
-9 
3 
4 
7 
4 
9 
4 
-6 
6 
8 
-5 
-1 
8 
-5 
2 
-7 
-9 
-9 
9 
1 
-7 
6 
-1 
1 
-7 
4 
-1 
8 
1 
7 
9 
3 
0 
3 
-8 
6 
-5 
-1 
2 
3 
-3 
8 
4 
7 
-7 
-4 
3 
6 
9 
2 
-3 
-8 
-10 
-2 
4 
5 
-7 
5 
-5 
4 
2 
-5 
9 
4 
0 
4 
0 
5 
-7 
5 
-10 
-8 
3 
4 
-10 
6 
2 
3 
2 
1 
7 
1 
4 
-1 
9 
-10 
6 
4 
5 
-9 
-9 
-10 
-4 
2 
-4 
7 
-4 
-1 
-6 
-9 
-6 
-5 
6 
7 
1 
6 
-5 
-6 
-9 
-1 
-3 
0 
-10 
-9 
1 
1 
3 
-3 
-4 

-9 
-2 
-3 
3 
-3 
1 
9 
-6 
0 
-2 
-10 
1 
-6 
7 
-3 
3 
-1 
5 
8 
-5 
-2 
-3 
2 
8 
9 
-4 
-1 
1 
1 
-2 
-1 
-6 
7 
-2 
7 
-6 
9 
-1 
-10 
-1 
-1 
-10 
3 
4 
8 
2 
-3 
9 
-10 
-4 
6 
-2 
-5 
-10 
9 
7 
-4 
-10 
-2 
0 
-1 
-1 
4 
8 
7 
2 
4 
-2 
-9 
4 
8 
0 
-4 
-7 
6 
6 
5 
-6 
-3 
-3 
-8 
5 
6 
9 
6 
-3 
6 
4 
-3 
-6 
-6 
6 
3 
9 
-4 
-8 
-7 
-10 
1 
6 
-4 
-9 
8 
-5 
-6 
5 
-9 
1 
1 
-9 
9 
3 
6 
-3 
2 
-6 
4 
-9 
9 
-9 
-5 
5 
0 
1 
-4 

8.32877 
-6.93051 
3.74649 
15.3301 
9.46209 
21.4626 
-16.5636 
-2.43376 
3.64624 
10.5955 
-18.0185 
-1.68039 
-1.5087 
16.9039 
-6.63623 
7.65706 
-18.9407 
6.02158 
1.32444 
-2.48184 
-8.04929 
7.06427 
-1.03036 
-2.7631 
-2.16873 
-3.89143 
-12.253 
-17.7348 
2.52343 
11.4118 
-13.8673 
-5.93125 
-11.915 
-6.40273 
8.43076 
-2.44213 
-2.53755 
0.818502 
-22.6425 
-1.80826 
-11.7368 
4.21726 
-12.6252 
-5.55746 
-4.85389 
4.4284 
2.96827 
-3.74961 
-4.50527 
5.75861 
17.4309 
-5.47493 
-12.8418 
9.07099 
1.88935 
-1.36447 
-1.56127 
-9.16857 
-10.0051 
0.234227 
-12.52 
-9.43004 
6.15668 
1.61632 
-10.5465 
4.78587 
3.58769 
3.69454 
5.84969 
-10.4558 
-5.91891 
-1.48 
17.039 
-0.139309 
2.39499 
4.31959 
6.52867 
26.5302 
0.62984 
-3.39611 
0.283967 
-20.3361 
1.78484 
4.88891 
0.363963 
13.5252 
-4.12825 
-5.16865 
0.297034 
8.50539 
-5.41211 
3.09928 
-9.74032 
-7.14768 
-8.54154 
7.35153 
8.11024 
2.17651 
-1.73894 
1.46523 
21.7803 
-21.845 
-19.3935 
7.93251 
1.25818 
-2.97252 
2.6318 
28.5717 
-25.0174 
-13.3405 
-9.92342 
-8.51824 
19.3559 
-10.4257 
-2.01202 
-7.10989 
4.92847 
-30.6086 
6.33246 
17.1104 
1.37832 
12.2829 
12.0072 
-16.4545 
-1.70819 

15.4384 
-17.9692 
24.4283 
42.6464 
21.465 
88.668 
-69.2945 
-18.8893 
-19.5933 
74.092 
-90.7148 
28.9816 
44.246 
66.4041 
-19.3446 
13.4738 
-113.032 
38.1338 
44.6115 
-44.3874 
-8.50557 
51.1985 
-1.18824 
-63.3312 
-76.2461 
26.4731 
-32.3688 
-142.755 
2.24524 
101.753 
-31.1773 
-39.5738 
-27.273 
13.9031 
69.0707 
-14.3412 
51.2672 
65.8747 
-71.3837 
-7.81119 
-20.1684 
57.947 
-37.8763 
-73.6563 
-66.0941 
29.6561 
66.8033 
17.1524 
28.0674 
61.5034 
60.4716 
-70.9446 
-48.8194 
-8.55986 
7.31398 
23.5403 
41.1201 
-40.0452 
-5.03191 
-19.3478 
-39.224 
2.33377 
4.17141 
43.0212 
-22.988 
3.07238 
-15.9563 
-13.0938 
18.4681 
-49.6258 
2.70276 
3.22401 
72.642 
-55.4637 
-22.3511 
21.7815 
53.0778 
104.687 
29.905 
-12.4559 
33.5606 
-75.6839 
48.466 
12.9112 
-22.5434 
94.4563 
-76.1951 
-58.0456 
-9.75839 
56.7334 
-35.3551 
-25.9844 
-25.99 
-8.11561 
-1.15755 
-3.02054 
57.4835 
10.4943 
-37.5815 
36.2844 
75.2376 
-133.239 
-90.0397 
21.3816 
21.2007 
40.3704 
-18.8829 
143.144 
-92.108 
-27.9113 
-95.5252 
-112.413 
78.8067 
-62.6394 
-22.6745 
-37.0813 
-16.8435 
-136.973 
-10.1387 
99.0847 
42.9456 
16.3543 
31.8444 
-72.2179 
-43.5908 

-7 
8 
1 
1 
-4 
-6 
-1 
2 
-3 
6 
5 
2 
-9 
5 
-6 
0 
-8 
-6 
7 
4 
-8 
-4 
3 
-1 
0 
6 
-7 
-1 
-4 
8 
7 
-1 
6 
-2 
-10 
4 
2 
0 
8 
1 
8 
-5 
-6 
9 
-10 
-10 
-8 
-7 
6 
9 
-1 
1 
7 
-8 
-10 
9 
1 
5 
-2 
7 
3 
-5 
8 
-9 
-4 
1 
5 
0 
3 
3 
-8 
1 
9 
8 
-7 
9 
0 
-5 
-8 
-4 
6 
-6 
7 
3 
-4 
0 
-6 
-1 
-5 
3 
8 
1 
0 
7 
2 
-2 
-2 
-2 
9 
-9 
3 
3 
-6 
-6 
1 
9 
-6 
3 
-6 
8 
9 
2 
-8 
-1 
7 
-9 
9 
-8 
-8 
6 
5 
-9 
-3 
7 
0 

26.8717 
-8.82673 
75.6879 
-7.84014 
-1.12775 
76.9813 
1.51328 
-41.2195 
-8.29577 
14.9903 
-49.4058 
20.0234 
75.6726 
97.8019 
-68.4051 
12.3641 
45.1355 
-6.54966 
-17.0852 
-14.6167 
16.7921 
3.40023 
7.60805 
-63.1217 
-29.0723 
1.08762 
-1.03328 
-51.3639 
-11.4882 
-3.22326 
-28.2514 
-15.1699 
21.7041 
-5.16882 
25.0082 
25.7988 
14.7893 
61.0415 
-63.7974 
17.2272 
24.707 
3.40434 
43.8168 
-36.143 
-37.5093 
42.8591 
-4.68309 
-16.055 
27.4305 
41.5423 
64.3246 
34.8562 
-2.56622 
78.8576 
41.1558 
-6.34844 
30.5232 
39.4562 
43.4156 
-72.4793 
-6.43858 
65.5967 
-2.98421 
77.0691 
75.8631 
-9.98573 
-60.9014 
-14.7535 
-64.1332 
-36.0446 
42.8427 
-17.7982 
58.8 
-52.0277 
-21.5646 
28.1541 
21.7952 
-6.25502 
38.2239 
-13.5423 
22.1939 
-75.0215 
11.5787 
-5.19606 
20.8038 
31.5071 
-65.2763 
-18.5177 
-21.7066 
45.9995 
11.4809 
-66.4225 
-10.6366 
-34.0957 
-23.069 
-72.6135 
43.2333 
77.5363 
-49.9269 
13.3234 
20.1108 
-4.41531 
0.158447 
-2.83424 
74.8366 
-54.7129 
-3.32459 
52.3025 
12.1865 
-31.0124 
-68.7997 
-33.2448 
70.4338 
-5.86747 
-28.0098 
-17.1559 
-23.9718 
23.2382 
-75.2926 
5.16155 
41.561 
-23.2038 
-34.7264 
-12.3566 
10.4807 

5.92979 
5.57125 
-39.1541 
57.2916 
38.6268 
-5.47907 
-76.4775 
4.33144 
35.0877 
56.9298 
-41.0082 
-7.91812 
53.6836 
-37.3371 
-21.2606 
-29.6354 
-89.9552 
0.49124 
46.0396 
-85.7169 
19.7963 
56.8907 
-14.3811 
18.6747 
-112.828 
-2.77966 
-18.8325 
-67.9025 
15.1492 
78.4017 
-36.3375 
-31.1938 
-20.2755 
18.7241 
12.1627 
1.64802 
22.4875 
10.2082 
-53.2967 
-9.67583 
-34.0478 
42.9734 
-31.5584 
-6.62117 
-76.7434 
-17.6003 
30.0753 
10.4521 
-12.5507 
89.9321 
13.8686 
-61.4148 
-21.7361 
-22.8413 
-7.39125 
18.1112 
9.17458 
-20.5748 
-22.5321 
-24.8419 
-31.4523 
1.92438 
19.3966 
47.6108 
-19.7028 
-7.71742 
-29.4691 
-1.20228 
-2.21006 
-88.0678 
18.9628 
-13.2027 
48.8445 
-68.9002 
16.3653 
-54.4764 
4.41631 
96.2391 
-0.556374 
-12.7473 
-25.7817 
-24.3445 
23.8644 
-9.42612 
-31.4084 
28.2839 
-24.8312 
-47.9973 
-27.8813 
16.1255 
-9.72838 
-28.9568 
-1.90394 
13.2194 
-34.7419 
0.901374 
4.10869 
11.8037 
-15.0427 
11.2888 
16.9904 
-62.5471 
-41.1669 
39.3365 
31.4092 
19.8972 
0.238316 
93.3764 
-49.8716 
-7.95048 
-52.0258 
-57.8265 
44.7218 
-88.5297 
1.46661 
-9.63336 
-14.2897 
-94.8899 
47.2598 
75.5351 
56.8558 
47.5549 
-11.4192 
-54.9441 
-32.4552 

12.8171 
-7.30109 
43.1697 
-30.3916 
1.4417 
31.4817 
23.0929 
-40.478 
-30.1638 
-12.0424 
-0.0179439 
19.8182 
28.8838 
56.1042 
-11.2922 
30.1304 
56.569 
-34.2172 
-40.1048 
5.87074 
2.10615 
-29.327 
1.98252 
-23.04 
5.22371 
23.9751 
6.02339 
-21.2787 
-30.5998 
-29.6166 
-29.1323 
-18.0458 
-2.13041 
10.6002 
-6.77911 
7.7862 
21.9841 
14.0311 
-28.1962 
11.1222 
17.8442 
-13.142 
32.7614 
-39.1006 
0.00714521 
30.7421 
-25.6135 
2.25541 
23.8699 
11.807 
37.9437 
41.5253 
13.7678 
48.8391 
8.63162 
-7.31386 
23.1828 
13.6868 
38.195 
-22.3113 
7.93537 
22.842 
2.71809 
22.6724 
43.0523 
-1.25478 
-19.7541 
-17.8509 
-46.8162 
-13.9755 
5.97463 
-4.55986 
13.7594 
-17.6769 
-10.9045 
41.4177 
31.3657 
-34.4475 
34.6201 
14.5651 
16.0122 
-36.5593 
2.4508 
-10.5573 
30.0913 
7.34092 
-28.7167 
2.33787 
-2.12135 
21.6816 
16.7555 
-45.0385 
8.80637 
-33.7471 
-3.90468 
-46.1257 
40.3946 
46.579 
-10.477 
8.52822 
6.66546 
20.9156 
-11.1299 
-19.5025 
23.2938 
-34.2324 
6.48068 
26.9051 
26.887 
-18.8484 
-18.7206 
-23.0556 
26.5436 
39.9063 
-20.6993 
8.42165 
-17.4974 
36.7277 
-72.7761 
-20.6375 
22.0895 
-26.5472 
-22.0708 
8.64954 
9.6294 

34.9514 
-20.8425 
26.5096 
8.78694 
-9.90177 
19.6372 
-20.77 
6.88433 
4.42148 
46.9692 
-18.211 
-12.9014 
37.8313 
11.4106 
-50.8867 
0.972553 
6.67676 
-11.1929 
6.97991 
-22.6899 
7.34894 
20.3243 
5.925 
-12.1263 
-78.8343 
-16.9537 
-43.4784 
-21.0202 
1.88144 
19.1599 
-44.576 
13.3416 
-8.72845 
-6.94718 
14.1073 
-52.7971 
-1.92328 
16.7099 
-15.6677 
4.31438 
-38.6235 
-24.2167 
16.9128 
3.0884 
3.99589 
-5.47067 
-14.23 
-10.8278 
-4.00047 
88.0011 
11.2524 
-15.7779 
-64.4445 
-41.4188 
81.4392 
25.0521 
-67.6807 
-11.8305 
-3.43394 
-32.3029 
-12.6503 
22.3055 
-33.8948 
33.4439 
57.3546 
13.2968 
-16.5004 
12.2651 
-32.9373 
-16.7567 
-6.45107 
-1.76648 
50.7287 
-29.461 
4.53047 
31.1704 
25.3002 
44.5822 
-1.87745 
-13.6144 
-16.7203 
-52.0184 
-41.5039 
19.3224 
-15.1835 
9.26977 
-39.4452 
8.42985 
-31.9288 
8.54398 
-15.2548 
-12.9439 
14.9911 
-18.7956 
16.1616 
5.85031 
39.8755 
28.1898 
-46.6668 
19.6703 
31.8036 
-1.44448 
-18.8864 
15.3257 
34.9999 
18.3372 
-24.7535 
49.0929 
4.31993 
-9.9962 
-31.8366 
-58.0534 
59.8124 
0.51794 
-17.0796 
13.0158 
26.9255 
12.5081 
11.9598 
3.92554 
19.6495 
-21.9339 
-29.6065 
16.4255 
27.0679 

-8.20854 
2.82831 
-7.39451 
5.67845 
-1.20419 
14.6244 
-14.6821 
1.44666 
16.5219 
-1.92654 
-15.2171 
1.97207 
13.4527 
2.59523 
-11.1523 
-16.1719 
-8.03163 
-1.17885 
9.83104 
-7.67372 
4.96603 
14.4975 
-7.74247 
6.92598 
-22.1793 
-4.59077 
5.60214 
-22.1748 
5.56681 
9.23587 
-8.03843 
-2.99859 
0.609546 
-4.4086 
11.8116 
14.9705 
-10.4576 
0.557214 
-4.28187 
7.2401 
-0.827021 
9.39923 
-15.3564 
-5.24538 
-8.94402 
-0.0847169 
1.12555 
2.64911 
3.95436 
20.6815 
7.71658 
-12.9531 
-0.37963 
10.2312 
-11.3214 
9.14898 
3.1367 
-1.14072 
4.07322 
-10.2946 
-0.134037 
-0.373562 
9.89321 
3.28855 
-6.6587 
-15.3651 
-17.4409 
-14.9851 
-7.09784 
-20.8927 
17.0435 
-7.35155 
7.45564 
-5.8917 
-2.90297 
-14.2235 
7.3406 
12.025 
-0.83788 
-5.72687 
-5.53881 
-19.2537 
12.2688 
-4.69517 
-4.24898 
-0.922974 
-17.5842 
-12.5994 
-4.71621 
-2.60648 
-10.0378 
-2.00444 
6.38738 
14.8948 
0.142201 
-0.187025 
-12.4732 
11.7004 
4.82682 
6.74416 
6.10676 
-16.146 
-0.214269 
-10.904 
6.80738 
1.9471 
7.88647 
20.4032 
-22.9143 
0.0257026 
-12.3737 
-14.2536 
8.60317 
-10.4793 
5.26207 
-6.86491 
-3.05668 
-23.7751 
0.271255 
9.67422 
0.957158 
5.54424 
-10.0538 
-8.7027 
-3.88208 

-62.3832 
6.23304 
-32.4221 
3.6151 
-35.1526 
-54.4467 
38.6277 
11.6532 
1.3711 
-55.272 
40.6611 
0.882681 
-83.9978 
-25.4762 
70.6207 
-23.1586 
-9.11569 
24.0144 
10.8133 
58.6065 
-15.4858 
-34.5321 
-19.7493 
21.5281 
139.689 
-6.21811 
26.2955 
83.7024 
-2.45531 
-23.8149 
93.5244 
37.4917 
21.0163 
-22.3522 
-20.6644 
33.5442 
-7.19452 
-41.947 
79.3903 
-11.1016 
15.8558 
-8.19262 
-7.83816 
28.2954 
41.3486 
-19.5411 
1.48568 
-5.24552 
-19.5819 
-145.393 
-60.1737 
3.38693 
43.0489 
-28.5055 
-72.3962 
-18.1099 
22.8793 
-4.82182 
-25.0142 
60.1117 
-4.90906 
-27.0011 
19.0447 
-65.7432 
-71.9362 
-12.7116 
55.8757 
16.4489 
82.2817 
68.2511 
-13.849 
31.6687 
-96.3221 
83.5509 
1.12577 
-37.0202 
-46.4974 
-68.0257 
-34.6083 
10.2399 
11.4204 
98.6677 
10.6752 
4.90162 
-7.21781 
-29.4034 
60.0566 
21.3834 
37.6321 
-52.2553 
6.37986 
69.0524 
-30.0701 
30.4965 
4.67207 
36.2211 
-64.5733 
-87.0746 
52.9035 
-23.8314 
-43.5531 
25.264 
28.9599 
-5.41711 
-67.4608 
22.8355 
-5.5028 
-122.364 
15.3334 
14.9472 
79.2897 
80.1632 
-102.897 
28.5773 
21.4719 
-10.4955 
4.94379 
38.316 
33.1299 
-30.8151 
-49.9535 
-14.2165 
53.9402 
40.2213 
-9.52205 

5 
-8 
-9 
-6 
2 
-4 
-3 
-1 
-2 
-4 
-9 
6 
-3 
1 
-10 
0 
0 
3 
-7 
5 
-9 
0 
0 
-1 
5 
9 
-2 
-8 
0 
8 
0 
-5 
-10 
1 
-9 
2 
8 
-9 
3 
8 
-3 
-4 
-3 
4 
7 
-3 
6 
-10 
-9 
2 
5 
4 
-8 
-5 
-7 
-1 
6 
-7 
2 
8 
-9 
-8 
5 
3 
-5 
-2 
7 
-7 
-1 
1 
4 
7 
7 
-9 
-7 
-3 
-10 
-10 
-3 
3 
2 
4 
-10 
-4 
1 
-7 
6 
-3 
-3 
-10 
-5 
-10 
4 
2 
4 
9 
-10 
1 
5 
0 
4 
-9 
9 
-6 
4 
-8 
1 
4 
-8 
0 
-10 
-4 
-6 
-10 
-5 
5 
5 
3 
4 
-8 
3 
1 
5 
-3 
-7 

-1 
8 
-7 
-10 
3 
-5 
-3 
-4 
-6 
1 
-10 
-3 
-8 
5 
-9 
2 
-3 
-10 
-2 
-3 
-5 
-7 
-8 
8 
-1 
7 
-7 
-10 
2 
-8 
5 
3 
-10 
8 
-5 
-4 
6 
2 
2 
-10 
-7 
3 
-3 
7 
-10 
-9 
-9 
-3 
-9 
-1 
-4 
-4 
-6 
-10 
6 
3 
-1 
9 
-5 
3 
-9 
-10 
-4 
-9 
1 
-6 
9 
-3 
6 
2 
-3 
2 
7 
-3 
-1 
-1 
-2 
1 
6 
-1 
-10 
4 
-3 
7 
4 
-7 
0 
-6 
-8 
-2 
7 
-7 
-2 
6 
6 
1 
-10 
6 
8 
6 
-10 
8 
-2 
7 
-5 
0 
8 
3 
-9 
-4 
4 
3 
-10 
-9 
0 
-4 
-6 
3 
0 
8 
-9 
-10 
-9 
-9 
-2 

-1 
3 
-2 
-5 
1 
6 
7 
-1 
7 
-4 
-4 
-3 
-6 
1 
-10 
0 
-5 
3 
0 
8 
-6 
-1 
4 
-1 
1 
2 
0 
1 
-5 
-7 
9 
5 
6 
9 
2 
-10 
6 
-8 
-9 
3 
-2 
-2 
2 
3 
1 
2 
5 
7 
-5 
8 
-3 
-9 
-3 
4 
0 
8 
-4 
2 
-8 
-6 
6 
3 
1 
-6 
3 
5 
-6 
-1 
7 
-4 
4 
-4 
-4 
-4 
1 
-1 
8 
-4 
8 
-7 
6 
-4 
7 
-7 
-10 
-3 
4 
8 
2 
6 
-8 
-2 
-1 
-5 
2 
-8 
-9 
-1 
-7 
8 
-3 
7 
6 
-5 
5 
-3 
4 
3 
-4 
3 
-1 
-8 
9 
-4 
8 
1 
-5 
2 
-1 
-1 
-10 
-6 
7 
-1 
-1 

-8 
-6 
0 
1 
9 
-9 
0 
-1 
7 
5 
-6 
7 
-1 
0 
5 
-8 
9 
-1 
3 
7 
-3 
-6 
4 
1 
-4 
-6 
1 
0 
3 
3 
1 
5 
7 
4 
8 
6 
5 
-2 
-5 
-6 
-7 
-8 
-9 
-5 
2 
6 
-3 
1 
8 
3 
-10 
-5 
7 
-4 
-1 
5 
0 
-10 
-5 
6 
3 
7 
-7 
-8 
1 
-8 
9 
8 
-8 
6 
-8 
8 
8 
-6 
-7 
0 
2 
-8 
3 
-8 
5 
-5 
-2 
-5 
-6 
7 
-10 
-4 
-1 
-4 
-8 
5 
5 
-4 
7 
8 
-10 
6 
6 
-8 
-5 
0 
-10 
5 
-4 
-7 
8 
1 
-4 
-7 
3 
-9 
-9 
-9 
8 
-5 
0 
9 
1 
2 
7 
4 
-3 
2 
-10 

-6 
-8 
-10 
3 
0 
4 
0 
-10 
5 
-5 
-3 
0 
-7 
8 
6 
9 
1 
0 
-10 
-5 
-2 
-5 
-3 
9 
6 
9 
6 
-8 
8 
-2 
4 
-7 
-8 
-4 
-2 
2 
-9 
8 
3 
6 
5 
-10 
8 
1 
8 
5 
0 
-9 
7 
0 
-4 
7 
-3 
-4 
7 
5 
-5 
3 
8 
6 
4 
2 
9 
6 
9 
9 
-1 
2 
-1 
-8 
-10 
-6 
4 
8 
5 
-6 
-5 
7 
-5 
-8 
-3 
-6 
2 
-4 
0 
-1 
-8 
-3 
4 
-10 
-7 
-2 
-6 
4 
7 
5 
3 
8 
-3 
-8 
2 
-3 
9 
-4 
-4 
4 
-8 
1 
-6 
-3 
-4 
-7 
-7 
8 
0 
3 
9 
2 
3 
3 
-6 
6 
4 
-2 
1 

1 
6 
6 
-1 
-7 
1 
3 
-7 
0 
9 
-9 
6 
3 
-6 
-10 
-10 
0 
-6 
6 
-10 
4 
-9 
9 
8 
4 
-5 
-8 
1 
9 
-8 
4 
-8 
8 
0 
-7 
4 
3 
6 
7 
-7 
-3 
8 
-10 
-10 
-8 
2 
2 
-5 
6 
-2 
-5 
-8 
-8 
7 
-10 
6 
-8 
4 
9 
3 
7 
-5 
-3 
-3 
-2 
0 
-9 
-9 
8 
0 
-5 
-5 
-10 
7 
7 
-7 
-1 
-1 
-10 
-4 
0 
7 
-2 
2 
-4 
-9 
-10 
-10 
5 
-10 
3 
-6 
7 
-10 
2 
-5 
-8 
-5 
-3 
-10 
6 
-6 
7 
6 
-9 
4 
1 
0 
-6 
-7 
-2 
-4 
-9 
-1 
8 
9 
0 
8 
-10 
-5 
0 
-5 
0 
-2 
-4 

-8 
-5 
-10 
9 
2 
-9 
-3 
-2 
0 
6 
-1 
-5 
-3 
2 
-9 
-7 
2 
-3 
6 
-9 
7 
5 
1 
5 
5 
7 
8 
-9 
-3 
8 
9 
-9 
-7 
9 
2 
-2 
2 
-10 
6 
5 
6 
8 
-10 
5 
-8 
-9 
8 
4 
-10 
4 
6 
7 
-8 
-3 
2 
7 
6 
-8 
0 
5 
-10 
-9 
-2 
6 
3 
-9 
-6 
-5 
-9 
2 
-10 
7 
-8 
2 
-6 
-6 
-5 
-7 
9 
-5 
-1 
-3 
-8 
1 
4 
-3 
-9 
-7 
-9 
-7 
8 
-8 
-5 
-3 
0 
8 
-2 
4 
5 
-9 
8 
-2 
0 
-9 
-10 
4 
7 
-4 
-1 
6 
-7 
9 
5 
8 
-8 
0 
-5 
5 
-5 
-4 
9 
-7 
-10 
-6 
-8 

0 
-8 
0 
6 
7 
-7 
-3 
-5 
3 
-2 
8 
-2 
-5 
6 
-1 
4 
9 
-2 
-1 
7 
-7 
1 
4 
8 
6 
3 
-1 
2 
3 
3 
4 
6 
-3 
7 
-6 
7 
-10 
1 
4 
4 
9 
2 
4 
7 
-2 
-7 
-7 
-10 
-6 
-6 
-1 
-3 
6 
-6 
7 
-6 
7 
-3 
6 
-8 
2 
-7 
0 
-10 
-10 
5 
7 
-10 
-4 
1 
-4 
8 
6 
-10 
-3 
6 
6 
0 
-2 
-10 
4 
8 
9 
-8 
4 
-2 
-3 
-7 
5 
5 
7 
-10 
8 
-2 
2 
0 
-7 
-1 
-7 
-9 
2 
-1 
9 
-10 
0 
-4 
-1 
-4 
-2 
7 
8 
-7 
5 
7 
7 
-9 
-5 
6 
-6 
3 
2 
-8 
-5 
-8 
0 

7 
-5 
-5 
8 
-2 
-4 
-8 
7 
8 
-7 
9 
6 
2 
7 
-5 
-9 
5 
-10 
7 
-6 
7 
0 
-8 
4 
5 
-3 
8 
7 
2 
2 
9 
-9 
7 
6 
9 
-5 
-8 
3 
5 
2 
6 
4 
-1 
-10 
-6 
4 
-8 
9 
4 
1 
6 
-7 
-9 
0 
7 
-2 
7 
-3 
7 
-9 
-10 
-2 
4 
7 
-6 
3 
5 
9 
-4 
0 
1 
5 
6 
2 
-3 
-10 
-4 
-9 
2 
2 
-6 
-2 
6 
8 
0 
-5 
-4 
9 
3 
6 
-10 
-5 
-6 
-4 
-8 
-1 
9 
-1 
-2 
7 
1 
1 
-6 
-2 
-6 
2 
-2 
-8 
-5 
2 
5 
0 
2 
-7 
-2 
-8 
-10 
-4 
-9 
-5 
-8 
3 
0 
-3 
9 

-5 
6 
0 
4 
6 
-10 
-4 
9 
-6 
-4 
-7 
-2 
-4 
8 
4 
9 
3 
6 
1 
-2 
-6 
-4 
-2 
0 
-3 
4 
-5 
3 
-6 
2 
2 
-9 
-10 
5 
6 
-2 
5 
4 
-3 
1 
-10 
-7 
-10 
-4 
3 
-4 
-5 
-4 
-8 
-1 
-4 
8 
5 
-4 
-10 
4 
2 
-5 
-3 
-1 
-1 
2 
0 
-9 
-3 
-4 
-1 
4 
-10 
-1 
-5 
2 
-6 
7 
9 
7 
5 
-6 
5 
-1 
3 
3 
-3 
-10 
9 
-10 
5 
2 
-5 
-8 
3 
-3 
-4 
-7 
-2 
3 
-8 
0 
9 
4 
9 
7 
-3 
5 
4 
-4 
2 
-8 
-8 
9 
1 
-2 
2 
1 
-2 
1 
1 
5 
5 
-2 
8 
-2 
5 
-6 
2 

6 
0 
-4 
-4 
-9 
-10 
7 
8 
-3 
2 
-5 
-5 
-6 
-3 
-2 
-7 
0 
6 
5 
-9 
6 
8 
2 
2 
4 
-9 
-8 
4 
-2 
8 
8 
-6 
-10 
-6 
-8 
-8 
-5 
9 
2 
-6 
1 
7 
0 
-3 
6 
8 
-8 
-3 
-4 
-1 
-10 
4 
-2 
3 
-4 
4 
-4 
-10 
-2 
-4 
9 
-3 
-7 
1 
-7 
-5 
3 
-2 
-5 
-4 
3 
6 
5 
-7 
-6 
-6 
3 
8 
1 
9 
-2 
1 
-5 
6 
6 
-6 
0 
4 
-6 
0 
3 
5 
-1 
6 
-3 
3 
3 
2 
3 
8 
0 
-4 
-3 
-4 
-9 
-7 
0 
4 
-9 
3 
-5 
-1 
6 
-7 
-5 
-5 
-3 
-3 
1 
1 
0 
-6 
9 
1 
2 

8 
-6 
-4 
0 
0 
-6 
-9 
6 
-7 
9 
0 
-4 
-9 
6 
-2 
-4 
4 
-1 
4 
7 
-3 
9 
-6 
-4 
-7 
-3 
6 
9 
8 
-2 
2 
6 
-6 
8 
-3 
4 
4 
-10 
-7 
0 
1 
-5 
6 
-6 
-9 
6 
-8 
-3 
-4 
6 
6 
-5 
-2 
2 
1 
1 
-10 
-10 
-8 
0 
-10 
4 
-3 
-6 
-6 
-4 
1 
1 
-4 
-4 
-9 
-1 
1 
-1 
3 
-6 
-4 
5 
2 
-6 
-7 
-2 
-1 
1 
-9 
2 
4 
3 
2 
7 
-7 
2 
-7 
-8 
7 
-2 
-2 
-10 
1 
4 
-4 
2 
5 
-1 
-9 
-2 
3 
9 
5 
7 
5 
9 
-4 
6 
-8 
9 
-1 
7 
-6 
-9 
-4 
-3 
-4 
-1 
-8 

5 
7 
0 
5 
-2 
7 
3 
2 
2 
-8 
-4 
3 
-3 
7 
-2 
-5 
3 
9 
-7 
-9 
4 
-8 
0 
1 
-4 
-6 
-1 
-5 
0 
8 
-3 
-5 
-2 
8 
2 
-2 
-3 
-5 
-9 
9 
9 
9 
-6 
-4 
6 
-5 
1 
-1 
-6 
4 
1 
8 
6 
3 
-9 
4 
-1 
0 
2 
9 
-9 
1 
6 
-1 
-9 
-2 
7 
-2 
-5 
0 
-2 
-6 
-1 
2 
1 
-4 
7 
-8 
-3 
4 
-1 
0 
-6 
7 
6 
8 
2 
-5 
-10 
6 
-5 
-9 
-3 
3 
-8 
-1 
4 
-10 
7 
9 
-8 
7 
6 
2 
-8 
-3 
8 
9 
-9 
7 
-5 
0 
-2 
-8 
-10 
-6 
-10 
2 
-1 
-10 
-10 
-4 
4 
-3 
2 

6 
6 
-4 
-2 
4 
7 
1 
1 
3 
5 
3 
-10 
-5 
-5 
4 
-8 
-8 
6 
-8 
-6 
6 
8 
-6 
-10 
-10 
7 
-10 
-4 
1 
-2 
0 
9 
6 
6 
-2 
0 
4 
1 
4 
-3 
8 
9 
-10 
-7 
6 
-4 
-5 
9 
-8 
-10 
-7 
1 
8 
-10 
1 
8 
-1 
-6 
7 
-10 
-6 
-3 
1 
-10 
-6 
1 
1 
0 
4 
7 
-1 
2 
6 
-1 
5 
-5 
5 
3 
-6 
0 
3 
9 
-9 
-7 
1 
2 
-8 
-10 
-2 
1 
2 
2 
8 
6 
3 
4 
-3 
6 
6 
-8 
3 
-4 
4 
-9 
5 
-8 
-4 
-7 
-3 
-8 
3 
-10 
4 
4 
5 
7 
8 
-1 
8 
-3 
-10 
-8 
1 
9 
8 

-6 
-5 
8 
-10 
-8 
-10 
-5 
-2 
-4 
-3 
5 
-10 
-5 
8 
-3 
-10 
-7 
9 
-4 
7 
5 
-7 
-2 
-6 
3 
-3 
-5 
6 
8 
6 
-4 
-7 
3 
-6 
5 
5 
6 
-9 
5 
5 
-10 
1 
5 
7 
-9 
-7 
7 
-5 
4 
5 
-8 
-1 
9 
-8 
-4 
2 
-1 
-7 
-10 
-2 
9 
-3 
-7 
2 
-7 
8 
-10 
-10 
9 
5 
-3 
9 
-4 
-8 
7 
-2 
7 
-4 
-5 
-6 
-8 
-3 
3 
3 
-8 
1 
-5 
1 
4 
8 
1 
3 
7 
4 
8 
2 
3 
0 
-6 
-6 
-5 
1 
6 
-6 
-4 
3 
-6 
-7 
1 
-1 
9 
-5 
-2 
3 
8 
0 
-6 
6 
4 
1 
4 
-5 
-6 
-7 
-10 

4 
5 
-5 
-6 
-10 
-1 
-8 
1 
-5 
-4 
7 
0 
-8 
3 
4 
1 
2 
9 
1 
7 
8 
-8 
4 
-4 
-2 
-5 
2 
3 
-9 
5 
-5 
-2 
-8 
0 
-6 
-8 
-10 
-4 
-4 
7 
-6 
5 
-2 
-4 
-10 
-8 
-1 
-5 
3 
-9 
4 
-7 
5 
-2 
-1 
-7 
-5 
-9 
-2 
9 
-2 
4 
9 
-7 
-6 
-7 
-5 
6 
0 
-7 
4 
-4 
1 
4 
3 
1 
-2 
4 
-2 
3 
5 
-7 
7 
-8 
-7 
8 
7 
-9 
2 
-4 
-10 
-10 
-10 
9 
-7 
6 
4 
-9 
-5 
-6 
6 
9 
1 
-3 
-5 
6 
1 
-5 
0 
9 
8 
8 
-8 
5 
2 
-4 
4 
0 
-3 
-4 
-2 
9 
8 
-10 
0 

4 
6 
-6 
-3 
3 
-9 
-7 
2 
-6 
1 
-1 
2 
-8 
4 
-8 
-9 
3 
2 
6 
-2 
-5 
4 
4 
-3 
3 
2 
5 
2 
1 
5 
4 
7 
-7 
8 
-6 
7 
1 
-3 
-9 
5 
0 
1 
9 
-6 
7 
-8 
8 
0 
-4 
4 
1 
-7 
-10 
7 
0 
3 
0 
-5 
7 
3 
2 
1 
0 
-2 
-9 
-4 
7 
-5 
-5 
0 
2 
6 
3 
2 
-10 
1 
-4 
0 
3 
2 
6 
-6 
6 
6 
4 
-4 
-1 
-6 
-6 
-4 
-1 
-2 
-1 
9 
-2 
-7 
-5 
-5 
-2 
0 
-2 
2 
8 
-9 
-6 
1 
2 
0 
-9 
8 
-7 
8 
4 
1 
4 
-2 
7 
6 
2 
3 
4 
3 
4 
6 
2 

-8 
1 
-1 
-10 
1 
2 
-2 
-7 
-8 
-1 
-2 
3 
4 
8 
-3 
-6 
3 
7 
8 
-6 
-7 
-3 
4 
1 
1 
9 
-4 
-5 
3 
4 
-1 
6 
-5 
1 
6 
6 
-7 
6 
9 
7 
7 
-3 
-7 
1 
8 
0 
5 
1 
9 
-4 
-2 
-8 
3 
4 
-4 
6 
3 
2 
-9 
-3 
-4 
-7 
-7 
1 
4 
1 
-3 
-1 
9 
8 
-4 
6 
-4 
-1 
-10 
6 
1 
-3 
9 
-8 
3 
-3 
7 
8 
-9 
-7 
5 
5 
-3 
-2 
4 
3 
1 
-1 
6 
-5 
-10 
5 
-4 
1 
3 
3 
-3 
1 
4 
9 
-3 
8 
-3 
-3 
2 
2 
4 
-1 
1 
-2 
2 
8 
5 
9 
-4 
-1 
-6 
8 
8 

2 
5 
0 
-3 
-8 
-9 
-9 
-3 
-10 
-6 
3 
-10 
2 
-7 
9 
9 
6 
1 
-5 
-5 
4 
-5 
0 
2 
-10 
-9 
9 
-1 
8 
-1 
-3 
0 
6 
-1 
8 
0 
0 
1 
7 
1 
5 
-7 
-7 
9 
-4 
-8 
0 
-8 
3 
-2 
-10 
-2 
3 
-8 
2 
-4 
-7 
1 
-3 
-9 
2 
5 
-6 
-1 
6 
-8 
9 
-3 
-5 
-1 
0 
2 
2 
3 
2 
0 
5 
4 
-5 
-10 
-8 
7 
-10 
-2 
9 
3 
4 
4 
6 
-9 
-2 
-1 
-2 
2 
0 
-5 
-4 
-9 
-6 
1 
0 
4 
5 
4 
9 
-3 
-5 
4 
4 
-8 
-4 
6 
9 
-3 
-6 
8 
2 
0 
-6 
-10 
2 
2 
-1 
2 
6 

-12.5902 
22.4434 
-42.9269 
-29.1496 
-16.0122 
-54.6117 
23.6943 
1.89403 
26.1819 
-67.1517 
32.4693 
-34.274 
-15.4872 
-21.5556 
-3.64532 
-40.4298 
82.0412 
-9.50345 
-47.065 
28.897 
-15.2964 
-32.7883 
-4.85303 
50.4162 
29.1681 
-34.5981 
24.8835 
85.5195 
-0.422062 
-70.0298 
10.8008 
12.179 
15.5179 
-14.9461 
-59.1109 
43.2553 
-47.3404 
-39.6455 
49.4907 
-5.4357 
36.2441 
-27.6814 
22.9037 
51.1954 
28.364 
-14.596 
-36.5052 
-21.383 
-0.431663 
-34.5934 
-26.0394 
35.6805 
56.5269 
31.3957 
0.203591 
-13.3436 
-17.3047 
45.7933 
-1.23987 
1.27966 
11.7054 
22.6752 
-2.71428 
-14.251 
39.1756 
-34.9993 
-16.5946 
-7.00011 
-4.58585 
28.3089 
23.122 
-20.9672 
-46.5185 
10.9904 
13.8425 
-27.2028 
-42.2379 
-76.6391 
-15.6349 
-3.77447 
-23.2241 
46.38 
-8.4576 
-32.0381 
18.689 
-72.6953 
29.3814 
36.8615 
6.94332 
-42.8141 
14.1042 
-0.715467 
16.6606 
17.4394 
-24.8956 
-30.6906 
-39.4601 
-8.8847 
35.3074 
-39.4481 
-61.1625 
79.9299 
79.1506 
-29.8506 
19.5428 
-44.4773 
25.5455 
-100.578 
59.0243 
1.41526 
59.3503 
76.0236 
-60.5765 
29.4863 
27.5643 
2.3453 
11.226 
82.9317 
-21.5925 
-74.5748 
-32.8989 
-5.55426 
-46.0796 
17.0021 
7.81279 

-24.8475 
1.41454 
-17.0499 
-59.3625 
-4.79083 
-62.5036 
86.8067 
-6.90476 
-22.7349 
-60.3919 
104.325 
-23.3327 
-34.2307 
-68.5197 
60.5376 
31.573 
80.8397 
-40.1599 
-68.2393 
72.9528 
30.213 
-53.1585 
-9.64835 
27.5172 
87.7307 
12.9117 
16.5363 
106.831 
-19.1743 
-113.3 
32.1899 
27.8369 
5.88116 
-4.34485 
-82.6186 
7.39767 
4.03602 
-65.1855 
56.1315 
-10.341 
22.9524 
-52.5057 
6.67103 
30.8875 
59.4006 
-17.0416 
-69.64 
-7.68653 
-20.2516 
-63.1874 
-37.3734 
83.134 
50.7219 
10.3781 
-26.6013 
-27.9003 
-55.5418 
1.63804 
6.71819 
40.0545 
39.6308 
-26.5827 
1.42333 
-54.3287 
-20.6402 
7.80721 
23.6988 
-4.33235 
-23.5798 
53.2358 
-30.5174 
15.5658 
-65.5726 
64.4514 
4.62274 
16.975 
-27.5107 
-89.8809 
1.26146 
22.9679 
-35.8551 
75.6828 
-40.1596 
-19.7816 
42.8063 
-66.8014 
90.7875 
46.6041 
18.6986 
-33.6522 
26.7011 
-0.72314 
19.9549 
-11.6719 
19.7041 
10.9259 
-50.9063 
11.9954 
37.2921 
-32.7561 
-74.064 
125.842 
61.2942 
-16.1137 
-68.7644 
-15.8122 
33.921 
-102.573 
68.0775 
24.0487 
101.236 
90.9864 
-74.1378 
95.8939 
1.78795 
48.5948 
-5.45483 
93.6068 
-1.28814 
-87.7906 
-54.8504 
-24.3898 
-12.2157 
76.144 
40.0849 

14.9329 
4.08598 
44.3136 
-2.07854 
-53.7131 
-47.4067 
33.0419 
65.2331 
-7.8989 
48.7926 
34.3447 
-18.5643 
-44.8176 
-79.5522 
-15.2208 
24.2146 
-2.23035 
-5.4824 
33.2427 
-13.2548 
32.7935 
-2.20728 
35.3266 
39.8157 
27.1991 
-29.881 
-66.2209 
74.6064 
1.50426 
17.8474 
-13.0221 
99.244 
6.43076 
2.95933 
-7.12574 
-88.1958 
-30.8217 
35.9566 
78.686 
30.9927 
-74.4572 
-76.7849 
37.5589 
59.0766 
61.273 
-39.9612 
-50.9879 
-5.75789 
-118.599 
22.4972 
-62.7805 
-35.1724 
-91.8124 
-86.8367 
74.8618 
14.5675 
-154.921 
-20.6631 
-30.9682 
63.6892 
-6.3519 
-41.862 
-74.6473 
-40.5923 
-20.7649 
45.6613 
43.51 
84.5913 
-4.13865 
63.488 
-64.5888 
45.3196 
-30.7584 
46.8612 
62.9946 
4.2669 
4.76053 
16.2176 
-40.5837 
-35.4316 
-24.3458 
36.1421 
-180.542 
51.2997 
-39.9287 
-96.2134 
59.7532 
53.7155 
-59.4873 
-22.3009 
41.0159 
74.9248 
26.4629 
-52.3778 
70.4636 
63.8135 
-25.4282 
-45.0293 
-53.8601 
24.4485 
-5.50409 
77.0577 
-6.47911 
30.8102 
-65.907 
79.1909 
-36.1298 
-30.6099 
100.809 
40.5173 
-12.6552 
34.7258 
-14.9311 
23.5783 
-28.801 
76.1738 
47.7325 
79.7291 
150.882 
-14.5009 
-21.6343 
-73.4604 
19.9775 
147.075 
109.388 

-24.6345 
24.7334 
-88.3276 
10.3259 
-33.4655 
-20.3049 
-51.4224 
79.6034 
55.5043 
43.6739 
4.89426 
-36.1215 
-67.313 
-92.7374 
-14.1292 
-36.1388 
-99.5125 
1.96758 
96.9165 
-56.1317 
-29.7573 
11.1563 
32.5507 
98.6126 
-27.4572 
-30.4769 
0.431868 
26.5549 
24.6265 
84.7309 
-1.86342 
44.8877 
-11.0683 
39.3719 
23.5937 
-34.8682 
-42.3838 
-6.30655 
113.915 
24.0652 
-79.485 
11.7662 
7.80983 
49.5701 
19.9462 
-21.2164 
29.8667 
16.2755 
-84.8801 
8.22082 
-72.7751 
-110.978 
-54.9681 
-94.9508 
-14.3737 
7.78556 
-37.51 
-34.1648 
-66.065 
79.2626 
-27.7385 
-55.5179 
-17.7537 
-25.6562 
-88.8857 
-4.1536 
67.6281 
72.1564 
61.0886 
2.49559 
-36.3199 
34.2441 
-16.2911 
-0.74641 
33.7385 
-48.5676 
0.181093 
55.7503 
-51.032 
-36.3408 
1.59703 
48.8769 
-70.6387 
-24.1488 
-78.0446 
-36.3736 
34.785 
15.5157 
-19.9885 
-25.5301 
-36.0665 
103.197 
35.7666 
27.2504 
24.1061 
50.7005 
-69.4454 
-116.587 
17.0566 
22.3276 
9.37414 
-17.3345 
-20.8102 
10.9847 
-45.7767 
47.9908 
-16.6699 
2.50096 
10.9955 
39.2916 
-4.52562 
43.957 
-55.3386 
-41.2116 
11.1013 
-8.00199 
68.5459 
-18.5985 
160.219 
53.9826 
-26.2047 
-5.65823 
23.9887 
48.7894 
12.9939 

-40.154 
34.6364 
12.1378 
-8.02829 
-6.88992 
48.4296 
-6.06899 
59.3802 
32.1596 
-51.4492 
-40.3064 
33.6993 
-80.4037 
12.9882 
62.6159 
-56.2406 
18.3011 
80.439 
-20.2434 
86.6338 
-40.3938 
-29.3617 
34.0173 
3.84646 
65.9842 
-58.3785 
26.0664 
40.6835 
-16.9742 
-69.7318 
124.916 
36.8445 
2.0127 
-27.8128 
29.7138 
43.4976 
9.02188 
-8.52428 
116.595 
64.6381 
51.0637 
-24.1142 
34.2996 
4.6622 
-8.93543 
4.94504 
6.93475 
21.0504 
-3.25451 
-82.228 
-30.388 
36.9049 
72.822 
27.2827 
-30.5098 
-18.2976 
-9.08844 
42.9378 
12.1614 
49.7785 
29.4664 
-9.6846 
-26.9257 
-43.935 
-7.49873 
-29.6302 
43.2711 
26.9452 
65.4525 
50.6878 
20.6489 
23.2481 
-71.6814 
31.1223 
16.8908 
1.32328 
-27.0811 
-39.9146 
-34.0015 
13.9821 
44.356 
16.2988 
45.3609 
-61.0085 
2.25264 
7.68101 
65.4581 
27.3515 
53.848 
-24.0819 
-9.99247 
36.0044 
-47.0421 
4.80543 
35.5718 
-8.33957 
-73.1227 
-38.1813 
25.5834 
6.15372 
-14.9555 
47.27 
102.084 
-45.7229 
-80.3949 
-15.104 
-25.2457 
-85.06 
-5.02692 
-37.0397 
36.6605 
134.516 
-81.5412 
-34.2141 
44.4445 
-20.1939 
-36.7013 
-16.3895 
-3.29303 
-66.7377 
-79.3277 
-31.2444 
7.67174 
17.5511 
-5.30428 

-17.8345 
60.3402 
-47.9664 
-68.9842 
-53.9648 
108.734 
3.68913 
-13.367 
0.563166 
47.6709 
34.4279 
-61.1432 
-0.457516 
76.3045 
-57.8526 
-67.3415 
59.13 
-8.83555 
37.703 
37.1168 
-55.5474 
-91.5131 
27.1446 
125.9 
16.7977 
-30.868 
50.0483 
128.667 
-26.5581 
4.48126 
-61.6164 
99.2062 
27.2463 
95.8737 
53.9614 
4.50479 
-88.3249 
42.9232 
102.438 
87.5276 
-31.5825 
-23.4681 
98.8816 
-17.7228 
33.2661 
108.853 
-5.93374 
-33.4936 
-19.1123 
10.778 
-23.5614 
9.55729 
17.9867 
25.7496 
-49.0222 
10.3115 
-28.8365 
11.6014 
-17.7445 
62.7428 
44.4657 
-45.1218 
-36.1056 
32.5499 
-55.3699 
-37.2845 
13.5298 
24.1802 
12.187 
-24.2526 
99.8893 
77.5152 
-81.3178 
-6.85624 
-87.9517 
-1.62553 
87.6036 
-57.8331 
-78.9089 
-9.39438 
11.7304 
37.7654 
-133.835 
-111.766 
-98.5719 
-109.936 
85.408 
108.034 
-1.92782 
17.2978 
40.2659 
73.5239 
-15.8142 
-23.562 
9.22805 
-60.3469 
-73.2104 
-25.957 
10.594 
91.5488 
19.1521 
86.0214 
11.5253 
-77.5566 
-1.00359 
-21.5618 
-43.045 
41.0777 
11.331 
50.5957 
-1.96956 
95.4708 
-102.626 
5.65352 
-50.3384 
-57.363 
13.0074 
84.1516 
-15.9175 
28.5293 
9.38189 
-109.902 
-23.1269 
10.7548 
55.4657 

-41.7806 
25.9401 
-85.9147 
55.4904 
28.0516 
-175.849 
5.877 
106.467 
-13.2083 
-53.648 
81.9915 
-37.117 
-82.6183 
-217.572 
76.5473 
2.31508 
-69.0021 
29.5899 
-8.74939 
20.3138 
54.9646 
-0.911242 
16.2034 
42.3687 
-4.14904 
-12.0013 
-67.248 
102.584 
21.665 
-44.227 
12.5329 
106.672 
-44.4855 
-18.746 
-28.6478 
-56.5366 
-7.57991 
-101.211 
71.7773 
21.2863 
-34.6908 
-23.5586 
-37.5768 
55.5226 
17.7005 
-124.615 
-37.4717 
20.6324 
-87.0166 
-48.5708 
-88.012 
-38.7601 
-63.1274 
-78.255 
-35.9858 
18.9953 
-143.806 
-73.6304 
-80.9448 
48.0293 
49.3548 
-53.1136 
-13.8152 
-124.146 
-115.486 
118.198 
44.3444 
-7.82116 
56.9061 
99.461 
-129.556 
31.1662 
-98.3588 
100.082 
63.6971 
-81.1134 
-64.2066 
51.914 
-12.7218 
6.35182 
-106.843 
190.553 
-44.1312 
99.9576 
-2.87396 
-48.051 
132.147 
44.7361 
-14.2462 
-92.2061 
3.45409 
46.2533 
18.1768 
-40.8018 
52.5877 
186.436 
-117.23 
-74.7458 
31.1319 
-41.9865 
-41.0164 
88.5129 
1.55397 
56.8842 
-147.916 
148.11 
30.0366 
-104.365 
-20.0086 
121.662 
134.474 
69.0189 
-81.9773 
-34.2679 
26.9813 
46.2811 
-35.944 
-48.9314 
128.951 
-65.574 
-10.1316 
68.8783 
36.9324 
91.5744 
47.9255 

13.634 
-118.872 
138.161 
-130.013 
-39.0784 
-100.938 
283.921 
-26.9573 
-159.595 
-75.1815 
187.786 
53.2207 
-117.231 
-167.442 
134.798 
239.831 
128.68 
-53.4608 
-194.996 
210.609 
110.44 
-23.5697 
93.4275 
-52.2082 
232.124 
5.20941 
11.8316 
126.087 
-50.4884 
-200.797 
56.5053 
114.288 
22.0276 
-68.7501 
-155.098 
21.7476 
115.915 
-160.218 
51.3823 
-35.6745 
49.4986 
-146.939 
37.6605 
121.554 
258.592 
-70.4188 
-184.514 
21.8738 
-128.629 
-18.0276 
-9.65215 
308.127 
-71.1216 
-9.88043 
220.406 
-18.4471 
-148.955 
11.9455 
79.3157 
22.5582 
92.8967 
2.04066 
-44.8971 
-100.938 
123.848 
45.5817 
83.4569 
44.1156 
1.65117 
250.044 
-239.034 
-37.45 
60.458 
210.829 
-28.6978 
166.502 
-6.56052 
-112.163 
69.8967 
90.7449 
-85.369 
71.8789 
-107.488 
62.2842 
140.192 
-73.0634 
86.4295 
25.6789 
-12.9315 
-122.278 
30.8171 
36.1368 
39.781 
-95.4058 
135.45 
54.994 
33.2676 
20.844 
56.1854 
-120.852 
-41.0052 
287.188 
196.012 
-8.15211 
-126.284 
48.0846 
-1.91961 
-167.051 
260.368 
-55.5006 
80.1547 
-25.4929 
43.6367 
267.177 
1.39479 
238.693 
69.4972 
97.7587 
97.3418 
-190.079 
-148.674 
-101.659 
-107.698 
406.696 
191.217 

-51.6889 
-7.9003 
-83.595 
17.3951 
14.0329 
90.3482 
-68.1415 
-43.8662 
-5.44775 
47.447 
-23.2976 
-44.3343 
0.561571 
118.269 
52.7125 
-75.2961 
-50.7455 
18.1955 
52.6014 
52.9566 
-88.0905 
-25.5358 
-20.0024 
59.8946 
-36.6344 
33.1951 
44.9881 
-99.2456 
-4.85731 
97.8144 
0.557817 
-68.1761 
-57.8664 
109.606 
58.3764 
-16.2716 
-34.2071 
20.4474 
-15.2256 
26.8961 
-9.84275 
132.626 
-26.2322 
-82.8395 
-37.8031 
97.2462 
157.355 
-0.454775 
193.639 
-60.7386 
-1.7314 
-92.8883 
116.209 
14.9965 
-178.887 
44.0952 
136.394 
-57.4466 
-45.1218 
102.402 
15.1732 
-75.9083 
65.3972 
-11.8477 
-157.074 
22.0858 
46.5263 
-41.0478 
20.2695 
-90.0207 
88.8801 
59.1148 
-68.6764 
-27.7908 
-101.45 
50.6821 
91.2614 
20.7735 
-8.20432 
77.9794 
100.173 
-52.9033 
104.214 
-83.125 
-75.2311 
98.6398 
37.273 
-1.82281 
53.4404 
73.1391 
-43.6293 
24.7349 
-42.1012 
12.729 
12.056 
-23.3265 
-0.47406 
-2.51716 
70.2979 
72.6303 
-2.49804 
-114.168 
-98.5709 
-28.6925 
26.9884 
36.7612 
-22.9309 
93.0478 
-121.116 
36.4733 
-16.7328 
-4.12384 
-78.4987 
-36.6914 
7.94477 
-88.1553 
-14.2809 
-99.7974 
-103.757 
154.599 
31.8638 
26.4656 
78.8792 
-176.279 
-96.5374 

8.47777 
-79.3082 
73.6835 
-33.2893 
-249.962 
-278.276 
203.041 
119.625 
-80.2409 
-11.7976 
250.118 
-127.979 
-342.535 
-243.016 
127.115 
143.255 
55.7783 
-1.56247 
6.2788 
155.931 
-26.8242 
-72.3179 
42.6762 
56.1305 
362.531 
-117.275 
-87.4771 
369.326 
52.284 
-71.017 
137.998 
239.765 
79.2378 
-142.909 
-91.9125 
-230.342 
-144.239 
-128.021 
269.546 
34.3358 
-171.875 
-298.918 
42.1012 
205.192 
318.172 
-194.118 
-136.887 
-72.6451 
-261.765 
-322.141 
-335.227 
18.1688 
-94.9708 
-402.935 
117.09 
36.1325 
-284.216 
-108.31 
-99.1027 
290.409 
-11.187 
-96.5757 
-141.809 
-196.98 
-86.1689 
126.285 
321.322 
230.513 
174.103 
384.235 
-236.669 
215.108 
-190.329 
377.565 
15.5574 
90.6846 
-120.583 
-154.578 
-206.654 
19.1007 
-34.8728 
298.163 
-373.642 
200.865 
-79.3299 
-281.335 
196.342 
177.992 
-8.47984 
-225.84 
127.561 
363.175 
30.7465 
-33.7252 
243.131 
310.096 
8.05176 
-260.073 
-17.2762 
-56.3778 
-104.431 
221.131 
95.6092 
83.6217 
-237.185 
239.506 
-118.608 
-409.546 
236.221 
175.476 
234.504 
197.109 
-173.535 
216.965 
28.9246 
209.832 
201.772 
261.57 
284.004 
-136.304 
-222.394 
-205.239 
126.338 
362.415 
157.184 

7.51238 
17.2803 
61.347 
37.7638 
66.7106 
-13.7172 
-24.0012 
3.99872 
39.5203 
-63.0821 
-44.8077 
21.5079 
64.4227 
16.7394 
-25.0168 
-64.0711 
21.0361 
43.7808 
-21.5389 
2.89821 
4.24513 
-0.0601712 
-36.0619 
-48.8834 
-37.5142 
-5.63741 
-26.7523 
-12.265 
25.8923 
-14.5753 
20.4868 
-20.898 
7.16832 
-63.8922 
7.98039 
32.073 
15.0119 
25.9445 
-9.03635 
-21.4129 
41.4004 
13.8175 
-20.6073 
16.5279 
-6.04585 
-35.9602 
-2.08661 
-11.0897 
3.65907 
-3.8298 
4.11331 
6.57928 
41.5494 
33.8851 
6.29805 
-8.98535 
-32.6987 
29.4483 
-4.33149 
-40.3228 
-20.0326 
64.2896 
-1.55087 
55.792 
70.5843 
-16.6192 
-29.6613 
-18.3632 
-7.30959 
-23.9585 
47.1093 
-7.12344 
-9.29341 
-12.3018 
57.2604 
-35.1469 
-38.1463 
1.98457 
2.33433 
-21.0307 
2.57638 
-7.88074 
28.4548 
7.37446 
36.8148 
16.1626 
-11.6625 
0.618535 
-3.61466 
-7.41627 
-19.8887 
-32.2524 
-4.50096 
-5.81717 
-17.6034 
2.74744 
-12.3961 
74.1333 
-33.6453 
-4.86176 
-25.6784 
10.6732 
34.9444 
2.05939 
47.5262 
-36.0975 
6.29342 
-32.6342 
-15.5466 
-35.9807 
-9.3703 
32.7164 
-8.56528 
-34.7355 
11.8541 
-27.5154 
-45.5905 
-17.5159 
-33.6047 
-67.014 
20.6339 
49.2188 
-34.581 
-45.4108 
-23.2776 

-35.818 
0.874997 
-35.6338 
-13.2308 
-44.8513 
-44.6333 
34.9604 
20.7725 
-17.8032 
35.8097 
69.7776 
-10.2017 
-71.6555 
-75.1615 
44.4213 
57.4206 
-27.8318 
-23.9559 
30.8053 
23.7123 
17.4933 
1.04587 
-7.36065 
48.8562 
57.4145 
3.81935 
7.6065 
48.3463 
-22.9074 
4.59002 
9.44199 
48.7682 
-3.39187 
4.6793 
-22.1189 
-37.6737 
-18.8607 
-26.7169 
60.7054 
5.62643 
-35.3924 
1.66586 
3.03593 
16.1416 
67.1738 
-21.5213 
-6.21114 
6.46473 
-65.9462 
-45.5407 
-31.4211 
-29.0462 
-25.7203 
-61.1924 
-18.1862 
-3.39705 
-39.5361 
-24.5597 
-9.44953 
74.0843 
2.2023 
-49.3824 
5.74573 
-56.7365 
-56.5685 
12.1314 
47.2341 
21.154 
11.1278 
57.0433 
-64.7815 
51.4893 
-57.9583 
60.1531 
3.34306 
-8.05513 
1.88984 
-27.1048 
-20.8714 
-9.16231 
-21.0562 
68.2676 
-68.9179 
22.6753 
-35.4356 
-53.1809 
81.4732 
27.6965 
-0.575326 
-19.6273 
18.6634 
68.8564 
3.45496 
15.3274 
39.0722 
47.7071 
-56.151 
-65.0764 
10.9143 
3.41313 
-2.68953 
62.5698 
7.31965 
6.58492 
-88.391 
76.6152 
-5.83099 
-50.4688 
25.4446 
31.5768 
23.5651 
35.792 
-37.9185 
23.1031 
-5.36771 
31.0781 
29.6152 
54.7342 
84.5038 
25.8898 
-34.0231 
-31.383 
28.9101 
76.8029 
42.5028 

4.71055 
11.3696 
-19.8571 
2.46825 
-8.97904 
-0.0760632 
15.1963 
-18.9399 
-12.2015 
-3.77558 
10.1052 
-5.83627 
-6.65461 
-7.45431 
17.551 
25.951 
0.0924777 
-7.06058 
4.73383 
5.46124 
4.32578 
12.4581 
3.16592 
-2.43068 
15.5185 
-1.72533 
-5.12689 
13.8287 
-9.55363 
-6.75628 
-2.7816 
20.6484 
11.5455 
8.26252 
-5.66257 
-5.68238 
4.34908 
-2.73903 
-3.67277 
-7.70526 
-4.42051 
3.56437 
12.4202 
10.403 
20.6747 
6.77144 
-3.98743 
-9.55168 
-21.7313 
12.9885 
-10.0582 
12.1769 
-15.0138 
3.89123 
4.04534 
6.25794 
-1.70806 
0.0787072 
-7.16458 
16.9324 
13.7398 
0.169661 
6.8885 
-25.5248 
-9.58865 
10.4301 
3.91707 
-3.28069 
2.77888 
12.9053 
-29.8168 
10.5624 
-12.0551 
13.6125 
-26.3518 
-5.33712 
17.5118 
-3.73652 
-11.3809 
-9.11484 
-12.3553 
23.4021 
-4.05467 
-3.84485 
-10.3148 
-10.8692 
4.56775 
11.1717 
-3.70156 
-4.54917 
6.11307 
6.73096 
-15.0699 
3.14234 
-4.851 
8.50395 
-12.1191 
-21.2479 
-8.14932 
13.7912 
10.75 
18.093 
-11.4908 
1.85291 
-34.811 
15.4367 
7.3597 
-3.399 
0.820666 
-3.5198 
-1.46378 
-6.6361 
-8.07244 
11.6395 
-1.85501 
6.87409 
-4.1648 
4.916 
12.0428 
9.3282 
-4.43363 
-8.06991 
8.34254 
28.1852 
1.98655 

6.08427 
2.72679 
11.575 
13.1123 
13.2136 
1.90538 
-18.4919 
-5.94561 
9.01634 
-3.95164 
-24.994 
5.05168 
37.997 
11.3117 
-10.1416 
-24.7707 
-5.77014 
2.73818 
-15.0398 
-23.3166 
-4.59162 
12.9533 
2.50896 
-17.6572 
-35.2209 
4.54199 
-12.5661 
-26.6456 
2.61291 
-4.19019 
5.04792 
-24.0616 
-3.82765 
-10.3667 
13.3047 
14.1868 
-6.37235 
11.9558 
-29.647 
-5.69501 
6.75998 
12.4292 
-10.8264 
-3.58437 
-31.4285 
-3.13113 
7.50425 
-3.90891 
22.5163 
15.7693 
-0.0131598 
2.01823 
14.4019 
13.8703 
-5.42579 
-2.61475 
18.5088 
1.23191 
-1.5708 
-16.7184 
-4.23074 
0.918015 
6.19147 
25.6757 
23.9732 
-10.5836 
-21.6273 
-10.1033 
-4.94959 
-14.5327 
29.3096 
-22.5242 
11.3873 
-12.9923 
15.8179 
-0.770257 
-10.5771 
15.4779 
2.63661 
7.41848 
-0.178016 
-22.1001 
23.5198 
2.74644 
-1.24297 
18.5003 
-26.7719 
-11.8225 
-5.08721 
13.0862 
2.68971 
-22.506 
4.25109 
2.62255 
-12.6002 
-14.7794 
19.8227 
23.8061 
-6.69766 
-8.03166 
-7.1214 
-26.2035 
-9.05698 
5.73951 
43.4763 
-13.0167 
9.91931 
5.42562 
-27.3042 
-13.2928 
-6.99505 
-21.9741 
20.165 
-33.2028 
4.52317 
-3.01472 
-13.1562 
-30.0381 
-31.2765 
2.50503 
12.8785 
6.92735 
-3.93511 
-44.5951 
-23.8024 

7 
0 
6 
-3 
2 
-8 
6 
-1 
-4 
-8 
6 
2 
3 
9 
-3 
-5 
-5 
-3 
4 
-3 
1 
-5 
2 
3 
-2 
7 
-8 
-9 
-1 
-1 
-7 
-3 
1 
-10 
-4 
6 
4 
4 
-5 
-10 
6 
3 
-5 
0 
-6 
2 
-3 
-1 
1 
4 
-2 
-8 
9 
-10 
5 
-3 
-1 
0 
-2 
1 
1 
-6 
0 
5 
-6 
6 
1 
8 
1 
-2 
1 
9 
-9 
6 
-9 
-5 
-10 
-1 
-4 
1 
-7 
4 
3 
4 
-4 
-10 
-9 
5 
0 
-9 
8 
-8 
-5 
-2 
-1 
-1 
7 
-10 
-10 
-2 
-10 
1 
9 
-9 
9 
-9 
8 
9 
-8 
-6 
0 
7 
8 
-7 
1 
-6 
-7 
-6 
1 
-4 
-5 
0 
-10 
-7 
8 

-1 
-6 
5 
-1 
-6 
5 
-9 
-3 
-3 
-8 
-4 
-2 
2 
-5 
-8 
6 
5 
1 
-4 
0 
4 
0 
4 
8 
-9 
2 
5 
1 
2 
8 
-8 
-9 
5 
-1 
-8 
9 
-5 
-7 
-3 
-6 
7 
3 
-6 
-1 
1 
-4 
-5 
8 
-1 
1 
-1 
-7 
3 
5 
3 
-4 
-3 
-2 
0 
9 
9 
2 
2 
-4 
3 
4 
-5 
0 
-1 
-6 
4 
-4 
8 
8 
5 
-9 
6 
2 
9 
-5 
5 
-2 
-2 
-10 
5 
3 
-4 
4 
4 
-2 
3 
-5 
-10 
7 
1 
-4 
1 
6 
6 
-10 
-9 
1 
8 
1 
-9 
-5 
-6 
8 
-1 
-7 
-7 
-6 
-6 
-6 
6 
9 
7 
5 
4 
-7 
-7 
9 
-2 
6 
7 

9 
-8 
-10 
-2 
0 
3 
-9 
-9 
1 
2 
5 
7 
6 
3 
-4 
1 
-2 
-7 
5 
2 
9 
-3 
-8 
-4 
3 
-5 
0 
2 
4 
-4 
-9 
-5 
-10 
-8 
3 
0 
5 
4 
-6 
8 
-4 
9 
5 
4 
2 
4 
-4 
-10 
7 
3 
-5 
-2 
-10 
9 
5 
3 
-6 
7 
8 
0 
-7 
9 
6 
-7 
3 
-1 
-5 
-10 
-6 
-1 
9 
-8 
-2 
-4 
-1 
2 
-10 
-3 
-5 
-1 
-10 
0 
0 
3 
-1 
7 
8 
-5 
4 
6 
6 
-1 
-2 
2 
-6 
3 
-9 
-1 
-4 
7 
9 
-5 
2 
9 
-7 
-9 
2 
-6 
-2 
7 
-5 
-10 
9 
5 
-5 
-10 
2 
-6 
-5 
8 
2 
-9 
-3 
2 
-5 

1 
-4 
9 
3 
2 
6 
2 
-1 
-2 
1 
-6 
-9 
5 
-10 
-1 
-6 
-4 
-8 
-7 
3 
-3 
-7 
8 
-7 
-9 
6 
6 
-8 
-6 
-10 
-10 
-3 
-4 
9 
-10 
0 
-3 
-6 
1 
-2 
-2 
6 
-1 
-7 
6 
1 
-2 
4 
3 
-7 
-2 
2 
9 
-4 
6 
-10 
-8 
-6 
4 
8 
-6 
4 
8 
-7 
3 
8 
-5 
3 
-7 
7 
-9 
-7 
-5 
0 
-4 
3 
-9 
-4 
-2 
-4 
-8 
-2 
1 
-9 
4 
-3 
-9 
-2 
-7 
5 
9 
-3 
0 
7 
0 
5 
-3 
-2 
-2 
-8 
-5 
-9 
-5 
-8 
2 
-6 
5 
-5 
-8 
5 
-6 
-6 
-7 
5 
-5 
-1 
4 
-4 
0 
7 
4 
-1 
-6 
6 
8 

-3 
-7 
-5 
5 
-6 
-10 
2 
-5 
-5 
-4 
7 
-9 
3 
5 
-6 
-1 
9 
-2 
-6 
4 
-4 
-4 
-10 
-6 
6 
7 
8 
-5 
3 
-4 
5 
2 
0 
-10 
9 
4 
2 
-7 
9 
8 
-1 
-1 
1 
-7 
6 
5 
-6 
5 
6 
-10 
-9 
-8 
-4 
-9 
8 
-8 
0 
-1 
9 
-7 
5 
4 
6 
7 
-3 
5 
1 
9 
9 
-7 
-1 
-10 
-6 
-9 
5 
2 
-2 
1 
-3 
6 
2 
-10 
0 
8 
3 
-1 
3 
-7 
8 
-6 
-4 
3 
9 
4 
-7 
8 
-8 
-4 
-1 
3 
-1 
1 
3 
-5 
-6 
-9 
7 
2 
2 
6 
-9 
-6 
-2 
1 
5 
-9 
-10 
-10 
-6 
8 
-6 
-7 
-6 
5 
-1 

-3 
3 
1 
3 
5 
6 
5 
-4 
-8 
2 
-8 
-7 
-8 
-4 
5 
0 
-3 
2 
9 
9 
9 
2 
9 
9 
-1 
0 
-7 
-6 
4 
9 
3 
3 
-6 
7 
8 
1 
3 
-5 
-1 
5 
8 
1 
8 
2 
8 
-4 
-8 
-5 
8 
3 
-6 
7 
-4 
6 
-2 
5 
-4 
1 
1 
2 
-8 
-6 
-5 
9 
-9 
5 
0 
-3 
-9 
2 
-8 
1 
-7 
3 
-7 
-9 
9 
7 
9 
-1 
1 
-7 
8 
-1 
9 
-4 
6 
7 
-1 
-3 
-1 
2 
-7 
-4 
-7 
7 
-8 
-5 
-6 
5 
7 
8 
8 
-9 
1 
-9 
4 
-8 
0 
3 
-7 
3 
-1 
-9 
-8 
-10 
-3 
0 
8 
7 
7 
9 
-9 
3 
-4 

-6 
0 
-10 
-9 
4 
-3 
9 
2 
-5 
2 
6 
8 
-4 
0 
-10 
-10 
4 
4 
-9 
-3 
-2 
-9 
5 
9 
1 
-6 
-2 
1 
7 
-9 
-1 
-9 
-7 
-9 
-8 
7 
-2 
3 
-8 
-5 
-5 
8 
-7 
2 
-10 
5 
-6 
4 
-1 
7 
-8 
0 
8 
-1 
-1 
0 
-5 
-1 
-9 
-8 
-7 
-8 
5 
-4 
-7 
-1 
6 
1 
-7 
8 
6 
-10 
-2 
1 
-6 
-10 
-4 
-10 
-3 
-2 
7 
-9 
8 
6 
0 
9 
8 
-3 
-10 
1 
-1 
-7 
3 
6 
-8 
6 
-5 
0 
-3 
-10 
-2 
5 
-9 
-2 
8 
7 
-2 
6 
8 
5 
6 
5 
-2 
4 
-7 
8 
-5 
-9 
7 
-4 
2 
8 
-9 
-5 
4 

-7 
-9 
2 
3 
-10 
-6 
3 
-3 
7 
3 
7 
5 
4 
-4 
3 
-9 
-8 
-10 
0 
-1 
-6 
-10 
4 
-5 
8 
-10 
8 
6 
-8 
5 
-7 
7 
7 
5 
-7 
-1 
9 
-2 
-1 
7 
-8 
-4 
2 
6 
2 
7 
-1 
5 
7 
9 
-6 
-9 
-10 
0 
9 
8 
1 
7 
-4 
-5 
-6 
-1 
-8 
3 
-6 
7 
-7 
6 
-4 
2 
3 
-2 
0 
7 
6 
-7 
4 
-5 
0 
1 
7 
-4 
-5 
7 
6 
-6 
-3 
9 
3 
-5 
-6 
7 
-3 
9 
1 
1 
6 
-4 
9 
4 
8 
-6 
4 
-2 
-9 
-8 
-7 
-3 
-10 
3 
9 
7 
1 
6 
-4 
-2 
-10 
-5 
9 
-5 
0 
-6 
-8 
7 
5 

-5 
-9 
-7 
1 
2 
0 
-9 
7 
-6 
-8 
8 
-3 
-5 
-4 
-3 
1 
7 
-6 
4 
-5 
-8 
4 
7 
-3 
4 
-8 
-1 
0 
6 
9 
-5 
-8 
-10 
-10 
-5 
2 
0 
9 
-9 
5 
-9 
-10 
4 
8 
8 
3 
-1 
5 
-1 
6 
2 
1 
0 
-1 
8 
-6 
1 
9 
4 
9 
8 
1 
-9 
0 
-6 
9 
-7 
4 
8 
-6 
-9 
1 
6 
-3 
-1 
4 
-10 
1 
-9 
-1 
-3 
3 
-10 
7 
4 
0 
-8 
-5 
0 
-2 
-5 
-10 
2 
8 
1 
6 
-1 
-4 
-8 
9 
-8 
6 
0 
9 
-7 
-10 
-5 
-6 
-7 
9 
3 
0 
-6 
-4 
-3 
9 
-2 
-9 
6 
8 
-8 
3 
1 
4 
-6 

-8 
-8 
3 
-2 
-6 
-5 
0 
-10 
5 
-9 
6 
-3 
-3 
-10 
0 
8 
-5 
2 
-8 
-7 
2 
3 
2 
3 
0 
-8 
-3 
5 
3 
3 
9 
-3 
5 
-5 
5 
2 
0 
-4 
-6 
7 
9 
-10 
7 
-4 
2 
-3 
6 
0 
-10 
9 
3 
2 
-6 
7 
7 
4 
2 
7 
-8 
7 
0 
-9 
-5 
8 
8 
-10 
-8 
-10 
8 
-4 
8 
8 
-3 
5 
6 
1 
4 
3 
-9 
-4 
-6 
-3 
0 
-2 
6 
-10 
5 
-2 
7 
7 
-4 
9 
0 
1 
-1 
-1 
-7 
1 
-1 
-8 
8 
9 
-10 
7 
-4 
-2 
-2 
3 
-9 
-8 
9 
7 
-1 
0 
-4 
-5 
-8 
-9 
-4 
1 
8 
2 
0 
-2 
5 

-1.45933 
-7.58205 
22.2918 
-30.652 
-26.7027 
7.79089 
45.6907 
-11.1441 
-15.9108 
-16.8308 
4.95885 
13.7765 
-35.7455 
22.3908 
15.0054 
10.1346 
18.6654 
0.314638 
-17.911 
44.1996 
-19.9965 
-22.1155 
-3.06968 
-34.8552 
66.5783 
0.948844 
14.8382 
20.9225 
-4.54808 
-23.4515 
20.7362 
24.3692 
2.76624 
-31.1658 
9.41565 
8.84232 
5.52974 
-15.6976 
18.3365 
-3.11567 
23.7681 
-19.893 
13.7762 
-15.63 
32.2662 
11.3897 
-11.4449 
-7.25008 
10.6455 
-41.459 
-3.2252 
30.6262 
10.8355 
11.3541 
-7.69524 
-6.20477 
1.54409 
4.49706 
10.317 
7.52586 
-0.223224 
5.62609 
-0.605642 
-8.1527 
12.3129 
2.41756 
9.23333 
-1.60979 
12.1475 
27.8832 
-1.89523 
2.24052 
-15.332 
33.9271 
-16.4617 
39.8124 
4.4674 
-29.3484 
5.17496 
7.04062 
12.8016 
-5.25096 
13.3057 
-0.603065 
8.24908 
-0.225985 
1.01538 
19.6419 
19.4624 
-10.883 
-2.33884 
11.882 
-7.15132 
15.592 
26.7108 
-12.3155 
0.405756 
-14.3726 
19.5156 
-7.83619 
7.25012 
20.6565 
18.9941 
-13.6183 
-23.5711 
-12.1128 
-18.9498 
-22.3209 
17.9837 
-7.48537 
0.427286 
11.2816 
-25.0297 
36.8564 
8.06331 
-26.1067 
17.0935 
17.8614 
-24.3641 
-7.64568 
-22.1076 
-36.9085 
6.29989 
12.6278 
-4.28347 

-29.5053 
-12.5096 
56.8991 
-69.4121 
-100.909 
90.9705 
132.354 
-40.231 
-54.6341 
-73.1019 
-29.7896 
31.8214 
-128.145 
93.7314 
64.4021 
7.1793 
86.5991 
41.8145 
-75.1654 
166.377 
-89.1853 
-70.9067 
16.047 
-97.9562 
193.393 
-17.3925 
46.7973 
88.7871 
-53.6986 
-95.4808 
88.7901 
60.9789 
32.1554 
-106.025 
30.6527 
39.4875 
-6.3166 
-52.0176 
44.1016 
21.8846 
91.4546 
-42.1232 
18.7527 
-30.4783 
95.1886 
66.3025 
-14.0134 
-19.7937 
46.1168 
-158.448 
-15.5305 
116.366 
29.2439 
51.4311 
-19.1964 
-1.82159 
37.0247 
23.1421 
59.4581 
-3.28334 
15.0347 
32.8579 
8.26232 
-36.3071 
38.0826 
-29.4795 
33.8875 
-28.5498 
82.7404 
110.778 
-13.5796 
13.6501 
-34.8308 
115.642 
-86.7564 
126.915 
0.917475 
-117.743 
-8.18175 
26.2098 
51.3827 
-19.1199 
60.2685 
8.34009 
25.1106 
-9.40272 
-18.4243 
52.9863 
42.5187 
-35.6761 
-27.8908 
66.5886 
-56.3557 
46.136 
55.9684 
-39.5938 
-1.95061 
-69.4594 
62.7597 
-13.9025 
-0.750638 
49.8881 
70.6833 
-66.4048 
-60.1738 
-45.8868 
-48.1748 
-90.9804 
34.6842 
-51.1513 
30.1303 
42.6711 
-58.2621 
113.287 
56.7644 
-72.0961 
27.9216 
40.858 
-124.698 
-59.8867 
-107.869 
-87.2278 
10.5038 
12.1099 
-24.6806 

-56.3358 
50.5155 
-118.574 
10.9146 
72.9618 
17.3092 
-123.462 
-90.5272 
1.11926 
99.3446 
18.3061 
-50.512 
103.991 
-4.90178 
-19.5606 
5.64717 
-89.0926 
-102.657 
104.482 
-127.362 
50.2156 
8.20958 
-43.9291 
142.416 
-131.688 
35.9751 
99.8989 
-142.844 
-21.9986 
93.3656 
-96.3791 
-95.4813 
-38.7387 
212.819 
-55.6669 
76.3861 
33.699 
22.8599 
-15.5842 
-14.8968 
-46.8095 
77.5339 
17.6521 
-45.7293 
-81.8253 
69.564 
38.4544 
9.42681 
-16.7158 
109.257 
27.056 
-108.009 
37.5933 
33.1314 
-105.364 
-52.9547 
124.841 
-8.64293 
-33.619 
53.3023 
26.3141 
-87.4994 
79.4535 
7.67774 
-155.184 
-71.1225 
-45.6244 
2.46233 
-36.9321 
-140.264 
10.899 
24.973 
0.424422 
-109.59 
-30.2564 
-82.05 
58.6178 
27.6975 
1.28382 
-2.65946 
-22.8262 
-20.5907 
11.1964 
-123.989 
-86.6208 
36.645 
4.8389 
-62.6812 
12.9584 
97.6753 
-3.25485 
-25.2704 
60.9489 
-19.7199 
-89.4691 
-99.429 
-34.2789 
1.09403 
8.08609 
48.5119 
17.1749 
-93.7538 
-119.048 
-16.2832 
-10.8265 
4.41741 
72.5562 
155.542 
-61.7195 
29.3965 
-53.5086 
-57.1267 
-15.3968 
-12.8987 
-69.1257 
-19.6933 
-23.8891 
-42.9645 
44.2195 
121.948 
80.6759 
37.1905 
7.73252 
-80.4335 
-26.9675 

6.73067 
-9.06935 
23.8867 
0.744678 
-11.9672 
10.9881 
1.47708 
24.0871 
26.1617 
-44.6557 
-31.3797 
1.92175 
-13.4408 
68.7956 
-12.9576 
-45.6316 
47.6433 
52.3882 
-35.5403 
14.662 
-41.6112 
-26.8176 
-4.9739 
-32.2679 
30.1452 
4.55481 
-21.8466 
39.298 
21.4982 
-23.9957 
51.5215 
-18.238 
6.5368 
-72.0398 
21.9254 
-3.44704 
-35.5699 
21.9366 
1.64257 
0.969741 
20.5707 
-20.405 
-5.84285 
4.78166 
-21.8679 
-12.9523 
7.36297 
-4.6269 
45.8731 
-88.4578 
-20.8785 
2.61889 
60.6206 
-5.71997 
-24.6386 
-8.72337 
33.5272 
25.9302 
16.4177 
-0.0844817 
-34.6033 
25.1469 
-30.9322 
27.5379 
40.2497 
-4.23346 
21.9483 
2.87854 
33.6261 
35.8811 
59.9851 
-2.91136 
-9.70447 
15.9563 
21.3044 
2.16798 
-47.9881 
-47.4425 
-10.9897 
-7.27041 
35.1549 
-6.1861 
19.4073 
11.0447 
36.5393 
-10.6994 
-23.584 
20.3224 
35.3444 
-13.3656 
-8.09713 
8.647 
-17.4567 
31.4284 
-10.7413 
19.023 
15.0254 
4.15237 
-5.37912 
-32.7155 
-23.4497 
-32.2839 
19.8264 
-1.32397 
50.2834 
-38.5178 
-7.77347 
-51.8405 
-4.97776 
-3.2298 
48.0154 
58.5071 
-18.5146 
-23.3994 
24.1775 
-6.01067 
6.16488 
28.908 
-46.731 
-26.187 
-38.5543 
-2.52288 
17.4588 
-62.5036 
-45.9159 

2.87259 
-5.15539 
-125.253 
43.1751 
17.2765 
-148.325 
-31.9508 
-17.4967 
-21.0638 
33.0028 
103.315 
-24.4699 
17.5028 
-197.45 
-30.8644 
142.499 
-129.147 
-103.979 
40.5168 
-125.788 
97.14 
111.359 
-2.82589 
23.2469 
-109.981 
16.8038 
-84.4367 
-85.6298 
12.5859 
52.6486 
-145.684 
-20.1815 
8.24079 
18.266 
-85.8029 
-58.0853 
23.4776 
-65.4979 
-74.0326 
-58.4814 
-22.9615 
53.6821 
-44.4439 
57.6685 
88.158 
-61.5514 
-41.6946 
24.5709 
-51.5552 
178.467 
14.6309 
-76.5168 
-175.819 
-27.5721 
28.9915 
77.9446 
-65.4299 
-53.8899 
-69.043 
-63.2862 
5.72689 
27.8979 
54.2458 
-50.4913 
-45.4623 
66.85 
-79.2914 
-31.8816 
-52.5564 
-82.821 
-153.065 
-9.58234 
147.408 
-13.3546 
32.3903 
-100.837 
-20.5392 
102.626 
61.1319 
-9.18458 
-134.317 
68.5489 
-24.1326 
73.6969 
-27.6552 
-26.8658 
-8.85807 
-47.2505 
-79.5752 
-31.0478 
34.1735 
-65.6092 
75.7393 
15.3182 
-3.21878 
74.953 
-13.7787 
1.72237 
26.668 
-57.3622 
61.9899 
26.1535 
-37.2199 
94.5315 
-6.00108 
118.483 
73.4239 
63.2489 
11.3692 
41.6344 
-12.5354 
-168.663 
110.672 
4.50111 
-5.15386 
96.0812 
56.8528 
-18.015 
125.408 
93.2338 
101.322 
111.147 
-3.71559 
76.003 
5.12566 

49.7645 
-27.8671 
46.4792 
74.9573 
92.566 
-157.504 
-36.2167 
81.9795 
-16.0128 
-17.546 
8.59859 
34.8485 
41.63 
-242.933 
32.59 
38.7342 
-99.3612 
6.24706 
4.2601 
-90.9215 
119.206 
125.384 
38.846 
22.6757 
-100.045 
-14.2383 
-93.7858 
-27.7386 
78.4058 
28.3124 
-30.8795 
27.6867 
-12.6012 
-14.6687 
-56.3472 
-52.5418 
60.3531 
-65.9021 
-25.8577 
-46.0325 
-32.8067 
-24.0228 
-45.3116 
143.51 
-7.84599 
-174.148 
-56.1073 
32.2917 
-95.9578 
170.001 
-5.83755 
2.92711 
-201.559 
-54.8564 
149.731 
47.5905 
-165.257 
-41.2892 
-59.6186 
-14.2032 
11.0483 
40.7439 
-23.1422 
-32.1941 
65.3576 
103.303 
-36.4459 
0.391438 
-10.1959 
41.5285 
-125.265 
-78.25 
90.0342 
-9.12384 
100.525 
-117.659 
-68.1712 
171.152 
43.7069 
-25.8297 
-122.688 
83.5308 
2.84584 
125.935 
43.9466 
-8.80825 
14.221 
-49.2436 
-50.9109 
-70.4075 
39.696 
-25.4611 
36.5436 
-15.6948 
38.5775 
143.096 
0.988005 
63.5311 
-57.466 
-65.557 
-9.35532 
27.67 
51.2687 
102.503 
11.6275 
110.305 
23.5944 
-5.74932 
59.7281 
-6.55282 
-7.20202 
-159.643 
93.8094 
-59.6237 
27.0974 
142.967 
13.4959 
-106.232 
217.961 
-74.2108 
57.7523 
106.247 
-35.1546 
155.925 
70.8154 

-5.76 
-34.6093 
-47.2616 
187.198 
226.995 
-216.665 
-168.953 
73.4651 
14.0181 
10.3199 
62.8569 
-57.6804 
68.4629 
-290.287 
122.047 
-20.485 
-251.483 
52.7093 
127.775 
-166.594 
126.094 
163.088 
-16.3628 
192.777 
-203.117 
38.1207 
-64.5847 
-110.198 
120.563 
154.753 
33.8687 
-46.8902 
-104.344 
136.789 
-76.9277 
-55.486 
124.576 
-92.691 
1.63876 
-60.0407 
-117.191 
72.9848 
-145.544 
148.998 
-128.018 
-199.819 
44.1921 
55.3817 
-124.154 
137.509 
-118.193 
-146.081 
-51.1857 
-203.882 
-8.55533 
-16.5594 
-77.4925 
-156.01 
-156.416 
131.754 
-28.4281 
-102.861 
18.2943 
-25.8674 
-133.272 
95.5192 
47.2777 
58.8134 
105.189 
15.5331 
-97.5586 
-20.8097 
-6.20266 
-48.8144 
137.422 
-207.45 
-50.542 
251.615 
-37.3268 
44.7782 
-118.565 
183.275 
49.2858 
36.5587 
-51.0238 
95.2719 
97.3209 
-117.269 
-4.27275 
-49.4513 
-17.1343 
23.9493 
75.7626 
-34.5907 
-14.5927 
219.512 
-45.1192 
3.83541 
-32.1111 
-69.0676 
-53.3117 
-138.487 
-38.737 
156.104 
-25.617 
174.695 
73.272 
44.6595 
-106.829 
85.0107 
97.0146 
-121.029 
-13.2076 
-103.242 
25.5169 
162.682 
18.5798 
-262.378 
298.599 
-26.224 
47.5889 
211.124 
10.8776 
-0.00173269 
3.1081 

-19.8747 
37.1055 
184.907 
50.976 
-95.9656 
241.148 
18.0956 
225.283 
50.4162 
34.989 
-193.328 
101.234 
-132.616 
-15.2087 
-81.659 
-99.3781 
-41.0129 
214.325 
-115.479 
258.463 
-62.3022 
-58.4338 
197.444 
-170.124 
-30.4184 
-187.69 
-162.689 
106.894 
-53.7444 
-139.725 
43.376 
295.351 
-13.1975 
-222.087 
276.829 
-148.285 
-49.9404 
15.9311 
111.447 
214.331 
-24.0278 
-118.699 
133.648 
45.4781 
65.0127 
-9.07549 
-14.5909 
51.225 
-61.0474 
84.6602 
23.6061 
111.526 
-211.128 
55.6032 
266.292 
166.41 
-334.866 
51.1272 
-5.99999 
-119.646 
58.9083 
101.121 
-190.71 
-12.0768 
213.712 
64.0049 
-69.4035 
42.767 
-56.9905 
46.9292 
-21.486 
-21.3229 
34.6382 
42.1688 
17.2583 
157.097 
83.6603 
145.271 
-31.5278 
-54.6881 
-32.4504 
-120.431 
-100.47 
47.8837 
-29.0435 
-15.7587 
108.617 
148.101 
-155.126 
-87.5414 
-12.779 
2.83864 
-127.969 
-93.1103 
177.469 
14.1429 
-159.804 
31.0138 
-8.6731 
97.1415 
130.592 
278.975 
277.056 
-45.7413 
-59.7787 
34.9291 
-192 
42.4248 
66.3708 
-72.508 
-104.417 
156.138 
82.4507 
-213.161 
109.474 
-75.5543 
-62.347 
-28.1511 
-24.5224 
-74.0676 
-88.9828 
-105.142 
-89.21 
232.955 
228.239 

94.8742 
39.2296 
125.202 
36.4556 
14.7217 
167.462 
-2.75926 
-87.2239 
-11.9301 
112.395 
-189.894 
-1.61145 
232.436 
153.368 
-159.141 
-65.9545 
19.6135 
-36.8826 
124.428 
-86.6708 
1.63447 
28.9036 
6.32509 
-50.3635 
-89.9554 
49.0685 
-0.655027 
-243.817 
26.6888 
169.007 
-174.989 
-34.6001 
-4.49575 
139.081 
59.0749 
16.6498 
-53.7216 
154.756 
-152.385 
-6.20167 
-43.0982 
50.4212 
107.271 
-96.6335 
-43.4656 
132.425 
30.5624 
-13.4447 
5.30157 
213.679 
144.549 
-87.3415 
-154.819 
62.1747 
99.0015 
14.3747 
14.0845 
33.6172 
68.0065 
-125.041 
-48.2046 
78.3198 
-1.82129 
158.658 
98.486 
1.25048 
-143.986 
-18.0797 
-92.99 
-113.687 
131.949 
-83.5074 
61.9103 
-150.953 
-65.8729 
68.4007 
105.687 
181.671 
33.0845 
-12.2668 
98.588 
-253.259 
-69.1682 
-21.0785 
-41.2016 
110.122 
-190.048 
-92.7569 
-47.8382 
102.08 
-1.45423 
-133.58 
-11.5985 
-79.4789 
-12.7673 
-179.076 
171.209 
80.7335 
-175.637 
90.266 
118.15 
-138.213 
-202.07 
15.0176 
210.839 
-70.8278 
-33.7668 
287.955 
-30.2254 
-73.4502 
-277.63 
-255.013 
110.97 
2.52476 
-48.8125 
-67.9236 
-59.333 
40.7453 
-58.0261 
98.4566 
178.755 
-37.9234 
-17.1683 
-56.4349 
40.9649 

-5.33747 
72.5122 
133.113 
-148.314 
-178.599 
295.883 
168.491 
97.9577 
7.99452 
-191.442 
-132.184 
75.1255 
-187.273 
315.93 
63.9929 
-298.993 
269.501 
247.17 
-212.531 
411.587 
-301.713 
-322.268 
68.7597 
-167.321 
186.889 
-114.699 
49.8144 
323.586 
-58.9854 
-265.741 
179.366 
210.733 
63.9189 
-199.957 
227.178 
66.0954 
-148.323 
18.9766 
194.246 
163.87 
201.04 
-88.7348 
113.552 
-60.9606 
45.6958 
171.949 
38.1551 
-53.5764 
181.477 
-387.969 
18.638 
189.493 
145.28 
177.275 
-79.8557 
40.1876 
8.7879 
87.7598 
121.223 
-6.96954 
87.552 
98.1241 
-141.957 
-17.2752 
140.049 
60.6994 
42.7763 
-37.5751 
97.9407 
241.783 
180.421 
36.3881 
-237.328 
196.895 
-185.07 
176.243 
60.9915 
-238.088 
-69.9272 
23.3265 
182.832 
10.3026 
88.1464 
-40.8965 
44.6617 
-10.9097 
100.61 
218.562 
126.968 
-24.1535 
-31.9952 
125.913 
-193.956 
48.1133 
75.7758 
5.05012 
-55.9673 
-43.7125 
39.6698 
87.2263 
22.8532 
280.332 
200.692 
-216.999 
-76.2912 
-150.625 
-186.537 
-145.583 
36.1971 
-58.1864 
151.765 
360.059 
-228.835 
-19.5697 
87.9742 
-218.231 
-125.686 
163.179 
-434.994 
-208.609 
-138.931 
-234.515 
-76.347 
-41.6873 
61.3472 

-13.1605 
-21.1195 
14.1175 
-201.66 
-124.658 
225.968 
250.415 
-65.9712 
-68.8437 
-230.027 
139.629 
90.2583 
-216.973 
184.272 
277.199 
-35.7629 
305.914 
133.957 
-133.815 
362.683 
-115.76 
-187.951 
66.7034 
60.213 
355.299 
-10.4457 
236.717 
230.959 
-78.5783 
-250.951 
280.493 
105.992 
47.3982 
-16.4554 
-64.7421 
171.187 
45.5743 
-89.5525 
162.026 
56.3955 
213.727 
-135.364 
82.154 
-3.07109 
135.752 
188.186 
-76.0652 
-8.13929 
44.3747 
-241.774 
-85.4849 
308.623 
200.538 
108.508 
-69.8911 
-114.775 
86.2525 
45.5236 
152.548 
55.213 
130.644 
-35.783 
-23.0465 
-161.335 
50.2409 
-85.5888 
90.6321 
-41.155 
194.495 
233.351 
44.2775 
-23.6721 
-206.057 
230.849 
-225.508 
206.281 
82.7292 
-339.259 
-15.9061 
95.7552 
158.592 
158.739 
112.993 
-195.323 
136.361 
-63.7408 
156.81 
99.3755 
213.268 
-109.918 
-59.0107 
107.614 
-86.1131 
88.448 
38.8367 
-22.3769 
-19.4422 
-62.4244 
216.43 
-19.756 
-18.4647 
232.813 
207.536 
-273.407 
-178.663 
-170.681 
-29.2312 
-249.396 
136.372 
-77.0289 
227.774 
254.164 
-267.41 
220.054 
63.621 
41.266 
-5.51845 
44.1904 
-218.695 
-252.499 
-203.574 
-199.138 
-35.3696 
41.9962 
-24.7695 

95.7858 
-159.288 
512.537 
-181.177 
-391.012 
-82.1152 
401.244 
116.174 
-91.347 
-218.314 
-31.7616 
-3.12729 
-377.548 
64.1929 
241.715 
-120.911 
277.955 
269.177 
-34.5406 
475.622 
-229.08 
-244.404 
147.54 
-35.4256 
711.776 
-207.125 
96.1494 
537.746 
51.3083 
-124.644 
521.962 
413.23 
56.5665 
-241.238 
17.1335 
-45.4721 
-168.123 
-88.6701 
501.089 
43.1954 
-63.1453 
-454.158 
72.3894 
288.222 
352.745 
-136.155 
-132.767 
-82.3221 
-282.778 
-644.062 
-447.864 
232.342 
33.5888 
-390.358 
386.684 
-49.5482 
-173.233 
6.34901 
-22.7269 
347.545 
-82.8569 
-4.31765 
-223.075 
-52.4623 
175.546 
-20.723 
554.034 
390.058 
444.139 
761.325 
-144.016 
173.463 
-283.227 
535.154 
-63.6728 
376.146 
-155.567 
-315.102 
-333.353 
31.3604 
239.716 
110.81 
-259.076 
107.146 
-72.9461 
-241.256 
92.5503 
243.054 
144.597 
-311.679 
-48.0947 
651.841 
-53.5294 
73.8184 
379.946 
211.886 
175.709 
-385.635 
18.1992 
-85.6939 
-144.41 
174.873 
421.046 
-84.7621 
-151.871 
-92.4104 
-288.015 
-711.022 
388.88 
-34.9687 
196.697 
306.833 
-261.432 
365.1 
153.911 
101.716 
311.354 
331.728 
198.355 
-350.096 
-581.203 
-453.546 
-0.0892349 
463.481 
198.26 

-41.8177 
83.1329 
-157.197 
-143.198 
-75.6433 
101.134 
4.35811 
-40.7906 
-22.568 
-26.5059 
51.8784 
52.3113 
-84.1271 
113.538 
45.9033 
-61.0756 
94.6234 
-59.3433 
33.3532 
6.90646 
-80.4471 
-112.736 
16.0817 
144.398 
51.0453 
9.11534 
228.666 
43.9913 
-96.2862 
-9.72385 
73.2382 
34.2381 
1.05527 
136.413 
-18.1295 
163.578 
-17.2977 
28.3965 
130.917 
27.3314 
68.992 
35.1574 
72.3698 
-51.6102 
-19.7531 
171.757 
-11.1596 
25.2643 
-52.1484 
-115.76 
-11.0415 
-7.21487 
136.322 
41.2591 
-123.286 
-105.992 
134.77 
64.8987 
54.2244 
45.8337 
15.7819 
-65.2116 
60.3077 
-59.9363 
-118.54 
-97.7257 
30.617 
37.0846 
9.59352 
-8.72861 
8.47907 
48.5283 
-131.56 
-65.7715 
-30.6337 
7.09747 
70.1153 
-178.398 
-2.43432 
-42.503 
96.4004 
24.3077 
58.5301 
-190.928 
8.91977 
-67.7418 
18.0949 
55.6864 
113.232 
44.5017 
-66.9695 
60.9884 
-12.8851 
84.6506 
-27.4724 
-138.395 
-105.705 
-102.838 
59.2862 
33.9683 
17.4378 
47.0889 
3.08712 
-167.097 
-128.175 
-133.841 
28.3436 
-27.6897 
60.6762 
-7.44439 
-21.8123 
120.306 
-162.368 
36.8179 
13.9422 
-61.4702 
-13.6056 
120.68 
-29.0002 
37.9441 
-75.9794 
-121.281 
-48.6708 
-29.044 
-21.8797 

-30.3953 
-112.82 
136.553 
3.32133 
-120.322 
-146.819 
225.627 
105.109 
-165.814 
-17.9123 
233.51 
-52.9407 
-333.179 
-201.231 
231.886 
237.079 
-66.1083 
74.7092 
-198.317 
342.91 
71.5431 
-23.3618 
76.217 
-143.716 
349.235 
-17.8374 
-158.426 
214.251 
14.3777 
-165.955 
174.137 
184.76 
-43.2091 
-208.969 
8.61762 
-239.399 
18.2416 
-188.438 
87.4417 
1.2564 
-84.2775 
-189.11 
-47.3561 
131.081 
324.423 
-141.749 
-67.1562 
2.69432 
19.1209 
-238.742 
-177.53 
181.495 
-73.7031 
-220.338 
95.3526 
144.089 
-222.888 
-167.082 
-41.0133 
138.78 
33.1627 
-97.5358 
-91.9348 
-216.51 
-68.0377 
231.49 
199.802 
23.1994 
51.5674 
342.507 
-277.459 
98.4065 
-65.4111 
428.84 
-24.8545 
265.048 
-29.9075 
-77.2253 
-32.0604 
137.478 
-5.77549 
147.477 
-133.884 
256.717 
43.0636 
-43.8844 
218.071 
135.068 
-42.129 
-150.748 
64.1519 
123.349 
22.8658 
-85.6359 
277.337 
278.173 
31.1791 
-58.3527 
89.64 
-62.8102 
-89.5306 
251.123 
210.572 
93.8134 
-245.155 
319.424 
-92.7942 
-217.34 
153.746 
72.7636 
225.091 
84.7879 
-22.1297 
178.968 
86.7254 
241.131 
102.326 
-8.1823 
72.9318 
-94.3168 
-229.356 
-56.8609 
121.069 
283.709 
111.759 

-52.4217 
42.0561 
126.318 
-68.7494 
39.1106 
129.313 
29.3709 
6.45561 
-4.7502 
-6.61113 
-63.9889 
77.5242 
-3.36777 
85.4239 
52.1562 
-8.67017 
33.9644 
31.6987 
-67.4048 
110.406 
-21.675 
-74.4165 
40.9875 
-49.7606 
83.7498 
-4.71659 
70.8402 
-26.3678 
-92.6739 
-75.5269 
104.374 
34.6578 
-57.9576 
8.52533 
55.3458 
49.2848 
70.7613 
60.8518 
91.6934 
24.016 
-3.74735 
0.82374 
62.4786 
-66.938 
29.2342 
67.6401 
1.96916 
47.2211 
60.2112 
-57.4522 
77.9447 
126.527 
103.655 
63.939 
17.5444 
-35.1065 
-3.35926 
53.8633 
16.6728 
-2.59893 
-14.2326 
-32.3954 
-19.5181 
7.09473 
44.199 
-91.6528 
-25.8873 
-39.9862 
-47.6699 
7.93465 
29.5923 
38.8466 
-41.1342 
9.18549 
13.0273 
114.646 
73.986 
-55.6832 
23.1714 
21.0651 
86.5956 
-137.104 
47.9912 
-90.3766 
-1.27239 
73.8436 
37.3012 
-0.353527 
12.932 
51.6933 
-56.1206 
-11.4592 
-37.1061 
-39.6319 
100.79 
-101.384 
-26.4868 
76.4446 
24.5514 
85.0563 
9.51136 
97.077 
121.907 
-137.688 
-85.2627 
-70.4448 
-28.5648 
6.53574 
55.8692 
-125.071 
-94.8288 
84.0875 
-91.7929 
0.551022 
6.21473 
-10.1 
-50.2619 
-69.5637 
-89.4725 
-37.6859 
-88.1662 
-86.4986 
-14.7234 
70.6504 
20.2085 

8.04514 
14.8963 
13.5271 
-55.2212 
-117.81 
3.45406 
109.292 
31.7873 
-48.2666 
-34.2287 
24.2839 
-23.2537 
-97.8072 
47.2151 
5.21341 
-18.0609 
73.6001 
14.3825 
-17.1358 
84.4327 
-66.7748 
-104.473 
3.37242 
-29.0762 
132.05 
-28.0182 
-27.0686 
144.73 
-12.1285 
-53.3003 
29.5888 
130.786 
61.4777 
-74.0131 
0.107575 
-35.0433 
-79.5691 
4.53492 
103.82 
47.9609 
23.7411 
-78.0609 
64.1236 
-3.67789 
136.716 
33.0863 
-26.6099 
-46.7675 
-37.8001 
-156.121 
-57.2683 
2.6863 
-44.7922 
-32.1934 
5.84704 
31.3587 
-82.2018 
5.0369 
21.9599 
93.2914 
47.8146 
36.3782 
-47.7998 
-54.9526 
-1.05098 
44.655 
111.061 
72.3379 
71.9039 
150.231 
-17.6007 
109.099 
-104.944 
120.109 
-70.2437 
51.0578 
20.1627 
-104.644 
-44.187 
-19.4233 
9.84012 
96.696 
-104.499 
64.8913 
-23.7015 
-92.3113 
52.3741 
95.6969 
22.7513 
-49.3906 
24.0126 
137.675 
-16.612 
14.2256 
70.1362 
72.1336 
-12.5638 
-99.5961 
7.69872 
21.7059 
18.2327 
82.277 
27.1165 
18.5554 
-67.803 
16.4896 
-48.7416 
-126.475 
62.2931 
70.483 
77.2601 
88.228 
-67.8089 
78.1635 
-13.5069 
-39.3759 
78.3692 
140.703 
-39.8893 
-12.166 
-31.9145 
-96.284 
20.7085 
78.9327 
78.6205 

-18.3968 
26.1118 
12.5441 
19.4263 
65.6191 
70.9713 
-54.2992 
-7.05255 
19.5163 
3.89637 
-74.775 
34.1801 
63.3222 
34.6255 
18.4878 
-26.8623 
-23.8244 
37.8484 
-1.28818 
3.09448 
3.18157 
2.15298 
1.69993 
12.4003 
-52.4834 
10.5211 
26.0066 
-64.9557 
-10.1079 
5.49635 
13.0631 
-11.1274 
-33.1474 
57.597 
42.7289 
30.5242 
53.5927 
14.4098 
-28.8718 
11.3427 
24.1891 
13.7501 
15.4382 
-24.2309 
-87.9093 
26.8835 
29.4911 
25.3097 
38.5355 
77.1966 
28.8917 
29.5454 
14.5814 
72.1824 
5.77013 
-32.6104 
7.41619 
6.22486 
-8.69166 
-14.0182 
19.8163 
-17.5814 
2.46157 
5.00607 
5.63863 
-26.1164 
-45.5572 
-42.2828 
-2.11537 
-42.2649 
49.9021 
-35.6083 
-15.7143 
-53.0036 
1.93044 
1.52945 
51.8349 
44.2756 
3.67308 
1.61857 
23.9323 
-50.1955 
67.3595 
-66.6985 
-28.5063 
71.3587 
-4.6723 
-46.2218 
-3.55299 
26.9245 
-11.4682 
-58.4159 
-36.2974 
-27.9094 
-4.73646 
-59.7128 
-29.4264 
49.9969 
-14.6119 
43.7902 
14.9772 
-23.3104 
28.3362 
-41.2958 
-17.4364 
-30.8462 
-1.45587 
74.6923 
-53.9437 
-39.718 
-61.9778 
-13.5069 
-29.4303 
-60.9095 
2.30447 
-44.6721 
-58.199 
-96.2976 
-14.9631 
-17.1999 
10.4104 
10.8601 
-34.1824 
-36.4476 
-1.93006 

5.69822 
-2.6328 
15.3103 
7.93818 
20.2371 
8.77172 
-26.5043 
0.0437455 
7.07836 
2.4302 
-20.5169 
1.84592 
28.3237 
25.3376 
-9.78779 
-24.7286 
-11.2282 
18.4416 
-9.05374 
-15.5155 
0.0893481 
3.7885 
2.19199 
-8.98513 
-23.2864 
6.43595 
0.327252 
-10.4106 
15.7321 
12.6731 
4.82116 
-22.9626 
-4.27442 
-11.5341 
4.87551 
14.7807 
7.3092 
2.20359 
-26.4117 
1.63662 
3.21998 
8.97569 
-16.3169 
-9.29613 
-29.6707 
-1.71417 
5.05776 
-5.73108 
17.3066 
7.05354 
9.03289 
4.99292 
9.36678 
14.3305 
-5.73379 
10.1142 
19.0832 
13.0126 
9.56261 
-13.6648 
-3.83777 
2.36884 
1.54532 
30.0653 
18.8697 
-1.29551 
-6.56977 
-15.7135 
4.21446 
-19.1241 
16.3577 
-13.0956 
5.18109 
-24.8851 
10.9188 
5.9674 
-3.89894 
18.0583 
-5.48794 
-8.27209 
-1.12145 
-22.1892 
18.092 
6.6004 
2.23935 
21.0763 
-24.5339 
-20.1181 
2.51681 
12.3084 
-8.27132 
-20.8852 
-12.0154 
4.71814 
-21.548 
-11.2573 
7.72694 
18.1484 
2.61275 
3.75714 
3.88061 
-31.9028 
-3.65453 
3.39917 
38.9483 
-6.68738 
1.73945 
10.9945 
-13.5273 
-6.30075 
-12.8438 
-10.6314 
16.5892 
-30.2718 
-2.97049 
-16.8597 
1.43956 
-14.7263 
-13.5267 
-5.39813 
-5.27164 
16.8111 
-5.77389 
-41.4569 
-11.1454 

-8 
9 
-7 
1 
7 
-10 
-1 
3 
-10 
-8 
-6 
8 
-5 
-3 
-8 
-9 
4 
1 
7 
-4 
-2 
2 
6 
3 
-10 
4 
4 
4 
-7 
6 
2 
-4 
-3 
-2 
-1 
7 
-10 
9 
0 
3 
3 
4 
1 
8 
-8 
-5 
2 
-2 
6 
-9 
-4 
-6 
-5 
5 
8 
-5 
-1 
2 
2 
-6 
-10 
6 
-8 
9 
-6 
2 
6 
7 
-7 
-3 
0 
-2 
3 
3 
8 
-3 
0 
-8 
-3 
-4 
-6 
-4 
-8 
-1 
-9 
2 
-3 
-8 
6 
9 
8 
-2 
5 
-9 
-2 
2 
-5 
-6 
-9 
-10 
-7 
-7 
-10 
-1 
-2 
8 
6 
8 
-9 
6 
6 
7 
-8 
8 
8 
-7 
-7 
-5 
7 
1 
6 
-3 
-10 
-6 
-10 

-10 
-2 
-5 
-6 
-1 
7 
-10 
2 
7 
-1 
2 
6 
7 
0 
-1 
3 
-4 
8 
5 
-6 
6 
0 
9 
4 
9 
1 
-8 
-3 
-7 
-4 
-3 
-7 
4 
-5 
-3 
5 
-8 
9 
9 
-10 
-10 
1 
-2 
8 
-9 
-1 
-7 
-3 
-3 
9 
-6 
5 
-9 
5 
-9 
-9 
-4 
6 
-10 
-1 
-8 
-3 
2 
-1 
2 
2 
6 
-3 
-7 
6 
9 
-6 
9 
-3 
-8 
3 
-2 
-5 
2 
-3 
6 
6 
4 
0 
-6 
6 
-7 
0 
2 
-7 
2 
-4 
0 
6 
-3 
5 
-10 
-6 
-8 
-6 
2 
3 
-2 
-7 
-10 
-8 
6 
-10 
9 
-1 
9 
-2 
7 
3 
8 
-9 
-9 
-9 
-6 
-5 
-6 
6 
-6 
-4 
-6 

1 
3 
-5 
-3 
-3 
-9 
9 
-10 
-1 
5 
2 
-7 
1 
-6 
-8 
-10 
-7 
0 
0 
7 
-10 
1 
8 
-9 
5 
6 
7 
-7 
-10 
6 
-10 
1 
-1 
-5 
1 
-1 
-4 
-8 
-1 
-3 
7 
4 
-8 
-1 
8 
-6 
-9 
-8 
-3 
1 
1 
-3 
-7 
-1 
-9 
0 
7 
8 
-4 
7 
4 
-4 
-9 
6 
-7 
2 
-5 
-9 
4 
-4 
-10 
2 
2 
-8 
3 
1 
8 
4 
-5 
7 
-4 
6 
-5 
-9 
7 
8 
1 
5 
-2 
-1 
2 
-7 
5 
3 
1 
0 
7 
-2 
-7 
2 
4 
-7 
6 
9 
7 
-1 
0 
6 
-7 
5 
3 
-1 
1 
0 
0 
-2 
-10 
4 
5 
-1 
-7 
-2 
2 
1 
3 

5 
3 
-7 
-7 
7 
5 
-1 
2 
-7 
-2 
0 
2 
0 
8 
-3 
-5 
-7 
7 
-2 
-4 
9 
-1 
-4 
-5 
-6 
5 
-1 
-6 
9 
2 
0 
4 
-5 
3 
-1 
4 
-10 
1 
-3 
-7 
1 
-1 
-3 
-8 
9 
4 
9 
-8 
1 
-2 
-2 
-7 
-1 
-3 
-2 
3 
-8 
-1 
0 
4 
-9 
-10 
-10 
9 
-5 
0 
-5 
-5 
3 
2 
-10 
-6 
3 
-3 
-4 
2 
-9 
8 
-3 
-5 
8 
-3 
-10 
-3 
4 
-2 
2 
-1 
0 
-8 
-7 
-7 
4 
-7 
-8 
9 
-5 
-2 
-6 
8 
2 
-6 
-7 
8 
-7 
-9 
-8 
-5 
9 
-9 
-8 
7 
-1 
-8 
-6 
5 
-8 
-1 
6 
2 
1 
9 
6 
-4 
5 

0 
7 
2 
0 
-8 
1 
5 
8 
-4 
-5 
4 
9 
-3 
9 
9 
-9 
-9 
-2 
-8 
5 
-5 
7 
7 
4 
4 
-8 
7 
-5 
0 
5 
2 
2 
3 
7 
-7 
-3 
-2 
0 
7 
-4 
5 
1 
-5 
4 
-8 
6 
5 
5 
7 
7 
0 
-8 
-3 
-10 
-2 
3 
-8 
-5 
0 
2 
3 
5 
-6 
8 
2 
9 
-5 
2 
-1 
4 
0 
6 
-4 
-3 
-7 
-2 
-6 
0 
6 
3 
-10 
-4 
-3 
-3 
-4 
5 
2 
-10 
2 
4 
-6 
7 
-1 
-1 
5 
3 
-10 
2 
-5 
-8 
-3 
-3 
8 
3 
5 
3 
3 
1 
-6 
-1 
-6 
-6 
-2 
1 
-7 
-4 
-4 
-3 
-3 
0 
-9 
1 
-2 
-7 
2 

-7 
6 
3 
6 
4 
5 
5 
-9 
-5 
-10 
6 
9 
3 
-3 
5 
5 
-7 
9 
5 
4 
4 
-9 
2 
-9 
-10 
5 
-8 
2 
-7 
7 
6 
8 
4 
-9 
-4 
-10 
6 
-9 
-9 
4 
-9 
0 
-5 
-3 
7 
-10 
-8 
-9 
1 
-1 
-3 
-5 
0 
-10 
8 
1 
-3 
2 
5 
0 
0 
1 
-10 
6 
3 
-3 
6 
-9 
-2 
7 
-3 
0 
-3 
-6 
7 
7 
-6 
1 
0 
-3 
-10 
7 
2 
-8 
-1 
-8 
3 
6 
5 
-10 
8 
-5 
-6 
9 
-9 
-1 
-4 
-1 
-8 
4 
-4 
-8 
6 
-4 
-4 
3 
-7 
1 
6 
3 
8 
6 
-8 
-7 
9 
2 
7 
-6 
-10 
2 
7 
9 
-1 
3 
8 

-8 
-8 
-6 
1 
6 
0 
0 
8 
-3 
6 
-5 
2 
9 
-2 
-1 
-6 
-4 
7 
-4 
-9 
-2 
0 
1 
-5 
1 
-7 
-8 
0 
-5 
5 
-10 
-3 
-1 
-6 
9 
-5 
-4 
-1 
6 
3 
7 
-9 
8 
-2 
-1 
-3 
2 
-3 
6 
0 
-9 
-5 
-9 
2 
0 
-6 
5 
-6 
-4 
-10 
1 
-4 
-10 
-10 
-8 
1 
7 
-2 
2 
3 
4 
-1 
4 
2 
7 
5 
1 
-9 
-7 
-3 
-7 
6 
-6 
-6 
-2 
4 
-10 
5 
8 
-4 
-2 
-1 
2 
-2 
-9 
4 
1 
9 
5 
-7 
-6 
-1 
2 
1 
3 
-9 
-4 
-6 
4 
-9 
-7 
7 
7 
-2 
4 
7 
4 
4 
3 
3 
3 
-9 
4 
-5 
-9 

-2 
2 
2 
9 
-3 
5 
-7 
6 
9 
4 
-9 
2 
3 
7 
-4 
-4 
-10 
5 
6 
-10 
-1 
3 
5 
6 
-4 
-10 
-1 
9 
-4 
4 
-10 
4 
8 
2 
3 
-5 
9 
-1 
3 
8 
5 
4 
-8 
-10 
1 
-2 
-3 
-6 
-6 
-7 
-6 
-5 
-2 
1 
-9 
-3 
-7 
-8 
-4 
0 
-1 
9 
6 
-3 
-7 
-8 
3 
-7 
1 
8 
3 
-4 
3 
-2 
-3 
-6 
6 
-4 
-10 
2 
-9 
-5 
0 
-1 
-2 
-7 
-2 
2 
-4 
5 
4 
-3 
-4 
-8 
4 
-1 
-6 
9 
-6 
5 
8 
0 
4 
-7 
8 
3 
-3 
-4 
9 
-10 
1 
2 
7 
-9 
-9 
-5 
6 
0 
-1 
-8 
7 
-7 
-9 
5 
-4 

15.3544 
-13.2792 
21.6781 
-4.75963 
-14.272 
16.5753 
16.196 
-35.0312 
-14.8447 
-17.3405 
-33.2303 
22.6652 
2.58063 
46.9786 
13.7608 
-3.80407 
11.0261 
-0.537273 
20.9396 
-0.961658 
-1.5981 
2.30948 
-14.7071 
0.146806 
33.7205 
1.41332 
17.1714 
-17.1654 
11.3199 
34.174 
18.2383 
-9.28709 
16.6471 
0.362265 
1.05258 
21.6832 
28.215 
7.89461 
2.45072 
-4.20406 
20.0482 
-3.48462 
-5.39739 
8.38177 
-5.93334 
5.54422 
7.27539 
-2.34815 
2.26068 
-10.0094 
0.0166729 
8.88792 
-3.61541 
-3.46233 
14.8455 
-29.9191 
30.1777 
15.236 
-0.154661 
10.644 
-8.41155 
18.7713 
17.0121 
-3.27953 
20.4434 
-23.7198 
17.2723 
8.47163 
35.346 
17.2647 
-6.94783 
17.1627 
-1.22787 
-2.19779 
-28.8471 
4.74417 
7.50351 
-4.17364 
-3.80948 
-11.9166 
31.6451 
-0.437251 
29.0733 
-22.9088 
0.892116 
20.9522 
-24.421 
-19.3352 
20.1269 
2.3885 
-14.5384 
24.7087 
-17.7704 
12.4278 
0.0384498 
-2.37628 
46.6363 
-15.7086 
-13.0521 
-5.63457 
14.1951 
-33.3309 
-2.31821 
-15.006 
2.92081 
-27.3512 
-13.5426 
-7.6739 
-7.2383 
-15.6367 
-8.7842 
-25.174 
-6.41817 
36.7067 
-4.82946 
-14.8481 
10.244 
-1.44705 
15.6403 
-5.93348 
-5.87675 
-23.3014 
-1.30766 
-4.40357 
-12.5642 

41.1793 
-44.3585 
41.0914 
2.45748 
44.6842 
-33.0732 
10.493 
20.3676 
-48.0511 
68.2127 
16.3864 
35.2052 
-0.157664 
-38.8251 
105.921 
42.1948 
-46.8274 
48.231 
36.5667 
17.3397 
33.0314 
41.9255 
-8.93028 
21.0992 
1.44948 
31.72 
-42.9192 
-61.358 
32.7412 
98.0316 
42.7292 
12.2093 
-33.672 
32.4096 
2.35611 
-28.8242 
83.4133 
14.0093 
-36.0159 
-31.2027 
-18.2239 
10.5849 
-43.8099 
16.8402 
12.0366 
-23.9127 
14.7282 
13.3802 
10.163 
10.6257 
-24.275 
-59.2291 
-69.7647 
-76.2484 
30.5297 
-10.0482 
-65.2213 
-81.8844 
-44.087 
80.3498 
-12.4653 
-57.0457 
4.94666 
-42.6972 
-46.3964 
79.2457 
95.3949 
18.382 
35.2311 
56.6728 
-39.8789 
56.9841 
-40.1896 
39.5279 
36.9206 
22.4064 
71.3477 
51.212 
0.651674 
49.4553 
47.4178 
38.6149 
40.2655 
46.0756 
-1.87227 
47.4245 
20.8586 
-55.9004 
27.7847 
5.0423 
-18.0406 
35.4986 
18.5129 
-32.2077 
69.3008 
109.289 
90.6756 
11.3847 
-39.3959 
10.2575 
3.38604 
-43.8452 
-50.1171 
24.2753 
-78.7933 
51.0906 
-13.4782 
20.8654 
-12.9733 
15.5302 
-2.33952 
-58.315 
-37.5402 
31.1138 
-20.4772 
92.6322 
15.453 
-123.674 
81.243 
2.91881 
12.3843 
-12.5933 
46.6658 
24.8478 
19.045 

20.5492 
-7.99248 
-15.682 
31.0736 
67.6737 
-0.632878 
-87.0921 
87.2639 
35.2681 
57.1375 
4.80074 
-24.3846 
17.6905 
-26.6273 
31.3746 
-22.5047 
-48.9836 
51.6882 
6.70646 
-23.6368 
-8.39617 
8.85824 
-22.2596 
43.6391 
-102.685 
9.33172 
-50.5137 
-36.0318 
23.814 
42.0013 
-1.01175 
-25.5637 
-49.2578 
37.2088 
25.3717 
-43.6035 
12.4659 
27.737 
-10.4683 
-8.3602 
-57.2157 
25.9817 
-46.7669 
3.50323 
-51.3492 
-20.9507 
52.2535 
-4.46121 
31.8646 
5.38964 
8.01868 
-82.3604 
3.5778 
-24.4798 
-29.628 
13.8505 
-56.524 
-61.7365 
-39.506 
42.2619 
-12.7653 
-61.5322 
-18.8707 
-1.64118 
-61.3082 
41.5358 
22.4259 
-11.0427 
-36.7004 
-57.1286 
56.6225 
11.0021 
-44.221 
-15.582 
80.3844 
-19.8837 
28.1403 
57.3213 
-30.284 
35.7423 
4.66755 
23.2528 
-23.5473 
31.1182 
-39.3997 
25.5479 
42.8802 
-28.5236 
-9.66311 
19.2257 
-4.36594 
-11.8945 
9.83228 
-30.3999 
-2.68048 
77.4729 
-13.1192 
41.4747 
-15.2845 
13.5173 
-25.5795 
-32.5537 
-55.1832 
3.36538 
-10.0742 
46.1367 
5.66498 
52.4337 
-31.188 
30.0704 
13.5287 
52.8182 
-27.9977 
-83.8842 
-23.3375 
46.138 
-16.1306 
-90.7472 
25.1399 
26.7283 
31.6488 
36.7388 
11.4362 
-62.5933 
-0.493101 

35.6608 
-44.1495 
15.4964 
24.5336 
-35.6633 
-66.2362 
25.0113 
195.918 
72.6033 
-120.509 
1.20717 
-28.2148 
-135.953 
-17.7151 
130.138 
-190.904 
59.9918 
197.577 
-94.6896 
204.56 
-117.176 
-68.8625 
-7.47834 
-51.1648 
101.16 
-17.6054 
-77.588 
238.728 
84.2971 
-94.9629 
214.226 
38.2101 
-31.2687 
-217.889 
62.6397 
-65.4966 
-99.0427 
-62.735 
95.4628 
4.22832 
12.1512 
-13.3511 
-64.1721 
79.0942 
9.91433 
-109.789 
64.9114 
10.337 
99.7034 
-200.794 
-89.9652 
43.6706 
142.219 
-69.4081 
-31.9069 
30.9577 
-93.2537 
-76.0316 
1.43703 
66.4792 
-40.0074 
-18.4444 
-89.0124 
-45.3085 
29.0838 
93.2363 
135.426 
-2.44916 
40.2504 
163.043 
126.724 
-30.6451 
-175.613 
167.445 
78.6814 
25.1725 
-76.8536 
-66.8801 
-72.71 
65.9278 
61.3111 
132.959 
17.7163 
53.1081 
74.9153 
-16.1512 
148.957 
92.8275 
96.8394 
-107.371 
-32.6262 
75.1716 
-82.8189 
71.8923 
69.3495 
167.852 
-57.6894 
-18.2714 
44.2599 
-78.0774 
-98.3339 
69.3846 
137.778 
-4.6412 
-8.85271 
21.732 
-52.1005 
-219.839 
-37.7494 
29.3363 
217.461 
311.633 
-107.15 
-118.744 
122.131 
2.63847 
-39.3071 
1.51621 
-87.8869 
-144.862 
-113.441 
62.1276 
64.2307 
-95.8085 
-17.276 

-47.7075 
9.73402 
-32.8654 
24.6163 
0.976065 
-41.4099 
-82.4571 
22.1441 
18.9456 
40.8328 
-30.8434 
-7.05103 
8.44595 
-56.7689 
0.141876 
8.79962 
-106.634 
3.56669 
68.8738 
-86.5198 
30.0266 
32.075 
18.5133 
35.94 
-6.24014 
3.07771 
41.8063 
-63.3674 
-0.304863 
54.1863 
38.6136 
-16.9549 
-31.3518 
17.281 
-2.81326 
22.5318 
22.3867 
4.12707 
46.2059 
4.1744 
-71.6064 
33.088 
-27.6053 
-10.9209 
-64.6741 
-39.3155 
5.22147 
24.1261 
-54.6464 
-14.7119 
-22.3022 
-56.9458 
62.5461 
-71.1098 
0.505445 
-28.4192 
91.9375 
13.7823 
-38.633 
8.07247 
-53.8491 
-67.561 
26.3779 
47.7088 
-30.2439 
-91.4238 
13.9685 
43.4351 
60.9781 
-34.5236 
-60.5556 
-1.04957 
46.1913 
-34.8065 
93.0213 
-34.6959 
-75.9484 
66.6888 
17.4885 
-8.90393 
-2.15198 
-65.5567 
24.0019 
-14.6423 
-22.642 
19.4448 
-37.8856 
-21.2248 
1.03828 
-7.08582 
2.29102 
56.7506 
29.3587 
29.1013 
20.4465 
-34.7976 
1.15505 
-28.6995 
17.4366 
-6.91933 
3.40784 
-104.087 
-4.1658 
-3.14015 
26.0376 
34.7685 
15.8546 
26.7431 
-26.5347 
-35.1743 
-53.2184 
-38.6689 
17.4493 
-57.6325 
20.0185 
-0.8669 
23.8274 
-79.0361 
76.2621 
42.0971 
-40.5746 
11.6107 
36.0201 
0.391478 
-74.3355 

-77.308 
163.156 
167.201 
100.392 
-22.8278 
387.403 
48.5623 
-77.8473 
-27.5822 
-34.5762 
-317.973 
241.526 
-103.41 
46.5256 
-124.442 
-36.1146 
-196.605 
144.512 
172.907 
-42.42 
41.1531 
147.464 
121.407 
-100.06 
-67.1099 
-176.687 
-46.5045 
-124.208 
-114.415 
28.0721 
-125.222 
348.692 
152.571 
18.5588 
264.406 
60.7474 
127.77 
38.0898 
77.7853 
137.855 
149.584 
-42.5934 
216.01 
119.681 
116.703 
197.135 
-91.9539 
21.9778 
-261.101 
465.809 
65.9062 
134.402 
-558.12 
260.878 
378.813 
85.1981 
-245.806 
170.732 
-49.7144 
-152.085 
185.007 
400.836 
-25.9979 
-24.5017 
267.877 
-118.782 
-185.98 
-44.758 
132.64 
82.2651 
-141.887 
7.97731 
105.122 
-105.027 
-317.817 
-76.8399 
271.95 
88.1069 
77.2538 
-259.76 
-102.822 
-19.2842 
34.8611 
-25.5581 
-101.221 
-33.9184 
-118.627 
56.9601 
-173.168 
-145.326 
-120.058 
33.1007 
-120.792 
-15.1039 
11.7998 
-125.649 
-253.389 
-200.628 
-30.2686 
164.414 
381.128 
67.4694 
218.569 
-17.2393 
-126.963 
34.289 
-124.11 
201.2 
31.1203 
-85.4372 
-417.211 
-294.41 
128.162 
-35.8881 
22.5658 
-285.063 
12.767 
-128.371 
278.308 
4.32019 
178.21 
-132.88 
-221.015 
421.394 
333.674 

-4.97069 
86.6599 
-377.159 
50.4732 
-95.999 
-59.4542 
1.79439 
-20.4821 
-62.9173 
146.406 
194.767 
-103.558 
-159.365 
-258.377 
5.70341 
92.1664 
-115.432 
-160.536 
249.52 
-98.6818 
-43.5998 
81.6764 
14.7578 
279.469 
-268.484 
-47.2355 
-169.448 
40.2712 
-20.1636 
233.379 
-353.317 
240.342 
39.1037 
263.389 
-58.7702 
-229.785 
-95.8058 
7.31495 
89.7604 
87.5731 
-112.59 
94.8904 
104.684 
-47.3093 
289.057 
101.615 
24.7454 
-34.2382 
-163.712 
329.51 
-82.9189 
-345.279 
-474.29 
-88.1358 
-72.2092 
142.55 
-310.845 
-179.995 
-211.253 
207.625 
201.022 
10.9521 
56.4443 
-290.178 
-313.648 
159.096 
37.7214 
30.985 
30.7946 
-77.7526 
-160.46 
265.051 
-91.7062 
105.923 
-262.755 
-114.204 
295.032 
57.6842 
23.311 
-42.8668 
-178.077 
271.59 
-243.163 
50.6643 
-250.244 
-224.768 
136.949 
148.567 
-131.237 
-35.2066 
-52.0999 
109.237 
114.732 
-87.1706 
43.0046 
169.083 
-95.6516 
-336.265 
100.257 
112.114 
239.453 
70.698 
-325.298 
62.8383 
-223.825 
292.682 
31.3082 
164.71 
-12.1082 
278.955 
24.5598 
-77.8443 
-50.8705 
74.5278 
-152.577 
-11.2793 
197.919 
102.298 
258.4 
233.666 
344.171 
18.2014 
73.939 
103.375 
217.608 

-73.1347 
103.618 
-386.846 
138.195 
111.092 
44.2218 
-155.273 
-94.4376 
17.102 
40.9277 
13.8351 
-75.6072 
53.402 
48.2362 
293.144 
-153.522 
-159.484 
-0.830084 
294.733 
62.8884 
-179.499 
-46.2947 
-156.807 
408.079 
-256.78 
56.0126 
34.9099 
-177.307 
-20.1391 
277.21 
-19.6641 
-85.4854 
-99.4691 
423.019 
-16.6768 
-25.5528 
-6.57179 
62.6577 
-76.5407 
45.1236 
26.5385 
263.096 
-50.9951 
-264.788 
-93.5203 
199.755 
269.692 
5.25192 
224.454 
46.2438 
-77.788 
-296.906 
185.538 
8.09328 
-482.746 
-61.5509 
165.707 
-263.938 
-168.476 
326.017 
105.073 
-233.274 
132.761 
-167.182 
-534.052 
23.764 
131.301 
-72.8495 
179.734 
-123.837 
122.368 
260.499 
-311.287 
-10.4879 
-225.933 
-87.1695 
300.9 
34.6702 
-42.6211 
113.826 
56.2028 
225.629 
149.193 
-202.68 
-202.769 
144.453 
132.108 
-84.3289 
225.117 
143.583 
-108.052 
103.377 
5.67656 
-44.6927 
-53.4419 
67.0356 
4.48144 
-165.806 
160.549 
149.338 
76.5142 
-253.137 
-365.074 
-34.4001 
-208.59 
35.5907 
67.6877 
202.498 
-376.513 
260.713 
224.07 
92.016 
-272.653 
-10.8624 
-123.624 
-154.161 
-43.7883 
-243.439 
-63.4133 
187.923 
190.892 
67.9189 
165.663 
-505.956 
-107.725 

-122.461 
224.478 
40.8719 
20.903 
-293.222 
284.4 
40.8757 
16.0077 
94.236 
-236.821 
-365.738 
105.601 
-338.436 
88.1163 
-173.056 
-245.883 
-77.9985 
288.575 
60.7748 
165.299 
-206.525 
-85.1461 
70.7883 
-256.582 
112.989 
-341.851 
-92.3817 
187.534 
-75.5123 
-107.354 
27.7596 
337.854 
234.344 
-282.871 
308.896 
-17.9402 
-222.6 
-103.208 
197.099 
183.556 
86.5485 
-155.656 
203.518 
61.0423 
245.116 
144.15 
-73.9773 
-59.1378 
-100.386 
27.1468 
-38.5944 
-30.1027 
-378.407 
234.5 
113.511 
158.684 
-272.569 
227.704 
-91.3294 
-214.639 
164.635 
434.138 
-60.7822 
-102.317 
239.031 
-121.715 
-229.164 
-127.733 
158.212 
113.793 
1.60997 
-65.3028 
-62.9728 
122.97 
-352.463 
-109.617 
61.582 
-144.989 
28.1431 
-298.469 
-85.5066 
-23.0742 
-96.251 
-12.6211 
-118.098 
-239.687 
-116.27 
231.986 
-186.138 
-257.615 
-126.245 
144.776 
-208.685 
106.033 
-31.9143 
-169.683 
-341.348 
-430.453 
95.5667 
99.3771 
290.297 
91.0623 
171.25 
-161.167 
-35.6127 
-54.6118 
-137.252 
-77.145 
-75.2513 
-116.552 
-265.754 
19.7208 
-2.98882 
-152.203 
152.905 
-535.642 
79.3375 
166.819 
-74.5861 
-60.5939 
134.875 
-197.917 
-143.97 
189.426 
135.675 

-470.794 
259.359 
-537.041 
-220.708 
-197.638 
60.3065 
46.4353 
-220.555 
-203.576 
200.064 
173.893 
8.78383 
-463.492 
-146.252 
320.828 
383.139 
-327.423 
-309.285 
305.525 
69.0954 
-166.189 
-264.794 
-33.3823 
409.654 
456.541 
-0.28912 
469.433 
-49.6764 
-467.591 
205.584 
149.198 
287.961 
-15.4349 
408.508 
-84.0071 
137.019 
127.347 
-114.297 
445.319 
72.3262 
-79.7755 
129.081 
55.3818 
-440.171 
316.719 
292.001 
-17.5503 
77.2618 
-155.172 
-301.907 
-99.7666 
-210.097 
127.081 
-126.29 
-585.799 
-181.964 
274.235 
-10.1241 
-158.184 
425.206 
146.349 
-436.039 
346.538 
-504.656 
-805.131 
-229.605 
203.775 
30.2439 
154.567 
-117.364 
-396.813 
496.006 
-351.096 
149.527 
-304.861 
216.888 
352.256 
-361.506 
119.465 
19.7051 
6.58974 
38.8896 
-12.1052 
-317.728 
-275.59 
-195.18 
231.786 
72.4506 
44.3264 
83.4537 
-218.344 
390.103 
98.7093 
88.4668 
168.05 
-208.737 
-338.979 
-524.846 
477.504 
304.967 
185.575 
16.5262 
-187.812 
-312.583 
-646.781 
285.491 
175.031 
134.749 
-106.509 
70.8916 
-125.999 
127.388 
-527.908 
283.331 
-205.58 
-264.351 
233.77 
30.7841 
228.703 
467.748 
-7.73232 
-226.028 
247.392 
52.2477 
-45.1273 

-38.253 
-223.502 
496.089 
-0.731949 
-426.281 
-362.64 
131.465 
301.496 
-53.9077 
-69.8201 
-51.1777 
-41.8734 
-576.319 
-413.884 
36.698 
-46.5449 
-72.6193 
358.81 
-128.706 
242.303 
-99.1321 
-1.87862 
117.859 
-331.652 
483.284 
-317.324 
-345.429 
410.561 
174.711 
-124.352 
388.177 
268.779 
123.929 
-580.731 
88.4629 
-355.474 
-309.021 
-239.41 
317.588 
-16.5967 
-365.406 
-447.185 
-47.7447 
492.298 
332.305 
-603.758 
-172.189 
-228.328 
-310.025 
-529.6 
-422.648 
-13.3843 
-379.793 
-610.955 
464.886 
309.05 
-427.813 
-132.313 
-184.7 
110.141 
-187.762 
115.215 
-324.561 
-225.968 
236.569 
243.514 
362.08 
318.561 
382.241 
737.937 
-421.57 
5.30269 
-44.9805 
605.462 
16.5174 
134.374 
-300.05 
-131.97 
-256.807 
-65.137 
-30.8912 
206.34 
-399.575 
610.621 
5.64091 
-317.674 
90.5889 
204.417 
-174.141 
-452.312 
105.907 
464.333 
-15.0039 
63.0463 
313.638 
592.138 
111.848 
-368.967 
-141.391 
-278.33 
-156.326 
4.3544 
371.633 
181.155 
-140.141 
317.887 
-300.008 
-650.816 
365.292 
80.6625 
278.968 
169.336 
47.8058 
2.05334 
320.968 
135.594 
430.167 
292.403 
234.579 
-209.812 
-367.91 
-210.496 
7.20953 
494.703 
242.782 

424.81 
-163.649 
331.166 
376.975 
-130.471 
-334.74 
132.038 
431.479 
-34.9898 
-23.6239 
108.365 
50.9664 
-168.466 
-524.039 
168.246 
198.85 
-109.193 
251.019 
245.767 
-112.053 
163.824 
483.149 
71.7735 
-137.222 
-44.671 
-64.9553 
-553.223 
246.318 
404.31 
244.475 
-59.3477 
390.018 
79.4061 
-316.784 
118.819 
-507.002 
-20.8724 
2.40438 
58.6817 
-11.3459 
-231.848 
-286.581 
-35.9707 
600.758 
409.803 
-443.06 
-150.868 
-44.9734 
-512.192 
307.111 
-267.051 
-170.645 
-957.997 
-497.802 
687.875 
278.649 
-855.366 
-327.223 
-202.211 
144.879 
-117.992 
197.248 
-301.745 
-148.676 
245.057 
555.868 
259.857 
308.765 
299.255 
622.766 
-435.137 
42.1617 
147.682 
376.073 
255.397 
-133.194 
-177.567 
473.086 
-132.865 
-73.5649 
-114.417 
456.813 
-475.622 
779.472 
23.1112 
-163.552 
-92.812 
112.414 
-211.637 
-429.905 
108.648 
286.353 
1.45669 
-161.3 
461.143 
923.816 
200.388 
-349.311 
-410.323 
-151.221 
107.797 
14.4089 
-98.9483 
469.991 
-103.802 
565.379 
-179.985 
-239.549 
296.261 
144.299 
14.8096 
-387.368 
264.887 
103.986 
118.587 
481.822 
252.209 
87.3218 
927.858 
-152.727 
-3.94262 
17.02 
193.535 
709.458 
330.877 

122.672 
23.5054 
-148.956 
273.212 
100.323 
-190.635 
-44.9438 
-112.033 
120.918 
-431.358 
6.49697 
37.0805 
-9.73365 
67.2128 
481.062 
-342.608 
-24.7509 
216.95 
578.33 
-128.812 
-167.323 
75.0092 
-202.535 
670.576 
-3.88034 
-75.7993 
180.233 
131.279 
231.199 
318.805 
218.652 
21.2224 
54.7878 
352.164 
-187.877 
276.568 
-18.9749 
-116.682 
194.629 
-68.0093 
236.338 
-10.3967 
-92.6271 
238.493 
-270.653 
-66.6469 
113.733 
-163.997 
-102.734 
10.7183 
-539.67 
-223.601 
72.9479 
-153.813 
-282.536 
-410.026 
273.695 
-71.0126 
-348.565 
417.393 
-39.4657 
7.78381 
184.967 
-249.582 
-234.784 
-89.0627 
353.382 
73.687 
794.58 
367.242 
52.8409 
190.062 
-328.075 
6.86855 
-225.339 
-487.394 
-119.402 
-113.941 
-243.557 
-119.897 
119.394 
677.462 
383.843 
-299.378 
-155.235 
-32.4704 
101.673 
-45.0668 
417.261 
-325.598 
-198.642 
512.82 
30.1465 
278.448 
-128.153 
259.843 
70.3664 
-536.95 
107.92 
-207.305 
-95.8492 
-278.824 
-194.009 
-15.606 
-295.908 
-99.7163 
122.864 
-477.502 
-167.299 
249.362 
336.089 
-84.0965 
-397.967 
210.734 
144.244 
-46.4069 
109.316 
-257.805 
512.654 
-388.411 
-40.2998 
147.392 
138.093 
-295.241 
-138.78 

263.165 
20.0455 
286.828 
-69.0429 
84.921 
-111.523 
11.4197 
-241.99 
26.1526 
-136.308 
-85.9045 
160.84 
337.384 
101.481 
-49.1208 
-244.429 
444.973 
-1.04905 
300.402 
-244.72 
27.9642 
80.2716 
-31.3361 
378.227 
-50.1108 
-229.862 
81.9143 
44.5168 
210.913 
262.362 
-16.9993 
-26.3761 
249.237 
198.162 
-160.308 
173.999 
-45.1507 
259.68 
32.8295 
-127.862 
170.958 
-202.655 
173.524 
338.618 
-240.532 
-200.365 
-181.063 
-224.714 
-171.085 
140.149 
-130.101 
-65.3764 
-121.132 
-178.239 
321.344 
-290.233 
-96.0306 
228.722 
-142.001 
188.855 
-58.3647 
186.299 
-116.429 
163.274 
319.722 
-113.495 
146.012 
307.027 
197.304 
168.624 
100.72 
118.305 
-115.071 
-206.22 
-40.3474 
-292.202 
35.0953 
-301.812 
-116.019 
-265.587 
139.114 
217.161 
-12.6349 
-197.863 
65.3344 
-294.978 
-207.068 
-92.9986 
-21.3292 
-85.4584 
84.3847 
212.844 
100.7 
61.2194 
-40.5923 
100.778 
208.394 
-77.3563 
-348.882 
-18.8035 
-92.7144 
-162.709 
-12.7149 
-72.7135 
143.654 
-344.432 
38.6577 
-354.364 
241.698 
49.7228 
-45.6607 
-133.65 
-178.818 
141.483 
-62.4929 
231.261 
70.0502 
312.3 
440.737 
-305.37 
4.36773 
-208.424 
-229.831 
196.569 
130.249 

-128.866 
-64.4194 
94.1012 
-142.875 
64.6867 
50.8705 
330.048 
30.0431 
-147.726 
-292.556 
81.3612 
110.015 
-182.399 
143.377 
277.77 
-98.0065 
353.77 
234.212 
-505.643 
570.235 
53.4781 
-174.691 
19.5123 
-273.786 
457.699 
-31.5477 
-6.12559 
176.479 
-70.8514 
-551.125 
322.5 
-71.5175 
-30.0059 
-203.486 
135.758 
141.731 
41.5907 
-324.934 
-20.3439 
40.9128 
282.116 
-136.602 
-63.7203 
6.96954 
25.788 
-30.4317 
-107.522 
20.3434 
197.518 
-442.093 
-18.0473 
375.778 
306.811 
237.235 
-217.883 
-2.68812 
-44.6344 
-22.3573 
102.659 
4.19146 
101.675 
32.2369 
-45.6374 
-243.197 
-20.7056 
105.413 
42.1062 
-165.501 
37.8304 
322.089 
40.8843 
-66.1072 
-245.876 
304.445 
-135.96 
290.182 
-75.2705 
-298.755 
24.3259 
238.221 
66.308 
112.885 
211.825 
-27.3937 
244.836 
112.85 
110.727 
65.4211 
135.952 
-87.1904 
56.5676 
-137.7 
-126.612 
-91.512 
21.6794 
56.3067 
-121.515 
88.1559 
95.4011 
-107.465 
-218.413 
117.275 
231.221 
-36.5409 
-218.879 
-112.866 
44.4836 
-363.492 
57.346 
-21.6696 
326.118 
365.863 
-140.698 
170.666 
104.23 
13.0052 
-238.238 
44.4842 
-493.664 
-270.888 
-208.033 
-30.0654 
-79.6525 
-174.459 
-56.739 

-141.957 
26.9531 
-29.9335 
23.5952 
88.1177 
-283.031 
172.013 
-100.672 
-137.563 
-259.566 
234.803 
-19.8995 
-58.711 
-257.043 
317.852 
299.554 
91.245 
-19.8702 
-210.064 
167.544 
181.865 
-13.4551 
2.82926 
5.60355 
195.999 
48.5525 
90.9341 
188.514 
-69.9426 
-373.53 
204.699 
37.0901 
44.2603 
-32.7789 
-199.491 
78.9692 
202.455 
-245.935 
-2.72789 
-20.8659 
188.596 
-2.59212 
-42.135 
42.4687 
144.583 
-117.611 
-95.6505 
85.4648 
116.615 
-87.4254 
27.8062 
333.591 
212.321 
156.879 
-139.386 
-48.8767 
-61.3359 
26.0783 
-55.2264 
-47.2955 
114.56 
-86.0388 
101.266 
-260.265 
-9.038 
53.4815 
-50.2254 
-208.379 
65.4918 
252.853 
-205.433 
-73.2999 
-23.8007 
158.809 
66.2222 
-15.7795 
-231.133 
-111.754 
81.7774 
109.559 
-173.027 
222.757 
164.519 
153.775 
222.776 
10.9849 
234.322 
66.6294 
92.0494 
-76.2935 
127.777 
-77.0723 
-54.5595 
-71.5753 
71.9633 
79.6284 
-123.46 
174.004 
125.677 
-67.6702 
-181.187 
325.226 
115.836 
59.4325 
-265.865 
78.1642 
148.286 
-193.096 
18.9822 
-27.9766 
310.486 
30.8869 
-55.9464 
86.0281 
122.178 
159.511 
-84.5676 
5.67589 
83.7502 
-290.198 
-185.503 
120.188 
5.71322 
215.389 
-19.7051 

-234.762 
141.949 
-508.69 
6.69595 
40.0402 
-278.946 
12.5109 
32.9963 
162.886 
-34.2074 
226.739 
-167.059 
-180.785 
-440.529 
171.351 
-143.765 
29.3816 
-37.8666 
253.811 
-6.55193 
105.945 
-46.2727 
47.0547 
613.843 
-102.837 
