0.545853 
-2.82591 
-3.02945 
-0.407177 
-0.16214 
0.918219 
0.332319 
0.398025 
-3.41905 
1.01463 

0.84863 
0.659553 
-0.251261 
2.24371 
-0.363899 
0.606436 
0.520204 
-0.900047 
0.296361 
0.819843 

1.51704 
-4.52554 
0.210607 
-4.05901 
2.77814 
1.29053 
-1.95372 
-3.58504 
-3.552 
-3.09053 

0.774943 
1.86254 
-2.21424 
0.613134 
0.197398 
3.28756 
1.46068 
0.798549 
-0.329279 
-0.819048 

-3.29217 
0.854332 
-1.70222 
-0.529248 
-0.15336 
3.2801 
1.58592 
-2.7897 
-3.58211 
2.63991 

-0.367483 
-2.88369 
3.94832 
1.41375 
-2.2745 
-0.439213 
3.38374 
-3.39409 
-0.417022 
-3.51823 

-1.79994 
-2.29697 
1.34696 
-0.0111255 
1.22542 
0.3609 
-3.97752 
1.40718 
-2.36471 
-2.17801 

4.0968 
2.05999 
-1.0771 
-0.832208 
-3.05345 
0.363034 
-0.352363 
-0.549714 
2.39474 
0.609952 

2.08986 
1.92785 
-0.191676 
0.576463 
-1.13444 
0.285259 
2.62297 
0.282587 
0.448335 
2.20796 

2.62322 
-0.202533 
-4.3356 
-1.21445 
-0.00695008 
-1.85339 
-0.334286 
-3.20259 
5.65487 
-1.23052 

-2.57346 
-0.0379011 
-2.14767 
0.507756 
-0.883718 
-0.0437574 
-2.00742 
2.77896 
1.24906 
1.55958 

-0.736817 
-0.329421 
0.183057 
0.0561209 
1.27292 
3.34378 
-0.418742 
-2.06153 
-1.69813 
-1.80436 

-0.310576 
-1.80313 
-3.24219 
-1.63357 
1.83519 
-1.5169 
2.66544 
-1.5535 
-4.19881 
2.92059 

0.822182 
-4.65662 
5.51938 
-3.26429 
-0.390326 
-3.2245 
2.60928 
-0.217012 
-5.01736 
-3.7423 

-5.19888 
4.08552 
-0.116932 
-0.68605 
0.941217 
3.22829 
-2.54505 
-1.26726 
-5.07198 
-3.39724 

-2.80196 
-1.71085 
-4.07816 
0.699562 
3.23346 
0.674441 
-3.0251 
2.16062 
4.90827 
-1.92482 

-1.46593 
-4.40713 
0.515909 
-2.67458 
-0.861866 
-2.19552 
-2.09035 
1.8921 
-5.95077 
2.22659 

1.42168 
3.25472 
2.96791 
-1.46321 
-2.13503 
2.30673 
2.48175 
-2.78893 
-3.55219 
-1.85514 

2.95866 
1.14873 
-2.07267 
4.5583 
2.73975 
-1.45544 
-0.250379 
-0.770327 
-3.42831 
-0.804953 

-3.69176 
-0.850436 
4.05661 
-0.972737 
-2.71773 
0.033048 
-2.13946 
-2.01736 
0.181286 
-2.70219 

-1.8161 
0.528133 
-3.3836 
-0.603105 
1.60126 
2.18944 
-2.86767 
-1.40595 
-1.09379 
1.50018 

-0.270862 
1.23014 
-3.16226 
2.42771 
-0.25726 
3.342 
0.880519 
1.67311 
-0.196146 
-0.867692 

1.60342 
-0.713463 
0.153484 
-0.304409 
0.0645099 
0.462417 
0.472556 
0.323921 
0.0478314 
-0.434786 

-1.54354 
2.93996 
-3.32651 
3.64746 
0.340736 
-4.12602 
-0.451474 
-2.62834 
-3.82766 
3.5432 

-0.986035 
1.23845 
4.62889 
-1.02469 
2.71941 
0.412542 
-5.39357 
-0.195867 
1.24138 
-2.46591 

-1.90276 
-0.167784 
-1.68762 
0.0635485 
0.678051 
-0.385319 
-0.460188 
0.0450647 
1.28684 
-1.29654 

-1.977 
-0.150228 
2.80087 
2.43737 
3.27372 
-2.18406 
0.77232 
-1.57044 
0.821946 
0.837871 

1.65988 
0.544491 
2.66332 
-0.64395 
-1.48281 
0.207874 
-2.28393 
2.91443 
-0.521782 
2.49837 

1.4214 
1.70298 
-1.53041 
-1.06912 
0.285483 
-0.759556 
1.38608 
-0.198489 
-2.22446 
0.656042 

3.21083 
1.75733 
-3.6586 
0.540668 
1.78326 
-2.56319 
0.625833 
-2.6008 
-2.4452 
-1.9045 

-1.12544 
3.23595 
3.37873 
-3.21667 
2.49647 
2.5562 
-1.61969 
-2.37179 
-0.598148 
-2.62 

2.61385 
-0.0289927 
0.0788891 
2.6019 
0.0827837 
1.55206 
-1.3413 
-0.841492 
-1.01615 
-2.44483 

2.33423 
-0.221046 
1.37042 
0.0543819 
-0.307935 
0.893233 
1.05365 
1.70768 
-1.44978 
0.874114 

-4.11817 
-0.0407331 
-3.35086 
1.94919 
1.25169 
-2.51647 
-0.514024 
-2.47203 
-2.76829 
0.888382 

2.37809 
0.412844 
1.9893 
-1.13255 
-3.05842 
1.11672 
1.03507 
-3.21311 
-0.0696949 
-1.69368 

-1.27988 
0.621787 
3.79797 
1.96228 
2.37455 
-0.307848 
1.53724 
-2.14173 
-1.16722 
0.92616 

-4.09395 
-0.268325 
-1.60534 
0.0449726 
2.66204 
6.31039 
0.324377 
-1.19807 
-1.12993 
-1.2066 

2.45694 
-1.40853 
-2.93429 
-1.2784 
0.471285 
-1.21988 
0.567577 
-2.27047 
-1.68286 
-0.716682 

1.92868 
2.27009 
1.52339 
2.59841 
1.52285 
0.196366 
-2.0149 
-0.679748 
0.562618 
-0.342655 

1.29294 
-1.3799 
0.642107 
0.736917 
-1.10865 
-1.22896 
0.209589 
0.213367 
-0.512944 
-1.82315 

-3.5316 
-1.82595 
3.7944 
0.176411 
0.149689 
2.29017 
0.791805 
1.22841 
-5.47187 
0.701258 

-1.41166 
2.31411 
-1.59197 
0.877209 
-1.10968 
-0.828337 
3.73207 
-1.04527 
-0.493703 
-0.0156813 

1.58278 
-0.821885 
0.546858 
2.56545 
-1.64043 
-1.93015 
-0.440954 
-1.06168 
-1.46928 
0.644547 

2.10049 
0.751573 
0.48753 
0.545309 
-0.110508 
4.42243 
0.150657 
-0.436516 
-1.71604 
1.71435 

0.321095 
-1.16166 
0.25038 
3.25708 
-2.47846 
1.04775 
-2.53901 
3.77293 
2.52681 
-1.26831 

-1.15776 
-2.04689 
3.12941 
2.12504 
-0.600072 
-1.66487 
1.88405 
-0.353725 
-2.39549 
-2.4438 

-0.238402 
2.73901 
-0.45747 
-0.127585 
-1.35093 
-1.22951 
2.23136 
-0.502653 
0.050212 
-1.86924 

-0.342164 
0.365606 
-0.799771 
1.19674 
-0.0338195 
1.18069 
-0.892315 
-0.43674 
0.113095 
0.821509 

-3.55929 
-0.89128 
0.681442 
-3.86428 
-3.01899 
0.389442 
3.31614 
-0.0321476 
-1.54679 
-0.665133 

-1.04235 
-2.22259 
-5.35554 
5.422 
-0.458004 
3.19455 
4.67396 
-1.70566 
-0.987897 
3.52164 

-0.54993 
-1.04396 
-1.13187 
-1.04861 
-2.29411 
0.185473 
3.12514 
-0.621554 
0.944664 
-0.314249 

-3.34622 
-3.79731 
5.0143 
-0.856126 
1.54842 
4.36817 
-1.83639 
0.0612824 
-0.816833 
0.53583 

-3.82257 
1.7289 
2.59764 
-4.68931 
1.24393 
-4.08516 
-0.321303 
-1.13382 
1.07438 
2.79305 

-2.22727 
-2.46878 
4.03799 
1.27079 
-2.24684 
1.4549 
2.79554 
0.354574 
-2.25347 
0.949925 

4.05104 
-3.70665 
-1.88288 
-0.502286 
1.34663 
2.88242 
0.497984 
-2.55061 
-2.55101 
1.15209 

2.66294 
0.145043 
-0.0518324 
-0.434127 
-3.81685 
0.166586 
1.46568 
1.52409 
3.48097 
-0.0104282 

-2.77053 
1.94383 
3.31823 
-0.126556 
4.34827 
-4.41758 
2.8276 
1.73411 
1.27169 
-1.09582 

0.801366 
-0.837432 
3.37291 
-0.79778 
1.78914 
-0.477278 
1.05125 
-0.794259 
-1.57214 
2.40749 

-0.156436 
-2.37712 
2.05853 
-1.33248 
-0.308065 
-1.49616 
0.108889 
0.606879 
1.45917 
-1.82326 

-1.94996 
3.31819 
-1.89246 
-0.510735 
-0.868735 
-1.73709 
-2.88137 
-1.49638 
-2.41369 
-2.062 

-2.7224 
-0.739823 
0.48589 
2.57303 
-2.23145 
1.39717 
0.340281 
0.284287 
-2.14089 
-0.15248 

2.99125 
-1.6095 
2.75302 
0.61127 
-1.78401 
2.6703 
1.72707 
2.71139 
-4.13633 
0.24911 

-2.00578 
0.746113 
1.02517 
1.78745 
0.705115 
-0.0924556 
0.823545 
0.510099 
0.160834 
0.61994 

3.26375 
-3.24445 
0.223389 
-1.09286 
1.9579 
-0.48848 
4.13097 
-0.67356 
0.359869 
1.94598 

4.2746 
-4.51639 
1.77375 
-1.60513 
2.04281 
3.59035 
2.62727 
-1.19666 
-2.48444 
0.848395 

0.0608327 
-1.21441 
-2.79984 
-3.74779 
-2.70735 
1.10469 
-1.86039 
0.982481 
-2.40423 
-1.85462 

-0.323943 
2.04441 
-1.05864 
-1.84483 
0.562999 
-1.62905 
-2.49397 
-0.623123 
-0.878733 
-2.35281 

3.43094 
0.00387494 
-1.01146 
-0.299294 
1.37645 
-2.61903 
-1.57175 
-0.304345 
-0.430402 
-1.06657 

1.1915 
3.39578 
2.30373 
2.52406 
2.3381 
0.84645 
-0.769441 
0.688492 
-5.13615 
-4.47047 

0.557177 
0.558272 
2.22038 
-1.04528 
1.16379 
3.25418 
-2.73974 
-0.31529 
-5.08802 
-2.59698 

2.34091 
0.404869 
1.68854 
-2.66162 
-2.61966 
-2.47704 
3.48895 
-2.00775 
-3.6378 
1.22688 

-1.4243 
0.00471016 
-1.29868 
-0.0252644 
-0.0705737 
-0.429955 
-2.32136 
-0.0427383 
-0.581858 
-1.83433 

0.782526 
-2.11322 
-2.00494 
0.657644 
2.5487 
2.00209 
3.40509 
1.99181 
2.52042 
-0.956691 

-0.700648 
1.99537 
1.57735 
-0.239937 
-2.7441 
0.0963663 
-2.79129 
1.82732 
1.82227 
-2.46042 

2.13909 
1.7005 
-3.23884 
-1.69192 
2.44657 
0.758685 
-1.0338 
-0.404965 
4.32867 
3.00796 

-1.82614 
-4.08726 
-0.40564 
-3.21657 
-1.99084 
-3.15023 
-1.64549 
-0.735068 
2.15824 
-3.67289 

-1.93463 
-1.94268 
-1.81313 
0.538425 
-3.76625 
0.636105 
0.626702 
-3.52533 
-2.30655 
-1.71975 

1.44567 
1.16275 
-3.28681 
1.21778 
-0.471337 
2.22392 
1.98016 
-1.83774 
0.517443 
-2.35531 

-1.11899 
0.417373 
-1.01858 
0.781117 
-0.342598 
0.761672 
0.932659 
-0.0405301 
-0.643077 
-0.535943 

-2.91844 
0.181091 
-0.194864 
-1.36205 
-1.27307 
0.670555 
-1.4169 
-0.37098 
0.302908 
-2.09776 

-0.825266 
0.0452133 
0.215602 
-1.44471 
0.364041 
-2.29949 
-0.861855 
-3.02665 
-1.31197 
-2.01479 

-0.383043 
4.84611 
-0.0218819 
3.00316 
-2.27465 
2.44839 
-2.17265 
2.96476 
-5.81399 
1.14966 

-4.34868 
2.18753 
3.68216 
-0.141596 
1.88726 
4.62587 
3.29361 
-0.586348 
-3.5539 
-1.46249 

4.00524 
-1.07446 
-1.25821 
-1.42684 
-1.16905 
2.29349 
-1.77915 
2.63751 
1.04282 
-2.14381 

-1.18754 
-1.29604 
-0.505354 
-2.08592 
1.2809 
1.84711 
-0.241287 
1.42666 
-0.982599 
0.156231 

-2.79411 
-0.0667049 
-0.446502 
-1.86274 
1.54632 
1.70774 
2.41656 
-1.73116 
-1.14838 
-3.30264 

-2.26964 
2.39391 
-0.850536 
0.132566 
-3.60505 
-0.0731957 
-2.64586 
-2.0077 
0.25708 
0.910155 

2.36499 
-0.898306 
0.491804 
0.687672 
-1.21841 
-1.51276 
-1.47687 
1.99505 
-0.258986 
0.349499 

-2.26751 
-0.463096 
1.57944 
0.469036 
1.14727 
-1.01058 
-1.16472 
-0.882767 
-2.39759 
-2.16318 

-1.26691 
-1.06727 
-0.718392 
-1.9291 
-0.0967645 
-2.33314 
0.740825 
0.357207 
2.4877 
0.123389 

0.792314 
-0.0659672 
-0.831701 
-1.56697 
0.603826 
-0.6868 
-1.71818 
0.505262 
2.22772 
0.274723 

2.03897 
1.55759 
1.2912 
1.51471 
2.39602 
-2.46349 
-1.60788 
-1.68788 
-1.46603 
-1.95064 

0.20674 
-0.245429 
-2.44577 
-0.973468 
-0.23845 
-1.87425 
-0.497759 
-0.0756781 
-0.546453 
2.41926 

0.952216 
1.90027 
2.93506 
0.288614 
0.178168 
0.407582 
2.25778 
0.809839 
0.359048 
0.469322 

-1.03718 
-0.186423 
-2.64892 
-1.27763 
0.157646 
1.46451 
-3.02909 
-1.03675 
-0.643881 
-1.14045 

1.12972 
3.87737 
-3.6055 
-1.48654 
-1.82291 
4.3926 
-1.80551 
1.88273 
-3.01883 
-2.76458 

-0.779789 
-3.07027 
-4.80234 
-3.27069 
1.61651 
-2.36882 
-0.562609 
0.544739 
-2.42953 
-3.00405 

-2.47057 
-2.72157 
-2.73368 
-4.42644 
1.23835 
2.04516 
1.6245 
-2.74108 
2.25021 
1.0102 

-2.33139 
1.93854 
3.48357 
0.809429 
-1.41232 
-0.500587 
1.56289 
3.05442 
2.98171 
-0.127944 

0.331406 
-1.12827 
-0.861471 
0.971834 
-1.0432 
-0.0105705 
-0.505527 
-2.94706 
-1.38255 
-0.779559 

0.677875 
-0.939988 
-1.21635 
3.55252 
-0.953786 
1.46637 
1.45271 
1.2809 
-2.41916 
-2.14502 

-2.31001 
-2.9842 
0.291642 
1.38918 
-1.77927 
2.09229 
-2.73014 
0.410934 
2.23327 
3.0858 

-0.161033 
0.0383073 
5.13325 
0.191755 
0.125472 
3.74273 
0.615746 
-2.72876 
1.8869 
0.703327 

1.52222 
-0.297753 
-1.20527 
-1.49781 
-0.0344294 
0.664915 
-0.0464476 
2.4476 
0.41908 
-1.09985 

3.97525 
-3.11725 
0.948968 
-2.04168 
0.846597 
-2.01201 
5.70337 
1.39768 
0.780793 
2.98346 

0.872491 
2.23351 
-4.08192 
0.230996 
-2.68472 
2.49999 
-1.3183 
-0.274062 
4.65912 
-3.0198 

-0.740686 
1.46416 
-1.73478 
-0.145525 
0.698101 
0.897097 
0.14329 
0.656133 
-0.545879 
2.32931 

-1.11941 
-0.76662 
-4.63335 
2.22003 
-1.83503 
-1.13509 
3.7721 
-3.78302 
2.17167 
-2.70046 

1.86059 
-1.55251 
-0.748054 
-0.294079 
0.895651 
1.16358 
-3.42752 
0.0853762 
-0.0293315 
0.338727 

0.0431383 
0.0448757 
-1.29521 
-0.493059 
-2.24482 
-1.97899 
-1.94711 
-0.101834 
-0.368795 
-0.284104 

-2.61628 
2.47597 
0.696475 
-2.41201 
-3.39831 
-0.755889 
-1.36124 
3.42696 
-1.83329 
0.874107 

0.143689 
2.57902 
3.20538 
-2.43046 
-3.4281 
-2.20485 
-2.57251 
-1.56495 
1.85833 
2.9918 

2.31276 
-2.13723 
-1.8348 
-0.310645 
0.0677998 
0.927929 
2.5663 
2.46823 
1.8019 
-1.04948 

-2.98448 
-4.12659 
0.64138 
1.51412 
3.05352 
-0.176087 
-4.17778 
1.95761 
-3.08434 
-1.26915 

0.46755 
0.222364 
2.65211 
0.151429 
0.0143067 
1.53831 
0.314255 
0.162609 
1.27219 
0.0454819 

-2.28134 
-0.342299 
-6.36144 
-1.94196 
1.61245 
1.10937 
-3.65486 
-1.07235 
-1.76236 
1.73698 

3.51951 
-0.362953 
-0.305016 
1.22138 
0.904221 
-1.18585 
-0.296152 
1.90206 
1.10305 
-1.55996 

2.93168 
-2.90222 
1.02619 
-0.156147 
-1.52837 
-5.82509 
-3.52488 
4.04618 
1.93205 
4.89438 

2.9859 
3.06491 
-4.84764 
3.97232 
5.22224 
3.61658 
-2.46679 
-2.36526 
-2.05324 
0.9706 

1.52498 
1.17071 
-1.84352 
1.52767 
-1.79468 
-2.87775 
0.916917 
2.19812 
5.3738 
-1.63892 

1.27973 
-0.462128 
-2.10251 
0.40481 
-2.02262 
-1.02193 
1.74192 
-0.631015 
-1.62142 
-0.330707 

-0.565042 
1.96805 
-0.213516 
-0.495982 
-1.06938 
2.81595 
2.34304 
1.9777 
1.56278 
0.783162 

-0.052579 
1.41867 
-1.79862 
-0.0987372 
0.594199 
-1.64397 
-2.69696 
2.04531 
0.792529 
-2.52383 

1.54303 
-2.11624 
-0.796975 
4.27924 
2.45539 
3.87883 
-4.9406 
-1.53747 
0.328576 
0.246094 

1.2609 
-1.76753 
-0.906573 
1.00263 
-2.14575 
0.562184 
-2.24355 
-2.57588 
-1.4192 
0.392118 

