4.67464e-310 
6.91406e-310 
0 
0 
-5 
-6 
-2 
-5 
-5 
-6 
-4 
1 
0 
-1 
0 
-8 
2 
9 
6 
-4 
0 
-2 
9 
-5 
2 
-9 
1 
9 
-3 
5 
9 
-8 
-9 
-4 
4 
-4 
0 
-8 
1 
-2 
8 
0 
9 
-1 
1 
-1 
1 
-7 
-10 
9 
0 
1 
-10 
-9 
6 
2 
5 
9 
-6 
-8 
4 
5 
-6 
-3 
-8 
8 
4 
2 
2 
7 
-10 
1 
9 
1 
-10 
0 
-10 
-7 
4 
3 
-8 
6 
6 
4 
7 
2 
9 
9.58575e-318 
6.91406e-310 
6.91406e-310 
0 
0 
8 
1 
8 
2 
-8 
-6 
-5 
4 
-9 
7 
-5 
-9 
-1 
7 
-7 
-9 
-10 
7 
4 
5 
3 
0 
-1 
-7 
5 
-2 
-3 
9 
-7 
-4 
-1 
4 
0 
9 
8 
2 
-7 
-7 
8 
7 
3 
6 
0 
4 
3 
3 
-3 
-4 
1 
4 
3 
6 
-6 
4 
1 
1 
5 
1 

-8 
8 
7 
-6 
-6 
-3 
5 
-7 
1 
9 
8 
0 
6 
-7 
-4 
8 
7 
1 
1 
-5 
7 
4 
9 
-8 
-7 
5 
7 
4 
9 
2 
-5 
3 
-8 
-7 
-1 
9 
-8 
-5 
4 
4 
-6 
2 
-6 
2 
6 
-8 
0 
-5 
3 
3 
-8 
-7 
-2 
-9 
-5 
1 
-1 
4 
7 
-10 
-4 
-7 
3 
-9 
8 
-7 
-10 
-10 
-10 
-4 
-4 
-6 
8 
0 
-2 
-4 
2 
8 
-6 
8 
-7 
-4 
-9 
1 
-10 
8 
4 
-9 
3 
2 
-9 
1 
-3 
-4 
2 
-5 
-9 
-6 
7 
-9 
0 
-6 
7 
-9 
-4 
-5 
9 
1 
5 
-7 
-1 
9 
-8 
-8 
-8 
-8 
2 
7 
-7 
-5 
-9 
6 
7 
-2 
-8 
-9 
-5 
6 
8 
4 
7 
-2 
0 
5 
-9 
7 
2 
-9 
-2 
-2 
-6 
-1 
9 
8 
-7 
-9 
-10 
5 
0 
5 

-9 
1 
1 
0 
1 
-4 
-7 
-2 
-8 
-9 
-7 
9 
-8 
3 
-4 
-7 
0 
9 
6 
0 
9 
3 
1 
8 
1 
4 
9 
2 
-8 
0 
9 
-7 
3 
1 
-5 
-5 
-1 
-10 
3 
1 
4 
-2 
-8 
6 
-8 
-9 
1 
-6 
2 
-10 
-3 
1 
3 
8 
-9 
6 
-5 
-10 
-10 
-3 
-8 
-10 
-8 
-2 
-7 
9 
3 
2 
9 
8 
5 
-5 
-3 
-1 
-9 
-9 
-8 
-5 
-5 
4 
7 
2 
7 
-8 
-7 
8 
8 
-2 
1 
9 
-3 
-5 
1 
-1 
3 
4 
-10 
8 
8 
9 
7 
-5 
-5 
6 
-4 
8 
7 
-1 
5 
4 
-7 
-6 
9 
-9 
-4 
-8 
1 
-5 
-8 
-8 
6 
-9 
-2 
-3 
-8 
-9 
-9 
-8 
-10 
1 
3 
-1 
6 
8 
-5 
-8 
-1 
4 
-7 
6 
-2 
-3 
-9 
9 
-10 
-3 
3 
1 
-6 
-3 

-4 
-10 
-2 
-4 
-3 
0 
9 
-10 
2 
1 
1 
-4 
-10 
9 
6 
7 
4 
7 
1 
7 
4 
2 
6 
-3 
-7 
6 
-4 
7 
-10 
1 
-6 
8 
1 
3 
-6 
9 
5 
-7 
9 
-10 
5 
-7 
-4 
5 
-8 
4 
-5 
-2 
-6 
-2 
-4 
0 
2 
-8 
7 
6 
1 
-7 
3 
-7 
4 
7 
-9 
-4 
-8 
-5 
7 
8 
-2 
-2 
8 
-7 
1 
6 
1 
-4 
0 
6 
4 
-4 
-6 
-10 
6 
7 
5 
3 
3 
8 
-1 
8 
-9 
5 
5 
-8 
3 
8 
-3 
0 
6 
-3 
9 
-4 
1 
-8 
-8 
-8 
-2 
-6 
0 
5 
1 
-4 
5 
-3 
5 
-8 
3 
-10 
-10 
-8 
8 
3 
-1 
4 
5 
-7 
-6 
4 
-5 
2 
-8 
6 
8 
3 
9 
-10 
-3 
9 
-6 
-1 
4 
5 
5 
-8 
5 
-7 
-6 
-2 
-7 
7 

-8 
-8 
0 
1 
-2 
8 
4 
2 
2 
2 
-6 
-4 
-2 
-8 
1 
-3 
4 
0 
9 
8 
9 
3 
-4 
-3 
5 
-9 
0 
2 
-9 
3 
-9 
-7 
-3 
-7 
-4 
5 
-9 
3 
9 
-4 
-5 
-7 
2 
3 
7 
6 
3 
-7 
-4 
2 
4 
8 
-5 
-10 
-5 
3 
3 
-3 
-5 
-4 
2 
8 
-1 
2 
-9 
-3 
-3 
5 
-10 
-3 
3 
-5 
-8 
-5 
1 
2 
3 
-6 
-3 
-10 
6 
-9 
8 
3 
3 
5 
-4 
8 
4 
-7 
-6 
-4 
-9 
-5 
8 
5 
3 
8 
0 
3 
7 
-7 
1 
1 
-10 
-8 
5 
4 
8 
-7 
-4 
4 
6 
6 
9 
0 
1 
8 
-2 
-5 
-9 
-5 
-7 
5 
0 
4 
0 
5 
-6 
2 
-9 
3 
5 
2 
-6 
-3 
-4 
2 
-9 
-6 
5 
9 
0 
1 
5 
-1 
3 
-4 
9 
4 

-7 
-9 
9 
9 
-2 
-9 
-5 
0 
7 
-1 
-8 
8 
-8 
-1 
-8 
8 
6 
-10 
0 
8 
-6 
7 
7 
-4 
-9 
-5 
-3 
4 
1 
-3 
-2 
-3 
-10 
9 
8 
-2 
-9 
-7 
8 
0 
-6 
2 
-10 
8 
-9 
-8 
-2 
7 
-8 
9 
-3 
8 
6 
7 
6 
-1 
-8 
-7 
-6 
-5 
0 
-6 
2 
0 
-6 
-8 
0 
-5 
7 
-10 
-3 
3 
2 
-3 
1 
3 
-1 
-10 
-7 
-7 
1 
0 
3 
9 
-3 
-1 
-1 
-1 
-6 
3 
5 
5 
7 
9 
7 
3 
4 
-10 
0 
1 
-10 
7 
-5 
-5 
-6 
6 
0 
-5 
-2 
3 
-10 
1 
-6 
3 
1 
1 
4 
-10 
3 
9 
-5 
-10 
-4 
4 
9 
5 
-2 
3 
-3 
8 
-5 
-2 
6 
-8 
-5 
2 
0 
5 
8 
9 
-1 
8 
0 
3 
2 
3 
6 
8 
3 
-1 

-1 
0 
-1 
-3 
-5 
-9 
5 
-5 
-4 
-8 
-7 
-7 
-8 
1 
-5 
-3 
-6 
6 
-7 
-8 
-3 
-6 
2 
-1 
-1 
6 
-7 
-5 
5 
-2 
-3 
6 
9 
-2 
-6 
6 
-9 
9 
-9 
-2 
-9 
6 
1 
6 
-10 
7 
-7 
6 
-5 
8 
0 
2 
-8 
-8 
-9 
1 
9 
-6 
-1 
-4 
-5 
-2 
-8 
-6 
-2 
8 
-10 
0 
7 
3 
8 
1 
-1 
-9 
-3 
-9 
0 
-8 
7 
5 
-9 
-3 
-3 
5 
0 
-9 
9 
-9 
7 
-2 
-3 
-8 
-2 
-1 
8 
6 
-2 
0 
-4 
7 
-7 
6 
-10 
-5 
8 
9 
-4 
-2 
-8 
-6 
-6 
5 
-7 
-7 
0 
3 
6 
-9 
-4 
-4 
-1 
3 
-2 
-1 
5 
-3 
-4 
5 
-1 
-6 
2 
3 
-9 
-5 
8 
1 
-6 
6 
9 
8 
2 
5 
3 
6 
1 
6 
-9 
9 
7 
-2 

-5 
9 
3 
4 
-2 
-2 
3 
-4 
-7 
-8 
1 
-2 
-3 
2 
3 
7 
5 
-1 
4 
4 
-2 
8 
-8 
3 
-4 
3 
-1 
-2 
2 
9 
-2 
0 
8 
3 
-6 
8 
-8 
-1 
-5 
-5 
-7 
6 
3 
1 
-10 
8 
-2 
5 
-2 
4 
-9 
6 
3 
-7 
-1 
1 
-2 
9 
1 
3 
8 
9 
-7 
-2 
3 
9 
-4 
-3 
-2 
1 
2 
-7 
9 
8 
4 
9 
6 
5 
-4 
-6 
-9 
-2 
-10 
-4 
-7 
-8 
8 
-6 
3 
-1 
-1 
-7 
-9 
2 
1 
-4 
-7 
7 
3 
-7 
-9 
7 
-4 
-10 
5 
3 
2 
2 
-2 
0 
-2 
-9 
0 
-9 
-2 
4 
-7 
-4 
0 
6 
5 
9 
9 
6 
-7 
-8 
4 
-4 
1 
-3 
-1 
2 
-5 
-3 
-5 
-10 
-10 
-1 
-6 
-10 
9 
-5 
-8 
-8 
-4 
-8 
-2 
-9 
-2 
8 

-1 
5 
-1 
-10 
-6 
2 
-8 
8 
0 
3 
8 
1 
8 
-7 
8 
5 
5 
1 
6 
2 
1 
-3 
7 
-5 
-1 
5 
-3 
7 
6 
-3 
-3 
-5 
5 
6 
-5 
9 
-10 
-3 
-1 
0 
2 
-3 
-9 
-8 
0 
-10 
-1 
8 
1 
-5 
0 
4 
3 
-3 
2 
4 
-8 
9 
-6 
0 
9 
1 
5 
4 
-10 
-10 
-5 
-10 
9 
4 
1 
-7 
-8 
-6 
-4 
-6 
-6 
-3 
-8 
-3 
3 
-6 
4 
8 
-7 
-4 
-6 
7 
7 
-2 
-3 
-2 
2 
-8 
-8 
2 
4 
9 
2 
-5 
4 
-7 
-1 
-2 
-2 
-3 
-6 
-6 
-4 
9 
-6 
1 
-7 
0 
-1 
-3 
-2 
-4 
-6 
7 
4 
-6 
-4 
8 
8 
-10 
0 
3 
-10 
-7 
0 
4 
8 
9 
4 
8 
8 
8 
5 
-5 
7 
9 
6 
-9 
-1 
8 
-10 
-1 
-6 
6 

-4 
0 
-10 
2 
-1 
9 
3 
1 
-6 
-5 
4 
4 
1 
3 
-4 
-5 
-7 
6 
-7 
8 
-9 
3 
7 
0 
-4 
8 
-10 
-4 
-3 
6 
-8 
-4 
-4 
5 
8 
-3 
4 
-7 
9 
0 
-2 
-5 
6 
1 
0 
-8 
6 
4 
1 
2 
2 
2 
-5 
-8 
4 
1 
2 
4 
-1 
-10 
0 
-7 
8 
-1 
8 
6 
-2 
-6 
2 
9 
4 
2 
-5 
-7 
-6 
5 
-5 
-10 
-9 
6 
-6 
4 
-9 
-9 
6 
-3 
-6 
-2 
-8 
3 
-10 
-6 
7 
0 
3 
-3 
-3 
-8 
2 
1 
-9 
8 
-7 
8 
-9 
9 
4 
9 
2 
5 
-3 
6 
-9 
-10 
8 
-1 
-2 
-8 
0 
0 
-2 
-8 
4 
7 
3 
-10 
-6 
2 
-8 
6 
-7 
5 
-3 
8 
4 
-2 
8 
-10 
9 
0 
-3 
-3 
8 
-1 
-3 
-2 
0 
5 
-7 
-10 

7 
1 
-7 
-6 
-10 
-2 
6 
-6 
-10 
8 
3 
5 
-5 
-10 
3 
9 
-10 
-7 
1 
-10 
-5 
9 
9 
-6 
-2 
-4 
-6 
8 
4 
-3 
1 
-7 
0 
4 
9 
0 
4 
5 
-3 
4 
-5 
-10 
-9 
1 
2 
4 
-8 
-6 
0 
4 
6 
-3 
3 
5 
1 
3 
4 
-2 
-7 
-2 
5 
4 
-7 
8 
-10 
-7 
-2 
4 
8 
5 
-10 
-6 
-3 
-9 
-3 
9 
-2 
-1 
6 
0 
5 
2 
7 
-10 
-2 
-9 
3 
4 
-1 
-1 
4 
6 
-7 
7 
4 
6 
-10 
-7 
0 
1 
0 
-7 
-3 
8 
6 
4 
-1 
-6 
5 
-5 
4 
-7 
8 
-6 
-7 
8 
-5 
-1 
2 
4 
8 
-4 
-8 
-9 
5 
7 
7 
-2 
2 
-10 
9 
-8 
5 
-4 
-10 
1 
2 
0 
-2 
9 
-3 
-8 
4 
-5 
8 
8 
5 
-7 
-3 
9 

-1 
-5 
-5 
2 
8 
3 
-1 
-2 
-9 
-9 
-10 
-10 
5 
5 
8 
6 
8 
-8 
8 
-4 
3 
7 
-9 
-2 
5 
9 
-4 
0 
-7 
-5 
0 
-6 
-8 
-3 
6 
2 
-10 
7 
-10 
3 
0 
2 
3 
-4 
9 
-7 
4 
8 
7 
-6 
-6 
1 
3 
7 
1 
-2 
7 
7 
9 
2 
4 
-9 
-2 
6 
-10 
7 
-10 
3 
4 
-9 
-4 
7 
-5 
2 
5 
-5 
-3 
-9 
5 
-5 
7 
1 
6 
0 
-1 
-3 
9 
8 
6 
0 
0 
-8 
1 
8 
0 
-7 
5 
0 
6 
-8 
-7 
5 
1 
-1 
-3 
8 
-4 
4 
9 
-9 
1 
6 
2 
9 
8 
3 
8 
7 
1 
4 
-3 
3 
-2 
0 
-6 
8 
-4 
1 
-1 
4 
-5 
2 
-1 
6 
3 
-2 
4 
9 
5 
-5 
2 
-4 
3 
7 
-4 
2 
0 
6 
-1 
4 

1 
-1 
-3 
1 
1 
-7 
0 
-1 
5 
1 
-6 
-10 
5 
-5 
-1 
-1 
4 
-7 
-10 
-9 
-9 
3 
9 
4 
0 
-5 
-4 
2 
-8 
-2 
-4 
-5 
-1 
-4 
-2 
-10 
-1 
8 
0 
-6 
-9 
-4 
7 
7 
1 
-4 
8 
7 
-9 
8 
8 
-8 
-7 
8 
-1 
-5 
5 
5 
8 
-1 
-7 
-6 
-4 
2 
0 
5 
-5 
2 
-5 
-3 
6 
-3 
3 
-5 
6 
-6 
-7 
-4 
-8 
-5 
-6 
2 
9 
-10 
0 
-2 
-5 
-4 
6 
5 
5 
9 
-10 
4 
-6 
-8 
-1 
-9 
4 
-4 
-2 
-7 
3 
3 
-2 
-9 
7 
2 
-3 
1 
-1 
-6 
6 
-10 
-6 
-4 
-9 
-9 
-6 
7 
7 
2 
-2 
-1 
-4 
-6 
-7 
-3 
-5 
8 
3 
3 
3 
9 
-4 
3 
-10 
6 
-5 
-2 
9 
-4 
2 
5 
9 
-2 
4 
-10 
-9 
0 

-1 
8 
-8 
7 
9 
-10 
4 
-7 
-3 
9 
3 
-9 
-5 
-4 
-10 
-7 
9 
2 
1 
7 
-10 
-7 
5 
-6 
0 
4 
2 
-6 
-4 
4 
5 
5 
-6 
-1 
-5 
6 
0 
9 
9 
7 
0 
-6 
0 
5 
-8 
-8 
1 
-9 
5 
-8 
0 
5 
-5 
8 
-10 
6 
-6 
-6 
2 
1 
0 
-3 
8 
-3 
-1 
5 
-7 
9 
4 
4 
-2 
7 
8 
9 
-6 
-10 
-9 
5 
3 
6 
0 
6 
-6 
5 
4 
6 
-7 
8 
-10 
6 
-9 
-7 
5 
-10 
0 
6 
5 
3 
5 
-8 
-3 
-6 
1 
7 
-7 
5 
-1 
6 
-7 
-8 
-5 
3 
0 
-1 
-10 
6 
-5 
6 
-3 
7 
-6 
-2 
-10 
9 
-10 
-8 
-2 
-2 
5 
-7 
0 
4 
-3 
3 
1 
-8 
-2 
2 
9 
1 
-3 
6 
6 
7 
-5 
7 
4 
-8 
3 
-9 

9 
7 
-9 
2 
-2 
-8 
4 
6 
0 
-8 
-10 
2 
6 
9 
-5 
-10 
4 
-5 
2 
-5 
-1 
9 
-9 
-5 
-1 
-4 
-8 
5 
-10 
-3 
-2 
9 
-6 
-1 
-7 
-5 
-7 
8 
-9 
3 
2 
3 
7 
-2 
-5 
4 
-10 
1 
-10 
-5 
6 
-1 
6 
7 
-4 
-5 
5 
-1 
-10 
-3 
-2 
-2 
8 
3 
0 
-8 
0 
3 
2 
-7 
-3 
-6 
7 
6 
-6 
4 
1 
7 
-5 
-7 
-8 
-9 
-6 
8 
0 
0 
-6 
7 
1 
6 
-6 
-10 
7 
-8 
3 
-3 
6 
5 
-10 
-2 
8 
-3 
-6 
5 
6 
-9 
-9 
-3 
8 
-4 
-8 
-10 
9 
-4 
8 
-9 
6 
4 
0 
-2 
-7 
-4 
-2 
-10 
-9 
3 
-3 
7 
-2 
-3 
8 
8 
-3 
4 
-4 
-7 
5 
-3 
-8 
3 
-4 
-6 
3 
7 
-8 
-6 
9 
0 
0 
-9 

0 
3 
-10 
8 
3 
-9 
-7 
-10 
0 
-7 
-2 
-10 
-8 
-3 
5 
-2 
0 
-8 
-3 
-6 
6 
3 
-2 
-9 
1 
-8 
7 
-8 
2 
-2 
-7 
-7 
-9 
-7 
3 
-3 
6 
-1 
9 
9 
-6 
9 
9 
-4 
-4 
-4 
-4 
6 
-1 
-4 
-10 
-5 
9 
-10 
8 
-8 
-8 
6 
-6 
-3 
-6 
-10 
0 
7 
5 
-7 
6 
-6 
-6 
6 
-7 
-1 
5 
-8 
-3 
-8 
-1 
4 
0 
8 
2 
1 
5 
1 
-7 
3 
-4 
-4 
-1 
0 
3 
-5 
-8 
5 
5 
0 
0 
1 
4 
5 
-3 
7 
-6 
5 
1 
1 
7 
-10 
7 
-3 
0 
-1 
0 
7 
3 
4 
1 
9 
2 
2 
-9 
7 
8 
6 
2 
3 
-4 
-8 
6 
-10 
-1 
6 
-1 
3 
1 
-10 
7 
-10 
3 
4 
9 
5 
6 
-8 
3 
-1 
6 
6 
-2 
-10 

-2 
-9 
7 
8 
7 
-9 
-7 
-7 
-7 
-10 
5 
-5 
-2 
6 
8 
9 
-1 
-3 
1 
4 
-8 
-8 
-1 
0 
-6 
4 
9 
2 
0 
9 
2 
1 
-10 
-9 
-1 
8 
-8 
3 
3 
8 
-5 
-1 
-7 
3 
7 
3 
-6 
-4 
-9 
-3 
-10 
5 
-1 
-8 
-5 
-4 
6 
6 
8 
9 
5 
-7 
0 
-3 
-6 
1 
-5 
9 
-6 
1 
7 
-9 
2 
2 
-4 
-1 
7 
0 
6 
8 
-1 
-2 
-5 
9 
0 
-8 
7 
9 
8 
-3 
0 
-5 
0 
-10 
3 
-3 
1 
0 
8 
-2 
-9 
5 
-9 
3 
9 
-2 
5 
6 
8 
1 
-3 
-2 
1 
2 
9 
4 
-3 
-2 
-5 
-5 
5 
5 
-7 
-4 
-3 
6 
-5 
0 
8 
-7 
8 
-10 
0 
-10 
-5 
-1 
-2 
-10 
7 
8 
-7 
-6 
8 
5 
-1 
-1 
-9 
6 
7 
-4 

3 
3 
-9 
6 
1 
-10 
-6 
-2 
0 
5 
1 
-9 
-3 
3 
-9 
2 
4 
-9 
-5 
1 
1 
-10 
6 
-8 
-3 
7 
1 
-2 
3 
-9 
-4 
8 
-4 
-3 
-3 
7 
9 
-7 
7 
0 
8 
-2 
1 
-5 
3 
-6 
0 
-3 
-5 
-3 
8 
-2 
-3 
-4 
0 
-3 
-7 
-8 
5 
-2 
5 
-8 
9 
-9 
-9 
-4 
8 
-9 
-9 
-3 
-7 
-10 
-3 
4 
7 
-10 
8 
9 
-3 
5 
-4 
7 
-7 
-4 
6 
4 
3 
1 
-2 
-10 
2 
-7 
4 
1 
6 
-2 
-1 
-4 
-9 
0 
3 
-6 
-8 
-10 
8 
2 
-10 
-2 
1 
9 
-7 
0 
6 
8 
-2 
-6 
-6 
-9 
6 
2 
3 
-2 
-3 
-2 
9 
5 
6 
-10 
-9 
7 
0 
4 
3 
-5 
4 
1 
7 
-4 
1 
-2 
-5 
4 
0 
4 
2 
8 
8 
-1 
1 
-4 

3 
-5 
4 
3 
-5 
-5 
-2 
-9 
-5 
0 
0 
-2 
6 
-7 
3 
1 
-4 
-8 
-1 
-1 
-8 
5 
-7 
3 
-9 
-3 
-7 
1 
6 
5 
8 
-8 
-10 
2 
5 
-5 
0 
-7 
8 
5 
3 
-10 
5 
-8 
5 
-10 
-5 
3 
-8 
4 
-8 
-5 
-9 
7 
0 
-8 
-6 
3 
-4 
3 
-10 
-6 
5 
-10 
6 
0 
7 
8 
-5 
-3 
4 
1 
9 
-9 
3 
4 
-8 
8 
9 
-6 
2 
-9 
-9 
-4 
8 
-7 
-2 
5 
7 
-4 
-10 
7 
0 
-3 
0 
9 
-1 
9 
7 
4 
9 
-7 
-5 
8 
-5 
0 
-5 
-3 
-2 
-6 
-7 
3 
-4 
7 
9 
6 
-10 
9 
-7 
-1 
-4 
5 
9 
6 
-8 
-9 
-3 
1 
-10 
-5 
8 
9 
-2 
5 
0 
-5 
-4 
5 
-6 
-4 
9 
-10 
9 
7 
7 
0 
-4 
-1 
-8 
-9 

9 
-2 
7 
0 
6 
9 
1 
6 
-7 
1 
-9 
-9 
-7 
-9 
6 
-5 
-3 
-8 
-10 
-7 
-9 
1 
-7 
-10 
-9 
2 
-7 
9 
-8 
-5 
-10 
3 
-5 
7 
-7 
3 
7 
4 
-1 
2 
7 
0 
3 
2 
-6 
-9 
7 
-7 
6 
7 
-4 
7 
-9 
0 
-1 
-8 
4 
2 
-9 
6 
7 
3 
-1 
4 
1 
2 
-2 
-10 
8 
7 
2 
6 
-2 
7 
-2 
2 
8 
-4 
-3 
4 
5 
3 
1 
-2 
5 
3 
0 
0 
-5 
-7 
-4 
5 
-1 
-2 
-1 
-10 
2 
7 
2 
-7 
-3 
6 
9 
5 
3 
9 
9 
-7 
7 
-4 
8 
3 
1 
-9 
3 
-3 
-4 
6 
-1 
2 
9 
-3 
9 
-10 
5 
-2 
-10 
-10 
8 
-6 
-7 
-5 
-10 
4 
2 
-5 
3 
-7 
-1 
1 
-9 
9 
6 
2 
2 
-1 
1 
9 
-5 
-10 

1 
7 
-2 
-8 
7 
5 
0 
0 
5 
-10 
-4 
0 
-5 
-3 
-6 
-1 
-6 
8 
2 
3 
-9 
3 
-6 
-1 
8 
7 
0 
-1 
6 
6 
-8 
9 
-5 
-8 
-9 
4 
7 
-7 
6 
-5 
-6 
-7 
5 
-9 
0 
2 
-7 
-4 
0 
5 
-10 
-7 
-9 
-6 
2 
9 
3 
-8 
-10 
-9 
0 
4 
-10 
-3 
6 
3 
-8 
4 
-1 
8 
1 
-5 
-9 
8 
-4 
-7 
0 
-1 
0 
2 
7 
-8 
5 
8 
8 
9 
-1 
2 
4 
-9 
-5 
-6 
6 
-4 
-6 
2 
1 
-4 
8 
-10 
6 
-1 
7 
0 
-10 
-6 
-5 
0 
-5 
-3 
-7 
4 
-1 
0 
-6 
-10 
0 
3 
2 
6 
-3 
7 
2 
-7 
5 
6 
-3 
9 
4 
8 
1 
1 
9 
-1 
3 
9 
-5 
8 
0 
-8 
-4 
-5 
7 
-3 
5 
-9 
-3 
7 
-3 
1 

3 
-4 
-9 
-4 
-9 
-2 
4 
-2 
-3 
-1 
8 
1 
-10 
8 
-10 
-5 
7 
7 
-7 
9 
9 
-1 
6 
6 
-1 
-6 
0 
6 
3 
-1 
-2 
-3 
5 
-1 
-5 
6 
7 
9 
6 
-5 
-2 
5 
-2 
-10 
3 
-2 
-5 
-8 
-5 
-9 
4 
6 
-8 
0 
3 
1 
-4 
5 
-2 
-10 
-6 
6 
9 
9 
7 
-6 
5 
4 
5 
1 
1 
-6 
8 
9 
6 
1 
9 
4 
-4 
-6 
5 
-10 
3 
7 
-8 
8 
-9 
-9 
3 
-1 
-9 
7 
7 
-10 
-2 
4 
-6 
-7 
-2 
1 
-4 
2 
5 
-5 
1 
-6 
-2 
1 
8 
4 
-3 
-5 
-4 
-10 
4 
-9 
8 
5 
-8 
1 
6 
-7 
-10 
3 
5 
-2 
9 
1 
-7 
-2 
-8 
-8 
2 
0 
-3 
-7 
4 
-3 
4 
-6 
4 
4 
-1 
-10 
4 
-7 
3 
-5 
1 
5 

-2 
-3 
0 
-1 
-9 
-5 
-1 
-10 
6 
3 
-10 
1 
-3 
2 
-9 
-4 
-2 
5 
3 
4 
1 
-3 
-2 
-10 
-10 
5 
5 
3 
-10 
-4 
-9 
-10 
4 
1 
-1 
-3 
-1 
1 
9 
7 
6 
2 
-2 
-7 
6 
-1 
-1 
-6 
6 
4 
1 
-3 
4 
9 
9 
4 
4 
5 
9 
-4 
3 
2 
-3 
9 
-6 
-2 
-4 
-5 
1 
8 
-8 
-3 
0 
1 
-8 
8 
2 
-7 
5 
-1 
8 
-4 
6 
2 
7 
-2 
8 
-6 
-7 
-1 
0 
6 
-8 
-1 
-2 
8 
0 
4 
-7 
3 
-6 
7 
-9 
-4 
-2 
-7 
-5 
3 
9 
-10 
-8 
7 
8 
0 
-9 
5 
8 
1 
9 
3 
-10 
-8 
-8 
-8 
-7 
0 
2 
3 
-6 
5 
-3 
-1 
-5 
-10 
-3 
-5 
5 
2 
8 
4 
-6 
-10 
-7 
-8 
-7 
-6 
0 
-9 
5 
-9 

5 
6 
-7 
7 
0 
-3 
-3 
-7 
2 
-7 
0 
1 
-6 
5 
-7 
2 
3 
9 
6 
1 
-5 
3 
-6 
-1 
-3 
-3 
-5 
7 
-2 
-9 
9 
5 
-1 
4 
-6 
1 
-9 
-7 
4 
-4 
9 
7 
-1 
-7 
-6 
3 
-3 
7 
-6 
6 
-9 
-9 
-1 
-5 
0 
6 
2 
6 
-4 
2 
-1 
-5 
-2 
8 
9 
-6 
-1 
3 
-2 
6 
1 
-3 
-5 
-10 
-8 
-9 
-5 
-8 
9 
-1 
8 
-10 
1 
9 
7 
3 
5 
-1 
-9 
-9 
-9 
-8 
8 
-9 
2 
0 
8 
4 
5 
-4 
-8 
-4 
-5 
-3 
8 
9 
-2 
-6 
-9 
9 
3 
1 
1 
6 
0 
-2 
-8 
8 
-1 
5 
1 
-7 
8 
-8 
6 
0 
2 
4 
-6 
9 
2 
-4 
-5 
-1 
-5 
-7 
-1 
-4 
-3 
-8 
7 
3 
4 
-1 
-9 
6 
-1 
5 
-4 
1 

1 
0 
-4 
-9 
2 
-8 
-7 
6 
-1 
-10 
5 
-9 
8 
2 
1 
-6 
5 
2 
-8 
5 
4 
9 
-10 
-10 
-10 
3 
-1 
-8 
-1 
-3 
3 
2 
7 
9 
3 
-1 
3 
-2 
7 
-8 
-2 
2 
-6 
-3 
-6 
-3 
-7 
2 
9 
-5 
9 
-5 
-6 
9 
-4 
-5 
2 
-3 
9 
3 
4 
2 
7 
2 
-7 
-8 
3 
6 
1 
1 
1 
9 
5 
5 
8 
2 
4 
-9 
6 
-5 
-4 
5 
0 
-7 
-4 
-2 
-10 
0 
5 
9 
6 
0 
-7 
3 
4 
8 
6 
-3 
4 
-3 
0 
-5 
8 
8 
2 
7 
0 
8 
8 
8 
-7 
7 
3 
4 
-10 
1 
-8 
-10 
3 
8 
1 
-1 
-10 
4 
-7 
4 
-6 
9 
-9 
8 
8 
-6 
6 
6 
-8 
-10 
-5 
2 
9 
-6 
-8 
4 
3 
-3 
-2 
-5 
8 
1 
-5 
1 

-9 
-2 
3 
-9 
4 
6 
5 
8 
-3 
-2 
-2 
7 
2 
6 
-5 
4 
-1 
1 
8 
-10 
-3 
-10 
4 
-10 
-3 
-7 
-5 
7 
-4 
-8 
-9 
9 
-8 
4 
-10 
6 
-8 
-3 
4 
-9 
-3 
4 
8 
-10 
1 
-7 
-4 
-10 
-4 
-5 
-10 
3 
7 
-4 
-5 
7 
-1 
-8 
4 
-3 
6 
5 
8 
8 
-1 
8 
-4 
-7 
7 
-10 
-6 
-5 
-3 
-8 
7 
8 
8 
-7 
0 
-6 
-10 
-8 
0 
0 
-2 
-3 
-3 
0 
0 
-9 
-1 
8 
-1 
-2 
7 
0 
8 
-7 
4 
-2 
6 
8 
-5 
-7 
3 
-8 
3 
1 
7 
5 
-3 
0 
-1 
-1 
-10 
7 
7 
-3 
9 
9 
-10 
-9 
7 
-1 
-1 
-4 
-10 
9 
0 
-4 
-3 
8 
-6 
2 
-9 
7 
-4 
-4 
-10 
-6 
-9 
-10 
-4 
-8 
-1 
-4 
9 
8 
-5 
1 

7 
7 
-6 
-3 
-3 
3 
3 
9 
-6 
5 
-5 
2 
3 
-9 
6 
-4 
9 
-7 
-6 
1 
9 
7 
1 
7 
9 
3 
-7 
1 
1 
-10 
-8 
-9 
7 
-4 
-10 
6 
1 
-5 
5 
5 
-9 
2 
9 
-4 
4 
-2 
3 
-5 
-7 
7 
6 
-8 
5 
-10 
9 
-4 
3 
4 
7 
6 
4 
1 
-1 
-7 
7 
-1 
-10 
-10 
5 
5 
-2 
-2 
-2 
9 
4 
4 
-3 
9 
9 
0 
7 
5 
-6 
-6 
-3 
5 
-8 
2 
-1 
-10 
-9 
5 
1 
0 
1 
-9 
2 
1 
-9 
9 
8 
-9 
-3 
8 
-9 
3 
2 
-2 
3 
1 
1 
-8 
9 
5 
8 
-4 
1 
-10 
1 
2 
-10 
2 
-10 
2 
-8 
1 
-5 
-4 
-8 
8 
-5 
2 
-10 
-6 
1 
-9 
8 
5 
-9 
1 
-3 
-6 
3 
8 
-10 
1 
6 
-7 
-7 
-3 

-3 
-6 
9 
-3 
-2 
4 
8 
3 
-10 
2 
1 
8 
7 
-7 
-8 
-2 
-6 
-10 
5 
8 
-7 
4 
-8 
-2 
2 
4 
1 
-9 
-1 
5 
-2 
7 
1 
-10 
-6 
9 
-4 
5 
-6 
8 
9 
-3 
6 
6 
1 
1 
6 
-3 
-7 
2 
-5 
-3 
8 
-10 
-3 
1 
-4 
9 
2 
6 
-4 
2 
3 
7 
-6 
7 
-2 
-8 
-6 
2 
-9 
6 
1 
-1 
2 
-8 
2 
-9 
0 
6 
-5 
-3 
5 
-7 
9 
-8 
-4 
-4 
3 
8 
-8 
9 
-7 
5 
6 
9 
-6 
-6 
-8 
-1 
-2 
5 
7 
-10 
6 
-1 
4 
-1 
-8 
-6 
7 
-3 
-6 
2 
1 
-7 
4 
7 
-1 
-10 
-2 
1 
9 
-7 
8 
-2 
-8 
-7 
-6 
6 
-6 
3 
-7 
-9 
-5 
-10 
-8 
9 
-9 
-5 
6 
8 
-6 
2 
0 
5 
5 
6 
-5 
7 

6 
-5 
-10 
-2 
-2 
9 
6 
-8 
4 
-10 
1 
0 
-5 
4 
-7 
0 
-4 
-5 
-8 
9 
-8 
0 
7 
-3 
-8 
9 
4 
-1 
-2 
9 
8 
6 
6 
9 
-6 
6 
0 
2 
9 
6 
3 
-8 
-4 
8 
-2 
-1 
-9 
-3 
-4 
5 
-4 
-1 
7 
6 
6 
1 
-3 
-8 
-10 
5 
4 
1 
-6 
0 
-8 
-2 
-3 
2 
-9 
8 
-10 
-4 
-10 
-4 
6 
-10 
-3 
-1 
-3 
3 
-6 
4 
-8 
-9 
0 
0 
2 
7 
3 
-5 
-5 
9 
-2 
-1 
-1 
0 
-1 
-2 
-8 
0 
-4 
-8 
-2 
8 
-10 
-5 
9 
-3 
4 
-4 
2 
1 
2 
-3 
-6 
-8 
-1 
-1 
2 
4 
4 
7 
3 
-8 
8 
-7 
-6 
-3 
1 
-4 
0 
0 
-10 
8 
-10 
2 
-7 
9 
1 
0 
8 
-7 
-9 
0 
-8 
-5 
-5 
2 
4 
7 

-4 
-10 
-4 
-10 
4 
-6 
5 
8 
-7 
-4 
6 
3 
-2 
-2 
2 
-1 
-10 
-3 
-10 
-7 
7 
8 
9 
8 
-9 
-9 
6 
8 
3 
-8 
5 
2 
-7 
3 
2 
-1 
-1 
-3 
-2 
2 
-5 
6 
-4 
4 
-5 
0 
5 
7 
-1 
5 
-9 
-3 
-4 
2 
7 
9 
3 
-5 
7 
9 
-2 
-6 
1 
1 
7 
-7 
-10 
8 
-8 
-10 
0 
-3 
7 
-2 
3 
4 
0 
-2 
1 
-10 
6 
-6 
9 
4 
6 
6 
3 
-8 
-8 
-8 
-9 
-8 
-4 
-6 
3 
5 
-3 
-5 
3 
-9 
8 
5 
-10 
5 
6 
4 
-1 
-4 
4 
2 
-4 
-8 
-1 
-5 
6 
7 
4 
-9 
9 
-2 
5 
2 
0 
-9 
6 
5 
6 
5 
-10 
-9 
6 
8 
7 
7 
-5 
3 
-7 
-4 
1 
-1 
1 
0 
2 
-10 
5 
-10 
7 
-9 
4 
-1 

-1 
-1 
-9 
1 
-7 
0 
-4 
1 
-5 
9 
3 
-8 
-1 
-8 
1 
5 
-3 
-4 
3 
8 
5 
-6 
-10 
9 
6 
-2 
2 
-4 
-1 
-4 
-3 
1 
-3 
-10 
-8 
0 
0 
-1 
-8 
6 
-10 
-3 
0 
-1 
-9 
-9 
6 
-2 
-3 
0 
8 
-8 
-4 
9 
4 
5 
-3 
-4 
3 
-2 
-6 
-10 
9 
1 
-10 
4 
4 
1 
5 
-2 
9 
5 
-3 
-1 
-6 
-2 
-8 
3 
-2 
-1 
5 
8 
-7 
-9 
-1 
7 
-2 
-2 
5 
-9 
7 
9 
3 
-2 
1 
-4 
-8 
7 
-1 
-1 
-5 
-2 
-6 
2 
7 
-9 
2 
9 
4 
-10 
-10 
-1 
8 
5 
-8 
-2 
-5 
-7 
-2 
-10 
6 
-5 
-10 
0 
-4 
-7 
-2 
-10 
-10 
7 
0 
7 
-5 
-4 
-9 
4 
-3 
3 
-5 
3 
3 
7 
4 
-7 
2 
-1 
-7 
7 
2 
2 

0 
-10 
7 
0 
-8 
5 
-5 
0 
6 
7 
-3 
-4 
4 
-6 
-6 
5 
0 
2 
-2 
-3 
7 
3 
-6 
-6 
6 
-1 
3 
-10 
8 
7 
2 
-2 
7 
-9 
0 
-10 
7 
5 
-8 
3 
2 
-8 
1 
8 
-4 
5 
3 
-1 
9 
3 
-2 
-1 
-4 
-5 
3 
-7 
4 
-4 
5 
-6 
5 
-3 
3 
-6 
-2 
5 
-6 
7 
-7 
9 
0 
-3 
-9 
3 
-4 
9 
-1 
1 
-2 
-10 
-5 
-1 
-1 
1 
4 
-8 
-4 
-2 
-10 
-9 
-6 
-3 
-2 
7 
2 
-1 
-5 
-2 
-4 
-2 
-3 
-1 
5 
-2 
-8 
-9 
-2 
-7 
3 
-2 
-6 
0 
-1 
-5 
3 
-7 
-10 
-10 
-7 
-10 
3 
-2 
-10 
4 
7 
2 
5 
-8 
-10 
-9 
-8 
-2 
-8 
8 
-2 
7 
1 
-2 
-10 
6 
-1 
6 
-4 
8 
4 
-10 
-8 
4 
2 
-5 

-4 
7 
-5 
-4 
1 
-7 
8 
-4 
7 
9 
-10 
-10 
9 
-8 
8 
9 
9 
-9 
-2 
2 
8 
-1 
-10 
-6 
-3 
4 
6 
-9 
-2 
-10 
9 
5 
8 
-6 
-9 
-1 
9 
2 
-2 
7 
-7 
-2 
-1 
4 
-8 
9 
3 
4 
-10 
3 
-4 
8 
-8 
-4 
5 
-8 
-9 
-7 
-7 
-9 
-6 
4 
6 
-8 
9 
0 
-7 
0 
4 
-7 
-3 
7 
-7 
6 
-7 
-4 
5 
6 
-10 
-2 
-8 
8 
-4 
-6 
6 
-9 
8 
-1 
7 
-8 
1 
-9 
-2 
9 
-7 
-3 
-9 
8 
8 
5 
-8 
7 
-6 
-5 
-4 
-3 
-7 
3 
6 
5 
-9 
8 
3 
-2 
4 
-8 
-9 
3 
1 
8 
-3 
4 
1 
5 
4 
-4 
5 
5 
-5 
-5 
-7 
9 
-8 
9 
6 
-10 
-3 
-10 
4 
5 
5 
5 
3 
-9 
5 
9 
-7 
-1 
2 
-4 

9 
1 
-9 
1 
9 
-3 
-1 
4 
4 
-4 
9 
7 
-5 
3 
7 
-8 
4 
6 
-8 
-2 
-7 
-1 
5 
-2 
-8 
-7 
-3 
7 
-6 
2 
-6 
-7 
5 
7 
-4 
4 
-6 
-2 
-2 
8 
4 
9 
-2 
-10 
3 
7 
-8 
9 
-5 
6 
-3 
-2 
7 
4 
6 
-10 
7 
-7 
7 
-9 
-3 
3 
7 
-7 
0 
5 
7 
4 
-7 
8 
-5 
8 
7 
3 
8 
-8 
0 
2 
-9 
5 
-10 
-10 
5 
7 
5 
1 
-1 
-6 
-4 
-3 
8 
4 
2 
5 
-1 
-7 
-8 
8 
-1 
-4 
6 
4 
6 
-4 
9 
-4 
-2 
-1 
0 
-8 
6 
0 
-8 
1 
9 
-1 
4 
-1 
4 
3 
-2 
-6 
9 
-10 
1 
-2 
5 
3 
-4 
-5 
1 
5 
1 
-3 
3 
1 
3 
-9 
2 
5 
5 
-9 
-5 
8 
-6 
7 
9 
9 
8 
-5 

2 
-4 
-1 
1 
8 
-10 
1 
-4 
4 
-1 
1 
7 
-6 
-8 
7 
-1 
-5 
-8 
-7 
8 
8 
8 
1 
-7 
-2 
5 
2 
-2 
-4 
0 
3 
0 
-2 
-7 
3 
-3 
5 
-6 
3 
-9 
-4 
6 
9 
-8 
0 
6 
2 
6 
8 
5 
-4 
6 
3 
7 
2 
-8 
-6 
-6 
-8 
1 
-3 
-3 
-9 
5 
-8 
5 
4 
8 
1 
9 
9 
7 
5 
0 
-10 
8 
8 
2 
-4 
7 
9 
2 
-5 
2 
-9 
-1 
-4 
-5 
-4 
-10 
6 
-5 
-2 
0 
-10 
0 
-5 
5 
-10 
-2 
-4 
-10 
-4 
4 
-8 
8 
2 
-9 
-8 
8 
0 
-9 
-8 
-3 
-5 
-7 
-1 
2 
-2 
5 
-6 
7 
2 
2 
-3 
2 
5 
-6 
9 
5 
2 
-4 
-3 
8 
2 
0 
-2 
-6 
-7 
0 
4 
3 
1 
6 
-10 
7 
1 
-9 
-9 
9 

-2 
7 
-2 
-10 
0 
5 
3 
7 
9 
-6 
2 
-6 
-8 
2 
-8 
4 
4 
1 
0 
7 
3 
-6 
0 
-5 
2 
-8 
4 
-7 
-6 
-3 
5 
2 
-6 
-7 
-5 
-4 
1 
8 
5 
-8 
-8 
-10 
-4 
-5 
2 
-9 
1 
-4 
-6 
-8 
-7 
7 
-4 
-5 
4 
9 
9 
-10 
4 
-7 
-3 
-1 
-2 
-6 
-5 
3 
-8 
-2 
-7 
8 
0 
7 
0 
-1 
4 
-8 
0 
-4 
-2 
-4 
-2 
-7 
-7 
-4 
-2 
8 
7 
9 
0 
2 
-7 
0 
3 
-7 
4 
0 
-2 
-2 
8 
-7 
8 
-1 
-10 
-2 
0 
5 
-8 
-10 
3 
-8 
-4 
3 
-5 
-9 
9 
-5 
1 
7 
-5 
-8 
-9 
-10 
2 
-4 
5 
8 
7 
-7 
8 
5 
-4 
7 
6 
8 
7 
-4 
3 
-10 
8 
8 
-8 
6 
1 
-10 
8 
1 
7 
-9 
-10 
-8 

-7 
3 
4 
-3 
9 
-1 
-5 
6 
-6 
6 
-6 
-8 
3 
2 
-9 
-8 
9 
-4 
4 
-1 
-5 
-1 
-4 
-2 
-1 
6 
9 
8 
-1 
1 
-9 
-5 
-6 
-3 
2 
6 
7 
0 
-6 
3 
-4 
-2 
6 
1 
3 
-1 
3 
2 
-3 
-10 
3 
2 
-1 
1 
3 
0 
9 
2 
-2 
-1 
6 
-9 
4 
2 
-9 
-4 
-2 
0 
6 
-5 
-7 
4 
-5 
1 
-5 
8 
-10 
1 
-8 
-10 
1 
6 
-6 
2 
-3 
7 
-8 
-3 
-8 
-8 
-2 
8 
6 
-8 
-8 
7 
-10 
-7 
-3 
-1 
-2 
-8 
-7 
3 
4 
-1 
-6 
-4 
-10 
-4 
-4 
1 
-8 
1 
5 
-8 
-10 
-1 
-9 
-8 
1 
-1 
-10 
9 
-7 
-7 
-2 
-7 
-4 
-3 
2 
-4 
0 
6 
9 
6 
7 
5 
4 
7 
-8 
-9 
-10 
6 
-6 
5 
8 
6 
6 
1 

9 
-3 
2 
1 
9 
5 
-4 
-3 
9 
-6 
5 
-7 
0 
7 
1 
-8 
3 
-2 
7 
-3 
7 
9 
-10 
-1 
-2 
6 
6 
-4 
3 
2 
0 
2 
2 
-8 
5 
1 
8 
-8 
0 
-1 
-4 
7 
-6 
7 
4 
6 
9 
9 
6 
-2 
-3 
4 
-2 
9 
-7 
6 
6 
-10 
4 
-9 
-6 
6 
-5 
6 
9 
-10 
9 
-1 
-8 
-8 
0 
-1 
9 
4 
8 
-4 
0 
7 
-5 
-3 
7 
-6 
3 
7 
-6 
-2 
-5 
2 
-10 
-10 
3 
-5 
-2 
8 
-9 
9 
8 
3 
-2 
3 
5 
0 
-8 
4 
-5 
-10 
2 
-3 
-1 
8 
-4 
-4 
-8 
1 
6 
8 
-10 
-9 
0 
-10 
3 
-7 
-5 
-8 
3 
9 
-9 
-6 
2 
-8 
7 
9 
2 
1 
3 
-1 
1 
-4 
7 
2 
6 
5 
0 
0 
-3 
-4 
-1 
-3 
-10 
1 

8.14656 
3.14453 
4.22775 
-3.02683 
6.08271 
-9.16105 
5.05973 
-1.40764 
-5.3908 
-8.77352 
2.44688 
-8.17456 
7.5532 
4.59418 
-7.05115 
-7.12707 
-4.8054 
4.14419 
-8.05405 
4.567 
9.48412 
7.71611 
-1.18849 
-6.54006 
-9.18409 
6.1034 
-8.84886 
0.84083 
3.73265 
-11.0082 
-10.6145 
4.52664 
3.6006 
-1.66379 
3.24157 
-9.23736 
-1.64284 
-9.9541 
0.982053 
-5.59725 
-8.10054 
2.00413 
9.4539 
8.41219 
-0.992827 
-6.72385 
-5.71574 
5.00407 
2.12565 
6.90971 
-1.18468 
-9.2267 
4.06954 
6.94765 
-6.77566 
6.89511 
-3.78601 
-5.40608 
8.3592 
3.36703 
6.13527 
2.67791 
-10.225 
1.23875 
-9.10949 
-6.78153 
-6.13447 
-7.66069 
-7.53388 
4.40547 
-2.78873 
-4.26875 
0.807318 
9.39915 
3.77497 
8.30408 
-6.61241 
0.0981468 
-7.60107 
2.46936 
-0.190454 
3.1744 
5.44274 
5.58979 
-9.71418 
3.49956 
-1.81462 
9.9258 
-0.825848 
-3.93629 
2.11502 
-3.98663 
8.43871 
-4.0723 
0.335107 
3.78627 
-0.29849 
5.04864 
-3.30771 
4.57171 
1.35699 
-2.57601 
-0.548399 
1.43281 
-3.63172 
-4.11177 
-5.69038 
-9.86744 
7.99612 
-3.19737 
3.43382 
-3.04265 
8.32717 
-8.41546 
-5.50652 
3.13531 
6.5708 
0.628573 
1.904 
-6.84269 
-1.05271 
5.49017 
-6.3725 
-9.30337 
-9.14735 
3.39629 
-3.75483 
1.10644 
-0.130282 
3.07922 
6.92422 
1.02825 
2.39236 
-0.919624 
6.14074 
11.2679 
3.89607 
8.13283 
-10.8184 
2.69025 
6.36591 
-2.71369 
0.157149 
-5.41323 
-7.50036 
-3.62823 
9.58898 
6.63037 
-0.761242 
-0.856143 

-2.2913 
-9.10391 
-9.78794 
18.2337 
9.71282 
13.2015 
-13.8297 
6.47266 
3.77703 
9.60415 
2.97068 
3.1177 
-2.97017 
4.48393 
0.482871 
-3.98785 
0.206509 
-11.306 
-7.3351 
2.51543 
2.00157 
-11.7601 
-3.16861 
0.0516557 
-5.14138 
0.641069 
-2.86295 
-0.786856 
0.142428 
-5.25062 
-15.01 
-1.93483 
-9.47629 
-5.91551 
-2.30225 
4.5284 
-12.9856 
4.28459 
11.0887 
-10.7029 
7.77664 
-5.17436 
-4.18582 
1.35559 
-0.95553 
3.71214 
-2.0376 
14.2252 
12.9791 
-1.7598 
14.055 
-11.6056 
-6.96883 
-2.32455 
4.1909 
3.34969 
1.32671 
6.4823 
-3.97294 
0.275577 
-13.3613 
-3.99697 
0.604977 
-3.51975 
-0.678854 
-10.8455 
-16.0337 
-4.89631 
-1.51005 
-5.68611 
-8.8901 
17.7338 
1.20537 
1.47471 
-13.5952 
0.885266 
11.6031 
-11.5915 
-0.92666 
-3.28997 
14.0192 
15.2813 
-5.45503 
-11.7433 
3.57209 
18.2973 
-1.65067 
3.73995 
9.07974 
-6.60497 
-6.48689 
-3.11711 
-2.48001 
8.75175 
10.0777 
8.87488 
-2.85064 
2.30156 
5.09219 
0.544591 
-7.78665 
-3.37129 
-3.60008 
-1.51656 
-2.71668 
-10.693 
17.3197 
3.62189 
12.176 
6.9763 
-12.5103 
11.9356 
-4.97154 
-3.57585 
8.0596 
16.2389 
7.73894 
-4.30285 
-2.39522 
2.77535 
0.673226 
-10.1609 
4.89047 
3.11909 
-2.91359 
-11.743 
0.520072 
7.65994 
9.39225 
-3.50881 
-0.669818 
-10.0248 
-11.7673 
3.49833 
9.8726 
4.06124 
-3.84439 
2.82352 
-4.07398 
-9.92045 
9.26866 
3.77509 
2.77432 
-18.762 
12.2977 
-0.895012 
12.8517 
6.90832 
-1.7197 
-2.10808 

1 
-6 
-8 
5 
9 
0 
7 
-2 
9 
-7 
-3 
6 
-1 
-1 
-9 
-2 
-9 
-4 
3 
2 
-2 
0 
-6 
8 
-8 
7 
1 
-3 
-8 
6 
-3 
4 
-9 
-1 
-9 
2 
2 
0 
3 
-7 
3 
-10 
9 
-8 
-9 
2 
1 
-7 
9 
-6 
-3 
-3 
-4 
2 
-4 
-2 
-9 
-1 
-3 
6 
-4 
4 
0 
9 
6 
-7 
1 
-2 
3 
6 
1 
-4 
6 
-7 
-10 
0 
5 
1 
-5 
-4 
-3 
2 
4 
-5 
6 
-10 
3 
0 
-9 
-9 
-4 
-3 
-3 
-2 
8 
-7 
-7 
-8 
-7 
6 
8 
-3 
4 
-3 
0 
4 
7 
7 
8 
4 
-6 
7 
8 
0 
-7 
-3 
-8 
-2 
-1 
-7 
-9 
5 
-7 
-1 
5 
3 
2 
8 
5 
6 
-4 
4 
-7 
2 
-9 
-5 
8 
0 
4 
6 
-6 
0 
-4 
-8 
-10 
-1 
-1 
4 
7 
8 

-10.0486 
5.25565 
-10.3264 
13.164 
-2.96124 
6.84331 
4.83579 
-6.06522 
-4.28197 
5.32634 
5.81049 
-1.37502 
-12.9234 
-10.1779 
-8.63516 
-7.02905 
-4.4757 
-2.03433 
8.59958 
19.9701 
15.1774 
3.42037 
-4.49228 
0.482459 
3.15187 
-11.7139 
9.78978 
9.40586 
-8.92174 
0.158877 
-5.45585 
4.82222 
-1.649 
-5.9681 
-0.649054 
8.56028 
8.30903 
-8.92787 
-0.939995 
-3.5977 
16.115 
0.436015 
5.6447 
3.07334 
-12.0338 
0.1438 
11.1133 
-2.69381 
16.381 
-5.38617 
12.1354 
-10.2241 
-16.5013 
-12.3021 
2.61261 
7.90113 
7.54837 
-9.48598 
-11.1551 
4.21095 
-1.70234 
-0.22553 
2.92599 
9.91774 
2.74949 
2.76032 
-2.58164 
-5.17693 
-10.437 
0.197638 
1.96307 
15.0846 
6.65088 
7.3901 
-2.85589 
-3.08844 
7.99347 
-3.9922 
-15.8443 
-10.5466 
-4.8015 
12.4554 
-0.548985 
-11.6515 
-4.62756 
5.52341 
2.88362 
-5.00246 
9.56341 
4.2442 
2.37818 
-3.73938 
2.52097 
-3.69377 
-6.70486 
2.03361 
2.47438 
-7.88914 
-9.35518 
-5.27658 
-0.719661 
-5.48067 
-23.951 
6.40019 
-2.84375 
1.13304 
19.7254 
-0.36944 
18.659 
7.58806 
-1.33928 
20.662 
1.07668 
0.975029 
11.1683 
17.7007 
-1.41918 
-4.66613 
1.48607 
-13.7182 
-4.33577 
-4.22151 
-3.43845 
-7.11351 
4.33895 
-10.4224 
-5.27648 
-1.99075 
0.776649 
-4.57942 
-8.72397 
-8.03226 
0.466823 
-3.63853 
10.2421 
6.41547 
0.644163 
-3.96877 
-0.810668 
-11.4804 
10.4306 
13.6004 
-11.1094 
-8.07943 
20.0308 
-3.12349 
16.1912 
18.7795 
-9.47522 
-9.8816 

-0.201048 
-11.9 
13.2262 
-4.60038 
6.42565 
5.70613 
-19.8069 
-6.34338 
13.4643 
19.4525 
8.47208 
-10.2403 
1.39454 
-2.35878 
-11.069 
-4.49365 
-8.8208 
-7.61709 
7.77248 
6.22246 
3.37881 
-8.38789 
-9.47394 
5.79928 
0.258365 
7.86853 
2.25771 
4.53141 
-6.24909 
-7.92805 
2.75382 
-6.59143 
-11.4934 
-4.00214 
11.6515 
-4.2258 
10.6839 
12.7542 
-0.791718 
2.22762 
-0.196139 
-12.1568 
-3.40304 
-4.4966 
-1.38592 
1.94945 
-5.14755 
5.6773 
-3.29213 
-6.99579 
-5.64015 
5.65017 
5.11592 
-10.4007 
1.53164 
-11.303 
4.85229 
-10.7267 
3.26173 
2.3454 
-2.17423 
-12.2305 
2.89624 
1.59813 
0.273059 
5.55829 
-4.81112 
-0.887192 
3.95067 
-6.69902 
9.73556 
5.40648 
10.9244 
9.86912 
1.35504 
16.5844 
9.47115 
0.37866 
-14.8515 
-12.9269 
-0.818119 
2.95465 
-2.77283 
-4.93306 
-15.6728 
-1.96434 
11.8476 
-8.44766 
-5.64541 
-9.2044 
-12.654 
-6.10036 
-5.4409 
10.3816 
-14.0014 
-7.07139 
-1.52739 
-7.84683 
-8.36787 
-2.58942 
3.71069 
-11.0052 
-12.1773 
4.50565 
0.79072 
5.54399 
6.97591 
-1.02902 
-4.88494 
7.73001 
-9.78542 
2.16298 
4.72843 
3.05063 
-7.10194 
3.66129 
-1.5385 
-12.3458 
-1.66022 
-0.688123 
-9.70437 
-10.0248 
-7.56807 
-6.82048 
-1.56727 
6.0361 
11.5176 
5.01085 
-2.10941 
-5.44344 
9.55521 
3.74352 
-14.0273 
-4.36537 
-5.86036 
9.73119 
-3.32707 
4.55386 
-7.25847 
-5.69134 
-8.84958 
-5.97485 
10.8244 
-15.5272 
12.4546 
6.97886 
-0.37741 
4.81577 
-1.58444 
15.053 

-9.48026 
-0.619429 
-0.342037 
6.08699 
9.33917 
4.69968 
-2.23371 
-1.67721 
-2.324 
-2.49874 
-2.35058 
-8.35454 
-11.4391 
-3.17598 
-6.74002 
-5.93967 
5.63094 
-7.18545 
3.84749 
7.18637 
6.38021 
-0.256016 
-4.34409 
8.36871 
4.4151 
4.18383 
10.011 
-3.84535 
7.50042 
6.06198 
1.50238 
2.33245 
9.0812 
-0.400378 
-2.54751 
-4.18486 
1.192 
-1.64394 
4.06897 
2.09243 
10.1334 
7.79177 
5.974 
8.80653 
8.31379 
-12.3832 
-6.6049 
6.51277 
5.86355 
8.66807 
-1.68773 
-4.11597 
-7.13396 
-4.96845 
-3.21976 
5.79454 
0.990564 
3.84197 
8.44966 
-2.48602 
-9.41562 
-3.92062 
-8.24924 
8.03588 
-4.50458 
-11.8015 
6.8547 
6.15648 
0.282708 
1.46082 
-1.08825 
-10.3104 
-7.67411 
-10.8043 
8.91095 
-11.6247 
4.7538 
1.98198 
-3.62856 
-0.865952 
-6.75356 
-2.9657 
6.97679 
0.155628 
1.36894 
6.54141 
3.61893 
-7.23198 
-0.708092 
-1.66776 
-8.11748 
0.672757 
-0.0283876 
-5.11492 
-0.368826 
3.06646 
4.73078 
9.57925 
-7.57054 
-2.55009 
-7.83067 
6.24856 
-11.4964 
-5.2862 
-6.50024 
-11.1151 
12.724 
7.21682 
9.33421 
-4.71807 
8.66175 
15.7359 
-5.97432 
0.489411 
-6.95243 
9.87152 
-3.3966 
-2.1685 
-0.0373255 
2.37291 
6.87008 
-3.29917 
-7.77706 
9.1263 
-7.02392 
-9.19757 
-2.93 
6.64796 
-3.91804 
-9.23488 
4.37938 
-3.29862 
-3.86689 
11.5596 
-3.34386 
4.04073 
4.22597 
-6.53098 
-7.65184 
-9.17658 
-6.95651 
-1.4065 
-2.60342 
-0.549234 
4.62728 
1.4963 
10.3776 
5.00078 
2.77087 
2.89665 

-7.4825 
0.790921 
-11.5454 
0.977497 
1.00941 
12.5807 
-12.0217 
-4.31289 
-0.39046 
7.22357 
-0.794288 
0.518866 
-9.27125 
-2.14144 
-12.1014 
-16.348 
13.0176 
-0.0533895 
-7.17279 
0.269473 
6.59827 
9.85429 
-2.93722 
0.137706 
3.90965 
-6.66665 
9.51514 
-3.25958 
-11.5128 
-12.2072 
-12.3681 
-7.96175 
1.44617 
8.48852 
-3.10504 
1.22051 
-0.483358 
10.474 
1.44608 
1.73872 
14.1939 
-6.50827 
-7.68542 
-0.296633 
2.3064 
-11.1323 
9.47744 
-3.2292 
11.9705 
-5.57562 
-2.76261 
-11.8809 
1.39894 
-7.47983 
-12.7343 
3.56995 
0.0242337 
-1.83985 
-12.7339 
-11.051 
0.970953 
4.29915 
6.64169 
6.03618 
-5.80995 
2.11113 
-13.1341 
-1.15698 
-9.88515 
-0.407185 
-13.5938 
7.29658 
8.22813 
-9.3552 
-14.097 
3.2891 
13.4657 
-8.24505 
-4.67175 
-2.0444 
0.898056 
16.8383 
-7.76251 
-12.8072 
-3.53559 
1.70994 
-5.07057 
4.22248 
11.208 
1.82162 
1.85257 
-10.6524 
-3.60401 
7.32558 
-11.6494 
-3.76029 
-16.7199 
-5.25233 
8.55336 
8.87834 
-6.01372 
5.1066 
-8.2787 
-4.64321 
1.58234 
1.30803 
5.34914 
-10.2674 
2.07314 
11.1099 
-2.98489 
6.21265 
3.03967 
-4.7146 
6.75995 
9.20094 
1.03769 
-5.52241 
-7.00915 
-11.4702 
7.35256 
7.84959 
7.18875 
7.2655 
-10.9196 
0.686397 
-8.04492 
-1.15342 
2.35883 
5.01128 
-8.69226 
-5.77016 
-8.44092 
7.80566 
4.16318 
15.7184 
-11.819 
2.72824 
-0.21426 
-10.7936 
-2.07301 
-2.67802 
-1.22049 
-8.60614 
-2.70341 
7.97805 
17.0053 
-2.46182 
8.80828 
-12.1427 

4.79568 
6.53722 
-1.60985 
5.0177 
-4.35049 
-8.92594 
7.68565 
-8.449 
-3.16123 
-2.96256 
5.06059 
6.67291 
-1.80898 
6.18994 
-6.47934 
6.00287 
3.01462 
-13.5321 
-7.26872 
-3.35859 
-8.80858 
-1.75675 
-10.4822 
-5.22522 
-5.73366 
-8.39456 
7.73605 
4.25944 
-5.95534 
-7.11149 
-5.30391 
-8.74234 
-0.433421 
4.54832 
-3.8318 
0.903038 
-2.56114 
-4.60292 
10.5167 
1.7922 
0.205556 
-5.82005 
-3.78649 
0.0843487 
5.4946 
-5.17938 
-1.58229 
-1.6776 
8.90373 
-2.94314 
-4.76257 
-6.49677 
-4.34075 
3.70889 
1.87671 
-1.84789 
10.4467 
-10.5982 
-9.51887 
7.53889 
-6.67432 
-3.64435 
1.84465 
9.89041 
7.26795 
3.91841 
-7.88713 
-4.61136 
-9.98057 
6.25627 
2.60686 
-3.01456 
8.19634 
9.01733 
-7.94252 
5.80433 
0.92184 
-6.98491 
1.39666 
-8.80136 
-1.10959 
10.4109 
3.42026 
6.04274 
0.971765 
-2.22216 
10.4703 
-4.15043 
3.4735 
6.3123 
-8.12182 
4.62375 
8.10399 
7.88448 
-3.08255 
11.6421 
-0.781451 
-4.24634 
1.2652 
-4.7981 
7.79457 
-4.06386 
-7.64722 
8.33731 
6.85951 
-7.66006 
-3.20948 
-5.50531 
1.44366 
9.79278 
-6.73523 
8.1571 
7.99353 
8.23968 
0.722855 
-5.49475 
4.44189 
-9.58967 
-1.13578 
-3.89752 
-8.49879 
-8.33293 
10.3778 
2.1571 
-3.1075 
-5.51516 
0.835631 
3.27756 
4.11855 
-5.42883 
5.67638 
-4.58324 
-12.398 
0.124205 
7.84243 
13.9633 
3.32874 
-10.7417 
-12.6363 
4.89967 
7.39201 
-4.53204 
5.56167 
-9.36923 
13.1995 
-7.75261 
10.9517 
10.6987 
-4.14695 
6.98634 

15.3389 
-15.8031 
13.0743 
-10.7199 
-8.19136 
-1.82655 
10.2885 
9.04828 
1.55095 
-14.0824 
-17.6025 
-12.044 
4.40778 
11.3866 
10.9127 
1.83078 
-4.98184 
1.07051 
8.23682 
-15.6735 
-13.2223 
1.29427 
2.11265 
-8.37162 
4.21259 
-2.074 
-12.4657 
-3.25943 
16.8459 
12.4532 
1.98666 
-0.849659 
-1.79495 
3.0385 
-12.3344 
9.01857 
6.51556 
-5.83303 
-5.4729 
1.62349 
-12.8825 
5.35142 
3.83057 
4.77024 
-5.73791 
-5.36617 
-12.963 
-10.5325 
-24.0807 
3.08013 
-2.18772 
18.8433 
15.9362 
-7.60013 
1.72457 
-7.15306 
-9.64203 
6.18536 
-2.04424 
7.04394 
13.8929 
1.74327 
-7.80919 
-8.24526 
-8.577 
20.5491 
7.99471 
-5.27654 
9.29003 
12.503 
-2.1313 
-7.29886 
-15.4417 
-8.23871 
8.90089 
-12.8341 
-18.2317 
5.52533 
11.3579 
0.272866 
-4.4388 
-8.42693 
5.15025 
17.954 
14.198 
-20.3944 
-20.3233 
3.96844 
-6.14873 
10.0981 
6.81674 
-2.86093 
-1.54727 
-13.3811 
7.5351 
-2.79424 
-1.25783 
-0.114374 
-8.02851 
-0.389848 
0.00806562 
-2.59662 
12.7475 
-3.34211 
-13.4094 
0.247184 
-24.1216 
0.972555 
-1.57766 
-12.1232 
-2.05965 
-12.6956 
-17.63 
7.86813 
-12.7679 
-14.9322 
-8.53497 
12.858 
-12.5402 
15.3012 
-0.418752 
3.86282 
-4.51117 
-4.11522 
6.79211 
-6.27876 
-11.552 
-6.19662 
-5.61509 
4.16963 
7.77335 
9.77032 
0.189537 
5.70119 
0.478877 
-15.579 
12.3137 
4.14737 
-2.24027 
8.52864 
-3.45886 
-11.2438 
3.38857 
4.01166 
-5.85133 
6.86657 
-13.6416 
-13.2747 
-6.57688 
4.94763 

6 
3 
-9 
9 
8 
-3 
-10 
1 
-3 
-9 
-5 
-3 
0 
8 
8 
6 
4 
2 
-10 
-4 
8 
-8 
-9 
-1 
-4 
1 
5 
1 
9 
0 
8 
-3 
-7 
1 
-3 
4 
8 
9 
7 
-5 
-10 
4 
-5 
-7 
-5 
-7 
1 
9 
-2 
-7 
7 
8 
-5 
8 
9 
1 
0 
-4 
5 
-9 
6 
3 
-9 
2 
-6 
-10 
8 
-8 
9 
5 
9 
1 
-1 
-6 
4 
4 
-10 
-4 
-5 
-10 
-1 
5 
8 
-3 
3 
-1 
0 
5 
5 
-5 
-1 
2 
0 
0 
-6 
-4 
0 
-8 
-2 
-1 
-1 
-10 
2 
0 
6 
-3 
-5 
-2 
-5 
-8 
-2 
-4 
7 
8 
3 
-7 
-3 
6 
0 
-7 
-9 
9 
5 
-6 
-1 
1 
0 
9 
-5 
1 
-10 
4 
1 
3 
-6 
-3 
2 
-9 
6 
-1 
6 
6 
5 
-5 
5 
-9 
-2 
-8 
7 
9 

7 
0 
8 
-6 
4 
-10 
5 
-5 
1 
-10 
6 
2 
-4 
9 
7 
-7 
8 
-9 
-6 
-4 
0 
2 
-7 
-5 
8 
8 
8 
8 
2 
5 
-1 
0 
8 
-2 
4 
2 
-10 
-8 
-1 
1 
4 
-5 
5 
-9 
-6 
-6 
-6 
5 
-5 
-10 
-9 
5 
3 
-6 
3 
-7 
4 
1 
-9 
9 
9 
1 
-1 
7 
1 
5 
-9 
1 
-1 
1 
4 
-6 
-2 
0 
-5 
-5 
4 
-9 
-10 
2 
3 
-9 
-3 
8 
8 
2 
-9 
2 
6 
-7 
1 
5 
4 
2 
-6 
-5 
-10 
7 
-2 
-1 
-2 
-8 
3 
7 
-6 
0 
4 
1 
-7 
4 
-7 
7 
-3 
-8 
-3 
-5 
5 
-1 
8 
-7 
2 
-9 
8 
-4 
-4 
4 
-7 
8 
1 
1 
-3 
2 
3 
3 
-9 
8 
5 
5 
-1 
9 
-1 
-6 
-2 
6 
-4 
5 
4 
3 
-6 
2 

6 
-2 
-5 
-4 
-4 
-7 
2 
-1 
-9 
-6 
2 
-1 
6 
8 
4 
-1 
-2 
-1 
-6 
-1 
-10 
-5 
3 
-10 
3 
1 
-2 
-3 
-5 
-6 
1 
3 
3 
7 
-10 
9 
2 
2 
-9 
4 
-2 
3 
5 
6 
1 
-1 
-5 
9 
0 
-9 
-2 
1 
-4 
3 
-7 
-10 
-5 
1 
-3 
0 
6 
9 
5 
-9 
-2 
5 
-10 
2 
-10 
3 
-4 
-10 
-3 
3 
7 
0 
-8 
4 
-8 
-5 
6 
-8 
-2 
-8 
6 
1 
4 
-9 
-7 
4 
-7 
1 
3 
8 
2 
3 
-4 
-6 
-5 
8 
8 
-6 
8 
7 
7 
-3 
-3 
2 
-8 
-1 
7 
0 
-6 
-5 
-6 
-10 
-2 
9 
3 
1 
3 
-2 
4 
8 
-4 
-4 
-7 
-6 
1 
-10 
-8 
-1 
-6 
3 
8 
4 
-10 
-5 
-4 
4 
-3 
-7 
-6 
1 
-10 
-9 
-7 
-2 
-10 
6 

2 
-5 
-6 
-4 
-7 
-8 
-5 
8 
9 
6 
8 
3 
7 
5 
8 
5 
-1 
1 
2 
5 
-5 
1 
0 
-8 
4 
0 
-7 
7 
0 
5 
-5 
4 
-10 
-9 
-9 
5 
6 
-4 
-5 
5 
4 
-7 
-10 
-7 
8 
9 
0 
-3 
0 
-8 
4 
-3 
-4 
-6 
-1 
-10 
-4 
-6 
8 
-1 
9 
5 
-7 
1 
7 
-6 
8 
3 
-8 
-7 
-10 
-2 
-3 
2 
-7 
7 
1 
3 
7 
3 
-2 
1 
-9 
4 
6 
-8 
4 
4 
-3 
-6 
-7 
8 
-10 
-3 
-8 
7 
-7 
-10 
-8 
8 
6 
4 
-4 
5 
8 
0 
2 
0 
5 
-1 
5 
-7 
-9 
6 
-1 
-1 
1 
-6 
-7 
8 
-10 
9 
-2 
-10 
-4 
0 
-1 
-1 
-7 
-7 
-3 
9 
-1 
-4 
-4 
-2 
-2 
8 
0 
5 
-10 
-5 
1 
3 
4 
-10 
4 
-5 
6 
7 

5 
7 
-2 
-7 
7 
4 
-4 
9 
6 
-9 
-8 
5 
2 
-6 
-9 
8 
2 
-9 
-2 
4 
7 
-2 
9 
-2 
-9 
-5 
-10 
-3 
-8 
7 
7 
7 
4 
-5 
3 
-7 
-10 
1 
4 
6 
2 
7 
1 
6 
3 
-5 
4 
-5 
8 
-8 
9 
5 
1 
0 
5 
-6 
-2 
6 
2 
0 
3 
-9 
-2 
9 
-4 
3 
4 
-4 
-6 
-1 
4 
-2 
8 
8 
-6 
1 
5 
8 
-2 
3 
2 
9 
-9 
5 
-9 
6 
-10 
-1 
-6 
-6 
2 
-1 
-5 
-10 
-10 
-7 
-5 
5 
0 
-1 
6 
6 
7 
4 
4 
3 
7 
-1 
1 
7 
5 
-7 
6 
6 
9 
7 
-6 
1 
9 
-1 
-3 
1 
8 
-6 
-7 
9 
-3 
-2 
-4 
-1 
-1 
-8 
-4 
8 
-2 
2 
1 
7 
4 
4 
4 
-1 
7 
0 
-5 
-2 
9 
-1 
1 
0 

0 
0 
-9 
-1 
4 
-6 
-10 
4 
-6 
8 
-7 
3 
2 
-9 
1 
-10 
4 
4 
-1 
-10 
-2 
-7 
-1 
8 
-5 
4 
-4 
6 
5 
0 
-3 
-4 
-10 
-2 
-3 
-3 
-5 
9 
-9 
-1 
7 
6 
5 
-1 
8 
8 
-9 
-6 
3 
0 
6 
-9 
3 
-5 
9 
0 
1 
8 
-4 
8 
-2 
3 
-6 
-2 
4 
-7 
5 
9 
-8 
-2 
-10 
9 
-5 
5 
-2 
5 
-4 
-9 
1 
9 
1 
-3 
2 
6 
-6 
-6 
-4 
5 
-8 
-5 
3 
-8 
8 
0 
-8 
2 
3 
0 
-7 
6 
8 
-6 
5 
5 
1 
6 
-8 
-1 
-1 
3 
-2 
-9 
2 
3 
-1 
6 
7 
-2 
1 
1 
3 
7 
3 
-7 
-3 
5 
-2 
-10 
7 
1 
6 
-2 
-3 
-6 
-7 
1 
2 
-4 
-10 
-9 
1 
-9 
4 
6 
4 
6 
2 
1 
-6 
6 

4 
7 
3 
-3 
2 
-10 
4 
-10 
2 
2 
-6 
-9 
-10 
-7 
7 
5 
4 
-1 
3 
-3 
-8 
-5 
-2 
-1 
-9 
4 
-5 
-5 
7 
-9 
-9 
1 
8 
4 
0 
-8 
-4 
-6 
-7 
9 
-2 
9 
2 
-10 
-8 
-1 
6 
-1 
0 
-1 
6 
2 
-4 
6 
3 
9 
-8 
0 
-5 
9 
1 
8 
0 
-9 
-5 
2 
-6 
1 
6 
9 
-8 
-5 
8 
4 
-5 
-10 
5 
3 
-1 
-5 
5 
7 
0 
-9 
3 
-7 
3 
5 
-4 
8 
-4 
7 
-2 
-2 
9 
3 
-10 
5 
7 
7 
4 
9 
4 
2 
-4 
1 
-6 
-9 
-5 
-4 
9 
2 
-7 
-1 
3 
-1 
-6 
-4 
-6 
0 
6 
-7 
-10 
-5 
1 
9 
0 
-6 
4 
-3 
3 
-10 
9 
-3 
-6 
7 
0 
-2 
0 
-3 
4 
-1 
9 
0 
8 
-5 
9 
5 
1 
5 

-5 
-10 
8 
7 
7 
-8 
6 
9 
-4 
-8 
-3 
9 
4 
-4 
8 
8 
5 
-2 
9 
-5 
-2 
-5 
5 
-3 
5 
-5 
2 
4 
-10 
6 
-8 
8 
-2 
2 
5 
7 
4 
-6 
6 
-10 
-4 
-7 
1 
3 
-9 
-1 
1 
6 
0 
-8 
-8 
8 
-2 
-1 
7 
5 
4 
-8 
-8 
5 
0 
-6 
-5 
8 
6 
-10 
5 
1 
6 
1 
-7 
5 
-3 
-3 
-2 
-10 
6 
1 
7 
8 
4 
1 
6 
-8 
-10 
-4 
7 
4 
-2 
1 
-9 
0 
5 
-4 
-2 
2 
9 
5 
5 
5 
8 
0 
0 
7 
7 
8 
8 
-4 
-8 
-3 
-6 
6 
0 
3 
0 
0 
9 
9 
6 
9 
1 
0 
-1 
-4 
-2 
-1 
0 
-3 
6 
7 
5 
4 
-2 
-5 
2 
7 
6 
-8 
-7 
8 
-1 
-10 
-4 
9 
3 
6 
-9 
-6 
5 
-1 

5 
-4 
9 
6 
-5 
-2 
-5 
5 
-3 
-9 
3 
-8 
-3 
3 
-10 
9 
0 
-2 
3 
-4 
8 
4 
8 
-6 
-5 
1 
-10 
-4 
-3 
-3 
6 
4 
4 
-3 
0 
1 
5 
5 
-4 
-7 
-2 
1 
7 
5 
6 
7 
-3 
9 
-5 
-10 
-5 
-7 
5 
5 
-3 
-10 
8 
9 
9 
-5 
-3 
-3 
9 
3 
-4 
-9 
-6 
-8 
6 
-8 
7 
6 
4 
-4 
1 
-8 
-6 
8 
-9 
-9 
1 
8 
7 
8 
3 
6 
8 
1 
6 
-1 
-2 
5 
-2 
9 
-2 
5 
-10 
-6 
-1 
-2 
-4 
8 
-6 
2 
-6 
6 
5 
-10 
-4 
-2 
-8 
7 
9 
1 
5 
2 
-3 
-4 
6 
5 
-3 
-6 
-8 
6 
-6 
-8 
-7 
6 
-4 
2 
-5 
-5 
0 
-1 
7 
4 
7 
-6 
5 
6 
-5 
-1 
-5 
-6 
-10 
-9 
-2 
-3 
9 
-6 

5 
8 
-1 
7 
-4 
-5 
-10 
-1 
-9 
8 
-9 
-4 
-7 
-7 
-2 
3 
8 
7 
-1 
-5 
3 
4 
4 
9 
8 
-4 
2 
9 
-5 
-7 
-7 
-10 
3 
2 
0 
-10 
-1 
-8 
-9 
1 
-10 
5 
-1 
-6 
8 
-1 
-1 
-2 
9 
8 
3 
2 
-5 
9 
-7 
-7 
7 
-3 
-8 
-7 
-8 
8 
5 
6 
-8 
7 
6 
2 
9 
7 
5 
2 
2 
-6 
-2 
-7 
-4 
7 
1 
-5 
5 
7 
-1 
-10 
-2 
-5 
6 
8 
2 
0 
-9 
5 
-10 
-2 
1 
-7 
8 
9 
5 
7 
-2 
0 
-1 
3 
-4 
-1 
6 
2 
-4 
9 
-1 
4 
-2 
9 
-4 
7 
6 
4 
5 
-2 
-5 
-2 
5 
-5 
-2 
8 
-2 
-4 
7 
5 
6 
8 
-5 
7 
-7 
-6 
-3 
1 
6 
3 
0 
8 
9 
9 
-1 
-4 
-2 
-5 
-10 
5 

-5 
7 
5 
-9 
5 
-7 
9 
5 
0 
-1 
1 
8 
9 
-2 
5 
-8 
2 
-8 
3 
-9 
-2 
5 
9 
-3 
-4 
-10 
-5 
4 
-5 
-4 
-9 
0 
-7 
6 
1 
0 
-10 
-7 
-4 
-8 
2 
7 
-10 
-7 
7 
-3 
-5 
0 
0 
0 
-7 
0 
-5 
-8 
-1 
-6 
-8 
5 
0 
9 
-9 
2 
-1 
6 
-2 
3 
-3 
-10 
6 
-5 
4 
-10 
4 
-4 
5 
1 
4 
-10 
3 
6 
-8 
6 
-4 
-3 
0 
-3 
-7 
-6 
-8 
4 
-7 
5 
-4 
-5 
-6 
-4 
8 
-7 
9 
-4 
-2 
3 
8 
-8 
2 
3 
-5 
-4 
-5 
9 
-8 
-3 
5 
-10 
-4 
8 
-3 
0 
-8 
0 
6 
8 
7 
4 
-7 
-9 
-10 
3 
-6 
1 
1 
2 
7 
-9 
-4 
-1 
-4 
2 
5 
1 
1 
-1 
0 
8 
-1 
-2 
6 
-2 
0 
1 

8 
-4 
-1 
-2 
-10 
-6 
-1 
3 
7 
4 
6 
-2 
8 
3 
-9 
-5 
-8 
-3 
-1 
7 
0 
2 
-4 
2 
0 
-3 
-10 
9 
6 
-7 
-8 
-4 
-9 
1 
4 
4 
5 
-6 
9 
-6 
0 
5 
-6 
-10 
-1 
-5 
7 
1 
2 
-4 
-9 
4 
8 
-3 
-4 
-9 
-3 
8 
2 
-7 
-9 
4 
-9 
-7 
7 
6 
-1 
-6 
2 
-2 
-2 
4 
-7 
2 
4 
2 
7 
2 
-6 
-9 
0 
-5 
5 
-1 
-6 
-9 
-8 
-7 
9 
4 
8 
3 
-2 
-10 
-2 
-5 
-2 
7 
-9 
-10 
-5 
-1 
4 
-2 
-9 
-10 
-9 
0 
2 
7 
1 
-7 
4 
-4 
-6 
0 
9 
-4 
4 
0 
2 
2 
-7 
-10 
-6 
1 
7 
2 
-2 
8 
2 
-5 
9 
8 
4 
-10 
9 
-3 
-8 
-7 
6 
3 
8 
0 
1 
-8 
-10 
-8 
-10 
-4 

2 
2 
1 
6 
-6 
5 
9 
3 
-2 
-10 
-7 
2 
-5 
-8 
1 
9 
4 
0 
8 
6 
-5 
4 
-9 
-6 
6 
-6 
-4 
-1 
-4 
9 
-3 
1 
-7 
8 
9 
-2 
4 
8 
3 
4 
0 
7 
-4 
6 
1 
7 
-3 
8 
9 
-4 
4 
-5 
2 
-2 
-1 
-9 
-6 
-3 
0 
-7 
-4 
-1 
4 
-8 
-2 
-5 
-8 
-8 
5 
5 
6 
-4 
-6 
4 
-8 
-2 
2 
-9 
-4 
1 
9 
2 
-2 
2 
2 
7 
-5 
7 
-5 
-3 
-10 
-7 
6 
-4 
7 
-6 
1 
9 
8 
8 
-3 
-4 
-6 
1 
-9 
8 
1 
3 
-10 
7 
6 
9 
-8 
-5 
-7 
4 
4 
-2 
1 
1 
-3 
-7 
5 
-6 
-1 
-6 
-2 
2 
-6 
9 
1 
1 
-5 
-3 
4 
8 
-4 
-4 
-7 
-4 
5 
-10 
7 
7 
7 
-9 
2 
1 
-9 
5 

-7 
-1 
9 
0 
3 
-10 
4 
3 
-5 
8 
-6 
6 
-9 
0 
5 
6 
-10 
-9 
4 
-6 
9 
-1 
-6 
7 
9 
3 
0 
1 
-6 
1 
8 
9 
2 
7 
-1 
7 
0 
-6 
1 
5 
4 
-3 
-7 
-2 
7 
8 
-6 
0 
2 
0 
4 
-7 
1 
0 
-10 
0 
-7 
-8 
3 
9 
-4 
2 
9 
8 
-9 
-2 
6 
1 
-6 
9 
8 
9 
-4 
3 
-3 
6 
2 
-7 
-4 
6 
3 
2 
9 
6 
-8 
2 
-3 
-5 
4 
-10 
-6 
2 
2 
-7 
-7 
-4 
-6 
1 
7 
-2 
-8 
-2 
9 
-2 
-9 
-4 
6 
-5 
-9 
4 
-9 
-4 
-4 
-9 
-7 
-10 
-5 
0 
7 
1 
-8 
4 
-6 
5 
-1 
-3 
-9 
3 
8 
0 
4 
-10 
8 
3 
-10 
2 
-10 
-1 
7 
3 
5 
9 
-10 
4 
2 
5 
4 
7 
-5 
2 

-2 
-3 
8 
-6 
4 
-3 
1 
-3 
3 
-9 
0 
-3 
3 
-10 
-10 
-4 
2 
2 
-3 
0 
-4 
-8 
-9 
8 
6 
3 
3 
1 
-8 
0 
5 
-8 
7 
-5 
-3 
-6 
2 
0 
-7 
7 
2 
3 
-6 
7 
4 
-5 
-7 
8 
-1 
-8 
-2 
5 
-5 
-9 
-5 
-9 
4 
8 
-6 
-2 
-2 
1 
1 
8 
6 
8 
4 
-9 
-2 
7 
8 
2 
1 
-7 
0 
7 
-10 
-5 
5 
-1 
-2 
6 
7 
3 
7 
-8 
-4 
-6 
3 
1 
2 
3 
4 
-7 
1 
1 
-9 
-5 
2 
-8 
5 
0 
4 
-4 
-5 
6 
5 
7 
-8 
0 
-3 
-8 
-4 
6 
-3 
6 
0 
3 
-10 
-7 
6 
2 
-1 
1 
-2 
2 
-8 
-1 
8 
-4 
-7 
-5 
-2 
8 
-7 
-4 
4 
8 
-7 
-2 
-10 
-8 
-8 
-3 
8 
-1 
-7 
-9 
5 
5 

6 
1 
-3 
-5 
4 
5 
8 
6 
7 
-2 
4 
-10 
3 
5 
0 
6 
-9 
7 
-4 
-6 
7 
-4 
-3 
-10 
-5 
7 
-1 
-10 
8 
-6 
5 
-3 
-2 
5 
2 
-8 
0 
-8 
1 
9 
0 
7 
-10 
5 
2 
-8 
-7 
3 
9 
-1 
0 
7 
-2 
-1 
-1 
3 
-4 
0 
4 
7 
-3 
-9 
6 
5 
6 
-2 
-1 
9 
1 
-10 
8 
3 
8 
8 
-1 
-8 
3 
2 
6 
-6 
4 
-4 
3 
-8 
-3 
-8 
-3 
3 
3 
3 
-8 
-10 
5 
8 
-3 
1 
9 
6 
0 
-8 
-1 
-1 
-3 
9 
9 
6 
-9 
-6 
-9 
7 
-1 
-3 
5 
-8 
-1 
-8 
-5 
6 
-2 
0 
0 
-8 
0 
7 
3 
-1 
-10 
-6 
-5 
-7 
8 
-4 
-6 
-5 
-5 
-7 
-8 
-3 
-10 
5 
6 
-1 
-8 
-6 
1 
-7 
8 
-2 
1 
-4 

8 
3 
-9 
-10 
0 
-4 
-1 
1 
0 
-3 
4 
-2 
3 
8 
3 
9 
3 
-3 
-4 
-5 
4 
4 
4 
-2 
8 
8 
1 
7 
-4 
5 
5 
7 
-2 
-2 
7 
9 
4 
-3 
-8 
6 
4 
-2 
6 
-3 
8 
-8 
8 
-7 
-9 
6 
-1 
6 
1 
-7 
6 
-9 
3 
-2 
0 
-10 
5 
-4 
7 
-7 
-4 
-4 
4 
3 
3 
6 
-1 
9 
6 
8 
9 
4 
-10 
7 
8 
-9 
-4 
-3 
-1 
7 
-8 
-4 
0 
6 
-4 
-9 
-2 
-9 
9 
-5 
6 
-5 
-7 
1 
8 
7 
9 
-10 
-2 
6 
8 
9 
0 
0 
-1 
-10 
-7 
5 
-3 
3 
-6 
-8 
1 
4 
8 
-1 
-3 
-4 
-8 
-4 
-7 
8 
-6 
-4 
-1 
4 
5 
-9 
-4 
6 
7 
-6 
5 
-3 
-4 
-6 
-2 
0 
9 
-3 
5 
-7 
-1 
-4 
0 
9 

-3 
7 
7 
-1 
6 
2 
9 
-10 
1 
-9 
4 
-4 
-8 
3 
4 
9 
7 
0 
8 
6 
-4 
8 
-4 
8 
-4 
-9 
-9 
-3 
9 
-7 
9 
-4 
-9 
6 
-3 
7 
-9 
8 
-1 
2 
9 
5 
0 
-9 
-2 
-5 
2 
8 
-3 
1 
4 
3 
-9 
-10 
-7 
-3 
3 
-5 
-3 
2 
-10 
8 
0 
-9 
-4 
-1 
0 
-3 
-3 
9 
9 
9 
5 
-8 
2 
5 
9 
-5 
3 
-4 
-2 
9 
1 
-1 
9 
5 
-1 
-6 
2 
-2 
-2 
2 
-4 
0 
-4 
2 
9 
-2 
-10 
9 
-2 
1 
0 
5 
-5 
-8 
-8 
-6 
9 
6 
0 
-3 
5 
4 
-1 
-3 
-1 
0 
-7 
3 
8 
2 
-5 
-6 
-8 
-7 
-2 
4 
2 
-10 
-5 
2 
-6 
5 
9 
-1 
7 
-9 
4 
7 
7 
6 
6 
-5 
0 
7 
-6 
1 
-3 
-3 

-6 
-5 
9 
0 
-9 
4 
-5 
0 
-10 
7 
0 
-5 
-1 
4 
-10 
-10 
6 
-1 
-8 
0 
8 
1 
-4 
-3 
6 
7 
-6 
-10 
-2 
2 
-10 
3 
-1 
9 
5 
1 
-5 
2 
3 
-5 
-8 
5 
-8 
1 
-8 
4 
-6 
8 
-6 
-4 
-10 
-8 
7 
-4 
-1 
4 
5 
-4 
-4 
6 
8 
-4 
-1 
-3 
8 
6 
0 
5 
-10 
5 
-9 
-8 
1 
5 
-4 
-5 
0 
0 
5 
4 
6 
5 
-2 
3 
-9 
0 
9 
7 
6 
8 
-5 
-4 
-6 
4 
-5 
4 
-8 
-2 
0 
4 
-7 
-7 
7 
-4 
8 
-7 
1 
-2 
3 
-4 
4 
-9 
3 
5 
4 
5 
-5 
-4 
-6 
3 
-6 
-1 
9 
-10 
5 
-6 
-3 
-1 
2 
7 
-7 
-2 
2 
-10 
4 
0 
5 
8 
1 
-10 
6 
-5 
-9 
0 
-10 
-2 
7 
7 
4 
-9 

2.33085 
2.09682 
-0.103477 
-6.92797 
-2.92418 
-4.87217 
-3.66642 
2.81621 
9.49601 
4.90394 
-6.99327 
-3.58898 
11.3606 
14.2612 
-4.7549 
-0.153941 
-10.0095 
1.18485 
-4.49156 
3.35932 
2.89412 
7.05842 
-4.83308 
0.474709 
-6.82635 
-11.5494 
-8.69449 
0.616951 
12.4503 
5.6457 
16.0001 
-7.96104 
-5.24147 
-4.70995 
-11.8459 
1.73618 
-2.24026 
3.06403 
10.931 
4.5257 
-7.15821 
-5.76829 
8.21393 
2.63239 
4.37776 
-0.80452 
-6.24916 
2.35576 
8.85527 
2.31111 
-10.0316 
4.23798 
-1.78693 
-1.86399 
10.4716 
-8.00377 
3.26857 
-6.75685 
-9.78331 
-5.03846 
4.47931 
-2.89199 
-3.82259 
9.54502 
-4.83875 
-0.913984 
-4.36614 
-6.94124 
3.84302 
-8.88904 
6.68815 
-9.47931 
0.62183 
-3.75584 
-3.31986 
6.35109 
-17.4682 
4.69657 
-0.32405 
7.27344 
4.67571 
-2.06072 
-5.56027 
12.0143 
-2.75458 
-0.00224035 
2.17441 
-14.2496 
0.596164 
0.204107 
11.6329 
-1.56612 
-9.34808 
7.58372 
5.70384 
-10.6424 
14.3725 
-0.59615 
-11.3644 
2.52542 
-7.05544 
-10.1234 
0.593717 
-2.59132 
3.03848 
3.27982 
-8.89482 
6.25521 
6.38338 
6.09272 
-11.633 
-2.80433 
-4.38789 
3.83823 
-4.04547 
-14.2084 
-15.1268 
4.98459 
-7.44836 
-0.659251 
-6.19904 
9.37056 
0.621072 
-6.2647 
3.00704 
3.46004 
-2.11083 
-6.58911 
-2.63805 
9.74836 
9.1908 
8.44927 
-6.20757 
-2.0829 
-9.67233 
-3.9212 
-12.1041 
-9.9129 
3.79271 
6.34961 
8.00641 
-10.135 
3.62381 
3.95456 
-9.41604 
-0.0451857 
6.94914 
13.3165 
11.2027 
9.09043 

-1.85549 
-9.98135 
-8.96503 
-6.8974 
-17.8884 
-3.1691 
4.32976 
18.9892 
-0.746161 
-13.0752 
-2.13119 
-0.0260307 
5.61514 
3.8081 
5.78326 
2.47692 
-12.7826 
4.01175 
-8.26304 
-4.06552 
0.889832 
-2.6449 
7.9455 
-19.0871 
-1.18445 
8.85339 
-6.76189 
6.77641 
3.91076 
8.41532 
2.2811 
3.28697 
1.05498 
7.76661 
-12.7648 
-9.30482 
-11.5124 
-0.404921 
-6.30794 
6.55994 
-10.9329 
7.0499 
-7.8039 
5.22933 
-6.34477 
-14.2156 
-10.3105 
-1.54687 
-15.6949 
9.6283 
-14.9485 
-0.790643 
1.80545 
5.82667 
-0.71457 
3.21319 
5.61383 
-2.37223 
16.1782 
-8.69208 
-2.815 
2.93403 
-3.91053 
-7.833 
8.14767 
1.26485 
-1.90506 
-9.50748 
18.5617 
9.67507 
-0.819761 
-18.8383 
-7.69586 
-6.84885 
11.4891 
-14.4324 
-5.15207 
3.6629 
21.2476 
11.0299 
3.89254 
-7.6255 
7.45651 
13.5033 
2.60199 
-8.98548 
-8.93268 
-8.5791 
2.76101 
6.20131 
13.8673 
14.5151 
11.0928 
-17.5985 
6.92023 
-12.5837 
-10.4856 
2.24929 
3.0891 
-18.0626 
-11.7491 
-0.134702 
19.0888 
4.4675 
0.326576 
7.15888 
-4.42908 
0.367751 
-8.34933 
-10.2572 
13.9168 
8.92834 
3.97409 
6.34473 
-10.3424 
-16.9046 
8.02968 
11.6562 
-11.1871 
10.9636 
-8.04891 
10.2292 
-9.13962 
4.42357 
-2.16245 
2.60249 
-9.9992 
-4.61745 
-1.74584 
-6.34985 
14.5257 
-1.68291 
14.003 
13.3433 
-6.65797 
-22.2815 
6.80803 
-7.30701 
9.26159 
4.46662 
-4.12894 
-5.01673 
3.71812 
5.35396 
-23.3315 
-6.0426 
-15.6019 
-21.4248 
5.24731 
-12.6439 

-4.38609 
-8.54003 
9.88584 
-11.4757 
-16.0502 
6.78707 
5.88976 
2.78797 
-12.111 
-11.6762 
-2.36218 
-6.3898 
5.07628 
-12.7802 
7.76085 
-8.84732 
-0.344557 
20.0819 
-14.5797 
-7.36707 
-3.72714 
-1.97901 
1.2506 
-5.52438 
-4.97363 
5.65186 
-6.99411 
1.76761 
-1.18564 
11.6629 
-10.5136 
11.2299 
5.93099 
16.7012 
-0.0127328 
0.0747409 
-4.51408 
-6.44998 
-21.942 
5.82338 
-8.91337 
17.3799 
-0.473471 
-1.07552 
6.21429 
-28.7009 
-8.58238 
-6.78008 
-10.3462 
-4.807 
-3.52332 
3.41989 
1.45013 
10.4427 
-7.40194 
-7.50488 
-10.49 
1.24579 
-0.0480957 
3.28661 
-5.2845 
9.90313 
-8.52641 
-19.3997 
10.0939 
12.8002 
-9.67161 
-14.9441 
14.3257 
7.79697 
8.22193 
-16.7145 
14.1169 
-21.6122 
19.3605 
-9.92833 
-10.2234 
17.285 
3.24525 
-4.0364 
7.158 
-10.0031 
-14.6454 
-3.2483 
-0.557119 
-25.6028 
-8.44965 
8.89218 
3.96027 
8.31116 
-13.1269 
-0.413687 
-5.44983 
-15.6855 
5.70162 
-11.6526 
-13.2434 
-11.7116 
4.70231 
-21.8388 
-6.70878 
-2.03646 
21.5033 
-12.0572 
-0.270974 
10.4514 
-1.40371 
-3.35994 
-7.76215 
-6.56238 
3.63789 
-9.55785 
-14.1635 
-1.77053 
-10.845 
-13.6968 
0.881846 
14.4304 
-11.3235 
7.10013 
-6.169 
-4.13927 
0.631326 
13.0006 
8.80601 
2.97361 
-20.2252 
-12.4529 
-9.75871 
-3.25732 
13.617 
14.9181 
20.3185 
18.3493 
0.536695 
-24.0882 
5.82104 
-9.47059 
4.24157 
7.86905 
-8.50442 
15.153 
0.173554 
7.7803 
-22.7615 
9.65873 
-15.5229 
-30.7884 
4.6199 
12.9807 

7.64605 
-0.497237 
19.4821 
0.559724 
-7.75958 
-5.03951 
-19.4626 
-2.73304 
-15.4914 
19.6805 
13.5043 
-18.4171 
24.4125 
21.9475 
-2.51419 
-4.49834 
14.5377 
5.423 
-10.5691 
2.08656 
-5.51531 
5.69013 
-13.4287 
-7.08507 
5.78587 
-6.54977 
-1.74809 
0.602301 
-2.9341 
-12.8655 
-5.37551 
15.0532 
0.908663 
6.8475 
-3.64011 
-4.35933 
6.89557 
21.7905 
-19.4672 
2.33094 
-7.87146 
-0.742407 
1.94169 
16.9991 
8.00475 
-14.2455 
18.284 
-2.00487 
6.11781 
6.23437 
7.63963 
7.72406 
8.86227 
3.32295 
-0.332939 
-17.2459 
-12.8415 
7.48891 
-9.34744 
-4.55896 
8.84268 
-4.33631 
-2.9199 
-21.1765 
-0.0326655 
7.98448 
-3.29971 
-9.96685 
6.41551 
15.7743 
11.6497 
10.1021 
-2.09062 
-17.1528 
-4.09499 
-23.9657 
-18.5039 
14.0561 
3.08928 
4.97709 
6.07997 
-0.127388 
-10.2504 
-3.08203 
5.7165 
-30.1169 
-4.64444 
-10.6008 
-2.54205 
-26.0244 
3.19981 
8.03935 
-18.2041 
17.1659 
0.812514 
-12.3378 
-14.1682 
-11.1045 
0.00491702 
-12.648 
1.3195 
-19.3005 
29.6552 
-0.63887 
8.96079 
21.7214 
-22.7202 
8.04589 
-14.057 
7.71093 
13.3008 
-24.3627 
4.7164 
-8.19521 
1.68663 
-24.432 
-12.5364 
17.0378 
-10.891 
-1.34465 
-4.86586 
-10.0078 
8.52739 
-14.3266 
3.43261 
-1.56029 
-9.47444 
-27.7974 
-17.8487 
-5.58715 
-5.78541 
-1.97403 
3.41132 
-18.7032 
-5.3394 
-1.31195 
-2.13906 
2.66661 
0.0729711 
12.0742 
-13.1269 
-18.8127 
14.4399 
-16.1401 
-15.7343 
-2.94221 
-13.5467 
-3.83947 
9.66628 
18.305 

11.2329 
-8.91854 
10.8314 
-14.7001 
-15.081 
-1.38179 
-0.18199 
-4.41737 
0.238521 
1.34067 
-19.4987 
2.61956 
17.9718 
0.360402 
20.4852 
6.02576 
3.16689 
-14.7235 
10.7082 
-11.5346 
2.11418 
-13.1135 
-17.6598 
-1.12698 
-7.4263 
-1.36105 
-15.5851 
-2.00183 
-1.71021 
-4.14019 
18.3556 
11.5692 
-4.84196 
-3.42739 
1.09915 
-6.37988 
12.3394 
0.478064 
8.82332 
9.96025 
2.43129 
9.75641 
-2.83355 
-5.27096 
-2.08804 
-1.44788 
-11.7536 
-17.7055 
-15.6888 
1.32416 
-5.49628 
10.7503 
-0.415355 
-3.31414 
1.16151 
-10.6511 
-1.02428 
-5.96066 
-4.94912 
3.79604 
13.2478 
-10.1429 
-12.8985 
-9.84292 
-8.21791 
-0.44363 
-2.84883 
-7.72947 
21.6487 
4.27571 
2.52532 
-12.9429 
-4.62908 
-11.3635 
11.6622 
-1.01765 
-22.4719 
-6.75361 
5.18604 
-5.26599 
-7.931 
-10.7754 
9.37523 
6.44979 
1.12377 
-5.61935 
-16.3739 
-10.3409 
8.31605 
-4.5589 
11.011 
-14.8322 
11.681 
-17.5189 
10.625 
-3.9374 
11.114 
4.20453 
-11.4697 
3.40982 
9.37995 
-7.15247 
18.7178 
0.165258 
12.1043 
-4.79775 
-29.0579 
21.8532 
-18.3966 
-0.777321 
9.17539 
-4.2662 
3.61962 
-5.82006 
1.67072 
-13.4033 
-18.402 
2.05101 
-5.95143 
9.38432 
7.83057 
-11.0093 
1.66091 
-14.2188 
-6.86091 
11.5099 
9.88456 
4.02308 
-20.435 
3.9943 
15.6756 
7.59257 
-1.81378 
-7.08658 
-5.54105 
-32.1684 
0.600584 
12.8817 
1.21209 
-11.4204 
1.87098 
-10.9455 
13.7205 
-3.62723 
-16.821 
9.49904 
-3.78384 
-6.49872 
9.14209 
2.11422 

23.5007 
1.59235 
11.6703 
-15.7275 
-13.8746 
-6.92614 
12.5768 
2.9419 
-4.01819 
10.0704 
-0.0569294 
8.8636 
6.90847 
14.0318 
1.69769 
6.78749 
-7.61679 
-5.936 
-14.487 
-4.39731 
-4.94118 
-14.3474 
-9.94684 
1.11974 
-0.760284 
-4.7125 
-27.0316 
14.9152 
21.6682 
8.68974 
3.83851 
5.8943 
-2.49418 
7.13897 
1.38081 
0.174153 
0.0322494 
2.51767 
-13.972 
16.8634 
1.44367 
15.2419 
-15.441 
-0.239354 
-1.74883 
-12.1626 
2.97674 
-14.4579 
-8.95499 
3.23755 
-8.07062 
11.2305 
-3.73581 
18.3422 
14.8372 
-20.9237 
4.40289 
5.93397 
-11.0102 
-6.74794 
25.7832 
-11.1771 
3.43537 
-13.454 
-9.73693 
5.76782 
6.356 
8.46943 
8.40579 
12.5824 
-18.3836 
-15.5968 
-15.9606 
-14.864 
6.78187 
-8.16651 
-7.77772 
12.2463 
10.413 
15.2721 
-3.77887 
-7.6718 
-12.0968 
-9.04778 
1.49223 
-5.4012 
-5.22823 
-16.5567 
16.9433 
-10.6854 
5.03099 
-18.8948 
2.79735 
5.50001 
7.1512 
-19.2339 
-3.97543 
5.72031 
6.10772 
-3.94814 
-6.68433 
13.5755 
7.18761 
-14.0386 
-16.6254 
4.59786 
-18.4522 
13.526 
-15.2782 
-2.66812 
15.8585 
-6.9741 
-13.0964 
-15.2195 
-14.1169 
-19.29 
-8.42902 
3.09306 
11.571 
18.5363 
18.713 
12.66 
4.4209 
-4.73448 
3.49443 
-4.67478 
-7.6876 
-6.58484 
-10.0899 
-0.689178 
-12.9174 
5.11474 
13.6571 
5.35219 
0.752265 
-10.2411 
16.9963 
7.91791 
0.818004 
5.78917 
4.78025 
-6.77091 
6.41644 
6.05323 
-10.2432 
1.8086 
-14.8019 
-13.5765 
4.01079 
-14.025 

-1.40344 
-2.02409 
20.6823 
-25.3167 
-12.7369 
-12.7343 
14.6872 
-2.49173 
-5.83606 
-24.3472 
-14.2936 
-18.7551 
22.8313 
-6.63337 
-1.27043 
7.14513 
2.8645 
2.78819 
-8.2605 
-8.93148 
3.87333 
-2.07161 
11.5972 
-24.6213 
-1.10673 
-6.91883 
-3.85723 
-9.87896 
13.9159 
3.88027 
31.0808 
12.4222 
6.2972 
-12.8875 
-11.6587 
3.15739 
16.7589 
3.62025 
-18.4441 
7.19776 
-20.7167 
16.6978 
-16.2717 
-0.160944 
-14.1147 
-11.9429 
-22.839 
-3.00311 
-25.1769 
13.1905 
-6.26786 
12.8383 
16.1842 
-10.2063 
8.4394 
9.35209 
-6.97797 
-6.22946 
-8.54637 
4.31752 
1.94747 
5.85787 
1.94638 
-4.69509 
2.6142 
12.2659 
7.46248 
-4.19669 
29.4778 
-6.31998 
0.63221 
-21.9233 
-1.53812 
-0.539102 
12.7459 
11.0055 
-10.2638 
8.28071 
4.86167 
9.53749 
-9.7969 
-3.96094 
-0.49023 
14.949 
12.1769 
-24.6752 
-16.5157 
-11.8359 
-4.73377 
1.17971 
5.80939 
9.74088 
-7.96137 
-16.4215 
-15.8421 
-13.1504 
11.2098 
11.4509 
-5.65498 
-13.9798 
-1.3378 
-8.88213 
25.5678 
1.06266 
-6.96781 
12.7367 
-17.3272 
-5.57262 
-13.6555 
-15.2652 
7.1583 
-12.8363 
6.25374 
16.3389 
-14.3794 
-18.7013 
-29.3772 
-4.20804 
-11.7154 
18.6206 
0.326318 
8.43996 
-19.4265 
10.259 
2.1029 
0.322326 
1.10876 
4.85717 
-4.04201 
-9.87488 
13.237 
19.2688 
1.48656 
1.31383 
4.67928 
-28.2111 
9.41533 
-15.7893 
2.87185 
1.38653 
0.242237 
9.08318 
15.5601 
25.3298 
-14.2554 
2.83069 
-23.2489 
-10.966 
3.12623 
8.60886 

-1.36009 
-2.92762 
-19.1561 
7.02128 
-8.11163 
9.97375 
-6.64547 
-4.74743 
1.80236 
-20.3824 
-0.507577 
18.6513 
4.11144 
-5.82749 
3.05552 
7.52343 
1.02729 
7.63169 
-10.6166 
-21.2758 
4.29956 
3.49523 
10.7987 
6.94151 
-12.8036 
8.63964 
5.27372 
8.22893 
-4.37068 
2.29552 
-5.34434 
18.5734 
-12.4986 
18.0149 
0.745394 
-8.40588 
-18.2469 
-7.81404 
-4.23983 
-6.09226 
29.3714 
19.2534 
-10.2285 
1.58761 
2.29038 
-24.8364 
-0.757922 
-5.30207 
4.36354 
-10.4452 
1.82894 
-4.48557 
-18.1362 
-4.21718 
-5.93836 
1.20944 
-3.02038 
-7.4666 
-8.64764 
4.64561 
1.51214 
19.5124 
-4.57254 
-14.2705 
-12.1626 
-3.99064 
-5.85744 
-4.06328 
9.39431 
-0.530398 
-1.92808 
-0.646061 
17.5666 
-4.6749 
0.20821 
1.56791 
-1.41169 
0.400328 
3.28579 
-2.12347 
10.4898 
-9.78373 
-6.93013 
-8.35935 
13.4379 
-10.2569 
-19.7021 
10.7989 
25.0925 
-7.81624 
-3.16818 
-4.17794 
1.89667 
1.39559 
5.37274 
4.11102 
-20.166 
-5.31087 
-3.31264 
-25.2063 
-4.17673 
14.0005 
-3.21474 
-9.10887 
6.76656 
-1.85034 
-1.98211 
-5.95104 
-0.683064 
-0.787574 
3.32544 
2.73724 
-9.30611 
-12.557 
-19.0671 
8.97539 
24.2572 
12.424 
11.6478 
15.3352 
2.54943 
-3.36148 
2.65201 
-7.61559 
4.72618 
-9.13145 
-11.3767 
0.20969 
-7.61402 
-9.16712 
-3.31851 
-16.6083 
-6.08061 
11.9786 
5.61185 
-0.148825 
3.21627 
21.639 
6.57437 
0.444274 
-13.0158 
11.5461 
-10.1521 
1.89592 
-8.57971 
-7.16322 
11.3816 
-8.9024 
-3.01478 
-8.3063 

-0.527991 
5.9759 
3.23586 
4.42667 
12.3336 
-10.9079 
-15.972 
-0.0799567 
27.7604 
39.2789 
15.959 
0.022742 
-15.5887 
26.5832 
8.83062 
-4.32605 
-9.78158 
-26.4999 
7.50736 
1.74389 
15.6574 
-8.95337 
-8.32605 
-0.312335 
-12.7077 
7.37406 
-21.2242 
3.97481 
-15.1858 
3.711 
-7.77523 
-23.1714 
-5.3103 
-7.98586 
-2.48679 
1.13072 
16.733 
6.60566 
14.5645 
-2.12558 
-6.19853 
-10.296 
7.57456 
-6.06918 
-1.24108 
29.6112 
4.05203 
-0.596354 
8.11407 
-13.6607 
-10.7349 
3.97006 
-0.503794 
3.09531 
10.1438 
1.98913 
12.5758 
-8.79694 
-9.84516 
-1.18769 
-1.97602 
-19.6014 
-6.4291 
16.6141 
2.31579 
10.2787 
-3.52306 
11.9872 
-15.0588 
-11.874 
-10.322 
7.3298 
-3.29049 
22.9986 
-31.3124 
15.0965 
7.28968 
0.446545 
-6.7543 
-6.9606 
-3.02761 
4.57486 
1.50459 
-6.41793 
-17.9651 
32.8953 
16.1971 
-5.62521 
-16.8559 
-0.653715 
1.46107 
-18.0674 
-0.137612 
3.56394 
4.48602 
3.56112 
14.2481 
17.2736 
-15.1304 
18.779 
2.34033 
6.26475 
-21.2919 
5.70934 
9.46943 
-12.9343 
-0.698136 
-2.50239 
-10.0318 
21.0065 
-11.4246 
-21.3641 
-7.51317 
-17.663 
0.868933 
5.72103 
-11.8047 
1.72736 
24.9782 
-14.6879 
-6.57783 
-1.53066 
2.39025 
-7.39412 
-22.2844 
4.98264 
24.8341 
15.7959 
9.60724 
14.4785 
7.79657 
-3.89845 
-16.6823 
-0.257977 
-14.2762 
1.05806 
-17.8259 
7.97955 
-10.2356 
-14.349 
4.44067 
-16.0344 
11.5436 
-14.9737 
35.4656 
-9.80945 
1.14762 
20.1947 
-14.7489 
-9.10151 

36.109 
-18.3068 
-13.5681 
-34.1789 
-39.5926 
-15.7927 
31.2011 
20.9689 
-26.2118 
-59.5038 
-27.0366 
-3.24158 
38.1825 
-8.94624 
23.6291 
15.8819 
-18.9866 
33.4642 
-11.759 
2.0318 
-6.59583 
-13.2277 
-1.39397 
-16.7766 
7.78094 
0.443417 
-16.9743 
16.9747 
26.9151 
17.1117 
22.6099 
13.9171 
28.5609 
21.383 
-10.7134 
-7.15909 
-2.68171 
-27.381 
-49.0943 
13.8506 
-21.2753 
42.6309 
-32.6582 
20.1571 
12.5191 
-49.0442 
-13.1425 
-26.8508 
-28.8766 
33.8556 
-20.9637 
34.6734 
25.2417 
27.9386 
23.6552 
-15.7028 
1.06407 
8.22932 
7.39425 
-14.2468 
25.2634 
27.319 
-5.60624 
-24.1643 
21.9569 
23.9059 
5.52519 
-4.42206 
30.5621 
19.7201 
-19.1446 
-38.341 
-12.5169 
-41.5125 
46.3464 
-48.2582 
-25.5034 
23.2414 
23.174 
22.284 
-25.2054 
-30.7335 
-4.70296 
31.8986 
43.5996 
-39.6218 
-33.843 
-22.8443 
19.2326 
16.6112 
14.7266 
1.61069 
20.414 
-25.7678 
-13.2057 
-35.773 
-33.8558 
3.19322 
25.187 
-34.5311 
-9.41354 
18.1979 
23.7559 
-22.6431 
-31.4474 
-4.13552 
-48.838 
8.22893 
-17.6232 
-29.6733 
37.1728 
-8.18113 
-23.0313 
1.7565 
-20.2569 
-41.4089 
-0.287303 
8.757 
-10.9789 
50.7477 
20.9853 
9.88733 
-9.94776 
7.94108 
24.2173 
-4.32745 
-16.0892 
-3.04927 
-5.53047 
-6.12808 
-0.752131 
23.2054 
49.243 
35.8948 
2.8968 
-63.2071 
38.3953 
24.0132 
27.7008 
37.707 
-3.89752 
11.6218 
-18.8082 
51.1546 
-42.1227 
5.51195 
-29.8814 
-48.2517 
-2.66651 
-27.7768 

6.33842 
-9.33999 
-14.8192 
-7.49426 
-6.66507 
-1.74991 
1.33272 
12.802 
-5.09032 
-12.955 
-3.67317 
-0.245224 
11.0109 
-7.86323 
12.5182 
3.8633 
-7.37298 
-4.08424 
5.66558 
-11.4905 
-6.39028 
-6.59156 
-1.20904 
-0.31691 
14.1827 
4.43925 
-2.97812 
7.42833 
-7.67385 
2.44212 
-4.04085 
8.2778 
3.31166 
8.15441 
9.17712 
-8.33773 
1.06443 
-15.6664 
1.77582 
-2.96555 
11.8606 
-0.580512 
-4.31536 
-4.12194 
8.78851 
3.86426 
-5.93644 
5.15929 
-11.3786 
-1.97422 
8.9977 
8.08904 
7.30742 
18.3328 
7.46226 
-6.3937 
3.7708 
-5.96558 
11.6078 
6.18056 
-8.71667 
1.28653 
-8.73695 
8.51758 
-6.3874 
1.65672 
-1.26349 
13.5193 
-3.68838 
9.76201 
-11.1205 
8.69513 
9.6777 
-11.4289 
-5.52943 
-14.3107 
15.1888 
-3.25718 
0.675861 
9.69935 
-9.4932 
-10.3097 
1.84307 
-0.0167038 
-9.37383 
-1.88773 
1.1966 
8.13883 
8.79564 
-4.36103 
-9.94256 
-9.16224 
13.9424 
1.43253 
9.88692 
6.46549 
-11.5335 
-4.63607 
10.8525 
-3.55516 
12.8413 
15.0786 
-0.527285 
-3.95047 
0.927015 
9.9984 
-1.31623 
-13.1432 
-3.46696 
4.53021 
10.2746 
-6.45192 
-8.85843 
-2.45842 
-3.07055 
8.23411 
7.15965 
-2.37167 
13.7697 
1.82936 
6.07426 
-0.882778 
-1.54461 
11.1268 
3.55612 
-16.8135 
4.27145 
6.3448 
-6.73333 
-3.01122 
-1.14393 
-9.08509 
14.2884 
4.07971 
-10.6672 
-8.88715 
10.4875 
8.20308 
-1.41985 
-0.383121 
-6.56062 
-4.21067 
-16.7098 
12.7407 
-8.52507 
1.20302 
7.48789 
-5.19936 
0.863525 
3.53581 

-0.127418 
-7.27605 
-0.168496 
-20.0729 
-14.3468 
-2.96846 
3.41482 
8.69305 
-3.53907 
-4.3377 
-6.17886 
4.52809 
12.267 
-3.21937 
10.6825 
9.30133 
-2.53146 
4.69907 
-12.0734 
-0.155292 
-6.7075 
-3.5938 
7.40702 
-18.4245 
3.83794 
-1.97114 
-12.1815 
5.8653 
5.63371 
-1.00748 
7.54049 
12.4432 
10.2652 
2.17172 
-16.1314 
3.41696 
10.5482 
7.76372 
-14.5935 
0.0849264 
0.73259 
12.2585 
-2.20683 
3.7725 
4.00035 
-10.1002 
-2.98818 
-6.62154 
-13.0723 
16.2428 
-5.08097 
-2.39235 
21.5653 
0.385115 
-0.502751 
-4.05244 
7.46545 
-0.185856 
12.0436 
-5.79717 
0.966984 
11.4797 
3.96656 
-14.5196 
-1.99032 
1.88167 
8.47663 
4.66212 
9.22086 
5.44438 
5.66608 
-24.8629 
-8.30879 
-11.864 
1.93356 
1.10462 
-9.78339 
14.8416 
2.4676 
0.528684 
-13.1453 
-3.87241 
-5.05272 
17.2433 
12.3015 
-1.67319 
-1.27829 
-14.4564 
13.799 
5.98347 
4.34602 
-5.02032 
1.26753 
-0.0225191 
-0.326442 
-6.73025 
-11.9765 
10.8452 
-1.03009 
3.60233 
5.24253 
5.68961 
9.38906 
1.01892 
-15.7297 
2.3173 
-3.54811 
1.62222 
-18.5731 
0.870154 
0.517683 
-9.55969 
-13.8526 
-3.66211 
-16.3389 
-8.68126 
-1.03155 
13.5026 
-7.9724 
16.9019 
1.21674 
8.64099 
2.03184 
4.71298 
-7.10473 
-0.87854 
-11.7137 
4.24024 
-8.63043 
4.71093 
9.65511 
1.68002 
3.91649 
-0.0469532 
-2.49462 
-19.7154 
21.0715 
-5.96567 
4.70721 
17.2104 
6.64208 
1.88193 
6.12026 
22.366 
-14.9592 
13.161 
-19.7365 
-15.9187 
4.19228 
-15.3608 

11.2309 
4.68976 
-2.4675 
-7.15221 
-5.26054 
-0.961324 
-2.68907 
8.40904 
-6.44986 
-7.67723 
-1.24254 
3.34806 
-8.66023 
8.88706 
9.05226 
-5.85696 
9.41113 
1.98877 
-8.51519 
6.00053 
-3.97735 
11.9179 
10.2012 
4.95235 
-0.993626 
-1.4337 
2.22095 
2.70278 
-5.23359 
-6.23293 
-3.83265 
0.722345 
3.67327 
7.33898 
0.971645 
2.55357 
-8.45047 
7.6062 
-8.15265 
-8.65262 
3.11695 
0.756012 
3.62579 
11.5442 
10.3914 
-10.7617 
10.0421 
3.67507 
1.17438 
-6.49882 
-7.01093 
3.24919 
3.74707 
-5.6553 
-0.826264 
-8.86056 
-8.43919 
7.45109 
-1.24744 
-7.99928 
-6.95018 
10.3838 
6.43223 
-1.85387 
4.09476 
-11.4162 
11.3809 
-5.01179 
3.78359 
9.06937 
-7.97011 
-4.55384 
-10.7155 
-5.98715 
-5.3451 
-13.5941 
-1.52845 
5.7611 
-1.10116 
-9.89739 
-5.1258 
-1.30589 
-4.80578 
-7.58349 
10.6165 
-1.72119 
-6.51462 
-1.7612 
-0.036021 
-5.58703 
3.63569 
-8.19194 
-8.84921 
10.6135 
-3.61959 
-5.74584 
6.18285 
3.20392 
-3.51189 
-1.20014 
-0.385663 
-5.84073 
2.98973 
4.80673 
-0.526327 
0.980693 
-6.77235 
6.08883 
4.57415 
4.94443 
5.34289 
-8.47932 
9.23677 
-2.191 
-7.41386 
-5.62499 
-7.35969 
-6.27678 
4.10148 
-6.38478 
-6.76053 
-6.92732 
4.73563 
5.28218 
-7.66284 
8.45218 
-2.51296 
4.8977 
4.04323 
3.79697 
-8.32773 
6.97041 
4.15721 
0.996976 
-5.76826 
-8.57157 
4.55611 
4.21166 
-1.57367 
3.94528 
8.73988 
1.26715 
-4.31329 
8.42405 
-12.3014 
-6.46295 
-6.73835 
-10.787 
4.63176 
1.60268 

2.95824 
-0.861404 
3.91193 
2.98021 
-4.12464 
3.14408 
-13.748 
3.33893 
-1.76054 
3.62946 
-0.494083 
-0.689224 
-7.80521 
9.3164 
0.366967 
-1.30868 
-0.322675 
-8.73231 
-5.68976 
-11.4269 
-2.15 
0.419962 
-1.60378 
8.61945 
5.12391 
3.18714 
7.79267 
1.14438 
-7.29205 
-0.983074 
-11.2473 
1.11988 
-11.0464 
-3.16363 
-4.55522 
9.1209 
-8.55385 
5.43886 
1.66341 
-9.90019 
-7.49494 
-3.46642 
-0.243836 
-7.03223 
-9.64541 
12.6866 
2.25598 
4.83158 
8.93736 
-11.524 
6.80808 
-5.08242 
2.79834 
6.69956 
-12.9299 
-1.04678 
-8.53078 
-1.75173 
0.521524 
-5.27008 
-11.6377 
-6.60565 
0.834713 
6.43365 
2.78003 
-3.10287 
1.44606 
10.1996 
-12.0655 
-11.2899 
5.67126 
1.38689 
0.165955 
9.1419 
-10.5742 
-2.19575 
-0.513544 
-0.689507 
-11.5823 
-6.64959 
7.6733 
0.35863 
0.492148 
0.0241191 
3.08741 
-1.96912 
8.6646 
-8.93228 
0.604281 
8.16314 
-1.51306 
-5.71571 
-6.5066 
-1.8691 
-7.76699 
-8.49169 
5.4371 
-3.51155 
-5.27978 
1.46084 
-6.42224 
8.7407 
-7.22668 
-4.28937 
6.43611 
0.612267 
-0.937698 
2.56454 
6.41925 
10.5828 
-11.9264 
-7.49522 
9.43006 
-7.68913 
0.673639 
9.94564 
-5.64555 
-6.288 
0.362711 
0.720453 
-7.38339 
-12.7522 
-5.90693 
-2.66699 
8.50312 
4.78049 
-6.33049 
5.82301 
-5.89847 
1.25853 
1.97808 
4.48466 
-2.3605 
-10.0693 
3.32127 
-0.682133 
-12.7286 
-10.5278 
0.298931 
4.50127 
-10.8321 
-8.33323 
-9.68237 
-4.12813 
4.17746 
-2.835 
12.0764 
-3.64205 
-5.69252 
1.11186 

-9 
-6 
-9 
6 
-3 
-10 
2 
-1 
-5 
-2 
-9 
1 
-6 
0 
1 
8 
-3 
3 
1 
9 
-8 
-7 
-6 
4 
4 
-3 
6 
3 
2 
-6 
3 
-5 
-10 
4 
-9 
-3 
-4 
-4 
-1 
-7 
-4 
-8 
4 
0 
2 
-5 
-10 
1 
0 
-7 
-8 
2 
-4 
9 
-3 
-10 
-4 
-7 
4 
1 
9 
-3 
-2 
2 
4 
0 
1 
-10 
-2 
-10 
6 
4 
-8 
0 
6 
-3 
-2 
-2 
0 
8 
2 
3 
1 
8 
2 
0 
1 
0 
-5 
7 
3 
7 
-6 
-8 
-1 
0 
-6 
-10 
-7 
2 
-9 
9 
8 
5 
-1 
-4 
4 
7 
4 
-5 
6 
8 
8 
9 
-1 
-8 
-9 
-10 
2 
-4 
7 
-4 
-7 
3 
-10 
-6 
-6 
-6 
-5 
-3 
-2 
8 
8 
8 
3 
-3 
-6 
-2 
7 
8 
3 
-5 
-1 
-7 
-6 
8 
-5 
7 
0 
-1 

5 
9 
-3 
9 
2 
-3 
5 
-2 
1 
-10 
-3 
1 
8 
-5 
-1 
-6 
-5 
3 
-6 
-8 
-6 
-1 
-3 
3 
2 
-7 
-7 
-1 
2 
3 
8 
-3 
2 
-4 
8 
6 
3 
4 
7 
7 
4 
6 
-10 
-5 
4 
0 
-1 
1 
5 
3 
3 
9 
-8 
2 
-6 
-4 
-3 
9 
5 
9 
-6 
-5 
8 
-2 
1 
7 
-5 
7 
1 
4 
-4 
-5 
-8 
-4 
0 
6 
-2 
1 
-3 
-6 
-6 
2 
5 
8 
6 
2 
6 
5 
1 
-7 
-4 
6 
-1 
-5 
6 
-10 
-8 
-9 
-1 
3 
-3 
5 
0 
0 
-8 
-9 
8 
-8 
-6 
8 
-4 
-9 
0 
4 
9 
9 
-4 
-2 
4 
-1 
1 
-9 
7 
-10 
-4 
4 
3 
-2 
-3 
-8 
3 
-3 
0 
-7 
7 
-6 
6 
-3 
-4 
-9 
-5 
3 
-8 
-2 
9 
3 
-3 
7 
-9 
-9 

-4 
-5 
4 
6 
-5 
-10 
0 
8 
-10 
7 
3 
-5 
6 
-7 
-1 
3 
-3 
7 
3 
3 
0 
8 
8 
-6 
-4 
7 
0 
3 
-4 
-7 
-3 
3 
-2 
-9 
-1 
4 
4 
1 
-6 
4 
-10 
7 
2 
7 
2 
3 
-8 
9 
0 
5 
-5 
-9 
-4 
5 
7 
2 
-5 
-3 
8 
1 
1 
-5 
6 
9 
8 
-5 
-5 
2 
6 
-8 
9 
-1 
9 
1 
-4 
-6 
-6 
-2 
-7 
-4 
-6 
-10 
9 
0 
6 
7 
4 
3 
6 
-6 
-6 
-3 
-9 
-9 
9 
-10 
8 
6 
2 
-3 
8 
-7 
6 
0 
4 
-8 
4 
0 
-8 
-1 
7 
-4 
0 
-2 
-2 
8 
-5 
5 
1 
-8 
9 
5 
-9 
-9 
-2 
2 
-9 
-3 
-1 
-5 
4 
9 
-9 
0 
-1 
-3 
-6 
-7 
8 
-4 
3 
-3 
-5 
5 
5 
-5 
3 
3 
2 
6 

5 
2 
1 
-2 
-5 
2 
3 
8 
9 
4 
5 
-5 
3 
6 
-3 
-7 
-6 
1 
8 
-8 
-1 
-7 
-9 
-4 
0 
6 
2 
5 
-9 
-6 
1 
-2 
-2 
5 
7 
3 
-3 
0 
-7 
-4 
-6 
9 
1 
-1 
5 
8 
-6 
9 
-9 
5 
3 
0 
8 
4 
-1 
-9 
-7 
-9 
6 
-6 
7 
-2 
3 
8 
-7 
-8 
1 
-8 
-6 
5 
-2 
-10 
-4 
1 
-1 
-9 
-9 
-4 
-9 
-8 
-9 
4 
-6 
1 
-9 
3 
2 
-6 
-4 
-1 
-10 
6 
-1 
-5 
4 
-6 
9 
7 
-4 
-7 
-6 
-4 
5 
0 
7 
-5 
2 
8 
-7 
-5 
2 
-6 
9 
-2 
5 
2 
4 
-10 
-2 
-10 
-1 
-1 
6 
0 
-4 
-8 
4 
-4 
-10 
2 
-9 
-6 
8 
7 
-3 
-3 
4 
9 
7 
7 
-6 
-1 
-9 
5 
-1 
-2 
-10 
-7 
-2 
-2 

-6 
-1 
-1 
2 
1 
6 
5 
7 
4 
-3 
-1 
5 
-7 
9 
-6 
0 
-4 
8 
-1 
-7 
5 
-5 
-6 
-2 
3 
4 
-1 
3 
7 
-1 
-9 
3 
9 
1 
-4 
-8 
9 
3 
-10 
-5 
-10 
-1 
-10 
-7 
-1 
-5 
-4 
-3 
5 
-3 
1 
-7 
3 
5 
1 
-4 
-1 
2 
9 
-3 
-8 
2 
-10 
3 
5 
8 
5 
-4 
1 
-3 
1 
-7 
-1 
-6 
9 
0 
-1 
-5 
7 
-6 
2 
-2 
9 
7 
6 
1 
5 
-5 
5 
-4 
-6 
-1 
9 
7 
-8 
-4 
5 
0 
3 
9 
7 
-6 
4 
8 
-2 
3 
-2 
-1 
0 
-4 
-4 
5 
-4 
-5 
2 
-8 
-2 
-10 
-10 
-6 
-4 
-6 
3 
7 
3 
-2 
-6 
-1 
8 
7 
-10 
-3 
3 
4 
-4 
4 
-10 
-4 
-7 
0 
-6 
-9 
7 
1 
-3 
0 
-5 
-3 
-8 
-5 

1 
-2 
-8 
7 
-4 
5 
7 
-8 
6 
5 
9 
6 
4 
-6 
-7 
2 
8 
-7 
1 
4 
-5 
5 
5 
-7 
-4 
4 
-5 
2 
-8 
-3 
-1 
3 
-3 
1 
-8 
3 
9 
9 
5 
5 
-4 
-4 
-6 
3 
-7 
-3 
-5 
-9 
-8 
6 
-3 
-3 
2 
-7 
-8 
0 
7 
-3 
4 
9 
-4 
-6 
-5 
4 
-3 
-3 
9 
-4 
9 
-3 
4 
-5 
-5 
8 
8 
-2 
7 
6 
-8 
1 
-6 
-1 
8 
-2 
2 
3 
1 
-8 
-10 
-5 
-9 
9 
-9 
8 
3 
-1 
8 
-6 
-3 
7 
1 
-9 
4 
7 
1 
3 
-5 
-10 
-9 
-3 
1 
7 
-1 
-8 
-4 
-9 
5 
7 
5 
-3 
4 
-1 
-4 
6 
-3 
1 
-5 
-5 
-2 
-6 
4 
9 
-4 
-1 
-2 
-1 
4 
-4 
-8 
5 
-5 
3 
2 
4 
-3 
0 
-2 
-8 
9 
-7 

-8 
4 
2 
-10 
0 
-10 
-6 
-3 
7 
2 
1 
2 
-7 
-1 
3 
2 
9 
-3 
0 
3 
4 
5 
-4 
8 
0 
-4 
-9 
8 
-10 
-10 
-9 
-8 
4 
4 
-7 
-6 
-4 
9 
1 
5 
1 
-7 
-3 
4 
2 
2 
8 
-7 
9 
-2 
6 
-5 
6 
5 
-6 
-4 
-9 
7 
6 
-9 
7 
-1 
6 
2 
-7 
1 
-2 
-9 
0 
2 
7 
-9 
-3 
6 
-3 
9 
-1 
8 
5 
-10 
-4 
-7 
-4 
4 
8 
-8 
-10 
1 
9 
-2 
-5 
6 
8 
-9 
-10 
3 
-6 
-1 
5 
4 
-9 
-6 
-3 
-10 
-10 
4 
9 
-9 
2 
-4 
-8 
1 
0 
-2 
7 
-10 
-8 
0 
-6 
-9 
8 
-1 
-1 
6 
-8 
0 
-8 
-4 
1 
7 
2 
-6 
3 
9 
-6 
-5 
-5 
5 
-3 
0 
4 
-1 
3 
-6 
-1 
0 
6 
1 
-10 
-10 

-6 
9 
-9 
3 
-3 
5 
5 
-1 
3 
8 
8 
-5 
-8 
1 
6 
8 
7 
-8 
4 
-6 
2 
-2 
-5 
7 
-6 
-4 
-3 
2 
-1 
-2 
-5 
3 
9 
-4 
8 
-4 
4 
-4 
6 
-3 
-6 
4 
-5 
9 
8 
-9 
7 
-3 
5 
-7 
-7 
9 
-7 
-2 
6 
9 
4 
-6 
2 
-7 
-6 
-1 
-2 
-7 
-3 
-4 
-1 
-9 
-6 
7 
-1 
-1 
-6 
-4 
-2 
4 
-3 
7 
-9 
-7 
-9 
-6 
4 
-6 
-6 
1 
-6 
8 
5 
-2 
3 
1 
7 
3 
4 
-6 
1 
5 
8 
6 
-5 
9 
-5 
-1 
-5 
-5 
5 
-6 
-8 
6 
9 
5 
-10 
4 
-10 
-6 
-5 
6 
4 
2 
-6 
9 
-7 
3 
2 
-1 
-1 
-7 
-6 
-3 
1 
-9 
-4 
6 
0 
1 
3 
-5 
-2 
-2 
3 
-3 
-7 
3 
-9 
-7 
-1 
-4 
1 
5 

0 
-3 
4 
-5 
-10 
8 
4 
-8 
-8 
1 
-1 
3 
2 
-2 
-8 
5 
1 
-3 
2 
9 
5 
-4 
-3 
9 
1 
-2 
4 
3 
-3 
8 
-2 
-1 
-5 
5 
5 
8 
3 
-1 
-10 
-3 
2 
-9 
-9 
-5 
-1 
5 
-10 
-9 
4 
-6 
2 
0 
0 
9 
-9 
4 
-10 
-3 
-3 
9 
-5 
5 
-2 
1 
0 
5 
-1 
6 
7 
-9 
-7 
-1 
-8 
6 
4 
2 
1 
-4 
-5 
8 
1 
7 
-2 
3 
-1 
-9 
-3 
-9 
-2 
4 
-10 
-4 
-8 
-10 
-1 
-6 
6 
0 
-10 
-5 
1 
-6 
4 
3 
-10 
-9 
7 
-6 
9 
4 
-8 
-8 
-6 
-8 
6 
-5 
5 
5 
-4 
-7 
-8 
8 
-9 
-6 
0 
0 
-2 
-4 
-10 
-9 
-7 
1 
-5 
8 
7 
7 
1 
-4 
3 
0 
3 
-3 
3 
7 
-1 
-9 
4 
-6 
-2 
-10 

-10 
0 
0 
-9 
4 
-10 
-6 
5 
9 
-6 
-2 
-8 
-2 
3 
-10 
7 
-8 
-7 
5 
6 
4 
-2 
-7 
9 
7 
-5 
2 
1 
-9 
-10 
-7 
-9 
-7 
3 
5 
-1 
4 
1 
6 
3 
5 
-6 
-3 
5 
-1 
-10 
2 
2 
-7 
-10 
-10 
-1 
-2 
-7 
-10 
8 
-10 
2 
-1 
-8 
-5 
-5 
5 
-10 
8 
-8 
-1 
-6 
3 
-4 
-1 
-9 
0 
7 
6 
2 
7 
-9 
-6 
-10 
-9 
-6 
0 
-9 
9 
-8 
9 
2 
5 
-9 
4 
2 
8 
-1 
2 
6 
-6 
3 
3 
7 
9 
-8 
8 
-8 
1 
-3 
4 
-2 
-2 
0 
-9 
-9 
-4 
-7 
4 
7 
-5 
-4 
-1 
2 
-3 
-7 
6 
-5 
-5 
-2 
3 
-9 
4 
8 
8 
-5 
-9 
-1 
-3 
2 
6 
3 
3 
6 
5 
4 
-1 
3 
-1 
-7 
1 
4 
-1 
-10 

-1.84191 
8.30224 
2.56857 
6.48338 
-1.57643 
0.343397 
-0.839397 
7.75094 
3.98925 
-0.682026 
4.6989 
4.18455 
6.22587 
2.93085 
6.06262 
9.1738 
1.05926 
-5.71414 
-7.54812 
-1.66335 
8.41467 
0.824871 
-1.50007 
-3.26008 
1.94461 
-10.0546 
0.411581 
-7.66565 
3.65021 
7.38342 
5.70448 
-2.37697 
-4.4613 
-10.6882 
-6.30654 
0.603795 
-0.396936 
-11.2898 
5.78447 
0.935278 
1.49088 
-7.71098 
2.07572 
-5.98911 
0.207415 
-6.8422 
0.583164 
-6.84598 
-1.0504 
8.33612 
-4.0589 
-8.32198 
-5.53395 
-8.6369 
4.04155 
-2.02558 
8.03398 
-0.558766 
-10.5979 
8.93514 
6.73368 
-5.44184 
-6.23976 
3.2295 
-1.24285 
-13.9241 
-1.94707 
-5.91848 
-9.16998 
0.873415 
-11.6214 
-9.0863 
-0.887159 
4.65448 
-4.24251 
3.05844 
1.19629 
0.420869 
-0.645687 
2.44074 
-5.04827 
-7.09634 
1.01801 
1.20604 
8.24104 
-6.27145 
-1.5945 
0.963409 
-1.64399 
-0.0466456 
-2.88051 
-14.8439 
-4.89991 
1.29002 
-1.03177 
5.46996 
3.33878 
-8.59424 
-6.66154 
-1.5557 
4.55996 
1.10141 
3.32126 
6.7357 
3.93382 
-4.02899 
1.09028 
-3.1286 
-7.5902 
6.25445 
1.8743 
-7.90169 
-1.13122 
-8.46078 
1.96422 
-3.13869 
8.77211 
-0.398791 
6.50436 
-6.49188 
-1.437 
12.2648 
7.79884 
-12.5277 
-4.00292 
2.32577 
-7.15509 
0.0891777 
10.1016 
-9.16598 
3.88645 
-6.59185 
-4.67677 
-10.2649 
-6.85326 
5.04774 
-1.54196 
6.28593 
-10.7983 
-9.47489 
10.756 
-7.57155 
-13.1226 
1.11255 
-5.12037 
-13.5184 
12.6989 
6.33775 
-7.77511 
-8.03728 

8.55566 
11.0696 
-17.5756 
6.38686 
-19.2958 
-10.9652 
24.4757 
3.93247 
6.78481 
5.47728 
2.07252 
3.37024 
1.11836 
4.18501 
0.992257 
10.9394 
-9.94837 
-22.6061 
-1.92944 
6.4226 
10.7756 
-13.6662 
-14.8786 
-0.940036 
11.0975 
-4.47594 
-6.77905 
-1.26648 
9.48705 
-12.6668 
4.63533 
4.84948 
-7.62097 
-3.57089 
6.62511 
-6.99284 
-8.16872 
-0.786839 
8.08134 
3.86961 
-2.47469 
-6.54393 
1.31387 
1.72215 
3.32942 
-14.9535 
7.48727 
-13.952 
7.6673 
18.8196 
1.59667 
-9.29538 
-26.0552 
-3.18367 
2.47502 
-11.0647 
12.9725 
-18.6803 
-13.6056 
2.40971 
10.3663 
-4.96538 
-8.65426 
-2.53112 
-0.672151 
-30.1111 
10.6191 
13.8838 
-6.45156 
6.33675 
-10.5124 
-5.63515 
-11.2666 
-4.21892 
13.632 
-15.9366 
-3.60957 
-8.11842 
12.8564 
-0.617452 
-0.884143 
-10.4317 
-1.13792 
17.4839 
9.78842 
18.0007 
1.59445 
-15.3798 
12.4389 
-15.4648 
13.1478 
-9.34651 
2.75021 
5.69681 
21.4709 
10.515 
-4.5643 
-5.63941 
-4.3965 
8.18096 
-2.57326 
8.42865 
8.60317 
-5.68081 
-8.29682 
0.945394 
-17.628 
7.84877 
13.2861 
0.662142 
-17.0565 
11.4254 
1.52212 
-3.57249 
5.1491 
-5.46857 
8.87269 
-16.6651 
5.56723 
-12.7863 
6.33388 
19.1692 
8.04664 
-14.591 
23.4145 
-9.22059 
5.76056 
-4.30295 
17.7882 
1.04403 
-2.8946 
0.847986 
-13.1176 
2.59606 
-3.24327 
-9.47624 
-8.43741 
14.1289 
4.37984 
10.0545 
9.38796 
-21.9603 
-7.92816 
13.6413 
-0.946774 
-7.86714 
14.5581 
6.30016 
-2.10441 
-15.3749 

10.7699 
7.76295 
9.57473 
9.73475 
22.0974 
13.4421 
-9.23055 
2.42898 
9.0985 
17.6955 
10.9918 
2.52815 
-7.18354 
2.2636 
6.1419 
-3.31718 
17.7014 
5.1584 
0.689299 
-15.1364 
-5.20651 
10.6396 
17.5438 
2.0528 
-12.9429 
-2.51756 
-18.2093 
-1.77591 
-9.84748 
-1.00504 
-3.72042 
7.53709 
-12.9701 
0.336889 
-1.13782 
-9.29407 
-2.33172 
12.7708 
2.95042 
-0.643591 
7.46284 
-2.47621 
4.07408 
-8.69839 
15.5746 
13.1031 
1.78542 
-5.33913 
1.23403 
-19.0108 
4.31989 
3.19154 
-0.646147 
-2.57934 
-5.57423 
-6.25901 
5.16556 
-8.90918 
4.53629 
-2.05237 
3.81147 
-8.1184 
14.0419 
-0.526578 
-13.9596 
-8.78669 
-8.21724 
-0.33597 
15.9107 
7.29615 
11.8298 
11.152 
-1.92266 
2.32702 
-5.36817 
18.6908 
7.5824 
1.75604 
-5.55987 
0.767412 
-4.64242 
-10.6905 
-8.09535 
-4.27045 
-3.15171 
10.0297 
5.80417 
5.75198 
13.8235 
-9.47728 
-6.51043 
-9.21487 
-12.1988 
-8.11173 
-2.55938 
15.5589 
-11.6598 
6.89902 
3.10573 
6.62038 
-6.30491 
1.81231 
4.77318 
-5.06678 
3.14866 
5.40411 
-9.88447 
12.7783 
-12.2472 
9.10969 
10.7651 
-14.2351 
4.70436 
-21.738 
-18.7941 
2.40463 
-8.42989 
7.18107 
10.4721 
3.15396 
-4.79706 
1.57669 
18.5064 
-10.7107 
-14.9917 
-3.23784 
7.48274 
-18.795 
-7.62902 
0.143378 
9.82466 
-9.0838 
1.43273 
-6.66565 
-10.2748 
10.1064 
-9.11576 
10.9252 
2.12433 
3.40057 
-8.41181 
-5.8098 
11.0282 
-16.8291 
-2.58586 
15.1309 
-8.06989 
-2.17886 
-5.05297 
-7.22985 

9.34032 
-8.54502 
-3.72064 
4.62912 
-4.51982 
0.397006 
11.136 
5.95199 
-6.07473 
-13.2774 
-0.918537 
12.7615 
-0.774694 
1.21888 
12.0862 
-0.651839 
-7.67093 
2.42884 
12.2142 
12.9717 
16.8407 
-11.7867 
-13.1856 
-4.49064 
1.60518 
-23.0514 
9.11166 
15.3677 
2.22499 
4.96373 
13.453 
8.5997 
-5.35895 
-12.2742 
-1.23688 
-6.44938 
-18.4955 
1.58295 
23.1692 
-1.07477 
5.36296 
-0.843249 
-8.032 
-6.22804 
-0.280676 
-12.3881 
-0.265754 
-9.67467 
10.4906 
5.1903 
6.08589 
-12.6474 
-16.3392 
7.06316 
7.26927 
-13.0632 
13.7782 
-15.6054 
-3.49583 
-4.59283 
10.9 
-13.2298 
2.52487 
-7.37227 
-3.68245 
1.35768 
9.33359 
24.7877 
-9.05535 
2.85653 
-13.037 
-9.19504 
-8.40446 
-14.1068 
9.43834 
-2.86576 
-9.71233 
-10.7999 
8.09691 
9.63899 
1.74584 
8.40003 
7.05731 
-1.96304 
-3.95898 
8.35093 
-0.676344 
-1.13132 
13.0709 
-0.84932 
4.06967 
-11.623 
16.6832 
-11.9647 
14.7098 
10.3597 
6.53294 
5.04119 
0.815951 
11.2058 
0.800442 
10.5135 
-16.5539 
-8.11274 
-20.9948 
-0.796712 
-3.85005 
-12.4934 
7.18536 
-0.200396 
-1.71432 
12.1173 
-6.95847 
-2.00652 
3.19741 
-4.73428 
-6.84569 
-9.97788 
2.40026 
6.44809 
19.0829 
10.1981 
9.58449 
-0.395303 
11.6499 
-12.5271 
-2.64598 
2.14495 
14.4758 
4.08445 
-3.38128 
6.29701 
-1.68394 
6.7516 
-1.57631 
-7.34884 
1.26447 
11.4486 
-4.38705 
-5.7894 
5.78736 
4.13617 
-1.75505 
0.89242 
10.4968 
-13.0991 
7.899 
-2.14732 
-12.1811 
-23.0364 

1.34784 
-8.13286 
29.8694 
-10.6475 
16.015 
23.397 
-19.4558 
-22.2104 
17.6291 
25.9198 
7.22096 
-14.0805 
3.45995 
-9.75857 
-13.7988 
0.462898 
17.8961 
17.2994 
-12.7859 
6.04057 
-9.41636 
12.4784 
12.3773 
-10.3053 
-19.0849 
11.2393 
6.36825 
-36.0161 
-8.16978 
-10.0896 
-12.41 
5.0512 
-1.04626 
-5.84708 
-8.25481 
4.28158 
12.3982 
18.1399 
-7.75293 
-9.48929 
-9.25216 
4.0387 
-10.7632 
23.9298 
-5.40715 
13.8455 
14.2784 
10.1008 
2.77358 
-6.77714 
-3.47106 
2.21448 
0.132287 
-24.7268 
-6.61838 
9.11407 
-20.0056 
13.6885 
-17.3872 
5.67531 
-9.08271 
-3.03502 
20.4566 
-21.8287 
-8.4999 
-1.22351 
3.16886 
-17.1178 
4.24249 
-2.56808 
12.1473 
9.43089 
0.81026 
0.381731 
1.14379 
16.9393 
-16.4263 
18.522 
-1.43341 
-2.22031 
11.9699 
-4.53039 
12.7175 
-3.71771 
-4.79687 
-13.9679 
22.9052 
-4.46247 
6.41265 
7.56219 
-1.59263 
12.711 
-38.534 
4.72508 
-0.988982 
-3.00508 
6.2522 
-10.5958 
5.47079 
-16.2362 
-9.01923 
-33.8644 
24.015 
-2.57099 
18.2783 
18.1835 
-9.32033 
-4.3648 
-2.68086 
2.29717 
3.3901 
-18.7415 
15.0749 
16.3906 
-14.1816 
-0.461537 
-7.35742 
12.6451 
-9.13886 
-19.4842 
-14.9515 
-3.21824 
5.88489 
-1.97471 
-14.9445 
11.7023 
5.28869 
-42.3683 
-17.7753 
-19.9709 
9.70864 
-13.3165 
-4.45775 
-24.9387 
14.7745 
15.2077 
-21.0287 
-24.0325 
-9.28938 
-13.8937 
-3.8957 
8.46973 
31.5183 
-30.5186 
0.382076 
17.1343 
0.6275 
15.144 
7.12908 
32.3012 

-36.1674 
-25.2561 
23.3957 
-7.10687 
17.4873 
6.73395 
-34.9302 
-16.2708 
0.563054 
5.37149 
2.46379 
-15.162 
9.93645 
-19.0307 
-14.1055 
-1.28017 
11.7985 
16.255 
-8.59753 
-20.577 
-8.53844 
30.5338 
20.066 
-17.8777 
-13.327 
15.9592 
10.9462 
-17.4052 
-35.4143 
12.5758 
-4.87035 
16.5137 
0.162143 
-9.52094 
7.99489 
16.7762 
13.6411 
11.9436 
-21.3701 
-14.8056 
-7.49844 
-1.87779 
1.64432 
-0.416994 
-2.63761 
14.9239 
-14.3153 
19.7079 
-25.8768 
-21.7492 
0.552018 
11.0068 
20.0059 
-37.8777 
-17.0055 
32.9377 
-22.5844 
19.1618 
21.0455 
2.19123 
-31.0893 
13.4046 
1.05952 
-0.0617372 
-11.6942 
22.7483 
-6.03385 
-23.5751 
-3.84922 
-4.94482 
31.3854 
4.25652 
28.2466 
10.3086 
-14.4333 
27.2699 
3.30642 
10.8351 
-14.1786 
-16.9689 
25.0799 
-3.30481 
-0.281301 
-14.7845 
-10.5339 
-29.004 
8.54627 
29.6127 
-22.5086 
15.6007 
-25.3168 
25.5911 
-30.004 
-24.1832 
-15.7051 
4.28017 
4.36977 
-10.522 
-13.9464 
-12.8495 
-0.956021 
-33.2554 
0.664595 
9.52771 
22.5426 
2.83684 
26.7578 
-11.6906 
2.75597 
-22.7091 
-6.73984 
-9.28247 
20.7737 
23.703 
-23.2166 
-3.75459 
-8.84945 
6.84385 
-23.3507 
-8.86772 
-32.4715 
-37.4257 
-9.42867 
-4.57587 
-26.3592 
10.1714 
10.9361 
-7.51261 
-23.4522 
-6.98516 
22.1682 
12.7335 
3.64852 
0.260238 
8.11216 
5.59776 
0.333872 
-35.4805 
9.54274 
-33.9514 
-24.4508 
30.8234 
15.6311 
-27.9927 
-12.0468 
16.541 
-19.6833 
-10.1274 
20.2456 
42.2797 

1.48234 
-14.7514 
22.3327 
-20.5694 
18.2485 
4.89486 
-37.7942 
-0.25198 
-8.56042 
5.5836 
6.32372 
-15.4973 
20.7598 
0.871584 
4.08928 
-5.8671 
19.9761 
21.1667 
-6.53696 
-27.5452 
-0.374111 
24.7289 
23.4155 
-2.55354 
-9.31047 
-0.831874 
-5.48161 
-1.62537 
-20.3202 
9.78225 
5.79681 
4.00777 
-15.5195 
14.0127 
-0.781221 
24.434 
16.5945 
23.4539 
-17.184 
-2.91314 
-11.9723 
-11.9638 
-11.3492 
-10.5224 
6.77993 
12.896 
-4.006 
10.0356 
-21.2499 
-26.6541 
3.18362 
19.8169 
25.0748 
1.06141 
-22.8208 
2.29346 
-16.7794 
6.25007 
9.11883 
-10.9053 
-1.89449 
-2.61011 
-7.31399 
-4.40539 
-21.0392 
25.9977 
-16.0915 
12.6003 
28.6232 
9.51152 
16.7817 
10.6784 
25.6892 
-9.91286 
-12.9308 
23.8733 
1.37969 
18.3184 
-17.4952 
4.52469 
17.0235 
9.92122 
-16.1462 
-12.5634 
-12.3924 
-20.4433 
-7.17125 
2.60206 
-2.72513 
12.0455 
-11.3219 
27.2549 
-25.3429 
-17.906 
-33.2803 
-23.1336 
-6.53975 
8.00994 
13.4339 
8.7086 
9.62536 
-8.71653 
13.3866 
13.9759 
15.0994 
10.8015 
24.7836 
-25.4226 
-21.7748 
-16.5779 
12.2411 
-24.4545 
5.87694 
2.08394 
-24.7448 
-7.37688 
-20.236 
15.9336 
-7.73611 
6.71484 
-20.9533 
-29.7152 
-11.2424 
1.47225 
-35.5222 
11.8834 
3.75244 
6.04132 
-30.8935 
-3.98175 
18.2891 
2.50761 
15.0078 
8.22883 
4.17337 
-1.74411 
-8.73742 
-23.4889 
13.3961 
-15.0711 
-8.11713 
13.3396 
16.7379 
-9.41947 
-19.3844 
18.582 
-33.6822 
-18.9889 
19.4053 
5.34895 

-2.68264 
5.00726 
-0.13433 
-5.64207 
-7.81193 
-21.7354 
-7.24248 
8.72556 
-12.7824 
0.949778 
9.05092 
-14.1064 
-6.13037 
-14.77 
2.8926 
-14.7357 
-4.18339 
-17.5505 
12.9531 
2.85963 
-20.5471 
-5.39353 
-22.3338 
13.6961 
28.9986 
24.2589 
15.012 
5.2909 
-12.8478 
21.2547 
-18.4717 
-24.9371 
31.9042 
0.389812 
-13.2583 
-6.66468 
16.6807 
-21.1674 
-16.2573 
2.91586 
-24.2191 
-10.0294 
8.9694 
-9.97599 
-17.3328 
15.7722 
0.434434 
-10.5212 
-9.75411 
-9.92788 
-8.94141 
5.56172 
21.8993 
7.53823 
-13.5378 
14.7121 
-4.34314 
9.4399 
30.2695 
10.9401 
-29.1967 
15.1074 
-24.125 
19.226 
16.1695 
17.9233 
0.171416 
-10.5166 
-11.0815 
1.60217 
-3.77219 
-8.77481 
8.55961 
-0.231091 
8.47807 
-29.8652 
7.82453 
-8.81161 
-4.61736 
0.740649 
-20.4846 
13.5731 
-12.5444 
7.44456 
-4.60257 
3.15137 
-2.96321 
-19.9424 
-44.9281 
14.1167 
-18.8341 
-1.54956 
16.0292 
11.8217 
-10.9556 
-17.1458 
19.9094 
-2.53954 
4.06533 
-1.92416 
11.4783 
23.6085 
6.62026 
14.8598 
-13.3948 
-14.4305 
15.7793 
-2.13901 
-4.09379 
-23.614 
-9.71679 
17.6815 
-4.58583 
23.511 
18.1304 
-1.01217 
-1.191 
-7.63098 
2.72582 
2.15488 
4.98489 
-5.97796 
-22.692 
4.60058 
8.64945 
-4.41779 
-8.03861 
30.7487 
11.2111 
-6.75143 
11.7119 
29.4134 
15.6783 
19.7526 
-13.8852 
10.7103 
10.2536 
-13.7486 
-4.02069 
12.2068 
-8.56467 
-14.2552 
-17.4993 
5.47306 
-7.84527 
-14.0517 
-12.99 
4.66311 
-11.0578 
10.612 

7.55745 
-3.43879 
5.15178 
51.7223 
39.6782 
52.4888 
-42.4725 
-28.7875 
38.5947 
51.0526 
30.9517 
12.1924 
-1.94821 
11.2387 
-28.3251 
-36.1632 
27.8629 
-9.31465 
-19.1713 
17.1759 
23.9434 
-13.9926 
-0.80297 
20.8618 
-24.7302 
-23.6296 
8.53568 
0.453757 
-23.427 
-51.015 
-35.9349 
5.22503 
-48.1468 
-2.96342 
22.1018 
3.92031 
1.34897 
36.2148 
10.3395 
-1.12355 
55.8206 
-15.2682 
-12.4679 
3.25063 
24.3853 
6.52246 
44.2763 
23.5409 
47.6246 
-29.7072 
8.23865 
-28.7193 
-44.832 
-1.91323 
-13.185 
-24.3728 
-0.777894 
-30.4909 
-44.1887 
11.2717 
11.9158 
-13.7836 
5.45286 
-32.3485 
-7.37513 
-36.6475 
-28.7361 
12.9651 
-20.3838 
-3.47575 
-23.6499 
58.4722 
46.0339 
-2.14533 
-39.9949 
25.9236 
28.0015 
6.68227 
-49.2234 
-8.6387 
23.637 
38.483 
-22.9138 
-59.8931 
-10.7921 
31.098 
33.4216 
9.02498 
36.2173 
-22.5974 
-33.6047 
-37.9052 
-35.7089 
35.3097 
-9.39026 
18.8967 
-29.6786 
-12.9315 
11.2081 
4.88621 
-1.90414 
-33.6576 
-29.6616 
-22.9615 
14.2745 
12.4963 
12.7009 
-7.88992 
18.2943 
23.6902 
-2.57953 
-9.3797 
13.9145 
-40.8334 
-20.6764 
34.3456 
34.8438 
-2.77448 
26.5239 
-10.9848 
-11.9938 
-17.647 
34.6506 
-15.5785 
-18.6367 
5.17914 
17.706 
-46.3432 
-17.0838 
-8.52535 
-50.4248 
-51.1138 
-11.6637 
-42.9475 
25.198 
51.4202 
-48.0271 
6.40023 
-11.8813 
7.61009 
15.9269 
-2.47919 
25.7484 
-67.923 
37.7103 
6.09337 
36.0871 
16.8146 
-9.3133 
22.036 

7.10222 
17.4021 
-17.4144 
-2.50218 
-6.5136 
-14.4594 
29.5753 
-0.918431 
-8.08706 
1.78289 
-12.4444 
16.5778 
-18.6446 
10.4165 
20.9391 
15.9347 
-1.7389 
-7.6273 
-7.23936 
-2.17967 
6.3129 
-29.1649 
-14.1722 
-12.9364 
-2.81085 
-2.44887 
-4.32332 
16.8005 
35.0504 
-4.01595 
-4.52014 
-18.762 
-6.57483 
-7.42893 
-19.9026 
-18.8459 
-11.1213 
-20.5388 
9.97627 
12.7507 
-0.677484 
-1.80555 
3.58262 
3.65086 
9.34787 
-2.02434 
-6.78242 
-24.7641 
13.001 
13.6652 
-24.3646 
-22.0434 
-12.2859 
8.2886 
21.464 
2.47225 
13.9683 
-5.24515 
-18.9006 
2.78459 
16.5903 
-19.4031 
-11.5523 
15.7281 
16.0054 
-36.8934 
11.9983 
-4.26923 
1.64815 
6.5775 
-22.1581 
-20.3211 
-31.6226 
5.22098 
16.3955 
-19.6342 
-4.98683 
-14.0531 
17.6888 
4.46639 
-29.2458 
1.67427 
13.4383 
28.4342 
28.9159 
14.2736 
10.1545 
-12.1893 
10.5304 
-6.86743 
21.995 
-13.1119 
29.3419 
19.9933 
17.8668 
8.39953 
0.423799 
-3.89279 
-6.64728 
9.60149 
6.15351 
21.7265 
10.5348 
-2.77417 
-31.8328 
-23.3584 
-36.9623 
45.8279 
6.61004 
21.4285 
-10.1104 
19.2027 
-18.2162 
-33.6839 
15.3706 
-3.69533 
-10.559 
-3.56686 
7.84706 
-2.41093 
23.532 
30.221 
18.1227 
-13.9593 
22.9126 
-7.90377 
-5.71978 
6.84936 
28.2057 
17.324 
-5.50787 
1.40354 
-23.6314 
-7.84108 
-4.05762 
-9.18984 
-14.0262 
35.855 
-8.12087 
18.4469 
20.3881 
-30.7189 
-30.1791 
16.8541 
11.8134 
-17.7011 
11.0697 
21.9635 
-12.5217 
-31.1965 

53.4527 
-15.446 
-10.9848 
-24.264 
-37.0361 
5.04167 
40.9234 
1.3135 
16.4604 
-21.5078 
-30.3361 
34.061 
4.52709 
36.43 
42.8903 
19.2308 
-37.4525 
39.2679 
-6.62432 
-5.57427 
18.4248 
-17.2369 
7.58577 
-15.4273 
-3.11797 
-12.0719 
-35.3534 
16.245 
52.2669 
3.90487 
33.2807 
21.9294 
-9.08875 
6.71891 
-9.72712 
1.84579 
-16.7603 
2.27784 
4.41004 
22.2628 
-6.70754 
34.8874 
-29.3605 
6.76456 
34.2226 
-27.8955 
-2.7604 
-15.3765 
-19.7388 
31.5357 
1.24794 
14.3133 
-4.08432 
32.468 
23.8377 
-14.0022 
18.919 
-14.2225 
-10.3664 
10.1678 
68.3413 
6.41716 
19.4201 
-36.4336 
7.08304 
20.8786 
13.4976 
37.2059 
19.5458 
14.729 
-38.4326 
-2.27716 
-14.7444 
-22.7089 
19.5291 
-13.1166 
-6.13995 
33.2664 
37.9121 
45.8933 
-28.5942 
-34.8479 
15.4562 
17.7576 
33.0268 
2.26387 
-18.0291 
6.73645 
52.7065 
34.8535 
20.3608 
-23.7384 
5.62916 
-0.496462 
25.7773 
-6.46903 
-38.6031 
10.1427 
11.0493 
-13.6833 
1.14432 
10.5875 
2.36586 
-28.5552 
-33.0492 
-1.8754 
-44.585 
4.51588 
-12.2649 
-6.34551 
39.7273 
-3.12734 
-53.6186 
-26.2297 
-34.9105 
-9.072 
13.0849 
16.0926 
-2.44269 
28.7366 
19.6528 
29.452 
13.6372 
17.3869 
19.8424 
-10.0007 
-4.61251 
-16.8659 
-2.05795 
-4.10864 
-34.4417 
-5.2267 
26.1888 
1.19672 
17.7498 
-53.0835 
24.9052 
55.5197 
19.2766 
40.925 
16.3426 
9.49529 
17.7289 
8.14866 
-15.4952 
22.4155 
3.4848 
-30.4056 
0.799921 
-18.7117 

71.1573 
-31.1355 
2.28321 
-29.2156 
-57.6459 
-4.09115 
24.6114 
22.4803 
-19.9983 
-29.389 
-52.8023 
24.0815 
65.053 
50.8081 
40.6211 
-2.36716 
-40.1814 
31.4862 
-12.647 
31.7062 
47.4102 
-40.1489 
-2.46021 
16.5068 
19.6397 
-65.605 
-17.9026 
18.6451 
66.8688 
-7.75038 
46.891 
32.6672 
-11.3994 
2.65029 
12.5237 
15.0968 
11.1187 
15.0006 
-15.3729 
50.1686 
-29.2285 
32.5649 
-55.0852 
15.0756 
24.8556 
-44.991 
9.37528 
-36.6123 
7.5766 
57.3075 
-1.44057 
29.8057 
14.6976 
90.3684 
35.4136 
-55.6192 
24.8832 
-11.3504 
-19.1493 
-16.9183 
80.1705 
-1.53727 
6.1816 
-45.0914 
9.57106 
16.0984 
3.73284 
60.712 
39.2808 
21.5721 
-79.411 
-24.0884 
-20.2651 
-72.9843 
49.7921 
-47.2452 
-15.6615 
55.6452 
14.6137 
75.5475 
-20.9309 
2.05828 
-18.1458 
11.2511 
49.9098 
5.93653 
-51.0398 
-27.5845 
70.9044 
9.80644 
18.1147 
-26.5659 
39.3564 
11.1977 
-17.4483 
-71.4384 
-59.8325 
28.0337 
64.4091 
-15.1668 
0.970806 
21.3423 
-3.57116 
-37.2103 
-70.4533 
18.6627 
-83.8032 
-23.9218 
-39.1378 
-12.932 
54.6464 
-37.3769 
-60.2849 
-37.2923 
-30.5465 
-41.3161 
25.9722 
14.8568 
-14.8287 
95.5118 
42.0577 
31.5669 
17.1818 
22.0074 
49.2345 
-39.3762 
-15.4633 
-4.36078 
-46.1161 
7.50075 
-70.9572 
15.1607 
49.8171 
31.4597 
20.7885 
-83.581 
42.1106 
40.7624 
17.1778 
61.3354 
24.498 
-5.41772 
19.14 
55.3471 
-43.0347 
1.40831 
-1.12055 
-70.5101 
-2.82282 
-42.1842 

31.4394 
4.63755 
5.31805 
-19.5841 
12.3158 
-1.6086 
7.48121 
-10.4234 
2.86688 
31.2558 
2.90447 
-0.480358 
-29.7981 
25.9348 
2.72461 
-8.92386 
-5.49301 
0.381701 
-10.4125 
29.9739 
13.6139 
-27.6265 
-22.5499 
-2.97954 
-5.80912 
-23.8104 
-26.7098 
-14.6068 
11.8643 
-15.2936 
11.3391 
-20.3373 
0.248095 
-27.2332 
-20.691 
-6.88441 
27.3116 
12.9679 
24.202 
21.7727 
-31.3679 
-22.4072 
1.65456 
-0.365521 
6.72208 
35.4153 
2.91781 
-3.71403 
12.7776 
10.4179 
-12.5775 
11.9851 
8.68594 
12.0275 
13.8033 
-16.1086 
20.6285 
-4.08785 
-14.7695 
0.646833 
12.4763 
-11.0481 
5.81819 
11.677 
3.89303 
12.9216 
1.66911 
25.526 
-3.91811 
-11.482 
-29.7648 
-1.46908 
-29.5194 
5.81313 
-11.7097 
15.1982 
-5.42715 
13.1003 
-7.26388 
14.5513 
-28.3327 
23.5017 
-11.3819 
6.54921 
6.6912 
41.0901 
30.0055 
-20.5173 
-9.00829 
1.34769 
21.5268 
-23.1067 
26.7 
25.7543 
-8.78995 
-19.2224 
1.9077 
11.6608 
7.41774 
26.1615 
16.0075 
8.41795 
-8.95025 
-6.80965 
-11.7332 
-14.0649 
-14.0463 
13.7615 
-30.1159 
8.03713 
6.50791 
-22.3605 
-9.81441 
-29.7335 
10.8817 
-5.26482 
-24.2579 
-0.983388 
16.8412 
-0.419985 
15.7045 
18.3471 
8.4722 
5.16276 
0.571043 
9.74231 
7.27598 
3.4996 
-0.921139 
32.8312 
-32.6363 
-2.03208 
7.20557 
-23.8704 
-10.7984 
-7.09785 
-16.5758 
19.6229 
-4.07532 
30.8523 
17.0368 
-19.6184 
5.17717 
-2.18238 
21.6992 
5.31639 
-17.6021 
25.658 
-15.8516 
-10.7466 

1.93546 
-4.01216 
-21.1154 
-5.25849 
0.969636 
-7.32607 
19.3326 
47.0358 
-41.1747 
-46.9217 
-5.47386 
2.56077 
11.9473 
-33.7777 
6.19082 
8.15288 
20.6341 
13.366 
-16.059 
-15.6692 
-22.8916 
38.5216 
25.7133 
-13.5952 
7.33962 
34.968 
-6.2388 
10.2461 
-0.890999 
42.5904 
-6.06075 
7.08055 
20.8289 
42.0583 
-16.3078 
-4.45565 
-25.4452 
-24.2189 
-33.9711 
-16.0215 
-11.986 
14.0148 
13.0975 
15.7452 
4.13646 
-25.9223 
-8.31539 
3.23229 
-13.5628 
-7.54579 
-15.3309 
-3.61487 
32.9703 
8.75559 
2.17239 
23.9072 
-12.4377 
10.0647 
44.2833 
-33.3749 
-23.8433 
38.2769 
6.21025 
-4.98028 
37.5809 
5.6889 
11.8489 
-30.4564 
27.7566 
31.7975 
16.3768 
-25.9923 
-4.99763 
-23.056 
25.6298 
-26.9631 
0.195473 
2.04187 
11.7117 
-8.35301 
-14.4648 
-34.1815 
-6.87417 
14.5849 
19.7241 
-45.2361 
-18.2084 
-1.23986 
-18.7641 
14.1412 
8.46239 
23.5463 
18.7229 
-19.0364 
-2.51737 
0.626984 
-6.33535 
-9.96483 
16.1891 
-28.9946 
-10.4406 
27.7532 
24.2823 
7.46769 
-17.9774 
-0.0447984 
-2.37492 
8.27455 
-10.6326 
-16.8644 
17.9086 
22.8437 
-0.439723 
22.5937 
11.2866 
-17.2315 
5.3117 
1.44551 
-23.403 
20.3421 
5.16977 
0.840032 
-27.261 
21.2038 
15.3224 
-3.99537 
-28.9212 
19.1353 
13.9948 
-7.03602 
34.8679 
3.34579 
17.1331 
40.78 
-22.4473 
-15.0905 
36.2839 
-14.328 
33.0456 
-3.89463 
-8.10775 
20.6403 
-34.9594 
50.0037 
-33.5867 
-7.83246 
-28.9664 
-32.9086 
-1.62726 
-15.2545 

13.0399 
1.01878 
-2.31592 
-19.049 
-7.52838 
-21.1484 
16.4148 
27.2562 
-17.3876 
-26.9756 
-25.3346 
9.5919 
-1.03618 
7.51934 
16.981 
20.9112 
11.8294 
-1.04055 
-7.70268 
-5.50404 
17.4818 
25.2441 
16.7643 
-20.6676 
1.07242 
-10.2362 
-14.4012 
11.9242 
22.8872 
13.739 
24.4553 
-6.26319 
13.5177 
12.3322 
-12.2369 
-6.48197 
-0.229984 
-13.917 
17.4133 
9.24504 
-11.309 
10.8903 
10.6566 
6.82053 
15.913 
-2.33633 
-17.0588 
-3.59882 
-30.9845 
6.64007 
-1.02097 
2.3641 
21.207 
9.23114 
32.9105 
-11.2512 
15.6923 
-1.73524 
26.0355 
-6.89483 
11.577 
0.0353931 
4.97949 
5.02703 
13.4057 
10.5822 
24.012 
11.3283 
15.0689 
8.37539 
10.1082 
-9.7325 
-16.86 
-5.34876 
14.7135 
-1.72378 
2.43441 
5.39009 
16.4869 
11.778 
-7.11481 
-22.8953 
23.6075 
23.1851 
5.7496 
-0.343208 
-22.9001 
-1.28657 
-2.53791 
7.05894 
29.2627 
20.9361 
30.7638 
-9.87989 
1.21827 
-2.22349 
10.5018 
17.4503 
14.4262 
15.1285 
-0.284702 
12.0904 
-2.24133 
12.5918 
0.150343 
-0.0486299 
-3.56157 
3.08788 
-22.4734 
8.2404 
14.4639 
-12.3664 
-2.32109 
-13.1533 
-12.1275 
-1.69871 
-14.7457 
-0.762546 
9.92351 
3.52879 
20.2676 
20.6207 
-6.67756 
17.3753 
8.92053 
2.81239 
-4.77881 
3.61506 
-0.457623 
6.7471 
8.43656 
-16.2879 
-3.63343 
5.10459 
2.69498 
-16.8681 
26.2677 
-6.48507 
9.61352 
-0.433254 
6.81255 
5.70717 
-5.06583 
26.0159 
-4.47958 
0.331223 
-24.9111 
-4.12711 
3.67746 
-15.6762 

27.6699 
0.09448 
-7.52166 
-9.14961 
-20.3708 
3.89158 
19.9532 
4.89415 
-1.52376 
-26.8717 
-24.7398 
16.477 
17.1277 
9.72477 
1.0346 
-3.45407 
-12.3461 
12.0058 
-8.33368 
6.93647 
17.765 
-7.81958 
-5.20544 
-5.57145 
6.42815 
-25.8532 
-9.27183 
4.04302 
11.2735 
-7.6745 
4.61837 
6.67059 
5.58596 
0.677878 
-1.64472 
4.07273 
7.37468 
-3.95465 
-18.0394 
12.0185 
-10.1219 
15.9832 
-4.36 
18.9992 
-0.0494732 
-25.8033 
10.2331 
-16.6786 
10.2868 
18.7098 
1.36807 
-0.282238 
1.33156 
20.9585 
13.8268 
-9.97064 
14.7209 
-4.7108 
-9.48875 
-13.8981 
17.7444 
-5.89901 
-5.66713 
-20.2039 
-1.36858 
-3.96199 
3.35562 
4.61207 
0.496714 
1.25453 
-29.2824 
-21.3709 
-17.9903 
-27.8487 
24.1789 
-10.0538 
4.21461 
17.0536 
7.46045 
13.4667 
-9.20745 
-1.38644 
5.35717 
2.03158 
19.4065 
0.0519731 
-9.62153 
-10.3553 
21.3814 
5.05634 
18.8002 
-0.541093 
17.9175 
5.94702 
6.67043 
-13.8353 
-14.0119 
7.99344 
19.8838 
1.288 
-11.7695 
3.59943 
10.917 
-16.1109 
-18.0505 
5.52152 
-13.04 
-0.0101667 
-11.4213 
0.985866 
12.5004 
4.44115 
-24.3134 
-12.0242 
-7.04206 
-10.4896 
4.86504 
10.7962 
5.54699 
35.7005 
23.1812 
15.2095 
9.53007 
12.6589 
25.0615 
-14.7065 
3.91957 
-8.10024 
-3.37889 
-1.85998 
-10.7151 
7.67076 
16.9063 
14.6972 
7.07613 
-17.8714 
14.7764 
20.5941 
-1.19011 
30.6663 
21.032 
1.22253 
-4.69243 
9.10266 
-7.58246 
6.47949 
0.755767 
-4.03297 
-3.46732 
-34.8869 

-4.67036 
0.999369 
-10.6758 
9.56353 
-4.11665 
1.37028 
-10.9748 
-13.3109 
13.2927 
-2.88535 
-5.87073 
6.96366 
4.92202 
10.8483 
-7.23967 
-3.60429 
1.22657 
5.84733 
2.88286 
-0.562636 
-2.53899 
0.183865 
-5.12516 
-0.392092 
11.0312 
8.56911 
14.6621 
-5.58167 
-7.22259 
-10.1092 
-13.0927 
9.5902 
8.20826 
-11.1691 
5.49077 
0.932099 
-5.08426 
-2.2575 
11.1371 
-11.8561 
3.07833 
4.74195 
5.46295 
9.6099 
-0.753274 
5.89938 
0.337706 
-3.43686 
2.46217 
5.5318 
6.04716 
-0.781321 
-13.955 
-11.8298 
-9.75971 
-1.80225 
-9.43719 
3.86106 
-10.8094 
1.31416 
-9.47667 
6.29311 
11.6171 
-0.54204 
-3.87705 
-15.7859 
-2.36419 
-11.9311 
-3.03516 
1.3087 
10.9469 
10.7304 
-2.47847 
4.28195 
-10.5067 
6.91376 
5.72352 
1.2176 
6.75962 
-6.59423 
7.92281 
5.1546 
1.46251 
-8.47507 
-7.34063 
-5.4702 
-9.85286 
6.34326 
-10.7336 
-8.92026 
-9.23435 
10.3855 
-9.08063 
-4.95383 
-0.872924 
20.5669 
-7.69182 
-10.396 
-7.9668 
0.57392 
4.73672 
-11.187 
10.4569 
-5.59784 
5.60143 
10.4959 
1.8248 
-0.622855 
7.85029 
6.73664 
-5.93811 
4.8205 
9.78497 
6.53106 
-6.3868 
-4.32924 
5.99593 
-10.0041 
-8.00778 
-10.536 
-2.33265 
0.189649 
-3.13589 
-12.0744 
-0.332157 
-3.88316 
6.36507 
-10.3441 
-2.07132 
-7.08155 
-1.41758 
-14.2744 
-7.35903 
-13.6056 
8.68677 
7.37892 
-3.44028 
0.211855 
4.70875 
-16.2992 
-13.1949 
-3.92331 
4.15555 
-3.4049 
3.53906 
-7.43855 
11.5891 
-0.819612 
6.39947 
6.80182 

3.35771 
3.30713 
-10.0708 
6.20148 
-3.29591 
-8.68846 
-0.0147069 
-8.94477 
-2.39434 
6.33239 
8.42867 
4.05432 
-7.25636 
7.86319 
-2.50918 
-11.0526 
-4.86824 
-12.8064 
0.858233 
4.85224 
6.87935 
0.120405 
-9.89869 
-0.284358 
-4.48729 
-1.04513 
-0.362417 
5.72482 
1.35205 
-6.59508 
-10.612 
-10.5123 
-0.646046 
3.06404 
-1.2292 
7.09725 
-2.44549 
9.35299 
6.94665 
-3.91972 
-6.59376 
-14.3969 
2.41257 
-5.24332 
6.48087 
11.9653 
-7.38106 
6.66888 
-7.44169 
-4.63885 
4.25868 
7.12936 
0.620403 
-3.04601 
3.64332 
7.15803 
5.57307 
-5.60465 
-6.38486 
3.8045 
-9.1216 
6.90415 
-8.74164 
-2.0425 
2.01872 
-1.88709 
4.7501 
6.57361 
-13.0744 
-1.84184 
-11.0688 
-0.862719 
3.35088 
2.72283 
-1.67924 
9.6469 
-6.80437 
-8.96765 
2.9229 
-9.13119 
-3.65409 
0.701507 
1.78716 
5.80201 
2.85292 
3.24223 
9.14326 
2.85882 
-5.73134 
3.32687 
1.17428 
-2.18438 
1.78817 
8.71399 
-0.00823 
9.21321 
-2.84407 
-5.41147 
-1.44244 
-1.02063 
7.87777 
-5.40422 
-9.59537 
6.76725 
-1.84487 
-2.50752 
9.46316 
-1.95896 
2.14157 
3.2731 
-7.35386 
5.60167 
-9.65408 
6.83701 
-0.653812 
1.17367 
-7.1062 
5.964 
-8.09956 
-6.24659 
-0.917078 
-7.01804 
1.87921 
-8.14519 
-7.39967 
-10.9809 
6.34287 
-5.72932 
-4.11399 
9.20795 
-2.62632 
0.781136 
-7.09432 
-5.05576 
-1.54594 
-2.72259 
-1.80345 
7.57548 
1.63175 
3.99015 
0.330739 
-1.68108 
-5.74451 
-11.1248 
2.55578 
-0.280327 
-3.52547 
2.09227 
-2.16572 
-3.49698 

1 
3 
-7 
-8 
0 
-4 
-8 
-5 
-2 
9 
-6 
0 
-7 
-2 
-3 
3 
2 
9 
-7 
7 
5 
4 
-2 
-10 
0 
0 
-6 
4 
3 
4 
0 
-5 
-10 
3 
9 
0 
2 
-8 
5 
2 
3 
9 
-8 
7 
-10 
-1 
-8 
-6 
-9 
-5 
-9 
-2 
2 
-8 
-10 
-8 
2 
-5 
-2 
-4 
1 
8 
-7 
1 
-6 
-8 
-9 
6 
6 
6 
-2 
0 
-2 
-7 
9 
-2 
-6 
-9 
2 
7 
-4 
-5 
-4 
0 
-3 
-4 
2 
2 
-7 
-10 
0 
5 
1 
3 
-4 
-3 
-3 
-10 
-7 
-6 
-2 
-7 
-4 
6 
8 
-5 
-6 
-7 
8 
-2 
2 
6 
-4 
8 
-3 
3 
7 
1 
7 
-10 
-6 
-3 
5 
-3 
2 
4 
4 
2 
-4 
-1 
-2 
4 
2 
4 
1 
-7 
1 
-3 
8 
-9 
6 
0 
7 
-8 
-1 
6 
-3 
-4 
-2 
7 

-4 
-6 
6 
4 
1 
-9 
-10 
-5 
3 
-4 
4 
-9 
-10 
8 
5 
-7 
3 
8 
1 
1 
9 
9 
-8 
-2 
3 
-7 
-5 
2 
-9 
-5 
-1 
9 
-1 
-4 
3 
2 
-3 
-5 
7 
2 
1 
-7 
3 
-6 
3 
-10 
-3 
-3 
8 
0 
8 
-1 
-1 
2 
7 
-8 
-3 
4 
5 
-2 
9 
6 
-2 
-10 
4 
3 
2 
-9 
9 
-1 
3 
-8 
-6 
8 
-4 
8 
8 
-4 
7 
-2 
6 
-3 
7 
8 
2 
-3 
-10 
9 
-9 
-3 
-2 
3 
6 
6 
3 
0 
-1 
-4 
-6 
-10 
-3 
-1 
-7 
2 
-2 
-9 
-8 
8 
-3 
9 
-3 
-6 
8 
6 
-8 
0 
5 
4 
0 
7 
4 
8 
0 
0 
-4 
5 
2 
-3 
-9 
6 
-2 
-1 
-4 
1 
3 
4 
2 
5 
2 
2 
-4 
1 
6 
-6 
-10 
0 
5 
5 
-6 
7 

-6 
0 
5 
-4 
2 
3 
-8 
-5 
-10 
5 
-9 
-2 
-6 
-3 
1 
7 
3 
6 
-6 
8 
-2 
0 
-9 
-6 
-3 
-9 
-4 
4 
-1 
-8 
1 
3 
3 
8 
2 
-5 
1 
4 
0 
1 
-1 
-6 
2 
-4 
1 
-7 
5 
7 
9 
-10 
5 
9 
-8 
6 
5 
-1 
0 
-9 
-7 
9 
-6 
4 
-6 
-1 
-6 
6 
4 
5 
-8 
7 
9 
-6 
3 
-7 
-8 
6 
8 
7 
3 
8 
7 
-10 
-1 
-10 
-1 
-5 
-9 
9 
-4 
-5 
0 
0 
1 
4 
1 
6 
-7 
8 
-7 
7 
-3 
4 
-9 
-10 
-1 
-7 
6 
-2 
3 
0 
8 
0 
0 
-3 
-8 
9 
2 
-6 
0 
9 
-9 
2 
-9 
-6 
9 
3 
2 
-8 
1 
-2 
9 
8 
-8 
3 
0 
2 
-2 
-4 
-10 
-9 
6 
8 
-6 
9 
-5 
-4 
0 
0 
-8 
3 

-1 
5 
-5 
-8 
-10 
-6 
5 
2 
8 
8 
-10 
8 
-2 
5 
-7 
8 
-3 
1 
-5 
9 
3 
3 
-1 
7 
-6 
-4 
5 
5 
6 
0 
-2 
7 
-5 
3 
-10 
-5 
0 
-3 
8 
-2 
-4 
8 
8 
-4 
-5 
-9 
7 
-6 
-5 
-8 
5 
8 
-3 
-6 
-3 
2 
-7 
-8 
-3 
1 
2 
-3 
-9 
0 
2 
-9 
5 
-8 
-2 
-5 
-7 
-4 
6 
-9 
-5 
-9 
-7 
-8 
-4 
-10 
6 
-9 
8 
-7 
8 
7 
5 
3 
1 
4 
-6 
6 
3 
-5 
-4 
-4 
8 
-9 
-10 
9 
9 
-7 
7 
5 
-5 
-8 
6 
-10 
-6 
4 
-10 
-10 
6 
0 
-6 
-4 
-3 
1 
9 
8 
8 
5 
4 
1 
3 
2 
-1 
1 
-4 
0 
-8 
-5 
-5 
-10 
-10 
-8 
-8 
-2 
-8 
-3 
-7 
4 
9 
1 
6 
5 
-1 
5 
-3 
-10 

-4 
7 
5 
2 
-10 
-2 
-5 
0 
2 
1 
2 
4 
6 
7 
4 
-2 
-10 
7 
6 
4 
6 
1 
-9 
5 
4 
7 
-7 
-7 
-5 
0 
-7 
1 
9 
1 
-7 
9 
1 
-2 
-9 
-7 
9 
3 
0 
-3 
-7 
6 
5 
5 
-5 
-6 
-9 
-9 
5 
-8 
-1 
-8 
2 
2 
-5 
7 
4 
-9 
-10 
3 
-6 
-7 
-6 
5 
2 
-4 
1 
-7 
1 
-9 
1 
4 
7 
-4 
-9 
-7 
0 
-7 
6 
8 
7 
-5 
-10 
-9 
-1 
7 
0 
-7 
0 
0 
-2 
4 
4 
-5 
0 
8 
1 
-9 
-9 
4 
-8 
2 
-1 
1 
1 
-8 
4 
3 
-5 
1 
-7 
5 
-2 
-7 
6 
0 
3 
9 
-5 
-7 
-1 
4 
8 
-7 
9 
-10 
-9 
-8 
-9 
5 
6 
5 
9 
7 
-4 
-8 
-10 
3 
6 
7 
6 
1 
-6 
6 
-3 
3 

-4 
-10 
2 
2 
5 
-9 
8 
3 
7 
-1 
3 
0 
-7 
-4 
-5 
9 
3 
7 
-1 
2 
9 
-9 
-5 
-3 
0 
3 
9 
5 
-9 
-4 
-2 
-2 
8 
-10 
2 
3 
3 
-8 
9 
0 
1 
-6 
3 
4 
1 
0 
-5 
-6 
-3 
-4 
-2 
-3 
-3 
-5 
4 
8 
8 
-5 
-5 
-10 
1 
-5 
-10 
-9 
-5 
-6 
5 
0 
-4 
4 
3 
-1 
8 
-4 
5 
-9 
6 
-10 
8 
-6 
9 
-4 
-7 
-4 
2 
7 
6 
-8 
-7 
3 
4 
-4 
8 
-4 
-10 
-7 
0 
5 
-4 
-2 
-9 
9 
-1 
1 
-5 
-6 
-5 
3 
7 
-7 
7 
6 
-9 
2 
4 
3 
0 
-7 
-2 
-5 
6 
-8 
-7 
5 
-1 
-7 
0 
1 
0 
6 
2 
1 
5 
-9 
5 
2 
8 
-10 
-4 
5 
-7 
5 
-7 
6 
-2 
7 
-8 
0 
-10 
0 

-3 
7 
2 
0 
-6 
3 
-4 
4 
7 
6 
1 
-1 
-10 
8 
-8 
5 
1 
-10 
5 
7 
5 
0 
-6 
8 
-4 
2 
-2 
-2 
-8 
-2 
0 
-1 
7 
5 
2 
3 
-2 
8 
-2 
7 
4 
1 
-4 
-4 
-1 
-9 
-9 
2 
-9 
-2 
-1 
7 
8 
4 
-3 
7 
8 
5 
7 
-9 
6 
-2 
-8 
-5 
-7 
4 
9 
-7 
-6 
9 
-9 
1 
0 
9 
7 
1 
-10 
9 
-6 
-8 
-3 
-5 
1 
8 
9 
0 
-3 
0 
8 
-6 
1 
-4 
-6 
-5 
1 
9 
2 
-8 
5 
6 
3 
6 
-3 
-7 
-3 
-5 
5 
-2 
6 
1 
-8 
5 
6 
3 
3 
-2 
-7 
2 
8 
3 
-1 
-9 
9 
3 
-4 
-7 
-5 
8 
-5 
-10 
-3 
9 
-2 
4 
4 
5 
1 
-9 
-7 
-3 
2 
7 
-7 
-1 
0 
-2 
7 
-4 
3 
-3 

9 
-8 
-2 
1 
-3 
4 
4 
2 
-5 
9 
-6 
2 
0 
2 
8 
7 
-10 
0 
8 
5 
-1 
1 
3 
-6 
2 
5 
-5 
-1 
-9 
8 
6 
3 
2 
6 
-6 
9 
-8 
8 
-6 
-3 
-1 
-10 
1 
2 
3 
-8 
-1 
-5 
-6 
-3 
-10 
-5 
0 
3 
0 
-8 
-1 
-3 
-7 
-8 
-5 
1 
-3 
-1 
-3 
1 
-2 
0 
-9 
-6 
-1 
1 
-5 
3 
5 
0 
-3 
-6 
5 
1 
1 
5 
-2 
4 
-9 
8 
6 
-8 
7 
2 
-6 
4 
-7 
2 
-7 
-7 
5 
2 
-5 
7 
-2 
4 
-10 
3 
9 
5 
-7 
-4 
1 
0 
-1 
4 
8 
8 
-2 
9 
-2 
-5 
-9 
-4 
7 
7 
-10 
2 
-1 
6 
5 
7 
-10 
-10 
4 
-2 
-3 
-4 
-8 
-4 
3 
7 
-5 
-6 
-2 
4 
8 
-4 
-6 
-3 
7 
-5 
-6 
0 

-6.57687 
-7.52245 
-7.10463 
-4.52323 
-5.43391 
0.69413 
3.40428 
-6.33449 
-5.54807 
-2.07587 
-11.684 
-7.01152 
-10.0823 
-11.8142 
8.01247 
2.87298 
-2.15487 
0.162994 
-0.433765 
-3.3288 
8.39016 
0.239281 
0.671057 
-3.53027 
-2.96471 
2.09295 
3.20054 
-0.820837 
-8.72483 
-2.25527 
6.5555 
-6.72273 
-10.5398 
7.31492 
8.92226 
-3.81073 
-7.74509 
-8.04512 
-0.217511 
1.9294 
8.03615 
-8.8788 
-7.90374 
2.24606 
-8.19789 
-11.7879 
-2.73912 
-9.1143 
-4.45204 
2.75964 
-5.6957 
-2.47621 
1.08671 
7.86913 
7.88839 
-8.28468 
-4.75853 
-11.4842 
-9.89942 
1.03544 
0.484967 
8.15166 
-1.13262 
0.0205362 
-2.37106 
-12.5646 
-1.33293 
3.19452 
-8.43739 
8.67113 
-10.2233 
2.7658 
1.0111 
-6.21463 
-8.2186 
-6.0217 
11.3403 
-10.83 
6.69347 
-5.48179 
-7.83957 
-7.34267 
-5.34955 
8.91263 
2.43868 
-4.18834 
-8.85738 
-4.47652 
9.75828 
-6.81274 
-7.40966 
4.00883 
7.26582 
-8.71157 
-1.72646 
-7.51036 
-0.00606138 
9.53731 
-1.45141 
5.45103 
-2.98808 
3.31457 
-9.81394 
-1.92963 
-5.2735 
5.55817 
7.38851 
7.88904 
6.13347 
-1.27893 
3.81107 
5.15598 
-1.03566 
6.21783 
0.00772445 
5.31627 
6.91523 
-6.6732 
11.4095 
1.11606 
-5.21732 
3.51084 
-2.68893 
-1.67025 
-3.62065 
-6.16227 
-7.73819 
8.86155 
7.50256 
0.52434 
-6.46552 
4.38153 
-1.84185 
1.0671 
-9.79638 
6.70897 
-2.38964 
2.65207 
-2.6255 
4.66508 
9.45223 
-6.28285 
-9.73687 
12.4123 
4.67355 
-4.21776 
5.00269 
-2.99783 
0.125622 
-9.80997 

-0.826435 
-4.71785 
10.8349 
-10.3486 
-5.12224 
-0.789039 
-15.1238 
-16.2506 
1.69437 
15.9422 
11.7098 
-3.57427 
1.65826 
-3.25021 
1.08503 
-3.79731 
1.0547 
5.48042 
5.4994 
-23.1666 
-17.7825 
7.29877 
6.76967 
2.91609 
0.555286 
10.8786 
-7.31008 
-8.88148 
-0.418495 
6.78245 
4.94165 
9.21597 
-2.31332 
7.19913 
-6.31075 
4.69068 
6.96349 
2.43126 
0.925797 
-6.79951 
-15.0191 
-6.79193 
11.1801 
2.49079 
8.8157 
6.52872 
0.671156 
11.6085 
0.701386 
-17.0279 
3.87983 
13.5537 
-2.71717 
-19.3659 
-5.26015 
11.4784 
-14.6424 
6.20388 
-0.0992902 
0.862505 
4.40319 
11.602 
5.16922 
-10.6281 
1.91206 
9.17853 
-0.203178 
3.72256 
8.52858 
-9.45066 
10.0722 
13.183 
6.5608 
15.3487 
4.04821 
-2.54254 
2.95258 
-2.8418 
3.85923 
-8.21941 
11.5699 
-11.3249 
16.3327 
0.969284 
4.34889 
-24.5094 
-4.68013 
-1.8352 
-20.7948 
13.6342 
-5.20833 
-0.103118 
-18.6805 
-7.03988 
5.79596 
12.0872 
7.37392 
2.48699 
-9.51032 
-7.5353 
6.52673 
-18.4119 
6.48074 
0.517742 
5.39784 
0.628622 
-7.25377 
-5.25504 
-8.49118 
-8.11934 
7.11445 
-5.66643 
