-1.30762 
0.338118 
0.578942 
-0.763123 
-2.92387 
-2.63808 
1.09639 
-0.648077 
-0.594456 
-1.41611 

2.06745 
-6.52845 
2.48119 
1.26214 
8.35663 
6.21666 
-7.43216 
-1.12666 
-4.31499 
-3.96537 

-3.84139 
-3.85857 
-6.34035 
-3.11992 
-5.51524 
3.98334 
-5.28607 
17.6231 
2.77161 
1.11665 

-5.84496 
2.95198 
-6.33045 
6.29763 
-4.53651 
-3.42274 
5.11937 
-5.35538 
2.79115 
8.17585 

4.84921 
13.1207 
-3.57781 
-3.50287 
4.47247 
-3.46666 
0.0371401 
-5.32991 
13.7731 
-5.1839 

-4.19615 
-2.32644 
-1.65865 
-3.99706 
-3.77815 
-4.9902 
5.54856 
15.6337 
-0.840117 
-4.80813 

-4.55588 
-2.12487 
0.295801 
0.788908 
-3.87485 
-1.44309 
0.840896 
-0.563472 
9.09085 
4.49244 

4.71908 
-2.84001 
4.99824 
-2.38757 
5.31487 
-2.5097 
-1.65483 
-2.26019 
-2.19915 
-1.74891 

8.40702 
-1.80811 
5.37672 
-6.25712 
-4.40465 
1.48269 
-3.69966 
10.1369 
-9.14243 
-3.72243 

10.3719 
-6.21997 
11.5166 
-7.70024 
-0.88663 
-5.63422 
-4.6171 
-0.2544 
-2.57755 
-4.08031 

-6.55116 
-7.56055 
0.723164 
-5.03032 
2.94328 
7.9794 
8.66743 
-2.80863 
-1.51614 
-4.13612 

-3.58298 
-9.83111 
-0.137948 
5.39939 
-2.15529 
0.15914 
-3.77488 
19.0331 
-2.50984 
-1.93745 

-5.32953 
7.41103 
8.65207 
-2.47034 
5.54369 
-7.5014 
5.28579 
-8.36533 
-3.92048 
-1.62655 

-0.765052 
2.6723 
-0.477607 
0.769053 
-0.898045 
-1.72508 
10.3083 
-0.604959 
-3.95335 
-1.54479 

1.44724 
-2.93712 
-6.53471 
9.60721 
3.19715 
-2.38821 
-3.24762 
-3.78809 
-6.15657 
6.49058 

0.774801 
-4.31375 
-4.12585 
-2.65635 
4.31572 
18.8487 
3.97255 
-4.68244 
3.03162 
-3.01664 

-4.34111 
-1.85334 
10.8443 
-5.54316 
-6.86738 
-4.28819 
-0.159337 
-3.0429 
3.98482 
8.04705 

-5.62093 
-3.03075 
-1.46183 
-2.9508 
-5.52107 
8.03892 
3.11986 
-3.30247 
-2.39554 
-1.13659 

8.18748 
-7.71133 
-4.83281 
13.226 
-1.93786 
-2.54945 
-2.0484 
8.67343 
9.67667 
-5.98647 

10.5621 
0.425632 
-6.94866 
-2.91806 
-2.43754 
-6.8138 
5.51539 
-5.92292 
-9.77075 
11.8017 

1.75865 
-5.02232 
3.3241 
6.08342 
-1.34032 
-1.10635 
2.4341 
-1.86871 
10.0417 
0.987219 

-3.07934 
-3.91261 
2.64444 
13.8218 
-0.717263 
1.59588 
-8.28304 
-3.29418 
-3.19205 
10.974 

1.31577 
-3.22032 
-2.58827 
6.93287 
-3.31897 
5.30407 
-2.37529 
-4.54459 
-3.24811 
0.126425 

-5.22078 
-6.0788 
0.841442 
-3.70548 
-1.98688 
13.7117 
10.2397 
-0.566735 
-4.39201 
4.24587 

4.40622 
-6.34369 
-7.41925 
-5.10016 
14.598 
4.17916 
-5.52073 
-1.45036 
-3.34153 
-0.780975 

-7.59227 
-2.82446 
4.34148 
-6.81194 
18.429 
-5.90667 
-4.8563 
-5.2873 
6.57192 
-5.55024 

2.24512 
-3.32982 
-0.446214 
-4.89622 
1.3941 
-2.52182 
4.60132 
-2.71046 
-2.47282 
-3.34023 

-1.13967 
1.57002 
3.9526 
0.473141 
-4.34015 
-2.98115 
-1.2788 
-2.94119 
1.69217 
2.64218 

1.38695 
0.431265 
-2.12824 
2.0942 
9.00241 
-5.46583 
-9.04753 
0.347013 
-2.68229 
-3.336 

-3.99313 
-0.346235 
4.69694 
-4.34737 
-6.09197 
6.31758 
-2.09464 
-2.23646 
-2.42164 
2.84685 

-7.31632 
-5.37664 
-6.29102 
0.0403093 
9.84236 
-8.23004 
-3.19837 
8.03797 
-1.92715 
5.5514 

-1.00139 
-7.70444 
3.16536 
-6.64388 
12.4755 
-3.12822 
6.63964 
-1.4281 
0.719951 
1.62835 

-7.45723 
6.72061 
5.01015 
-0.384148 
-1.07953 
14.1558 
-2.72633 
-4.6953 
-0.710409 
-6.62719 

-1.86377 
-3.2055 
8.88465 
-8.22887 
-2.29845 
-1.86248 
-2.07582 
-1.85478 
-6.83581 
9.79992 

-6.15382 
5.73047 
4.69297 
-5.28976 
-6.68191 
-9.03505 
0.956984 
0.668447 
2.72272 
-9.28246 

-0.193792 
-2.37958 
-8.06293 
-2.11521 
-7.28422 
-2.56911 
5.0303 
5.95803 
-3.259 
5.80647 

2.69382 
-4.86904 
-2.99354 
-2.8634 
-4.47922 
-2.06038 
12.3345 
-5.55824 
2.27445 
0.639119 

3.13331 
-4.90756 
0.710522 
-4.32074 
-4.79273 
-3.6411 
-0.953018 
16.6037 
6.61957 
-3.4387 

0.39703 
1.02173 
2.44461 
-5.25846 
-9.38839 
-3.67025 
-2.70869 
-2.41942 
-4.3249 
14.2136 

8.37381 
-4.10262 
-2.85331 
-3.82426 
-3.18574 
-5.04774 
7.28426 
-5.52982 
9.80042 
-6.99444 

-3.98042 
8.22399 
-4.05229 
-3.16742 
2.23575 
-0.0290543 
-7.49144 
-1.65608 
6.28093 
-3.85298 

-7.24681 
-6.91943 
-2.21505 
7.59908 
7.5863 
-6.23439 
7.74103 
-1.5312 
-6.23655 
-5.35224 

8.36445 
-2.82085 
-3.58912 
3.95783 
-2.70218 
-3.03845 
-1.01131 
6.64461 
-1.98584 
-0.705758 

-2.53427 
-3.2198 
1.3155 
-5.82245 
-2.89901 
4.30986 
15.6929 
-5.51313 
0.481883 
10.1619 

-4.63742 
-6.35678 
-6.53687 
-1.24685 
8.05122 
4.31593 
-2.69275 
-1.64846 
5.09508 
12.9621 

-0.408017 
-4.15078 
9.64925 
4.33016 
-3.6784 
-6.71434 
-3.58126 
15.5455 
4.97786 
-4.25007 

3.91642 
2.75118 
-2.37445 
-0.652379 
1.56932 
1.08191 
-0.655185 
-2.20159 
-4.57187 
0.0803402 

-2.96608 
-6.24001 
3.31213 
5.33852 
-3.59626 
-5.57001 
0.240537 
-1.76102 
-3.86604 
21.0859 

10.2034 
-8.28303 
-5.50674 
4.90391 
-1.32649 
13.4174 
-7.60285 
-5.42914 
-3.64501 
6.24784 

-0.907945 
-4.48597 
-3.38096 
-3.26002 
-2.67227 
2.61563 
13.0035 
-2.14452 
2.27317 
8.08904 

-1.39013 
-3.52967 
7.3491 
-2.40549 
-5.91834 
5.92445 
-6.34209 
-3.22124 
3.07418 
3.04652 

-4.00059 
-4.06309 
5.37867 
-6.91281 
-6.65983 
-6.08335 
-4.61723 
12.7036 
-4.33467 
13.6357 

0.353715 
0.322203 
2.0533 
-0.778427 
-5.04326 
8.42001 
1.04642 
-3.24876 
-1.21757 
-1.80552 

12.4401 
-1.82066 
-5.68655 
-3.739 
3.297 
-8.98577 
1.74655 
-6.23415 
11.0749 
-3.22 

-1.82729 
-1.72051 
-1.75584 
-0.621412 
5.9345 
-1.21271 
-0.487793 
-1.36473 
-1.83057 
-0.635362 

-7.15892 
8.88831 
-1.28269 
8.9632 
2.37844 
-6.22477 
-7.78196 
-2.90472 
-3.0468 
2.43056 

-3.37747 
16.1246 
-6.98676 
9.38666 
-2.74812 
-6.94462 
0.202095 
-2.95922 
-4.81691 
2.86397 

-4.06477 
4.05329 
2.34665 
0.307128 
3.09788 
-3.4286 
-5.25765 
-1.21056 
1.64029 
0.92797 

-2.34992 
-2.08027 
-4.42522 
0.858924 
-3.23292 
-6.59266 
-3.49718 
13.6129 
-1.1587 
-5.54592 

18.1517 
-11.847 
0.275122 
-8.92695 
0.700121 
-1.92551 
-2.45848 
0.709036 
8.40309 
7.70584 

-1.97544 
4.28088 
-5.96487 
-0.235773 
6.90385 
3.39104 
4.13028 
-4.01795 
-3.91995 
-6.14073 

1.73679 
-9.28452 
11.4159 
11.0919 
-1.11421 
-5.33204 
8.91874 
-2.1121 
-9.17061 
-1.94042 

-2.14778 
17.3331 
-0.962188 
6.41625 
-1.96725 
-0.96327 
-2.37397 
-4.64318 
-3.26616 
-4.50852 

-2.53406 
5.25913 
11.1901 
3.43931 
-2.29025 
-5.1233 
5.16199 
-3.97222 
10.5969 
-6.21237 

-3.55036 
-4.4829 
2.24272 
2.36721 
-7.487 
-4.29444 
1.64496 
5.7862 
5.2482 
-3.4903 

-2.10915 
-4.59656 
6.96823 
7.4688 
-0.503643 
4.69186 
1.75943 
-0.861765 
5.34873 
-3.9373 

1.45543 
14.9611 
6.9266 
-6.35138 
1.05636 
-1.70273 
2.94524 
-7.65196 
-6.3406 
-6.12074 

-5.86558 
-4.97661 
-0.391022 
-1.47651 
7.68282 
-0.983098 
1.41208 
2.86863 
10.7529 
-5.19205 

0.980177 
-8.82657 
12.7911 
0.9054 
-2.27886 
4.89719 
-1.6472 
-4.20139 
4.02288 
-2.52551 

1.91261 
-2.05675 
-4.19247 
-2.0294 
0.320076 
12.0623 
-0.549302 
-4.29935 
-1.71335 
-1.89249 

-1.40977 
1.86756 
-1.49266 
-3.73964 
3.84202 
0.0625468 
-5.43609 
-1.36491 
-1.03019 
-3.75715 

3.93029 
-2.8854 
4.40879 
-2.60176 
-0.342629 
-4.08803 
4.0038 
-4.82069 
-6.03903 
-2.77401 

1.4475 
-2.21234 
6.35943 
14.5283 
3.7799 
-10.7547 
-5.55208 
-6.60552 
-2.88386 
-6.35659 

-3.82666 
-1.7768 
-1.65109 
1.24912 
-1.52437 
-2.68744 
-0.0942446 
3.2707 
6.99558 
-0.124473 

-0.831786 
-7.10271 
-1.6651 
14.7159 
-1.62256 
-2.81987 
3.77384 
9.49667 
-6.32257 
-4.0903 

8.4305 
-7.79831 
10.5644 
7.83873 
-2.16639 
-2.64489 
-2.43424 
-5.40562 
-3.15689 
2.31328 

-3.88292 
-3.36469 
-7.54208 
-1.72993 
4.06963 
-5.03142 
10.9952 
-6.02512 
8.15426 
12.2372 

-1.23852 
4.64922 
1.83146 
1.1015 
-3.8034 
-3.83892 
-4.06981 
-4.8654 
12.8592 
2.66581 

9.82803 
-10.9521 
1.70643 
7.44987 
-0.880216 
-6.5614 
1.47015 
-3.5343 
6.52454 
-4.28512 

-2.27339 
-4.00131 
-0.337004 
-8.09439 
-3.37636 
-3.05468 
-0.98119 
6.4252 
-3.85034 
4.07612 

-6.01862 
-5.25382 
0.841362 
0.539018 
4.26583 
1.15444 
-0.879569 
1.16926 
-2.91559 
-5.96823 

-6.16341 
7.94299 
2.51151 
-2.89243 
10.0296 
-3.65346 
-5.4066 
2.43181 
-2.15631 
-6.78059 

4.8121 
11.5365 
-8.65669 
7.8415 
-3.19631 
5.45143 
-8.43765 
-5.98615 
0.59344 
-1.79969 

-5.20371 
-6.71974 
4.44204 
-0.782934 
12.6192 
-4.19703 
12.4023 
-7.40983 
1.6771 
1.62445 

6.53499 
4.74275 
-7.17535 
-7.27411 
2.80141 
-5.06214 
-6.27295 
-1.70147 
2.87293 
2.80505 

9.16621 
-5.87364 
1.87804 
1.08169 
-3.48198 
-2.95853 
-7.90315 
3.64821 
-5.68928 
4.80742 

9.96635 
-7.49431 
-2.09827 
-1.51201 
12.2764 
2.85726 
3.43069 
-6.41799 
-9.69805 
-5.64299 

-8.8846 
-9.49364 
-6.02707 
8.82753 
9.62194 
6.26038 
-3.72639 
-4.80696 
-2.45239 
9.71372 

-2.7962 
-6.25336 
-0.363661 
5.39128 
2.35483 
-3.44319 
8.06613 
-3.58404 
10.503 
0.0610399 

4.19077 
-1.41863 
0.285493 
11.5396 
-5.11271 
-6.58744 
1.07711 
-3.2425 
-3.56208 
2.3713 

-5.35808 
-1.55477 
-2.6535 
4.84968 
9.66596 
-2.19454 
-1.13686 
3.77266 
-0.554093 
-5.88349 

3.40124 
-3.94887 
8.39546 
-3.58776 
-7.15171 
-0.605266 
-3.07533 
-3.29085 
0.522802 
3.25409 

-4.08708 
8.40346 
-7.59034 
8.0254 
2.15463 
7.71283 
-0.685474 
-4.34053 
-2.20861 
-5.23182 

10.116 
-2.54334 
6.39196 
-5.24282 
-6.23409 
-1.29562 
11.5342 
-6.23607 
-9.71958 
-1.73974 

-5.32329 
-5.84678 
3.31447 
5.57446 
-3.30309 
10.0915 
3.6837 
-8.30051 
-1.94076 
-0.569821 

-4.81218 
0.000163818 
6.21433 
3.24842 
7.93228 
-4.06078 
-0.343854 
-5.30162 
-5.0672 
-3.51426 

-2.4414 
-4.78585 
-3.37739 
11.0151 
-4.53334 
3.24051 
9.18362 
-3.01894 
4.78471 
-3.48563 

0.164401 
8.74778 
-4.76611 
-4.7158 
0.469155 
-3.94281 
4.21936 
-4.00294 
4.88348 
-4.07975 

-6.73994 
-3.23574 
-8.3075 
12.2546 
6.75455 
-4.42214 
-4.2786 
-5.03979 
7.31735 
4.28174 

4.34387 
-2.66265 
3.44963 
-4.87028 
1.60323 
1.56179 
-3.21671 
-1.6355 
-5.46853 
-2.27781 

2.78258 
-3.33827 
-4.80465 
-4.8556 
6.45274 
3.58295 
-4.62431 
-4.60178 
7.80558 
4.46729 

-2.73809 
4.07502 
-5.72501 
0.856434 
-4.11533 
-1.15188 
-5.40217 
-8.54423 
6.39961 
12.4453 

-3.50395 
-6.0114 
-8.11476 
-9.38537 
3.8256 
0.739105 
10.4951 
-2.28498 
-4.12362 
8.75037 

-7.42361 
-1.51417 
5.42157 
1.03198 
16.431 
2.52836 
-7.94839 
-2.32067 
-5.3721 
4.75356 

-7.26963 
-0.739256 
1.31947 
2.47446 
4.60081 
-4.43175 
-4.86583 
-4.22887 
-3.78234 
7.34403 

-2.58372 
-4.48905 
-8.25348 
-3.94942 
7.94205 
-6.63236 
5.6251 
4.49209 
-0.462065 
10.7996 

12.5232 
-6.23938 
2.85412 
2.02623 
7.1252 
-6.5737 
-7.83404 
-4.14827 
-0.659265 
-3.01606 

6.05146 
7.74492 
-2.73908 
-1.39875 
-2.7035 
-1.83768 
-6.62696 
-0.741457 
-6.57337 
2.12134 

-4.423 
0.53289 
-0.813998 
5.38179 
-3.67361 
-7.86537 
14.0545 
-3.44376 
3.85854 
-1.37743 

10.0255 
-8.95028 
-4.5826 
2.41995 
3.08146 
-1.60396 
1.23885 
-6.17288 
6.74654 
-3.17609 

6.60866 
-6.12291 
-2.92083 
-6.41865 
4.71805 
-5.03078 
0.0556112 
11.7105 
6.71393 
1.21406 

-5.79442 
-10.6234 
10.1984 
8.30856 
-1.34097 
-0.698737 
-7.79323 
12.7886 
-2.89264 
-10.0451 

-7.20997 
-5.00325 
-1.34454 
1.20373 
-2.70981 
10.6474 
-0.580082 
0.931907 
-4.68759 
3.44823 

1.75623 
-2.32646 
-4.36531 
1.77059 
-4.54706 
1.20515 
-4.71295 
12.3519 
-2.18075 
13.7064 

0.72832 
-2.05919 
0.361993 
-2.16925 
6.02717 
1.5687 
1.09748 
0.557439 
-2.73199 
0.302578 

2.98978 
-6.12985 
-6.66245 
4.84921 
0.671715 
-4.20322 
7.4618 
11.229 
-5.10897 
-6.50443 

-4.65962 
-6.9885 
4.39976 
-2.42118 
0.47422 
-2.15537 
5.73251 
-7.01767 
7.72132 
5.08114 

7.48107 
-3.70229 
0.277903 
4.42127 
-7.24305 
16.1848 
-7.63364 
-3.45997 
-4.15496 
-0.213588 

-2.79133 
-1.12458 
-7.69822 
2.2911 
1.46212 
-3.9323 
11.7184 
0.974341 
-0.5666 
-4.14466 

-6.27866 
1.17978 
2.82299 
-7.41797 
-1.37912 
-5.63152 
-6.95402 
5.12938 
12.2081 
-4.72001 

-1.01731 
2.67598 
-6.17383 
6.38236 
-1.24729 
-3.21908 
11.9448 
-1.08307 
3.44993 
0.249473 

-2.7956 
-4.94692 
-1.96694 
-5.79045 
1.16151 
-1.25657 
2.72322 
2.84205 
8.86642 
-1.79956 

10.9467 
-0.0488712 
-2.51572 
8.78223 
-4.21088 
-4.74382 
-3.89522 
-3.72961 
1.2425 
0.658761 

1.88352 
-4.16604 
-5.68004 
-3.92604 
1.50618 
4.70678 
0.675987 
-2.5725 
3.7833 
1.34213 

-0.910263 
-2.41069 
-4.67438 
6.44538 
-3.94368 
-2.06931 
-5.89081 
3.02067 
15.268 
-3.8459 

