0 
-0.916507 
1.57653 
5.62456 
-2.51032 
-9.29206 
-10.2138 
-6.29859 
-5.57855 
-10.3714 

4.67464e-310 
6.91406e-310 
1.88162 
-0.775857 
-5.50437 
-3.88771 
-0.607277 
5.34945 
5.97516 
-3.29049 

4.67464e-310 
6.91406e-310 
-7.34519 
2.78642 
-2.86366 
-7.37824 
0.759156 
3.31989 
2.68962 
-5.35269 

4.67464e-310 
6.91406e-310 
2.63728 
6.85916 
-0.904665 
2.49567 
8.31247 
-0.846442 
6.34719 
5.40513 

4.67464e-310 
6.91406e-310 
-9.19872 
2.50133 
-0.942285 
-5.14966 
1.95815 
-0.226615 
2.70054 
-0.791479 

4.67464e-310 
-7.81198 
-3.10277 
7.78093 
4.47262 
-4.06094 
2.85679 
7.32745 
1.92866 
7.45541 

4.67464e-310 
6.91406e-310 
0 
0 
-5.37866 
-1.84345 
-9.03033 
4.4126 
-0.711973 
-0.26025 

4.67464e-310 
6.91406e-310 
0 
0 
6.14357 
1.85693 
-7.9166 
-0.851385 
2.92847 
-3.7805 

4.67464e-310 
6.91406e-310 
0 
0 
-6.60987 
-7.95568 
4.36097 
-1.98206 
-9.0552 
8.19612 

4.67464e-310 
6.91406e-310 
0 
0 
-8.61307 
-8.49369 
8.54126 
-7.43911 
-2.04273 
-8.21687 

4.67464e-310 
6.91406e-310 
0 
0 
-2.98346 
2.33286 
7.36208 
-8.35529 
3.59918 
2.45755 

4.67464e-310 
6.91406e-310 
0 
0 
2.26044 
0.859419 
-2.11742 
-8.71785 
-9.49462 
-1.39078 

4.67464e-310 
6.91406e-310 
0 
0 
5.81824 
6.79794 
-1.18904 
5.17288 
0.81466 
-1.28529 

4.67464e-310 
6.91406e-310 
0 
0 
-8.76875 
-9.05813 
-3.18862 
-9.21248 
-8.85522 
-7.43279 

4.67464e-310 
6.91406e-310 
0 
0 
2.23942 
1.63598 
-5.072 
-6.95005 
-5.97666 
5.77003 

4.67464e-310 
6.91406e-310 
0 
0 
-5.41615 
2.51864 
-3.12386 
2.94534 
-7.48502 
-0.232141 

4.67464e-310 
6.91406e-310 
0 
0 
6.16157 
-3.01209 
-0.820413 
6.3444 
8.14559 
-7.09021 

4.67464e-310 
6.91406e-310 
0 
0 
-1.02236 
-3.08704 
-8.51199 
3.20428 
-8.48718 
7.3576 

4.67464e-310 
6.91406e-310 
0 
0 
-3.9235 
7.47441 
2.26354 
-3.68191 
-5.57747 
-3.19443 

4.67464e-310 
6.91406e-310 
0 
0 
-1.95906 
-9.04085 
-0.529442 
6.36134 
6.12056 
-8.90815 

4.67464e-310 
6.91406e-310 
0 
0 
6.10454 
-4.36075 
1.72545 
0.496678 
-9.45571 
-4.74511 

4.67464e-310 
6.91406e-310 
0 
0 
0.904791 
8.55514 
-4.76721 
5.09026 
-4.82077 
-7.3628 

4.67464e-310 
6.91406e-310 
0 
0 
5.51608 
-0.370086 
-4.73666 
5.88411 
-9.42834 
3.36337 

4.67464e-310 
6.91406e-310 
0 
0 
5.07404 
1.76475 
7.21007 
-8.20629 
4.22855 
-0.307038 

4.67464e-310 
6.91406e-310 
0 
0 
-6.69875 
6.62566 
-0.333718 
-9.00774 
2.17065 
-3.14622 

4.67464e-310 
6.91406e-310 
0 
0 
-4.76477 
6.08319 
-2.84309 
-6.57272 
3.53735 
8.0011 

4.67464e-310 
6.91406e-310 
0 
0 
-1.65806 
8.48046 
5.359 
7.63331 
0.649333 
-6.17437 

4.67464e-310 
6.91406e-310 
0 
0 
7.58253 
3.74858 
1.67389 
-7.22903 
3.19766 
5.58313 

4.67464e-310 
6.91406e-310 
0 
0 
-4.96618 
-6.03704 
-9.04302 
1.39877 
-4.08762 
-3.60453 

4.67464e-310 
6.91406e-310 
0 
0 
7.84148 
7.27173 
-4.63345 
-2.64149 
5.9111 
-1.94685 

4.67464e-310 
6.91406e-310 
0 
0 
3.3865 
-0.68954 
-2.96196 
7.72668 
-7.72549 
-7.63683 

4.67464e-310 
6.91406e-310 
0 
0 
3.40662 
5.5842 
-1.16278 
3.05616 
-8.45878 
-3.18456 

4.67464e-310 
6.91406e-310 
0 
0 
-7.45624 
3.59122 
-8.25407 
-2.8422 
2.29668 
-0.457228 

4.67464e-310 
6.91406e-310 
0 
0 
6.01027 
5.61795 
-3.96042 
-4.15036 
4.1054 
-1.32028 

4.67464e-310 
6.91406e-310 
0 
0 
5.82617 
7.20125 
6.95089 
-3.60001 
-5.33177 
0.486932 

4.67464e-310 
6.91406e-310 
0 
0 
7.93148 
0.0098691 
3.28588 
1.58352 
-0.0734543 
-2.72206 

4.67464e-310 
6.91406e-310 
0 
0 
4.22183 
-8.3822 
2.05917 
3.54463 
7.18074 
-2.69037 

4.67464e-310 
6.91406e-310 
0 
0 
7.72124 
-1.71735 
7.28026 
6.10626 
-2.80173 
-7.1869 

4.67464e-310 
6.91406e-310 
0 
0 
1.53743 
0.989912 
8.26466 
-3.6688 
-6.98811 
-8.23021 

4.67464e-310 
6.91406e-310 
0 
0 
4.09224 
-2.61476 
-0.0140644 
-2.48163 
2.41787 
-1.88403 

4.67464e-310 
6.91406e-310 
0 
0 
8.19379 
5.18486 
7.30264 
6.39543 
-3.6659 
6.05997 

4.67464e-310 
6.91406e-310 
0 
0 
-1.78243 
3.33289 
-7.56834 
7.66121 
-8.42151 
6.84675 

4.67464e-310 
6.91406e-310 
0 
0 
-5.37421 
4.40517 
0.807547 
-2.9835 
4.20099 
-5.44892 

4.67464e-310 
6.91406e-310 
0 
0 
-8.86799 
-5.74225 
-8.1103 
6.76436 
2.72434 
-2.90273 

4.67464e-310 
6.91406e-310 
0 
0 
-1.2162 
-3.675 
-5.63487 
-6.46299 
-4.11582 
-4.67532 

4.67464e-310 
6.91406e-310 
0 
0 
0.634019 
-8.4455 
6.54796 
-6.44941 
-2.23831 
-5.37391 

4.67464e-310 
6.91406e-310 
0 
0 
-2.09738 
-3.88147 
2.04676 
-6.76556 
6.13283 
-4.86254 

4.67464e-310 
6.91406e-310 
0 
0 
4.63832 
1.32084 
3.53224 
0.66403 
-2.59912 
1.4352 

4.67464e-310 
6.91406e-310 
0 
0 
-6.20805 
-6.27487 
3.83572 
1.9673 
7.15693 
-6.95414 

4.67464e-310 
6.91406e-310 
0 
0 
-4.80041 
-3.54285 
-7.28597 
6.07657 
-2.21909 
0.649427 

4.67464e-310 
6.91406e-310 
0 
0 
-0.273106 
4.91279 
3.22487 
-5.49981 
-3.94512 
-8.37868 

4.67464e-310 
6.91406e-310 
0 
0 
-1.3468 
-4.79473 
-6.49616 
-6.34641 
-0.225908 
2.47803 

4.67464e-310 
6.91406e-310 
0 
0 
3.33329 
-1.7484 
-7.04627 
5.04989 
7.05343 
-6.2511 

4.67464e-310 
6.91406e-310 
0 
0 
4.28483 
-6.06398 
-7.13356 
-8.05964 
7.67652 
-8.31382 

4.67464e-310 
6.91406e-310 
0 
0 
-1.06591 
-4.57961 
-7.24058 
1.44169 
-8.66272 
-5.67294 

4.67464e-310 
6.91406e-310 
0 
0 
-6.0884 
7.05115 
-1.08718 
5.91568 
-3.72702 
7.79991 

4.67464e-310 
6.91406e-310 
0 
0 
2.67361 
-6.24313 
-1.78893 
-1.97716 
-6.08046 
-8.90621 

4.67464e-310 
6.91406e-310 
0 
0 
-5.6221 
-1.0128 
-6.10737 
-3.67664 
3.17554 
-5.4893 

4.67464e-310 
6.91406e-310 
0 
0 
2.62637 
7.48613 
-5.58048 
-7.19766 
4.01584 
-6.73669 

4.67464e-310 
6.91406e-310 
0 
0 
-8.36589 
3.19801 
3.23612 
-7.31425 
-7.57051 
6.9089 

4.67464e-310 
6.91406e-310 
0 
0 
-1.37855 
-8.23752 
-5.84322 
1.34557 
-9.29992 
-0.219349 

4.67464e-310 
6.91406e-310 
0 
0 
-1.27474 
4.3457 
-8.20193 
-3.75762 
-1.25444 
5.07318 

4.67464e-310 
6.91406e-310 
0 
0 
-3.73176 
-3.73965 
-5.49312 
1.08668 
-9.07567 
-2.78691 

4.67464e-310 
6.91406e-310 
0 
0 
-2.09572 
0.484824 
2.96242 
-5.27808 
4.36511 
2.67957 

4.67464e-310 
6.91406e-310 
0 
0 
-3.80112 
-0.0196984 
-6.01966 
-2.77706 
4.69081 
-4.57656 

4.67464e-310 
6.91406e-310 
0 
0 
7.89891 
-4.04859 
-3.85412 
-6.17748 
-0.234442 
7.17601 

4.67464e-310 
6.91406e-310 
0 
0 
-4.77841 
2.89074 
-5.61321 
-0.335532 
-1.53977 
-9.10412 

4.67464e-310 
6.91406e-310 
0 
0 
5.17835 
-7.33277 
3.58563 
-9.27866 
-8.52091 
-7.61478 

4.67464e-310 
6.91406e-310 
0 
0 
6.76437 
-0.0300197 
-5.54598 
5.08226 
-3.82143 
-3.96395 

4.67464e-310 
6.91406e-310 
0 
0 
2.13252 
-1.71215 
-5.41787 
0.282214 
8.01231 
-3.77952 

4.67464e-310 
6.91406e-310 
0 
0 
0.815597 
6.78934 
0.80962 
6.7303 
0.035698 
2.55568 

4.67464e-310 
6.91406e-310 
0 
0 
-4.88665 
1.79055 
7.14341 
-8.35586 
-8.40749 
-5.71527 

4.67464e-310 
6.91406e-310 
0 
0 
8.05212 
7.03641 
8.18253 
-4.93701 
-1.84369 
6.55713 

4.67464e-310 
6.91406e-310 
0 
0 
-8.87764 
-1.74564 
3.84167 
0.718468 
-2.88476 
6.3099 

4.67464e-310 
6.91406e-310 
0 
0 
-2.73317 
2.54191 
-6.1646 
6.85551 
3.25123 
5.34973 

4.67464e-310 
6.91406e-310 
0 
0 
6.41546 
-6.20976 
7.34647 
5.31744 
-9.2333 
7.36032 

4.67464e-310 
6.91406e-310 
0 
0 
7.02682 
-1.14828 
2.87949 
-4.9726 
1.5102 
1.56529 

4.67464e-310 
6.91406e-310 
0 
0 
1.76068 
-6.74174 
-6.53822 
3.9012 
-8.23045 
0.0146282 

4.67464e-310 
6.91406e-310 
0 
0 
-6.53965 
2.41214 
-5.99818 
2.389 
-8.46332 
4.88684 

4.67464e-310 
6.91406e-310 
0 
0 
2.21772 
-8.78545 
-7.11122 
-3.63753 
-4.96671 
-3.85695 

4.67464e-310 
6.91406e-310 
0 
0 
1.6859 
7.84521 
6.85076 
4.93613 
-2.67247 
1.56637 

4.67464e-310 
6.91406e-310 
0 
0 
0.696989 
-6.39225 
8.28182 
-1.62712 
6.38112 
-8.75245 

4.67464e-310 
6.91406e-310 
0 
0 
-6.96482 
3.48834 
-3.17222 
4.92987 
-9.31972 
-5.40716 

4.67464e-310 
6.91406e-310 
0 
0 
-3.83604 
-2.76961 
-7.99903 
6.15006 
3.84552 
-1.53131 

4.67464e-310 
6.91406e-310 
0 
0 
0.457595 
-6.61427 
-8.89796 
-0.0268956 
0.540388 
6.21278 

4.67464e-310 
6.91406e-310 
0 
0 
3.15667 
-9.33334 
7.69544 
-6.98638 
-2.08636 
-0.0575598 

4.67464e-310 
6.91406e-310 
0 
0 
-4.61528 
-9.47614 
2.82038 
-3.58338 
6.39748 
-1.68395 

4.67464e-310 
6.91406e-310 
0 
0 
4.45393 
5.87389 
2.51754 
-2.00331 
-9.10724 
4.84303 

4.67464e-310 
6.91406e-310 
0 
0 
7.92023 
-7.5258 
-1.93885 
6.00938 
-5.48423 
6.2469 

4.67464e-310 
6.91406e-310 
0 
0 
-2.15209 
-5.05048 
-7.38275 
-8.19512 
-6.98578 
8.14473 

4.67464e-310 
6.91406e-310 
0 
0 
2.28521 
-4.38877 
-4.53957 
7.16655 
2.30795 
-4.2179 

4.67464e-310 
6.91406e-310 
0 
0 
-2.623 
8.35069 
-4.82046 
3.84689 
-2.2659 
-7.17054 

4.67464e-310 
6.91406e-310 
0 
0 
-1.37216 
-4.18416 
-8.06136 
-5.93919 
7.68048 
-4.59949 

4.67464e-310 
6.91406e-310 
0 
0 
-8.41929 
-9.08577 
0.127133 
-3.46806 
8.26228 
-5.14121 

4.67464e-310 
6.91406e-310 
0 
0 
-8.36964 
3.43647 
-2.11189 
-3.66956 
-8.45727 
5.0711 

4.67464e-310 
6.91406e-310 
0 
0 
-7.41761 
7.15361 
4.52458 
5.1566 
-8.54707 
3.62014 

4.67464e-310 
6.91406e-310 
0 
0 
-8.22407 
-2.35327 
2.69853 
1.74893 
3.24078 
1.9829 

4.67464e-310 
6.91406e-310 
0 
0 
7.94649 
-6.57314 
-0.765607 
-2.63568 
-1.0777 
-0.190761 

4.67464e-310 
6.91406e-310 
0 
0 
7.97274 
-6.13587 
-7.0303 
3.69253 
7.943 
-6.42235 

4.67464e-310 
6.91406e-310 
0 
0 
1.79272 
-4.66824 
4.48014 
-4.60695 
-1.40202 
-6.91725 

4.67464e-310 
6.91406e-310 
0 
0 
1.05222 
0.652455 
3.31332 
-7.32585 
-0.135335 
4.99456 

4.67464e-310 
6.91406e-310 
0 
0 
6.52966 
-0.954134 
-2.44939 
-8.46247 
4.9174 
7.1018 

4.67464e-310 
6.91406e-310 
0 
0 
-5.59592 
4.54671 
-4.59619 
7.74889 
1.67734 
3.19459 

4.67464e-310 
6.91406e-310 
0 
0 
-4.4628 
5.54703 
-1.10527 
1.40617 
-0.455039 
-8.78127 

4.67464e-310 
6.91406e-310 
0 
0 
0.112166 
4.74405 
8.09379 
6.84394 
-1.49396 
4.45765 

4.67464e-310 
6.91406e-310 
0 
0 
4.12153 
5.55494 
3.16743 
1.63671 
-2.64798 
-3.71011 

4.67464e-310 
6.91406e-310 
0 
0 
8.28137 
7.19904 
8.4123 
-1.98561 
-0.142988 
-1.21538 

4.67464e-310 
6.91406e-310 
0 
0 
-9.33739 
-4.98288 
-3.8137 
8.2327 
4.48289 
3.79354 

4.67464e-310 
6.91406e-310 
0 
0 
-6.00413 
6.02365 
4.46845 
6.02564 
-1.06658 
3.28359 

4.67464e-310 
6.91406e-310 
0 
0 
-0.316525 
-3.59989 
3.6195 
-0.880949 
-2.83978 
-5.30083 

4.67464e-310 
6.91406e-310 
0 
0 
7.0028 
-3.77997 
-7.68743 
-5.48288 
-5.02363 
-0.394843 

4.67464e-310 
6.91406e-310 
0 
0 
-2.54541 
6.26561 
0.12543 
3.41287 
3.49005 
7.9085 

4.67464e-310 
6.91406e-310 
0 
0 
-4.44623 
5.23953 
4.7537 
7.91101 
6.2588 
-6.97264 

4.67464e-310 
6.91406e-310 
0 
0 
-5.19548 
8.1218 
-2.76229 
8.00386 
5.2773 
2.60199 

4.67464e-310 
6.91406e-310 
0 
0 
-8.91512 
2.73293 
1.86774 
-0.336082 
7.97873 
-3.52414 

4.67464e-310 
6.91406e-310 
0 
0 
-1.34147 
2.32927 
5.49351 
-5.0754 
-5.72156 
2.44419 

4.67464e-310 
6.91406e-310 
0 
0 
2.23206 
6.27652 
0.501633 
-7.88343 
-2.16953 
7.79127 

4.67464e-310 
6.91406e-310 
0 
0 
1.38216 
-3.91932 
-5.5137 
-5.3375 
-2.24013 
5.25098 

4.67464e-310 
6.91406e-310 
0 
0 
5.00756 
-5.04985 
4.6202 
-5.18847 
-0.974008 
8.02131 

4.67464e-310 
6.91406e-310 
0 
0 
7.79842 
-4.06748 
-8.80632 
0.170052 
6.92773 
-1.09449 

4.67464e-310 
6.91406e-310 
0 
0 
4.00021 
-6.07066 
-3.99232 
2.00859 
7.88031 
-4.35628 

4.67464e-310 
6.91406e-310 
0 
0 
-5.52684 
-7.14448 
-7.00416 
7.78199 
-3.33243 
-6.13438 

4.67464e-310 
6.91406e-310 
0 
0 
-2.01788 
-7.28703 
0.745387 
-1.83252 
-5.47043 
-0.785296 

4.67464e-310 
6.91406e-310 
0 
0 
1.69747 
1.86269 
-6.40242 
-1.33751 
-6.09928 
-7.44644 

4.67464e-310 
6.91406e-310 
0 
0 
-8.55053 
2.00745 
-7.23998 
-6.07441 
0.216915 
-1.3241 

4.67464e-310 
6.91406e-310 
0 
0 
-1.7009 
-3.9982 
1.20731 
7.97423 
4.42813 
4.61466 

4.67464e-310 
6.91406e-310 
0 
0 
5.02834 
-5.72995 
6.5974 
0.640615 
-4.57805 
3.51643 

4.67464e-310 
6.91406e-310 
0 
0 
7.81445 
8.23556 
4.6517 
-6.85149 
3.26543 
6.74288 

4.67464e-310 
6.91406e-310 
0 
0 
-7.32619 
1.56612 
-1.5804 
-3.82144 
0.33177 
4.5312 

4.67464e-310 
6.91406e-310 
0 
0 
5.23631 
-9.18133 
0.140695 
-3.70762 
1.43248 
-1.88109 

4.67464e-310 
6.91406e-310 
0 
0 
1.6693 
7.81007 
-0.185815 
7.84711 
2.58781 
5.30207 

4.67464e-310 
6.91406e-310 
0 
0 
-0.317784 
1.74637 
-2.84717 
1.00169 
7.03005 
7.0173 

4.67464e-310 
6.91406e-310 
0 
0 
5.92227 
-0.0872527 
-6.52336 
-8.71192 
5.31149 
4.06079 

4.67464e-310 
6.91406e-310 
0 
0 
7.76186 
6.41067 
-3.71717 
-7.55973 
5.88096 
7.75686 

4.67464e-310 
6.91406e-310 
0 
0 
-0.892512 
-0.213258 
0.595459 
4.86806 
-8.1805 
-1.17968 

4.67464e-310 
6.91406e-310 
0 
0 
-7.24247 
-0.376572 
8.3507 
-4.6424 
-0.301645 
-1.58645 

4.67464e-310 
6.91406e-310 
0 
0 
5.9961 
4.63055 
-6.00107 
5.27198 
5.21128 
1.67986 

4.67464e-310 
6.91406e-310 
0 
0 
2.14793 
-9.30691 
-3.55946 
-5.05057 
-1.22071 
7.97124 

4.67464e-310 
6.91406e-310 
0 
0 
5.78153 
3.63636 
-2.98735 
-1.8308 
0.486698 
-0.963631 

4.67464e-310 
6.91406e-310 
0 
0 
-1.37076 
-8.01839 
-8.81384 
-5.09229 
6.04502 
-1.07539 

4.67464e-310 
6.91406e-310 
0 
0 
1.42991 
-8.99157 
-1.51397 
0.199455 
5.09891 
-0.557102 

4.67464e-310 
6.91406e-310 
0 
0 
7.33694 
3.27256 
-2.87488 
7.0908 
-7.59623 
7.06164 

4.67464e-310 
6.91406e-310 
0 
0 
-5.71179 
-5.87011 
1.60205 
4.85857 
-9.30996 
-8.16901 

4.67464e-310 
6.91406e-310 
0 
0 
5.20778 
-0.847831 
-9.04914 
5.56804 
7.73946 
-1.96115 

4.67464e-310 
6.91406e-310 
0 
0 
-7.41913 
-9.60895 
5.87558 
-1.21675 
-0.254937 
1.19891 

4.67464e-310 
6.91406e-310 
0 
0 
1.78283 
-3.59718 
-3.87608 
4.71514 
-7.28249 
-3.7074 

4.67464e-310 
6.91406e-310 
0 
0 
-9.11151 
1.74357 
5.45822 
2.40581 
-9.52461 
-2.16166 

4.67464e-310 
6.91406e-310 
0 
0 
-9.05023 
-6.66996 
4.97326 
6.33876 
1.39665 
-4.22316 

4.67464e-310 
6.91406e-310 
0 
0 
2.45152 
1.04764 
-1.94689 
7.49408 
-2.80225 
-6.92168 

4.67464e-310 
6.91406e-310 
0 
0 
-5.45752 
3.78085 
5.84428 
1.42164 
-1.74998 
7.12711 

